booster[0]:
0:[f13<0.267917] yes=1,no=2,missing=1
	1:[f5<3.18858] yes=3,no=4,missing=3
		3:[f5<-0.228173] yes=7,no=8,missing=7
			7:[f5<-2.99898] yes=15,no=16,missing=15
				15:leaf=-0.101501
				16:leaf=-0.0721411
			8:[f11<-2.23674] yes=17,no=18,missing=17
				17:leaf=65.8798
				18:leaf=13.1625
		4:[f13<0.26448] yes=9,no=10,missing=9
			9:[f5<4.03382] yes=19,no=20,missing=19
				19:leaf=71.2499
				20:leaf=105.991
			10:[f4<0.538352] yes=21,no=22,missing=21
				21:leaf=12.4136
				22:leaf=54.5725
	2:[f13<0.274936] yes=5,no=6,missing=5
		5:[f5<5.31332] yes=11,no=12,missing=11
			11:[f9<-0.0955045] yes=23,no=24,missing=23
				23:leaf=17.5209
				24:leaf=1.73362
			12:[f11<-2.22802] yes=25,no=26,missing=25
				25:leaf=70.1612
				26:leaf=13.5097
		6:[f12<-2.22039] yes=13,no=14,missing=13
			13:[f6<3.82275] yes=27,no=28,missing=27
				27:leaf=0.310211
				28:leaf=8.67869
			14:[f11<-2.22305] yes=29,no=30,missing=29
				29:leaf=1.3749
				30:leaf=-0.0982348
booster[1]:
0:[f13<0.267917] yes=1,no=2,missing=1
	1:[f5<3.18858] yes=3,no=4,missing=3
		3:[f5<-0.228173] yes=7,no=8,missing=7
			7:[f5<-2.99898] yes=15,no=16,missing=15
				15:leaf=-0.100486
				16:leaf=-0.0714415
			8:[f11<-2.23674] yes=17,no=18,missing=17
				17:leaf=65.2332
				18:leaf=13.0319
		4:[f13<0.26448] yes=9,no=10,missing=9
			9:[f5<4.03382] yes=19,no=20,missing=19
				19:leaf=70.5404
				20:leaf=104.936
			10:[f4<0.538352] yes=21,no=22,missing=21
				21:leaf=12.2901
				22:leaf=54.0284
	2:[f13<0.274936] yes=5,no=6,missing=5
		5:[f5<5.31332] yes=11,no=12,missing=11
			11:[f9<-0.0955045] yes=23,no=24,missing=23
				23:leaf=17.3463
				24:leaf=1.71629
			12:[f11<-2.22802] yes=25,no=26,missing=25
				25:leaf=69.4749
				26:leaf=13.3778
		6:[f12<-2.22039] yes=13,no=14,missing=13
			13:[f6<3.82275] yes=27,no=28,missing=27
				27:leaf=0.307113
				28:leaf=8.59252
			14:[f11<-2.22305] yes=29,no=30,missing=29
				29:leaf=1.36117
				30:leaf=-0.0972525
booster[2]:
0:[f13<0.267917] yes=1,no=2,missing=1
	1:[f5<3.18858] yes=3,no=4,missing=3
		3:[f5<-0.228173] yes=7,no=8,missing=7
			7:[f5<-2.99898] yes=15,no=16,missing=15
				15:leaf=-0.0994822
				16:leaf=-0.0707487
			8:[f11<-2.23674] yes=17,no=18,missing=17
				17:leaf=64.593
				18:leaf=12.9025
		4:[f13<0.26448] yes=9,no=10,missing=9
			9:[f5<4.03382] yes=19,no=20,missing=19
				19:leaf=69.838
				20:leaf=103.892
			10:[f4<0.538352] yes=21,no=22,missing=21
				21:leaf=12.1678
				22:leaf=53.4898
	2:[f13<0.274936] yes=5,no=6,missing=5
		5:[f5<5.31332] yes=11,no=12,missing=11
			11:[f9<-0.0955045] yes=23,no=24,missing=23
				23:leaf=17.1735
				24:leaf=1.69913
			12:[f11<-2.22802] yes=25,no=26,missing=25
				25:leaf=68.7952
				26:leaf=13.2472
		6:[f12<-2.22039] yes=13,no=14,missing=13
			13:[f6<3.60103] yes=27,no=28,missing=27
				27:leaf=0.233102
				28:leaf=8.12586
			14:[f11<-2.22305] yes=29,no=30,missing=29
				29:leaf=1.34757
				30:leaf=-0.0962799
booster[3]:
0:[f13<0.267917] yes=1,no=2,missing=1
	1:[f5<3.18858] yes=3,no=4,missing=3
		3:[f5<-0.228173] yes=7,no=8,missing=7
			7:[f5<-2.99898] yes=15,no=16,missing=15
				15:leaf=-0.098488
				16:leaf=-0.0700627
			8:[f11<-2.23674] yes=17,no=18,missing=17
				17:leaf=63.959
				18:leaf=12.7744
		4:[f13<0.26448] yes=9,no=10,missing=9
			9:[f5<4.03382] yes=19,no=20,missing=19
				19:leaf=69.1426
				20:leaf=102.857
			10:[f3<0.053891] yes=21,no=22,missing=21
				21:leaf=26.6195
				22:leaf=74.4344
	2:[f13<0.274936] yes=5,no=6,missing=5
		5:[f5<5.31332] yes=11,no=12,missing=11
			11:[f9<-0.0955045] yes=23,no=24,missing=23
				23:leaf=17.0024
				24:leaf=1.68215
			12:[f11<-2.22802] yes=25,no=26,missing=25
				25:leaf=68.1222
				26:leaf=13.1179
		6:[f12<-2.22039] yes=13,no=14,missing=13
			13:[f6<3.82275] yes=27,no=28,missing=27
				27:leaf=0.300345
				28:leaf=8.42653
			14:[f11<-2.22305] yes=29,no=30,missing=29
				29:leaf=1.33411
				30:leaf=-0.0953171
booster[4]:
0:[f13<0.267917] yes=1,no=2,missing=1
	1:[f5<3.23854] yes=3,no=4,missing=3
		3:[f5<-0.228173] yes=7,no=8,missing=7
			7:[f5<-2.99898] yes=15,no=16,missing=15
				15:leaf=-0.0975037
				16:leaf=-0.0693833
			8:[f11<-2.23675] yes=17,no=18,missing=17
				17:leaf=62.5882
				18:leaf=11.5196
		4:[f13<0.26448] yes=9,no=10,missing=9
			9:[f5<4.46657] yes=19,no=20,missing=19
				19:leaf=75.7588
				20:leaf=104.611
			10:[f4<0.46694] yes=21,no=22,missing=21
				21:leaf=12.6866
				22:leaf=53.9971
	2:[f13<0.274936] yes=5,no=6,missing=5
		5:[f5<5.31332] yes=11,no=12,missing=11
			11:[f9<-0.0955045] yes=23,no=24,missing=23
				23:leaf=16.833
				24:leaf=1.66533
			12:[f11<-2.22802] yes=25,no=26,missing=25
				25:leaf=67.4558
				26:leaf=12.9898
		6:[f12<-2.22039] yes=13,no=14,missing=13
			13:[f6<3.60103] yes=27,no=28,missing=27
				27:leaf=0.227775
				28:leaf=7.9688
			14:[f11<-2.22305] yes=29,no=30,missing=29
				29:leaf=1.32079
				30:leaf=-0.094364
booster[5]:
0:[f13<0.267917] yes=1,no=2,missing=1
	1:[f5<3.40107] yes=3,no=4,missing=3
		3:[f5<-0.228173] yes=7,no=8,missing=7
			7:[f5<-2.99898] yes=15,no=16,missing=15
				15:leaf=-0.0965293
				16:leaf=-0.0687105
			8:[f11<-2.23675] yes=17,no=18,missing=17
				17:leaf=63.9818
				18:leaf=12.2614
		4:[f13<0.26448] yes=9,no=10,missing=9
			9:[f5<4.46657] yes=19,no=20,missing=19
				19:leaf=79.3836
				20:leaf=103.571
			10:[f3<0.0746841] yes=21,no=22,missing=21
				21:leaf=32.5706
				22:leaf=84.471
	2:[f13<0.274936] yes=5,no=6,missing=5
		5:[f5<5.31332] yes=11,no=12,missing=11
			11:[f9<-0.0955045] yes=23,no=24,missing=23
				23:leaf=16.6652
				24:leaf=1.64869
			12:[f11<-2.22802] yes=25,no=26,missing=25
				25:leaf=66.7959
				26:leaf=12.863
		6:[f12<-2.22039] yes=13,no=14,missing=13
			13:[f6<3.82275] yes=27,no=28,missing=27
				27:leaf=0.293724
				28:leaf=8.26375
			14:[f11<-2.22305] yes=29,no=30,missing=29
				29:leaf=1.30759
				30:leaf=-0.0934203
booster[6]:
0:[f13<0.267917] yes=1,no=2,missing=1
	1:[f5<3.23854] yes=3,no=4,missing=3
		3:[f5<-0.228173] yes=7,no=8,missing=7
			7:[f5<-2.99898] yes=15,no=16,missing=15
				15:leaf=-0.0955646
				16:leaf=-0.0680442
			8:[f11<-2.23675] yes=17,no=18,missing=17
				17:leaf=61.3363
				18:leaf=11.2831
		4:[f13<0.26448] yes=9,no=10,missing=9
			9:[f5<4.16247] yes=19,no=20,missing=19
				19:leaf=72.9381
				20:leaf=101.045
			10:[f4<0.46694] yes=21,no=22,missing=21
				21:leaf=12.2662
				22:leaf=53.0189
	2:[f13<0.274936] yes=5,no=6,missing=5
		5:[f5<5.31332] yes=11,no=12,missing=11
			11:[f9<-0.0955045] yes=23,no=24,missing=23
				23:leaf=16.4992
				24:leaf=1.63221
			12:[f11<-2.22802] yes=25,no=26,missing=25
				25:leaf=66.1425
				26:leaf=12.7374
		6:[f12<-2.21994] yes=13,no=14,missing=13
			13:[f6<3.85843] yes=27,no=28,missing=27
				27:leaf=0.27637
				28:leaf=7.83658
			14:[f11<-2.22305] yes=29,no=30,missing=29
				29:leaf=1.29453
				30:leaf=-0.0925363
booster[7]:
0:[f13<0.267917] yes=1,no=2,missing=1
	1:[f5<3.40107] yes=3,no=4,missing=3
		3:[f5<-0.228173] yes=7,no=8,missing=7
			7:[f5<-2.99898] yes=15,no=16,missing=15
				15:leaf=-0.0946095
				16:leaf=-0.0673844
			8:[f11<-2.23675] yes=17,no=18,missing=17
				17:leaf=62.708
				18:leaf=11.9568
		4:[f11<-2.23563] yes=9,no=10,missing=9
			9:[f5<4.46657] yes=19,no=20,missing=19
				19:leaf=78.6029
				20:leaf=102.111
			10:[f3<0.0746841] yes=21,no=22,missing=21
				21:leaf=32.6874
				22:leaf=83.3755
	2:[f13<0.274936] yes=5,no=6,missing=5
		5:[f5<5.31332] yes=11,no=12,missing=11
			11:[f9<-0.0955045] yes=23,no=24,missing=23
				23:leaf=16.3348
				24:leaf=1.61589
			12:[f11<-2.22802] yes=25,no=26,missing=25
				25:leaf=65.4954
				26:leaf=12.6131
		6:[f12<-2.22039] yes=13,no=14,missing=13
			13:[f6<3.60103] yes=27,no=28,missing=27
				27:leaf=0.219806
				28:leaf=7.74428
			14:[f11<-2.22305] yes=29,no=30,missing=29
				29:leaf=1.2816
				30:leaf=-0.091562
booster[8]:
0:[f13<0.267917] yes=1,no=2,missing=1
	1:[f5<3.40107] yes=3,no=4,missing=3
		3:[f5<-0.228173] yes=7,no=8,missing=7
			7:[f1<-0.199845] yes=15,no=16,missing=15
				15:leaf=-0.00446658
				16:leaf=-0.0932857
			8:[f11<-2.23675] yes=17,no=18,missing=17
				17:leaf=62.0859
				18:leaf=11.8377
		4:[f11<-2.23563] yes=9,no=10,missing=9
			9:[f5<4.46657] yes=19,no=20,missing=19
				19:leaf=77.8215
				20:leaf=101.096
			10:[f3<0.0746841] yes=21,no=22,missing=21
				21:leaf=32.3615
				22:leaf=82.5519
	2:[f13<0.274936] yes=5,no=6,missing=5
		5:[f5<5.31332] yes=11,no=12,missing=11
			11:[f9<-0.0955045] yes=23,no=24,missing=23
				23:leaf=16.172
				24:leaf=1.59974
			12:[f11<-2.22802] yes=25,no=26,missing=25
				25:leaf=64.8547
				26:leaf=12.49
		6:[f12<-2.22039] yes=13,no=14,missing=13
			13:[f6<3.60103] yes=27,no=28,missing=27
				27:leaf=0.217611
				28:leaf=7.66734
			14:[f13<0.276228] yes=29,no=30,missing=29
				29:leaf=1.62358
				30:leaf=-0.0903631
booster[9]:
0:[f13<0.267917] yes=1,no=2,missing=1
	1:[f5<3.40107] yes=3,no=4,missing=3
		3:[f5<-0.228173] yes=7,no=8,missing=7
			7:[f5<-2.99898] yes=15,no=16,missing=15
				15:leaf=-0.0927318
				16:leaf=-0.0658802
			8:[f11<-2.23675] yes=17,no=18,missing=17
				17:leaf=61.47
				18:leaf=11.7198
		4:[f13<0.26448] yes=9,no=10,missing=9
			9:[f5<4.46657] yes=19,no=20,missing=19
				19:leaf=76.3182
				20:leaf=99.5409
			10:[f3<0.0631633] yes=21,no=22,missing=21
				21:leaf=30.6082
				22:leaf=78.8945
	2:[f13<0.274936] yes=5,no=6,missing=5
		5:[f5<5.31332] yes=11,no=12,missing=11
			11:[f9<-0.0955045] yes=23,no=24,missing=23
				23:leaf=16.0109
				24:leaf=1.58375
			12:[f9<-0.0610031] yes=25,no=26,missing=25
				25:leaf=58.2564
				26:leaf=3.15727
		6:[f12<-2.21994] yes=13,no=14,missing=13
			13:[f6<3.1139] yes=27,no=28,missing=27
				27:leaf=0.0847583
				28:leaf=6.74837
			14:[f11<-2.22305] yes=29,no=30,missing=29
				29:leaf=1.2589
				30:leaf=-0.0897917
booster[10]:
0:[f13<0.267917] yes=1,no=2,missing=1
	1:[f5<3.40107] yes=3,no=4,missing=3
		3:[f5<-0.228173] yes=7,no=8,missing=7
			7:[f1<-0.199845] yes=15,no=16,missing=15
				15:leaf=-0.0039976
				16:leaf=-0.0914316
			8:[f11<-2.23675] yes=17,no=18,missing=17
				17:leaf=60.8603
				18:leaf=11.603
		4:[f11<-2.23563] yes=9,no=10,missing=9
			9:[f5<4.46657] yes=19,no=20,missing=19
				19:leaf=76.2893
				20:leaf=99.1009
			10:[f3<0.0746841] yes=21,no=22,missing=21
				21:leaf=31.7075
				22:leaf=80.9547
	2:[f13<0.274936] yes=5,no=6,missing=5
		5:[f5<5.31332] yes=11,no=12,missing=11
			11:[f9<-0.0955045] yes=23,no=24,missing=23
				23:leaf=15.8513
				24:leaf=1.56792
			12:[f11<-2.22802] yes=25,no=26,missing=25
				25:leaf=63.8061
				26:leaf=12.0093
		6:[f12<-2.22059] yes=13,no=14,missing=13
			13:[f6<3.82275] yes=27,no=28,missing=27
				27:leaf=0.289839
				28:leaf=7.89867
			14:[f13<0.276228] yes=29,no=30,missing=29
				29:leaf=1.5948
				30:leaf=-0.0885442
booster[11]:
0:[f13<0.267917] yes=1,no=2,missing=1
	1:[f5<3.40107] yes=3,no=4,missing=3
		3:[f5<-0.228173] yes=7,no=8,missing=7
			7:[f5<-2.99898] yes=15,no=16,missing=15
				15:leaf=-0.0908913
				16:leaf=-0.0644078
			8:[f11<-2.23675] yes=17,no=18,missing=17
				17:leaf=60.2565
				18:leaf=11.4875
		4:[f13<0.26448] yes=9,no=10,missing=9
			9:[f5<4.46657] yes=19,no=20,missing=19
				19:leaf=74.8187
				20:leaf=97.578
			10:[f3<0.0631633] yes=21,no=22,missing=21
				21:leaf=29.9868
				22:leaf=77.363
	2:[f13<0.274936] yes=5,no=6,missing=5
		5:[f5<5.31332] yes=11,no=12,missing=11
			11:[f9<-0.0955045] yes=23,no=24,missing=23
				23:leaf=15.6934
				24:leaf=1.55224
			12:[f9<-0.0610031] yes=25,no=26,missing=25
				25:leaf=57.2801
				26:leaf=2.78621
		6:[f12<-2.21994] yes=13,no=14,missing=13
			13:[f6<3.1139] yes=27,no=28,missing=27
				27:leaf=0.0813397
				28:leaf=6.62535
			14:[f11<-2.22305] yes=29,no=30,missing=29
				29:leaf=1.23661
				30:leaf=-0.0880083
booster[12]:
0:[f13<0.267868] yes=1,no=2,missing=1
	1:[f5<3.40107] yes=3,no=4,missing=3
		3:[f5<-0.228173] yes=7,no=8,missing=7
			7:[f5<-2.99898] yes=15,no=16,missing=15
				15:leaf=-0.0899916
				16:leaf=-0.0637832
			8:[f11<-2.23675] yes=17,no=18,missing=17
				17:leaf=59.6588
				18:leaf=11.0383
		4:[f11<-2.23563] yes=9,no=10,missing=9
			9:[f5<4.46657] yes=19,no=20,missing=19
				19:leaf=74.7872
				20:leaf=97.1454
			10:[f3<0.0746841] yes=21,no=22,missing=21
				21:leaf=31.6363
				22:leaf=79.3929
	2:[f13<0.274936] yes=5,no=6,missing=5
		5:[f5<5.31332] yes=11,no=12,missing=11
			11:[f9<-0.0955045] yes=23,no=24,missing=23
				23:leaf=15.4817
				24:leaf=1.60161
			12:[f11<-2.22802] yes=25,no=26,missing=25
				25:leaf=62.7755
				26:leaf=11.5405
		6:[f12<-2.22039] yes=13,no=14,missing=13
			13:[f6<3.82275] yes=27,no=28,missing=27
				27:leaf=0.270058
				28:leaf=7.74193
			14:[f13<0.276228] yes=29,no=30,missing=29
				29:leaf=1.56654
				30:leaf=-0.0868084
booster[13]:
0:[f13<0.267917] yes=1,no=2,missing=1
	1:[f5<3.23854] yes=3,no=4,missing=3
		3:[f5<-0.228173] yes=7,no=8,missing=7
			7:[f1<-0.199845] yes=15,no=16,missing=15
				15:leaf=-0.00311635
				16:leaf=-0.0888764
			8:[f11<-2.23675] yes=17,no=18,missing=17
				17:leaf=57.0991
				18:leaf=10.4797
		4:[f13<0.26448] yes=9,no=10,missing=9
			9:[f5<4.16247] yes=19,no=20,missing=19
				19:leaf=68.0953
				20:leaf=94.3063
			10:[f4<0.46694] yes=21,no=22,missing=21
				21:leaf=10.4462
				22:leaf=49.9353
	2:[f13<0.274936] yes=5,no=6,missing=5
		5:[f5<5.31332] yes=11,no=12,missing=11
			11:[f9<-0.0955045] yes=23,no=24,missing=23
				23:leaf=15.3827
				24:leaf=1.52072
			12:[f9<-0.0610031] yes=25,no=26,missing=25
				25:leaf=56.3211
				26:leaf=2.4257
		6:[f12<-2.22059] yes=13,no=14,missing=13
			13:[f6<3.04293] yes=27,no=28,missing=27
				27:leaf=0.0629903
				28:leaf=6.65286
			14:[f11<-2.22305] yes=29,no=30,missing=29
				29:leaf=1.21471
				30:leaf=-0.0861906
booster[14]:
0:[f13<0.267917] yes=1,no=2,missing=1
	1:[f5<3.40107] yes=3,no=4,missing=3
		3:[f5<-0.228173] yes=7,no=8,missing=7
			7:[f5<-2.99898] yes=15,no=16,missing=15
				15:leaf=-0.0883549
				16:leaf=-0.0623548
			8:[f11<-2.23675] yes=17,no=18,missing=17
				17:leaf=58.4715
				18:leaf=11.0954
		4:[f13<0.26448] yes=9,no=10,missing=9
			9:[f5<4.46657] yes=19,no=20,missing=19
				19:leaf=72.6414
				20:leaf=94.716
			10:[f3<-0.104828] yes=21,no=22,missing=21
				21:leaf=77.2762
				22:leaf=29.3738
	2:[f13<0.274936] yes=5,no=6,missing=5
		5:[f5<5.31332] yes=11,no=12,missing=11
			11:[f9<-0.0955045] yes=23,no=24,missing=23
				23:leaf=15.2294
				24:leaf=1.50552
			12:[f11<-2.22802] yes=25,no=26,missing=25
				25:leaf=61.7628
				26:leaf=11.0833
		6:[f12<-2.21994] yes=13,no=14,missing=13
			13:[f6<4.19005] yes=27,no=28,missing=27
				27:leaf=0.327781
				28:leaf=7.7783
			14:[f13<0.276228] yes=29,no=30,missing=29
				29:leaf=1.53877
				30:leaf=-0.0851299
booster[15]:
0:[f13<0.267868] yes=1,no=2,missing=1
	1:[f5<3.40107] yes=3,no=4,missing=3
		3:[f5<-0.228173] yes=7,no=8,missing=7
			7:[f1<-0.199845] yes=15,no=16,missing=15
				15:leaf=-0.00267987
				16:leaf=-0.0869603
			8:[f11<-2.23675] yes=17,no=18,missing=17
				17:leaf=57.8915
				18:leaf=10.6492
		4:[f11<-2.23563] yes=9,no=10,missing=9
			9:[f5<4.46657] yes=19,no=20,missing=19
				19:leaf=72.6167
				20:leaf=94.3001
			10:[f3<0.0746841] yes=21,no=22,missing=21
				21:leaf=30.5513
				22:leaf=77.8168
	2:[f13<0.274936] yes=5,no=6,missing=5
		5:[f5<5.31332] yes=11,no=12,missing=11
			11:[f9<-0.0955045] yes=23,no=24,missing=23
				23:leaf=15.0234
				24:leaf=1.55343
			12:[f9<-0.0610031] yes=25,no=26,missing=25
				25:leaf=55.379
				26:leaf=2.0755
		6:[f12<-2.22039] yes=13,no=14,missing=13
			13:[f6<3.04293] yes=27,no=28,missing=27
				27:leaf=0.05279
				28:leaf=6.54333
			14:[f11<-2.22305] yes=29,no=30,missing=29
				29:leaf=1.19319
				30:leaf=-0.0845015
booster[16]:
0:[f13<0.267917] yes=1,no=2,missing=1
	1:[f5<3.40107] yes=3,no=4,missing=3
		3:[f5<-0.228173] yes=7,no=8,missing=7
			7:[f5<-2.99898] yes=15,no=16,missing=15
				15:leaf=-0.0867576
				16:leaf=-0.060958
			8:[f11<-2.23675] yes=17,no=18,missing=17
				17:leaf=57.3172
				18:leaf=10.8802
		4:[f13<0.26448] yes=9,no=10,missing=9
			9:[f5<4.46657] yes=19,no=20,missing=19
				19:leaf=71.214
				20:leaf=92.8481
			10:[f3<-0.104828] yes=21,no=22,missing=21
				21:leaf=76.2108
				22:leaf=28.6776
	2:[f13<0.274936] yes=5,no=6,missing=5
		5:[f5<5.31332] yes=11,no=12,missing=11
			11:[f9<-0.0955045] yes=23,no=24,missing=23
				23:leaf=14.928
				24:leaf=1.47494
			12:[f11<-2.22802] yes=25,no=26,missing=25
				25:leaf=60.7675
				26:leaf=10.6376
		6:[f12<-2.21994] yes=13,no=14,missing=13
			13:[f6<4.19005] yes=27,no=28,missing=27
				27:leaf=0.319211
				28:leaf=7.64119
			14:[f13<0.276228] yes=29,no=30,missing=29
				29:leaf=1.5115
				30:leaf=-0.0834384
booster[17]:
0:[f13<0.267917] yes=1,no=2,missing=1
	1:[f5<3.24756] yes=3,no=4,missing=3
		3:[f5<-0.228173] yes=7,no=8,missing=7
			7:[f5<-2.99898] yes=15,no=16,missing=15
				15:leaf=-0.0858906
				16:leaf=-0.0603669
			8:[f11<-2.23675] yes=17,no=18,missing=17
				17:leaf=55.2402
				18:leaf=9.59319
		4:[f13<0.26448] yes=9,no=10,missing=9
			9:[f5<4.46657] yes=19,no=20,missing=19
				19:leaf=67.8838
				20:leaf=91.9249
			10:[f4<0.46694] yes=21,no=22,missing=21
				21:leaf=9.68013
				22:leaf=48.4035
	2:[f13<0.274936] yes=5,no=6,missing=5
		5:[f5<5.33458] yes=11,no=12,missing=11
			11:[f9<-0.0955045] yes=23,no=24,missing=23
				23:leaf=14.7792
				24:leaf=1.49069
			12:[f4<2.94269] yes=25,no=26,missing=25
				25:leaf=-0.876865
				26:leaf=55.3365
		6:[f12<-2.22059] yes=13,no=14,missing=13
			13:[f6<3.04293] yes=27,no=28,missing=27
				27:leaf=0.055373
				28:leaf=6.42044
			14:[f11<-2.22305] yes=29,no=30,missing=29
				29:leaf=1.17206
				30:leaf=-0.0828012
booster[18]:
0:[f13<0.267868] yes=1,no=2,missing=1
	1:[f5<3.40107] yes=3,no=4,missing=3
		3:[f5<-0.228173] yes=7,no=8,missing=7
			7:[f1<-0.199845] yes=15,no=16,missing=15
				15:leaf=-0.00185317
				16:leaf=-0.0843752
			8:[f11<-2.23675] yes=17,no=18,missing=17
				17:leaf=56.1733
				18:leaf=10.2836
		4:[f11<-2.23563] yes=9,no=10,missing=9
			9:[f5<4.46657] yes=19,no=20,missing=19
				19:leaf=70.5122
				20:leaf=91.5254
			10:[f3<0.0746841] yes=21,no=22,missing=21
				21:leaf=29.4987
				22:leaf=76.2785
	2:[f13<0.274936] yes=5,no=6,missing=5
		5:[f5<5.31332] yes=11,no=12,missing=11
			11:[f9<-0.0955045] yes=23,no=24,missing=23
				23:leaf=14.5788
				24:leaf=1.50639
			12:[f11<-2.22802] yes=25,no=26,missing=25
				25:leaf=59.8139
				26:leaf=10.1932
		6:[f12<-2.22039] yes=13,no=14,missing=13
			13:[f6<3.82275] yes=27,no=28,missing=27
				27:leaf=0.247926
				28:leaf=7.33904
			14:[f13<0.276228] yes=29,no=30,missing=29
				29:leaf=1.48471
				30:leaf=-0.0817363
booster[19]:
0:[f13<0.267917] yes=1,no=2,missing=1
	1:[f5<3.40107] yes=3,no=4,missing=3
		3:[f5<-0.228173] yes=7,no=8,missing=7
			7:[f13<0.267868] yes=15,no=16,missing=15
				15:leaf=-0.0834333
				16:leaf=-0.165241
			8:[f11<-2.23675] yes=17,no=18,missing=17
				17:leaf=55.6161
				18:leaf=10.5191
		4:[f13<0.26448] yes=9,no=10,missing=9
			9:[f5<4.46657] yes=19,no=20,missing=19
				19:leaf=69.1463
				20:leaf=90.112
			10:[f3<-0.104828] yes=21,no=22,missing=21
				21:leaf=74.6972
				22:leaf=27.6728
	2:[f13<0.274936] yes=5,no=6,missing=5
		5:[f5<5.33458] yes=11,no=12,missing=11
			11:[f9<-0.0955045] yes=23,no=24,missing=23
				23:leaf=14.4867
				24:leaf=1.46018
			12:[f4<2.94269] yes=25,no=26,missing=25
				25:leaf=-1.20549
				26:leaf=54.4315
		6:[f12<-2.21994] yes=13,no=14,missing=13
			13:[f6<4.19005] yes=27,no=28,missing=27
				27:leaf=0.307075
				28:leaf=7.44083
			14:[f11<-2.22269] yes=29,no=30,missing=29
				29:leaf=1.0682
				30:leaf=-0.0813157
booster[20]:
0:[f13<0.267917] yes=1,no=2,missing=1
	1:[f5<3.40107] yes=3,no=4,missing=3
		3:[f5<-0.228173] yes=7,no=8,missing=7
			7:[f13<0.267868] yes=15,no=16,missing=15
				15:leaf=-0.0825994
				16:leaf=-0.163795
			8:[f11<-2.23675] yes=17,no=18,missing=17
				17:leaf=55.0644
				18:leaf=10.4143
		4:[f11<-2.23563] yes=9,no=10,missing=9
			9:[f5<4.46657] yes=19,no=20,missing=19
				19:leaf=69.1239
				20:leaf=89.7195
			10:[f3<0.0746841] yes=21,no=22,missing=21
				21:leaf=28.2627
				22:leaf=75.2671
	2:[f13<0.274936] yes=5,no=6,missing=5
		5:[f5<5.31332] yes=11,no=12,missing=11
			11:[f9<-0.0955045] yes=23,no=24,missing=23
				23:leaf=14.3424
				24:leaf=1.41564
			12:[f11<-2.22802] yes=25,no=26,missing=25
				25:leaf=58.8766
				26:leaf=9.75976
		6:[f12<-2.22059] yes=13,no=14,missing=13
			13:[f6<3.04293] yes=27,no=28,missing=27
				27:leaf=0.0492776
				28:leaf=6.25291
			14:[f13<0.276228] yes=29,no=30,missing=29
				29:leaf=1.45923
				30:leaf=-0.0800917
booster[21]:
0:[f13<0.267868] yes=1,no=2,missing=1
	1:[f5<3.40107] yes=3,no=4,missing=3
		3:[f5<-0.228173] yes=7,no=8,missing=7
			7:[f5<-2.99898] yes=15,no=16,missing=15
				15:leaf=-0.0822241
				16:leaf=-0.0574033
			8:[f11<-2.23675] yes=17,no=18,missing=17
				17:leaf=54.5181
				18:leaf=9.97274
		4:[f11<-2.23563] yes=9,no=10,missing=9
			9:[f5<4.46657] yes=19,no=20,missing=19
				19:leaf=68.4368
				20:leaf=88.8275
			10:[f3<-0.104828] yes=21,no=22,missing=21
				21:leaf=73.6862
				22:leaf=28.2091
	2:[f13<0.274936] yes=5,no=6,missing=5
		5:[f9<-0.0582833] yes=11,no=12,missing=11
			11:[f5<2.24395] yes=23,no=24,missing=23
				23:leaf=-2.40842
				24:leaf=36.8595
			12:[f9<0.0693159] yes=25,no=26,missing=25
				25:leaf=0.00691759
				26:leaf=14.2854
		6:[f12<-2.21994] yes=13,no=14,missing=13
			13:[f6<4.59059] yes=27,no=28,missing=27
				27:leaf=0.389731
				28:leaf=7.97699
			14:[f11<-2.22269] yes=29,no=30,missing=29
				29:leaf=1.04991
				30:leaf=-0.0797016
booster[22]:
0:[f13<0.267868] yes=1,no=2,missing=1
	1:[f5<3.40107] yes=3,no=4,missing=3
		3:[f5<-0.228173] yes=7,no=8,missing=7
			7:[f1<-0.199845] yes=15,no=16,missing=15
				15:leaf=-0.000351245
				16:leaf=-0.0810554
			8:[f11<-2.23675] yes=17,no=18,missing=17
				17:leaf=53.9773
				18:leaf=9.87342
		4:[f11<-2.23582] yes=9,no=10,missing=9
			9:[f5<4.46657] yes=19,no=20,missing=19
				19:leaf=68.8875
				20:leaf=89.5488
			10:[f3<0.0746841] yes=21,no=22,missing=21
				21:leaf=30.1335
				22:leaf=74.3411
	2:[f13<0.274936] yes=5,no=6,missing=5
		5:[f5<5.33458] yes=11,no=12,missing=11
			11:[f9<-0.115154] yes=23,no=24,missing=23
				23:leaf=14.9996
				24:leaf=1.57108
			12:[f4<2.94269] yes=25,no=26,missing=25
				25:leaf=-1.5698
				26:leaf=53.1881
		6:[f12<-2.22059] yes=13,no=14,missing=13
			13:[f6<3.04293] yes=27,no=28,missing=27
				27:leaf=0.0448935
				28:leaf=6.14725
			14:[f13<0.276228] yes=29,no=30,missing=29
				29:leaf=1.43418
				30:leaf=-0.0785013
booster[23]:
0:[f13<0.267917] yes=1,no=2,missing=1
	1:[f5<3.24756] yes=3,no=4,missing=3
		3:[f5<-0.228173] yes=7,no=8,missing=7
			7:[f13<0.267868] yes=15,no=16,missing=15
				15:leaf=-0.080148
				16:leaf=-0.189936
			8:[f11<-2.23675] yes=17,no=18,missing=17
				17:leaf=51.968
				18:leaf=8.99135
		4:[f13<0.26448] yes=9,no=10,missing=9
			9:[f5<4.16247] yes=19,no=20,missing=19
				19:leaf=62.9147
				20:leaf=85.4644
			10:[f4<0.46694] yes=21,no=22,missing=21
				21:leaf=8.29469
				22:leaf=45.978
	2:[f13<0.274936] yes=5,no=6,missing=5
		5:[f5<5.33458] yes=11,no=12,missing=11
			11:[f9<-0.115154] yes=23,no=24,missing=23
				23:leaf=14.9142
				24:leaf=1.49836
			12:[f4<2.94269] yes=25,no=26,missing=25
				25:leaf=-1.55468
				26:leaf=52.6656
		6:[f12<-2.22059] yes=13,no=14,missing=13
			13:[f6<3.82275] yes=27,no=28,missing=27
				27:leaf=0.2424
				28:leaf=7.03176
			14:[f11<-2.22269] yes=29,no=30,missing=29
				29:leaf=1.03194
				30:leaf=-0.0780565
booster[24]:
0:[f13<0.267917] yes=1,no=2,missing=1
	1:[f5<3.40107] yes=3,no=4,missing=3
		3:[f5<-0.228173] yes=7,no=8,missing=7
			7:[f13<0.267868] yes=15,no=16,missing=15
				15:leaf=-0.079347
				16:leaf=-0.188274
			8:[f11<-2.23675] yes=17,no=18,missing=17
				17:leaf=52.9027
				18:leaf=9.97214
		4:[f13<0.26448] yes=9,no=10,missing=9
			9:[f5<4.46657] yes=19,no=20,missing=19
				19:leaf=65.8444
				20:leaf=85.7601
			10:[f3<-0.104828] yes=21,no=22,missing=21
				21:leaf=72.2087
				22:leaf=26.0338
	2:[f13<0.274936] yes=5,no=6,missing=5
		5:[f5<5.31332] yes=11,no=12,missing=11
			11:[f9<-0.0955045] yes=23,no=24,missing=23
				23:leaf=13.8145
				24:leaf=1.35114
			12:[f11<-2.22802] yes=25,no=26,missing=25
				25:leaf=57.3489
				26:leaf=8.77561
		6:[f12<-2.21994] yes=13,no=14,missing=13
			13:[f6<4.59059] yes=27,no=28,missing=27
				27:leaf=0.374345
				28:leaf=7.78312
			14:[f13<0.276228] yes=29,no=30,missing=29
				29:leaf=1.40956
				30:leaf=-0.0770047
booster[25]:
0:[f13<0.267868] yes=1,no=2,missing=1
	1:[f5<3.40107] yes=3,no=4,missing=3
		3:[f5<-0.228173] yes=7,no=8,missing=7
			7:[f5<-2.99898] yes=15,no=16,missing=15
				15:leaf=-0.0789983
				16:leaf=-0.054563
			8:[f11<-2.23675] yes=17,no=18,missing=17
				17:leaf=52.3779
				18:leaf=9.53476
		4:[f11<-2.23582] yes=9,no=10,missing=9
			9:[f5<4.46657] yes=19,no=20,missing=19
				19:leaf=66.897
				20:leaf=86.9568
			10:[f3<0.0746841] yes=21,no=22,missing=21
				21:leaf=29.0868
				22:leaf=72.8758
	2:[f13<0.274936] yes=5,no=6,missing=5
		5:[f9<-0.0562187] yes=11,no=12,missing=11
			11:[f5<2.24395] yes=23,no=24,missing=23
				23:leaf=-2.64971
				24:leaf=35.5942
			12:[f9<0.0693159] yes=25,no=26,missing=25
				25:leaf=-0.0693226
				26:leaf=14.0772
		6:[f12<-2.22059] yes=13,no=14,missing=13
			13:[f6<3.04293] yes=27,no=28,missing=27
				27:leaf=0.0382862
				28:leaf=5.99114
			14:[f11<-2.22269] yes=29,no=30,missing=29
				29:leaf=1.01427
				30:leaf=-0.0765074
booster[26]:
0:[f13<0.267917] yes=1,no=2,missing=1
	1:[f5<3.24756] yes=3,no=4,missing=3
		3:[f5<-0.228173] yes=7,no=8,missing=7
			7:[f13<0.267868] yes=15,no=16,missing=15
				15:leaf=-0.0777693
				16:leaf=-0.182795
			8:[f11<-2.23675] yes=17,no=18,missing=17
				17:leaf=50.4116
				18:leaf=8.70676
		4:[f13<0.26448] yes=9,no=10,missing=9
			9:[f5<4.16247] yes=19,no=20,missing=19
				19:leaf=61.1152
				20:leaf=82.9705
			10:[f3<-0.104828] yes=21,no=22,missing=21
				21:leaf=70.3333
				22:leaf=23.5232
	2:[f13<0.274936] yes=5,no=6,missing=5
		5:[f5<5.33458] yes=11,no=12,missing=11
			11:[f9<-0.115154] yes=23,no=24,missing=23
				23:leaf=14.5107
				24:leaf=1.44651
			12:[f4<2.94269] yes=25,no=26,missing=25
				25:leaf=-1.90207
				26:leaf=51.4642
		6:[f12<-2.22039] yes=13,no=14,missing=13
			13:[f6<3.04293] yes=27,no=28,missing=27
				27:leaf=0.0318774
				28:leaf=5.94181
			14:[f13<0.276228] yes=29,no=30,missing=29
				29:leaf=1.38537
				30:leaf=-0.0754343
booster[27]:
0:[f13<0.267868] yes=1,no=2,missing=1
	1:[f5<3.40107] yes=3,no=4,missing=3
		3:[f5<-0.228173] yes=7,no=8,missing=7
			7:[f5<-2.99898] yes=15,no=16,missing=15
				15:leaf=-0.0774316
				16:leaf=-0.0532798
			8:[f11<-2.23675] yes=17,no=18,missing=17
				17:leaf=51.3351
				18:leaf=9.30197
		4:[f11<-2.23582] yes=9,no=10,missing=9
			9:[f5<4.46657] yes=19,no=20,missing=19
				19:leaf=65.5989
				20:leaf=85.2678
			10:[f3<0.0746841] yes=21,no=22,missing=21
				21:leaf=28.4208
				22:leaf=71.909
	2:[f13<0.274936] yes=5,no=6,missing=5
		5:[f9<-0.0562187] yes=11,no=12,missing=11
			11:[f5<2.24395] yes=23,no=24,missing=23
				23:leaf=-2.71482
				24:leaf=35.0557
			12:[f9<0.0693159] yes=25,no=26,missing=25
				25:leaf=-0.0833998
				26:leaf=13.9183
		6:[f12<-2.21994] yes=13,no=14,missing=13
			13:[f6<4.70879] yes=27,no=28,missing=27
				27:leaf=0.390794
				28:leaf=7.88311
			14:[f11<-2.22269] yes=29,no=30,missing=29
				29:leaf=0.9969
				30:leaf=-0.0750496
booster[28]:
0:[f13<0.267917] yes=1,no=2,missing=1
	1:[f5<3.40107] yes=3,no=4,missing=3
		3:[f5<-0.228173] yes=7,no=8,missing=7
			7:[f13<0.267868] yes=15,no=16,missing=15
				15:leaf=-0.0762229
				16:leaf=-0.177176
			8:[f11<-2.23675] yes=17,no=18,missing=17
				17:leaf=50.8259
				18:leaf=9.54383
		4:[f13<0.26448] yes=9,no=10,missing=9
			9:[f5<4.46657] yes=19,no=20,missing=19
				19:leaf=63.3554
				20:leaf=82.4372
			10:[f3<0.0631633] yes=21,no=22,missing=21
				21:leaf=24.3978
				22:leaf=68.7079
	2:[f13<0.274936] yes=5,no=6,missing=5
		5:[f5<5.33458] yes=11,no=12,missing=11
			11:[f9<-0.115154] yes=23,no=24,missing=23
				23:leaf=14.2512
				24:leaf=1.41163
			12:[f4<2.94269] yes=25,no=26,missing=25
				25:leaf=-1.92708
				26:leaf=50.6216
		6:[f12<-2.22039] yes=13,no=14,missing=13
			13:[f6<3.04293] yes=27,no=28,missing=27
				27:leaf=0.0276562
				28:leaf=5.84197
			14:[f14<0.279274] yes=29,no=30,missing=29
				29:leaf=0.678797
				30:leaf=-0.0747812
booster[29]:
0:[f11<-2.23337] yes=1,no=2,missing=1
	1:[f5<3.04268] yes=3,no=4,missing=3
		3:[f5<-0.228173] yes=7,no=8,missing=7
			7:[f1<-0.199845] yes=15,no=16,missing=15
				15:leaf=0.00245996
				16:leaf=-0.0756262
			8:[f11<-2.23698] yes=17,no=18,missing=17
				17:leaf=42.6324
				18:leaf=9.24064
		4:[f11<-2.23586] yes=9,no=10,missing=9
			9:[f5<3.56248] yes=19,no=20,missing=19
				19:leaf=46.2503
				20:leaf=75.7488
			10:[f3<-0.0571039] yes=21,no=22,missing=21
				21:leaf=70.1905
				22:leaf=22.8186
	2:[f11<-2.23026] yes=5,no=6,missing=5
		5:[f5<5.11922] yes=11,no=12,missing=11
			11:[f3<-0.353579] yes=23,no=24,missing=23
				23:leaf=42.5311
				24:leaf=1.89721
			12:[f3<0.0700228] yes=25,no=26,missing=25
				25:leaf=-5.45369
				26:leaf=81.8688
		6:[f13<0.275791] yes=13,no=14,missing=13
			13:[f9<-0.107685] yes=27,no=28,missing=27
				27:leaf=16.5759
				28:leaf=0.500355
			14:[f12<-2.21967] yes=29,no=30,missing=29
				29:leaf=1.10635
				30:leaf=-0.0730361
booster[30]:
0:[f13<0.267917] yes=1,no=2,missing=1
	1:[f5<3.40107] yes=3,no=4,missing=3
		3:[f5<-0.228173] yes=7,no=8,missing=7
			7:[f9<-0.149553] yes=15,no=16,missing=15
				15:leaf=-0.199443
				16:leaf=-0.077649
			8:[f11<-2.23675] yes=17,no=18,missing=17
				17:leaf=49.8643
				18:leaf=9.24864
		4:[f13<0.26448] yes=9,no=10,missing=9
			9:[f5<4.46657] yes=19,no=20,missing=19
				19:leaf=62.0538
				20:leaf=80.8999
			10:[f3<-0.104828] yes=21,no=22,missing=21
				21:leaf=69.4184
				22:leaf=24.2243
	2:[f13<0.274936] yes=5,no=6,missing=5
		5:[f5<5.33458] yes=11,no=12,missing=11
			11:[f9<-0.0955045] yes=23,no=24,missing=23
				23:leaf=13.0371
				24:leaf=1.28461
			12:[f4<2.94269] yes=25,no=26,missing=25
				25:leaf=-1.97075
				26:leaf=49.8375
		6:[f12<-2.22059] yes=13,no=14,missing=13
			13:[f6<4.59059] yes=27,no=28,missing=27
				27:leaf=0.380558
				28:leaf=7.88348
			14:[f14<0.279274] yes=29,no=30,missing=29
				29:leaf=0.672743
				30:leaf=-0.0732957
booster[31]:
0:[f11<-2.23337] yes=1,no=2,missing=1
	1:[f5<3.04268] yes=3,no=4,missing=3
		3:[f5<-0.228173] yes=7,no=8,missing=7
			7:[f1<-0.199845] yes=15,no=16,missing=15
				15:leaf=0.00296122
				16:leaf=-0.0740894
			8:[f11<-2.23698] yes=17,no=18,missing=17
				17:leaf=41.8616
				18:leaf=9.06378
		4:[f11<-2.23586] yes=9,no=10,missing=9
			9:[f5<3.56248] yes=19,no=20,missing=19
				19:leaf=45.3745
				20:leaf=74.2708
			10:[f3<-0.0571039] yes=21,no=22,missing=21
				21:leaf=68.863
				22:leaf=22.3598
	2:[f11<-2.23026] yes=5,no=6,missing=5
		5:[f5<5.11922] yes=11,no=12,missing=11
			11:[f3<-0.353579] yes=23,no=24,missing=23
				23:leaf=41.8782
				24:leaf=1.83267
			12:[f3<0.0700228] yes=25,no=26,missing=25
				25:leaf=-5.50077
				26:leaf=80.7989
		6:[f13<0.275791] yes=13,no=14,missing=13
			13:[f9<-0.107685] yes=27,no=28,missing=27
				27:leaf=16.2717
				28:leaf=0.480186
			14:[f12<-2.21967] yes=29,no=30,missing=29
				29:leaf=1.0851
				30:leaf=-0.0715903
booster[32]:
0:[f11<-2.23337] yes=1,no=2,missing=1
	1:[f5<3.04268] yes=3,no=4,missing=3
		3:[f5<-0.228173] yes=7,no=8,missing=7
			7:[f1<-0.199845] yes=15,no=16,missing=15
				15:leaf=0.00294148
				16:leaf=-0.073349
			8:[f11<-2.23698] yes=17,no=18,missing=17
				17:leaf=41.5128
				18:leaf=8.97709
		4:[f11<-2.23586] yes=9,no=10,missing=9
			9:[f5<3.56248] yes=19,no=20,missing=19
				19:leaf=44.9234
				20:leaf=73.5306
			10:[f3<-0.0571039] yes=21,no=22,missing=21
				21:leaf=68.1835
				22:leaf=22.1368
	2:[f11<-2.23026] yes=5,no=6,missing=5
		5:[f5<5.11922] yes=11,no=12,missing=11
			11:[f3<-0.353579] yes=23,no=24,missing=23
				23:leaf=41.4666
				24:leaf=1.81436
			12:[f3<0.0700228] yes=25,no=26,missing=25
				25:leaf=-5.44838
				26:leaf=80.0078
		6:[f13<0.275791] yes=13,no=14,missing=13
			13:[f9<-0.107685] yes=27,no=28,missing=27
				27:leaf=16.1096
				28:leaf=0.475386
			14:[f12<-2.22059] yes=29,no=30,missing=29
				29:leaf=1.14957
				30:leaf=-0.0707923
booster[33]:
0:[f11<-2.23337] yes=1,no=2,missing=1
	1:[f5<3.04268] yes=3,no=4,missing=3
		3:[f5<-0.228173] yes=7,no=8,missing=7
			7:[f5<-2.99898] yes=15,no=16,missing=15
				15:leaf=-0.072939
				16:leaf=-0.047466
			8:[f11<-2.23698] yes=17,no=18,missing=17
				17:leaf=41.1668
				18:leaf=8.89122
		4:[f11<-2.23586] yes=9,no=10,missing=9
			9:[f5<4.03382] yes=19,no=20,missing=19
				19:leaf=50.6763
				20:leaf=78.3334
			10:[f3<-0.0571039] yes=21,no=22,missing=21
				21:leaf=67.5106
				22:leaf=21.916
	2:[f11<-2.23026] yes=5,no=6,missing=5
		5:[f5<5.11922] yes=11,no=12,missing=11
			11:[f3<-0.353579] yes=23,no=24,missing=23
				23:leaf=41.0589
				24:leaf=1.79623
			12:[f3<0.0700228] yes=25,no=26,missing=25
				25:leaf=-5.39649
				26:leaf=79.2244
		6:[f13<0.275791] yes=13,no=14,missing=13
			13:[f9<-0.107685] yes=27,no=28,missing=27
				27:leaf=15.949
				28:leaf=0.470634
			14:[f12<-2.21967] yes=29,no=30,missing=29
				29:leaf=1.06423
				30:leaf=-0.0701665
booster[34]:
0:[f11<-2.23337] yes=1,no=2,missing=1
	1:[f5<3.04268] yes=3,no=4,missing=3
		3:[f5<-0.228173] yes=7,no=8,missing=7
			7:[f1<-0.199845] yes=15,no=16,missing=15
				15:leaf=0.00323831
				16:leaf=-0.0718914
			8:[f11<-2.23698] yes=17,no=18,missing=17
				17:leaf=40.8238
				18:leaf=8.80617
		4:[f11<-2.23586] yes=9,no=10,missing=9
			9:[f5<3.56248] yes=19,no=20,missing=19
				19:leaf=43.973
				20:leaf=72.1083
			10:[f3<-0.0571039] yes=21,no=22,missing=21
				21:leaf=66.8444
				22:leaf=21.6974
	2:[f11<-2.23026] yes=5,no=6,missing=5
		5:[f5<5.11922] yes=11,no=12,missing=11
			11:[f3<-0.353579] yes=23,no=24,missing=23
				23:leaf=40.6553
				24:leaf=1.77829
			12:[f3<0.0700228] yes=25,no=26,missing=25
				25:leaf=-5.34509
				26:leaf=78.4486
		6:[f13<0.275791] yes=13,no=14,missing=13
			13:[f9<-0.107685] yes=27,no=28,missing=27
				27:leaf=15.7901
				28:leaf=0.46593
			14:[f15<0.279069] yes=29,no=30,missing=29
				29:leaf=1.16134
				30:leaf=-0.0693514
booster[35]:
0:[f13<0.267917] yes=1,no=2,missing=1
	1:[f5<3.40107] yes=3,no=4,missing=3
		3:[f5<-0.228173] yes=7,no=8,missing=7
			7:[f3<-0.450321] yes=15,no=16,missing=15
				15:leaf=-1.07234
				16:leaf=-0.084027
			8:[f11<-2.23675] yes=17,no=18,missing=17
				17:leaf=47.5428
				18:leaf=8.37421
		4:[f13<0.265732] yes=9,no=10,missing=9
			9:[f11<-2.23582] yes=19,no=20,missing=19
				19:leaf=70.4642
				20:leaf=47.5112
			10:[f3<0.0895146] yes=21,no=22,missing=21
				21:leaf=14.3024
				22:leaf=68.8052
	2:[f13<0.274936] yes=5,no=6,missing=5
		5:[f5<5.33458] yes=11,no=12,missing=11
			11:[f9<-0.130014] yes=23,no=24,missing=23
				23:leaf=13.8607
				24:leaf=1.36943
			12:[f4<2.94269] yes=25,no=26,missing=25
				25:leaf=-2.19261
				26:leaf=48.2341
		6:[f12<-2.21967] yes=13,no=14,missing=13
			13:[f6<4.70879] yes=27,no=28,missing=27
				27:leaf=0.307677
				28:leaf=7.56005
			14:[f14<0.274721] yes=29,no=30,missing=29
				29:leaf=1.46818
				30:leaf=-0.0689675
booster[36]:
0:[f11<-2.23337] yes=1,no=2,missing=1
	1:[f5<3.04268] yes=3,no=4,missing=3
		3:[f5<-0.228173] yes=7,no=8,missing=7
			7:[f5<-2.99898] yes=15,no=16,missing=15
				15:leaf=-0.070652
				16:leaf=-0.044831
			8:[f11<-2.23698] yes=17,no=18,missing=17
				17:leaf=40.0874
				18:leaf=8.64184
		4:[f11<-2.23586] yes=9,no=10,missing=9
			9:[f5<4.03382] yes=19,no=20,missing=19
				19:leaf=49.1175
				20:leaf=76.1354
			10:[f3<-0.0571039] yes=21,no=22,missing=21
				21:leaf=65.8455
				22:leaf=21.2033
	2:[f11<-2.23026] yes=5,no=6,missing=5
		5:[f5<5.11922] yes=11,no=12,missing=11
			11:[f3<-0.353579] yes=23,no=24,missing=23
				23:leaf=40.1784
				24:leaf=1.7227
			12:[f3<0.0700228] yes=25,no=26,missing=25
				25:leaf=-5.35566
				26:leaf=77.2725
		6:[f13<0.275791] yes=13,no=14,missing=13
			13:[f9<-0.107685] yes=27,no=28,missing=27
				27:leaf=15.5008
				28:leaf=0.446456
			14:[f15<0.279069] yes=29,no=30,missing=29
				29:leaf=1.13963
				30:leaf=-0.0679789
booster[37]:
0:[f13<0.267917] yes=1,no=2,missing=1
	1:[f5<3.40107] yes=3,no=4,missing=3
		3:[f5<-0.228173] yes=7,no=8,missing=7
			7:[f3<-0.450321] yes=15,no=16,missing=15
				15:leaf=-1.26414
				16:leaf=-0.0848264
			8:[f11<-2.23675] yes=17,no=18,missing=17
				17:leaf=46.5876
				18:leaf=8.09542
		4:[f13<0.265732] yes=9,no=10,missing=9
			9:[f11<-2.23582] yes=19,no=20,missing=19
				19:leaf=69.1017
				20:leaf=46.7222
			10:[f3<0.0895146] yes=21,no=22,missing=21
				21:leaf=13.9549
				22:leaf=67.7953
	2:[f13<0.274936] yes=5,no=6,missing=5
		5:[f5<5.33458] yes=11,no=12,missing=11
			11:[f5<1.17529] yes=23,no=24,missing=23
				23:leaf=-1.20986
				24:leaf=5.56143
			12:[f4<2.94269] yes=25,no=26,missing=25
				25:leaf=-2.22968
				26:leaf=47.4903
		6:[f15<0.279069] yes=13,no=14,missing=13
			13:[f6<3.28212] yes=27,no=28,missing=27
				27:leaf=0.0400066
				28:leaf=6.14715
			14:[f14<0.279274] yes=29,no=30,missing=29
				29:leaf=0.666667
				30:leaf=-0.0683985
booster[38]:
0:[f11<-2.23337] yes=1,no=2,missing=1
	1:[f5<3.04268] yes=3,no=4,missing=3
		3:[f5<-0.228173] yes=7,no=8,missing=7
			7:[f5<-2.99898] yes=15,no=16,missing=15
				15:leaf=-0.0690983
				16:leaf=-0.0427089
			8:[f11<-2.23698] yes=17,no=18,missing=17
				17:leaf=39.3651
				18:leaf=8.48174
		4:[f13<0.264228] yes=9,no=10,missing=9
			9:[f5<4.03382] yes=19,no=20,missing=19
				19:leaf=47.7949
				20:leaf=74.6936
			10:[f3<-0.0571039] yes=21,no=22,missing=21
				21:leaf=65.0555
				22:leaf=20.3434
	2:[f11<-2.23026] yes=5,no=6,missing=5
		5:[f5<5.11922] yes=11,no=12,missing=11
			11:[f3<-0.353579] yes=23,no=24,missing=23
				23:leaf=39.7186
				24:leaf=1.66559
			12:[f3<0.0700228] yes=25,no=26,missing=25
				25:leaf=-5.37476
				26:leaf=76.1062
		6:[f13<0.275791] yes=13,no=14,missing=13
			13:[f9<-0.107685] yes=27,no=28,missing=27
				27:leaf=15.2957
				28:leaf=0.41824
			14:[f12<-2.21967] yes=29,no=30,missing=29
				29:leaf=1.015
				30:leaf=-0.0667434
booster[39]:
0:[f11<-2.23337] yes=1,no=2,missing=1
	1:[f5<3.22268] yes=3,no=4,missing=3
		3:[f5<-0.228173] yes=7,no=8,missing=7
			7:[f5<-2.99898] yes=15,no=16,missing=15
				15:leaf=-0.0684079
				16:leaf=-0.0422976
			8:[f11<-2.23577] yes=17,no=18,missing=17
				17:leaf=38.401
				18:leaf=3.07951
		4:[f11<-2.23582] yes=9,no=10,missing=9
			9:[f5<4.46657] yes=19,no=20,missing=19
				19:leaf=53.4935
				20:leaf=76.1929
			10:[f4<0.164169] yes=21,no=22,missing=21
				21:leaf=11.3176
				22:leaf=45.0835
	2:[f11<-2.23093] yes=5,no=6,missing=5
		5:[f5<5.03396] yes=11,no=12,missing=11
			11:[f3<-0.353579] yes=23,no=24,missing=23
				23:leaf=50.0867
				24:leaf=1.4918
			12:[f3<0.0704179] yes=25,no=26,missing=25
				25:leaf=-5.51114
				26:leaf=75.2486
		6:[f13<0.275791] yes=13,no=14,missing=13
			13:[f9<-0.0977359] yes=27,no=28,missing=27
				27:leaf=15.0405
				28:leaf=0.482124
			14:[f12<-2.21967] yes=29,no=30,missing=29
				29:leaf=1.00486
				30:leaf=-0.066076
booster[40]:
0:[f13<0.267917] yes=1,no=2,missing=1
	1:[f5<3.40107] yes=3,no=4,missing=3
		3:[f5<-0.228173] yes=7,no=8,missing=7
			7:[f3<-0.450321] yes=15,no=16,missing=15
				15:leaf=-1.70235
				16:leaf=-0.0869142
			8:[f11<-2.23675] yes=17,no=18,missing=17
				17:leaf=45.2218
				18:leaf=7.66974
		4:[f13<0.265732] yes=9,no=10,missing=9
			9:[f5<4.97679] yes=19,no=20,missing=19
				19:leaf=51.9634
				20:leaf=74.9241
			10:[f9<-0.0306628] yes=21,no=22,missing=21
				21:leaf=69.8289
				22:leaf=14.0447
	2:[f13<0.274936] yes=5,no=6,missing=5
		5:[f5<5.33458] yes=11,no=12,missing=11
			11:[f5<1.17529] yes=23,no=24,missing=23
				23:leaf=-1.24798
				24:leaf=5.45043
			12:[f11<-2.22802] yes=25,no=26,missing=25
				25:leaf=52.7361
				26:leaf=6.75076
		6:[f15<0.279069] yes=13,no=14,missing=13
			13:[f6<2.73158] yes=27,no=28,missing=27
				27:leaf=-0.144083
				28:leaf=5.41863
			14:[f14<0.274721] yes=29,no=30,missing=29
				29:leaf=1.44888
				30:leaf=-0.0655222
booster[41]:
0:[f11<-2.23337] yes=1,no=2,missing=1
	1:[f5<3.22268] yes=3,no=4,missing=3
		3:[f5<-0.228173] yes=7,no=8,missing=7
			7:[f5<-2.99898] yes=15,no=16,missing=15
				15:leaf=-0.0668557
				16:leaf=-0.0398567
			8:[f11<-2.23577] yes=17,no=18,missing=17
				17:leaf=37.6775
				18:leaf=2.97316
		4:[f11<-2.23582] yes=9,no=10,missing=9
			9:[f5<4.46657] yes=19,no=20,missing=19
				19:leaf=52.4923
				20:leaf=74.7696
			10:[f4<0.164169] yes=21,no=22,missing=21
				21:leaf=10.8656
				22:leaf=44.2432
	2:[f11<-2.23093] yes=5,no=6,missing=5
		5:[f5<5.03396] yes=11,no=12,missing=11
			11:[f3<-0.353579] yes=23,no=24,missing=23
				23:leaf=49.5209
				24:leaf=1.4358
			12:[f3<0.0704179] yes=25,no=26,missing=25
				25:leaf=-5.64723
				26:leaf=74.0788
		6:[f13<0.275791] yes=13,no=14,missing=13
			13:[f9<-0.0977359] yes=27,no=28,missing=27
				27:leaf=14.8539
				28:leaf=0.453268
			14:[f12<-2.21967] yes=29,no=30,missing=29
				29:leaf=0.985795
				30:leaf=-0.0647682
booster[42]:
0:[f11<-2.23337] yes=1,no=2,missing=1
	1:[f5<3.22268] yes=3,no=4,missing=3
		3:[f5<-0.228173] yes=7,no=8,missing=7
			7:[f5<-2.99898] yes=15,no=16,missing=15
				15:leaf=-0.0661877
				16:leaf=-0.0394729
			8:[f11<-2.23577] yes=17,no=18,missing=17
				17:leaf=37.304
				18:leaf=2.94375
		4:[f11<-2.23582] yes=9,no=10,missing=9
			9:[f5<4.46657] yes=19,no=20,missing=19
				19:leaf=51.9699
				20:leaf=74.0264
			10:[f3<-0.0571039] yes=21,no=22,missing=21
				21:leaf=64.0718
				22:leaf=24.1793
	2:[f11<-2.23026] yes=5,no=6,missing=5
		5:[f5<5.11922] yes=11,no=12,missing=11
			11:[f3<-0.353579] yes=23,no=24,missing=23
				23:leaf=38.4846
				24:leaf=1.57618
			12:[f3<0.0700228] yes=25,no=26,missing=25
				25:leaf=-5.44161
				26:leaf=73.6584
		6:[f13<0.276228] yes=13,no=14,missing=13
			13:[f9<-0.107685] yes=27,no=28,missing=27
				27:leaf=14.0974
				28:leaf=0.386474
			14:[f15<0.279069] yes=29,no=30,missing=29
				29:leaf=1.07911
				30:leaf=-0.0642513
booster[43]:
0:[f11<-2.23337] yes=1,no=2,missing=1
	1:[f5<3.22268] yes=3,no=4,missing=3
		3:[f5<-0.228173] yes=7,no=8,missing=7
			7:[f5<-2.99898] yes=15,no=16,missing=15
				15:leaf=-0.0655263
				16:leaf=-0.0390928
			8:[f11<-2.23577] yes=17,no=18,missing=17
				17:leaf=36.9343
				18:leaf=2.91462
		4:[f11<-2.23582] yes=9,no=10,missing=9
			9:[f5<4.46657] yes=19,no=20,missing=19
				19:leaf=51.4527
				20:leaf=73.2906
			10:[f4<0.164169] yes=21,no=22,missing=21
				21:leaf=10.5178
				22:leaf=43.4412
	2:[f11<-2.23093] yes=5,no=6,missing=5
		5:[f5<5.03396] yes=11,no=12,missing=11
			11:[f3<-0.353579] yes=23,no=24,missing=23
				23:leaf=48.6604
				24:leaf=1.40572
			12:[f3<0.0704179] yes=25,no=26,missing=25
				25:leaf=-5.55733
				26:leaf=72.6984
		6:[f13<0.275791] yes=13,no=14,missing=13
			13:[f9<-0.0977359] yes=27,no=28,missing=27
				27:leaf=14.5638
				28:leaf=0.441955
			14:[f14<0.274721] yes=29,no=30,missing=29
				29:leaf=1.45376
				30:leaf=-0.063103
booster[44]:
0:[f13<0.267917] yes=1,no=2,missing=1
	1:[f5<3.40107] yes=3,no=4,missing=3
		3:[f5<-0.228173] yes=7,no=8,missing=7
			7:[f3<-0.450321] yes=15,no=16,missing=15
				15:leaf=-2.3711
				16:leaf=-0.0901002
			8:[f11<-2.23675] yes=17,no=18,missing=17
				17:leaf=43.5116
				18:leaf=7.16271
		4:[f13<0.265732] yes=9,no=10,missing=9
			9:[f5<4.97679] yes=19,no=20,missing=19
				19:leaf=49.9824
				20:leaf=72.3875
			10:[f9<-0.0306628] yes=21,no=22,missing=21
				21:leaf=68.0076
				22:leaf=13.2728
	2:[f13<0.274936] yes=5,no=6,missing=5
		5:[f5<5.33458] yes=11,no=12,missing=11
			11:[f5<1.17529] yes=23,no=24,missing=23
				23:leaf=-1.30739
				24:leaf=5.31644
			12:[f4<2.94269] yes=25,no=26,missing=25
				25:leaf=-2.78535
				26:leaf=45.5753
		6:[f15<0.279069] yes=13,no=14,missing=13
			13:[f6<3.28212] yes=27,no=28,missing=27
				27:leaf=-0.00213314
				28:leaf=5.99229
			14:[f14<0.279274] yes=29,no=30,missing=29
				29:leaf=0.65693
				30:leaf=-0.0638694
booster[45]:
0:[f11<-2.23337] yes=1,no=2,missing=1
	1:[f5<3.22268] yes=3,no=4,missing=3
		3:[f5<-0.228173] yes=7,no=8,missing=7
			7:[f3<-0.468563] yes=15,no=16,missing=15
				15:leaf=0.0242933
				16:leaf=-0.06363
			8:[f11<-2.23577] yes=17,no=18,missing=17
				17:leaf=36.2389
				18:leaf=2.81492
		4:[f11<-2.23582] yes=9,no=10,missing=9
			9:[f5<4.46657] yes=19,no=20,missing=19
				19:leaf=50.4898
				20:leaf=71.9196
			10:[f3<-0.0571039] yes=21,no=22,missing=21
				21:leaf=62.6486
				22:leaf=23.2925
	2:[f11<-2.23093] yes=5,no=6,missing=5
		5:[f5<5.03396] yes=11,no=12,missing=11
			11:[f3<-0.353579] yes=23,no=24,missing=23
				23:leaf=48.1128
				24:leaf=1.35262
			12:[f3<0.0704179] yes=25,no=26,missing=25
				25:leaf=-5.63721
				26:leaf=71.6022
		6:[f13<0.275791] yes=13,no=14,missing=13
			13:[f9<-0.0977359] yes=27,no=28,missing=27
				27:leaf=14.3684
				28:leaf=0.415309
			14:[f12<-2.21967] yes=29,no=30,missing=29
				29:leaf=0.958934
				30:leaf=-0.0622379
booster[46]:
0:[f11<-2.23337] yes=1,no=2,missing=1
	1:[f5<3.24756] yes=3,no=4,missing=3
		3:[f5<-0.228173] yes=7,no=8,missing=7
			7:[f3<-0.468563] yes=15,no=16,missing=15
				15:leaf=0.0241313
				16:leaf=-0.0629941
			8:[f13<0.262854] yes=17,no=18,missing=17
				17:leaf=44.692
				18:leaf=9.55957
		4:[f13<0.264632] yes=9,no=10,missing=9
			9:[f5<4.16247] yes=19,no=20,missing=19
				19:leaf=49.6892
				20:leaf=68.3841
			10:[f4<0.538352] yes=21,no=22,missing=21
				21:leaf=6.42257
				22:leaf=43.3951
	2:[f11<-2.23026] yes=5,no=6,missing=5
		5:[f5<5.11922] yes=11,no=12,missing=11
			11:[f3<-0.353579] yes=23,no=24,missing=23
				23:leaf=37.2886
				24:leaf=1.49132
			12:[f3<0.0700228] yes=25,no=26,missing=25
				25:leaf=-5.39771
				26:leaf=71.3296
		6:[f13<0.276228] yes=13,no=14,missing=13
			13:[f9<-0.107685] yes=27,no=28,missing=27
				27:leaf=13.6454
				28:leaf=0.352261
			14:[f14<0.274721] yes=29,no=30,missing=29
				29:leaf=1.43331
				30:leaf=-0.0614773
booster[47]:
0:[f11<-2.23337] yes=1,no=2,missing=1
	1:[f5<3.24756] yes=3,no=4,missing=3
		3:[f5<-0.228173] yes=7,no=8,missing=7
			7:[f3<-0.468563] yes=15,no=16,missing=15
				15:leaf=0.0239704
				16:leaf=-0.0623646
			8:[f11<-2.23675] yes=17,no=18,missing=17
				17:leaf=41.0233
				18:leaf=7.54087
		4:[f13<0.26448] yes=9,no=10,missing=9
			9:[f5<4.16247] yes=19,no=20,missing=19
				19:leaf=49.754
				20:leaf=68.0866
			10:[f4<0.462893] yes=21,no=22,missing=21
				21:leaf=7.67727
				22:leaf=42.782
	2:[f11<-2.23093] yes=5,no=6,missing=5
		5:[f5<5.03396] yes=11,no=12,missing=11
			11:[f3<-0.353579] yes=23,no=24,missing=23
				23:leaf=47.2777
				24:leaf=1.32421
			12:[f3<0.0704179] yes=25,no=26,missing=25
				25:leaf=-5.54753
				26:leaf=70.2668
		6:[f13<0.275791] yes=13,no=14,missing=13
			13:[f9<-0.0977359] yes=27,no=28,missing=27
				27:leaf=14.0876
				28:leaf=0.404821
			14:[f14<0.279274] yes=29,no=30,missing=29
				29:leaf=0.65224
				30:leaf=-0.0615101
booster[48]:
0:[f11<-2.23337] yes=1,no=2,missing=1
	1:[f5<3.24756] yes=3,no=4,missing=3
		3:[f5<-0.228173] yes=7,no=8,missing=7
			7:[f3<-0.468563] yes=15,no=16,missing=15
				15:leaf=0.0238106
				16:leaf=-0.0617414
			8:[f13<0.262854] yes=17,no=18,missing=17
				17:leaf=43.8455
				18:leaf=9.35406
		4:[f13<0.264632] yes=9,no=10,missing=9
			9:[f5<4.16247] yes=19,no=20,missing=19
				19:leaf=48.7089
				20:leaf=67.0376
			10:[f4<0.538352] yes=21,no=22,missing=21
				21:leaf=6.27391
				22:leaf=42.538
	2:[f11<-2.23093] yes=5,no=6,missing=5
		5:[f5<5.03396] yes=11,no=12,missing=11
			11:[f3<-0.353579] yes=23,no=24,missing=23
				23:leaf=46.8155
				24:leaf=1.31099
			12:[f3<0.0704179] yes=25,no=26,missing=25
				25:leaf=-5.49458
				26:leaf=69.5797
		6:[f13<0.276228] yes=13,no=14,missing=13
			13:[f9<-0.105153] yes=27,no=28,missing=27
				27:leaf=13.4078
				28:leaf=0.427983
			14:[f12<-2.21967] yes=29,no=30,missing=29
				29:leaf=0.954364
				30:leaf=-0.0606422
booster[49]:
0:[f13<0.267917] yes=1,no=2,missing=1
	1:[f5<3.40107] yes=3,no=4,missing=3
		3:[f5<-0.228173] yes=7,no=8,missing=7
			7:[f3<-0.450321] yes=15,no=16,missing=15
				15:leaf=-3.24914
				16:leaf=-0.0941753
			8:[f11<-2.23675] yes=17,no=18,missing=17
				17:leaf=41.4408
				18:leaf=6.64226
		4:[f13<0.265732] yes=9,no=10,missing=9
			9:[f5<4.97679] yes=19,no=20,missing=19
				19:leaf=47.535
				20:leaf=69.3705
			10:[f9<-0.0306628] yes=21,no=22,missing=21
				21:leaf=65.8502
				22:leaf=12.3762
	2:[f13<0.274936] yes=5,no=6,missing=5
		5:[f5<5.33458] yes=11,no=12,missing=11
			11:[f5<1.17529] yes=23,no=24,missing=23
				23:leaf=-1.38508
				24:leaf=5.16243
			12:[f4<2.94269] yes=25,no=26,missing=25
				25:leaf=-2.98039
				26:leaf=44.2959
		6:[f15<0.279069] yes=13,no=14,missing=13
			13:[f6<2.63839] yes=27,no=28,missing=27
				27:leaf=-0.225522
				28:leaf=5.13201
			14:[f14<0.279274] yes=29,no=30,missing=29
				29:leaf=0.642247
				30:leaf=-0.0608216
booster[50]:
0:[f11<-2.23337] yes=1,no=2,missing=1
	1:[f5<3.24756] yes=3,no=4,missing=3
		3:[f5<-0.228173] yes=7,no=8,missing=7
			7:[f3<-0.468563] yes=15,no=16,missing=15
				15:leaf=0.0453128
				16:leaf=-0.0601833
			8:[f13<0.262767] yes=17,no=18,missing=17
				17:leaf=43.8815
				18:leaf=9.57122
		4:[f13<0.26448] yes=9,no=10,missing=9
			9:[f5<4.16247] yes=19,no=20,missing=19
				19:leaf=48.3315
				20:leaf=66.1435
			10:[f4<0.462893] yes=21,no=22,missing=21
				21:leaf=7.2328
				22:leaf=41.573
	2:[f11<-2.23026] yes=5,no=6,missing=5
		5:[f5<5.11922] yes=11,no=12,missing=11
			11:[f3<-0.353579] yes=23,no=24,missing=23
				23:leaf=36.1301
				24:leaf=1.41081
			12:[f3<0.0700228] yes=25,no=26,missing=25
				25:leaf=-5.35035
				26:leaf=69.077
		6:[f13<0.276228] yes=13,no=14,missing=13
			13:[f9<-0.117179] yes=27,no=28,missing=27
				27:leaf=13.7572
				28:leaf=0.387573
			14:[f14<0.274721] yes=29,no=30,missing=29
				29:leaf=1.40669
				30:leaf=-0.0590807
booster[51]:
0:[f11<-2.23337] yes=1,no=2,missing=1
	1:[f5<3.24756] yes=3,no=4,missing=3
		3:[f5<-0.228173] yes=7,no=8,missing=7
			7:[f3<-0.468563] yes=15,no=16,missing=15
				15:leaf=0.0450107
				16:leaf=-0.0595819
			8:[f11<-2.23675] yes=17,no=18,missing=17
				17:leaf=39.4722
				18:leaf=7.2121
		4:[f13<0.264632] yes=9,no=10,missing=9
			9:[f5<4.16247] yes=19,no=20,missing=19
				19:leaf=47.3134
				20:leaf=65.1267
			10:[f4<0.538352] yes=21,no=22,missing=21
				21:leaf=5.86325
				22:leaf=41.3394
	2:[f11<-2.23093] yes=5,no=6,missing=5
		5:[f5<5.03396] yes=11,no=12,missing=11
			11:[f3<-0.353579] yes=23,no=24,missing=23
				23:leaf=45.9375
				24:leaf=1.24707
			12:[f3<0.0704179] yes=25,no=26,missing=25
				25:leaf=-5.53298
				26:leaf=67.9114
		6:[f13<0.275791] yes=13,no=14,missing=13
			13:[f9<-0.0977359] yes=27,no=28,missing=27
				27:leaf=13.6405
				28:leaf=0.368823
			14:[f12<-2.21967] yes=29,no=30,missing=29
				29:leaf=0.933098
				30:leaf=-0.0586429
booster[52]:
0:[f11<-2.23337] yes=1,no=2,missing=1
	1:[f5<3.24756] yes=3,no=4,missing=3
		3:[f5<-0.228173] yes=7,no=8,missing=7
			7:[f3<-0.468563] yes=15,no=16,missing=15
				15:leaf=0.0447106
				16:leaf=-0.0589865
			8:[f13<0.262767] yes=17,no=18,missing=17
				17:leaf=43.0588
				18:leaf=9.3631
		4:[f13<0.26448] yes=9,no=10,missing=9
			9:[f5<4.16763] yes=19,no=20,missing=19
				19:leaf=47.425
				20:leaf=64.882
			10:[f4<0.462893] yes=21,no=22,missing=21
				21:leaf=7.07815
				22:leaf=40.7483
	2:[f11<-2.23093] yes=5,no=6,missing=5
		5:[f5<5.03396] yes=11,no=12,missing=11
			11:[f3<-0.353579] yes=23,no=24,missing=23
				23:leaf=45.4883
				24:leaf=1.23461
			12:[f3<0.0704179] yes=25,no=26,missing=25
				25:leaf=-5.48017
				26:leaf=67.2474
		6:[f13<0.276228] yes=13,no=14,missing=13
			13:[f9<-0.105153] yes=27,no=28,missing=27
				27:leaf=12.9749
				28:leaf=0.393402
			14:[f14<0.274721] yes=29,no=30,missing=29
				29:leaf=1.39322
				30:leaf=-0.057915
booster[53]:
0:[f13<0.267917] yes=1,no=2,missing=1
	1:[f5<3.40605] yes=3,no=4,missing=3
		3:[f5<-0.228173] yes=7,no=8,missing=7
			7:[f3<-0.450321] yes=15,no=16,missing=15
				15:leaf=-3.86029
				16:leaf=-0.0967634
			8:[f11<-2.23588] yes=17,no=18,missing=17
				17:leaf=34.9792
				18:leaf=3.02746
		4:[f13<0.265732] yes=9,no=10,missing=9
			9:[f5<4.97679] yes=19,no=20,missing=19
				19:leaf=45.8695
				20:leaf=67.0225
			10:[f3<-0.142229] yes=21,no=22,missing=21
				21:leaf=63.3673
				22:leaf=11.4407
	2:[f13<0.274936] yes=5,no=6,missing=5
		5:[f5<5.33458] yes=11,no=12,missing=11
			11:[f5<1.17529] yes=23,no=24,missing=23
				23:leaf=-1.43576
				24:leaf=5.03845
			12:[f11<-2.22802] yes=25,no=26,missing=25
				25:leaf=49.0751
				26:leaf=5.56526
		6:[f15<0.279069] yes=13,no=14,missing=13
			13:[f6<3.28212] yes=27,no=28,missing=27
				27:leaf=-0.0297503
				28:leaf=5.85586
			14:[f14<0.279274] yes=29,no=30,missing=29
				29:leaf=0.630871
				30:leaf=-0.0584939
booster[54]:
0:[f13<0.267917] yes=1,no=2,missing=1
	1:[f5<3.40605] yes=3,no=4,missing=3
		3:[f5<-0.228173] yes=7,no=8,missing=7
			7:[f3<-0.450321] yes=15,no=16,missing=15
				15:leaf=-3.82812
				16:leaf=-0.0957964
			8:[f11<-2.23588] yes=17,no=18,missing=17
				17:leaf=34.6315
				18:leaf=2.99733
		4:[f13<0.265732] yes=9,no=10,missing=9
			9:[f5<4.97679] yes=19,no=20,missing=19
				19:leaf=45.4122
				20:leaf=66.3566
			10:[f9<-0.0306628] yes=21,no=22,missing=21
				21:leaf=63.9879
				22:leaf=11.5098
	2:[f13<0.274936] yes=5,no=6,missing=5
		5:[f5<5.33458] yes=11,no=12,missing=11
			11:[f5<1.17529] yes=23,no=24,missing=23
				23:leaf=-1.42141
				24:leaf=4.9881
			12:[f4<2.94269] yes=25,no=26,missing=25
				25:leaf=-3.37358
				26:leaf=42.9777
		6:[f15<0.279069] yes=13,no=14,missing=13
			13:[f6<2.63839] yes=27,no=28,missing=27
				27:leaf=-0.23118
				28:leaf=5.02884
			14:[f14<0.279274] yes=29,no=30,missing=29
				29:leaf=0.624565
				30:leaf=-0.057909
booster[55]:
0:[f11<-2.23337] yes=1,no=2,missing=1
	1:[f5<3.24756] yes=3,no=4,missing=3
		3:[f5<-0.228173] yes=7,no=8,missing=7
			7:[f3<-0.468563] yes=15,no=16,missing=15
				15:leaf=0.0956686
				16:leaf=-0.0564728
			8:[f13<0.262767] yes=17,no=18,missing=17
				17:leaf=41.9467
				18:leaf=8.98916
		4:[f11<-2.23582] yes=9,no=10,missing=9
			9:[f5<4.46657] yes=19,no=20,missing=19
				19:leaf=47.8599
				20:leaf=65.4364
			10:[f3<-0.0571039] yes=21,no=22,missing=21
				21:leaf=58.3779
				22:leaf=21.0453
	2:[f11<-2.23093] yes=5,no=6,missing=5
		5:[f5<5.03396] yes=11,no=12,missing=11
			11:[f3<-0.353579] yes=23,no=24,missing=23
				23:leaf=44.7256
				24:leaf=1.16298
			12:[f3<0.0704179] yes=25,no=26,missing=25
				25:leaf=-5.66833
				26:leaf=66.0294
		6:[f13<0.276228] yes=13,no=14,missing=13
			13:[f9<-0.105153] yes=27,no=28,missing=27
				27:leaf=12.7724
				28:leaf=0.35098
			14:[f14<0.274721] yes=29,no=30,missing=29
				29:leaf=1.36682
				30:leaf=-0.0562173
booster[56]:
0:[f11<-2.23337] yes=1,no=2,missing=1
	1:[f5<3.24756] yes=3,no=4,missing=3
		3:[f5<-0.228173] yes=7,no=8,missing=7
			7:[f3<-0.468563] yes=15,no=16,missing=15
				15:leaf=0.0950308
				16:leaf=-0.0559085
			8:[f13<0.262767] yes=17,no=18,missing=17
				17:leaf=41.5327
				18:leaf=8.89982
		4:[f13<0.264632] yes=9,no=10,missing=9
			9:[f5<4.03382] yes=19,no=20,missing=19
				19:leaf=44.3747
				20:leaf=61.4664
			10:[f4<0.538352] yes=21,no=22,missing=21
				21:leaf=4.99629
				22:leaf=39.4914
	2:[f11<-2.23026] yes=5,no=6,missing=5
		5:[f5<5.11922] yes=11,no=12,missing=11
			11:[f3<-0.353579] yes=23,no=24,missing=23
				23:leaf=34.4582
				24:leaf=1.29709
			12:[f3<0.0700228] yes=25,no=26,missing=25
				25:leaf=-5.41209
				26:leaf=66.1058
		6:[f13<0.276228] yes=13,no=14,missing=13
			13:[f9<-0.117179] yes=27,no=28,missing=27
				27:leaf=13.1808
				28:leaf=0.327757
			14:[f12<-2.21967] yes=29,no=30,missing=29
				29:leaf=0.912092
				30:leaf=-0.0560171
booster[57]:
0:[f13<0.267917] yes=1,no=2,missing=1
	1:[f5<3.40605] yes=3,no=4,missing=3
		3:[f5<-0.228173] yes=7,no=8,missing=7
			7:[f3<-0.450321] yes=15,no=16,missing=15
				15:leaf=-4.19277
				16:leaf=-0.0970747
			8:[f11<-2.23577] yes=17,no=18,missing=17
				17:leaf=33.2143
				18:leaf=2.41201
		4:[f13<0.265732] yes=9,no=10,missing=9
			9:[f5<4.97679] yes=19,no=20,missing=19
				19:leaf=44.0607
				20:leaf=64.6545
			10:[f3<-0.142229] yes=21,no=22,missing=21
				21:leaf=61.8558
				22:leaf=10.7842
	2:[f13<0.274936] yes=5,no=6,missing=5
		5:[f5<5.33458] yes=11,no=12,missing=11
			11:[f5<1.17529] yes=23,no=24,missing=23
				23:leaf=-1.44772
				24:leaf=4.89227
			12:[f11<-2.22802] yes=25,no=26,missing=25
				25:leaf=47.8205
				26:leaf=5.15085
		6:[f14<0.274721] yes=13,no=14,missing=13
			13:[f4<2.57346] yes=27,no=28,missing=27
				27:leaf=-0.187328
				28:leaf=8.08502
			14:[f12<-2.21967] yes=29,no=30,missing=29
				29:leaf=0.893426
				30:leaf=-0.0555061
booster[58]:
0:[f13<0.267917] yes=1,no=2,missing=1
	1:[f5<3.40605] yes=3,no=4,missing=3
		3:[f5<-0.228173] yes=7,no=8,missing=7
			7:[f3<-0.450321] yes=15,no=16,missing=15
				15:leaf=-4.15783
				16:leaf=-0.0961045
			8:[f11<-2.23675] yes=17,no=18,missing=17
				17:leaf=38.1254
				18:leaf=5.83181
		4:[f13<0.265732] yes=9,no=10,missing=9
			9:[f5<4.97679] yes=19,no=20,missing=19
				19:leaf=43.6213
				20:leaf=64.0121
			10:[f9<-0.0306628] yes=21,no=22,missing=21
				21:leaf=62.6008
				22:leaf=10.8329
	2:[f13<0.274936] yes=5,no=6,missing=5
		5:[f5<5.33458] yes=11,no=12,missing=11
			11:[f5<1.17529] yes=23,no=24,missing=23
				23:leaf=-1.43326
				24:leaf=4.84339
			12:[f4<2.94269] yes=25,no=26,missing=25
				25:leaf=-3.69645
				26:leaf=41.8836
		6:[f14<0.279274] yes=13,no=14,missing=13
			13:[f4<4.39175] yes=27,no=28,missing=27
				27:leaf=0.0324556
				28:leaf=8.35912
			14:[f15<0.279069] yes=29,no=30,missing=29
				29:leaf=0.975769
				30:leaf=-0.0556809
booster[59]:
0:[f11<-2.23337] yes=1,no=2,missing=1
	1:[f5<3.24756] yes=3,no=4,missing=3
		3:[f5<-0.228173] yes=7,no=8,missing=7
			7:[f3<-0.468563] yes=15,no=16,missing=15
				15:leaf=0.150068
				16:leaf=-0.0534194
			8:[f13<0.262767] yes=17,no=18,missing=17
				17:leaf=40.4186
				18:leaf=8.5735
		4:[f11<-2.23582] yes=9,no=10,missing=9
			9:[f5<4.46657] yes=19,no=20,missing=19
				19:leaf=46.0886
				20:leaf=63.0369
			10:[f3<-0.0571039] yes=21,no=22,missing=21
				21:leaf=56.616
				22:leaf=19.9489
	2:[f11<-2.23093] yes=5,no=6,missing=5
		5:[f3<0.0958951] yes=11,no=12,missing=11
			11:[f3<-0.353579] yes=23,no=24,missing=23
				23:leaf=42.5892
				24:leaf=-0.242061
			12:[f5<3.42557] yes=25,no=26,missing=25
				25:leaf=1.93313
				26:leaf=62.6315
		6:[f13<0.276228] yes=13,no=14,missing=13
			13:[f9<-0.105153] yes=27,no=28,missing=27
				27:leaf=12.4513
				28:leaf=0.304638
			14:[f14<0.274721] yes=29,no=30,missing=29
				29:leaf=1.3314
				30:leaf=-0.0540259
booster[60]:
0:[f13<0.266211] yes=1,no=2,missing=1
	1:[f5<3.04268] yes=3,no=4,missing=3
		3:[f5<-0.228173] yes=7,no=8,missing=7
			7:[f3<-0.47539] yes=15,no=16,missing=15
				15:leaf=0.110037
				16:leaf=-0.0529828
			8:[f5<2.99605] yes=17,no=18,missing=17
				17:leaf=42.4247
				18:leaf=6.20641
		4:[f11<-2.23586] yes=9,no=10,missing=9
			9:[f5<3.56248] yes=19,no=20,missing=19
				19:leaf=34.0581
				20:leaf=56.3962
			10:[f3<0.0633341] yes=21,no=22,missing=21
				21:leaf=17.3307
				22:leaf=58.0044
	2:[f11<-2.23093] yes=5,no=6,missing=5
		5:[f3<0.0919744] yes=11,no=12,missing=11
			11:[f3<-0.260029] yes=23,no=24,missing=23
				23:leaf=38.5234
				24:leaf=-0.842211
			12:[f9<-0.0344192] yes=25,no=26,missing=25
				25:leaf=62.4653
				26:leaf=7.14747
		6:[f13<0.276228] yes=13,no=14,missing=13
			13:[f9<-0.105153] yes=27,no=28,missing=27
				27:leaf=12.3271
				28:leaf=0.301593
			14:[f14<0.279274] yes=29,no=30,missing=29
				29:leaf=0.608779
				30:leaf=-0.0542991
booster[61]:
0:[f13<0.266211] yes=1,no=2,missing=1
	1:[f5<3.04268] yes=3,no=4,missing=3
		3:[f5<-0.228173] yes=7,no=8,missing=7
			7:[f3<-0.47539] yes=15,no=16,missing=15
				15:leaf=0.109486
				16:leaf=-0.0524534
			8:[f5<2.99605] yes=17,no=18,missing=17
				17:leaf=42.0711
				18:leaf=6.14779
		4:[f11<-2.23586] yes=9,no=10,missing=9
			9:[f5<3.56248] yes=19,no=20,missing=19
				19:leaf=33.7195
				20:leaf=55.8341
			10:[f3<0.0633341] yes=21,no=22,missing=21
				21:leaf=17.158
				22:leaf=57.4342
	2:[f11<-2.23093] yes=5,no=6,missing=5
		5:[f3<0.0919744] yes=11,no=12,missing=11
			11:[f3<-0.260029] yes=23,no=24,missing=23
				23:leaf=38.1433
				24:leaf=-0.833799
			12:[f9<-0.0344192] yes=25,no=26,missing=25
				25:leaf=61.851
				26:leaf=7.07678
		6:[f13<0.275791] yes=13,no=14,missing=13
			13:[f9<-0.0977359] yes=27,no=28,missing=27
				27:leaf=12.7356
				28:leaf=0.265145
			14:[f12<-2.21967] yes=29,no=30,missing=29
				29:leaf=0.883001
				30:leaf=-0.0531109
booster[62]:
0:[f11<-2.23337] yes=1,no=2,missing=1
	1:[f5<3.24756] yes=3,no=4,missing=3
		3:[f5<-0.228173] yes=7,no=8,missing=7
			7:[f11<-2.23349] yes=15,no=16,missing=15
				15:leaf=-0.0516558
				16:leaf=-0.155931
			8:[f13<0.262767] yes=17,no=18,missing=17
				17:leaf=39.3867
				18:leaf=8.04172
		4:[f13<0.264632] yes=9,no=10,missing=9
			9:[f5<4.04134] yes=19,no=20,missing=19
				19:leaf=42.1085
				20:leaf=58.3756
			10:[f4<0.538352] yes=21,no=22,missing=21
				21:leaf=3.95266
				22:leaf=37.5594
	2:[f11<-2.23026] yes=5,no=6,missing=5
		5:[f5<5.11922] yes=11,no=12,missing=11
			11:[f3<-0.353579] yes=23,no=24,missing=23
				23:leaf=32.9386
				24:leaf=1.16581
			12:[f3<0.0700228] yes=25,no=26,missing=25
				25:leaf=-5.63343
				26:leaf=63.6939
		6:[f13<0.276228] yes=13,no=14,missing=13
			13:[f9<-0.117179] yes=27,no=28,missing=27
				27:leaf=12.6302
				28:leaf=0.2727
			14:[f14<0.274721] yes=29,no=30,missing=29
				29:leaf=1.31255
				30:leaf=-0.0524344
booster[63]:
0:[f13<0.266211] yes=1,no=2,missing=1
	1:[f5<3.04268] yes=3,no=4,missing=3
		3:[f5<-0.228173] yes=7,no=8,missing=7
			7:[f3<-0.47539] yes=15,no=16,missing=15
				15:leaf=0.109197
				16:leaf=-0.051413
			8:[f5<2.99605] yes=17,no=18,missing=17
				17:leaf=41.6535
				18:leaf=5.92671
		4:[f11<-2.23586] yes=9,no=10,missing=9
			9:[f5<3.56248] yes=19,no=20,missing=19
				19:leaf=33.0779
				20:leaf=54.7528
			10:[f3<0.0633341] yes=21,no=22,missing=21
				21:leaf=16.7562
				22:leaf=56.5368
	2:[f11<-2.23093] yes=5,no=6,missing=5
		5:[f3<0.0919744] yes=11,no=12,missing=11
			11:[f3<-0.260029] yes=23,no=24,missing=23
				23:leaf=37.5215
				24:leaf=-0.848708
			12:[f9<-0.0344192] yes=25,no=26,missing=25
				25:leaf=60.9234
				26:leaf=6.92158
		6:[f13<0.275791] yes=13,no=14,missing=13
			13:[f9<-0.0977359] yes=27,no=28,missing=27
				27:leaf=12.4914
				28:leaf=0.257376
			14:[f15<0.279069] yes=29,no=30,missing=29
				29:leaf=0.963833
				30:leaf=-0.0519734
booster[64]:
0:[f13<0.266211] yes=1,no=2,missing=1
	1:[f5<3.04268] yes=3,no=4,missing=3
		3:[f5<-0.228173] yes=7,no=8,missing=7
			7:[f3<-0.47539] yes=15,no=16,missing=15
				15:leaf=0.108651
				16:leaf=-0.0508993
			8:[f5<2.99605] yes=17,no=18,missing=17
				17:leaf=41.3064
				18:leaf=5.87074
		4:[f11<-2.23586] yes=9,no=10,missing=9
			9:[f5<4.03382] yes=19,no=20,missing=19
				19:leaf=37.4478
				20:leaf=58.3993
			10:[f3<0.0633341] yes=21,no=22,missing=21
				21:leaf=16.5892
				22:leaf=55.981
	2:[f11<-2.23093] yes=5,no=6,missing=5
		5:[f3<0.0919744] yes=11,no=12,missing=11
			11:[f3<-0.260029] yes=23,no=24,missing=23
				23:leaf=37.1512
				24:leaf=-0.840231
			12:[f9<-0.0344192] yes=25,no=26,missing=25
				25:leaf=60.3244
				26:leaf=6.85312
		6:[f13<0.276228] yes=13,no=14,missing=13
			13:[f9<-0.105153] yes=27,no=28,missing=27
				27:leaf=11.8529
				28:leaf=0.287771
			14:[f14<0.279274] yes=29,no=30,missing=29
				29:leaf=0.601105
				30:leaf=-0.0522017
booster[65]:
0:[f13<0.267362] yes=1,no=2,missing=1
	1:[f5<3.40605] yes=3,no=4,missing=3
		3:[f5<-0.228173] yes=7,no=8,missing=7
			7:[f3<-0.653075] yes=15,no=16,missing=15
				15:leaf=-5.33196
				16:leaf=-0.081505
			8:[f11<-2.23577] yes=17,no=18,missing=17
				17:leaf=30.6979
				18:leaf=0.433838
		4:[f13<0.265732] yes=9,no=10,missing=9
			9:[f5<4.97679] yes=19,no=20,missing=19
				19:leaf=40.7697
				20:leaf=60.4432
			10:[f3<-0.128759] yes=21,no=22,missing=21
				21:leaf=58.9966
				22:leaf=9.38741
	2:[f13<0.274936] yes=5,no=6,missing=5
		5:[f5<5.32987] yes=11,no=12,missing=11
			11:[f5<1.17529] yes=23,no=24,missing=23
				23:leaf=-1.48432
				24:leaf=4.89078
			12:[f11<-2.22802] yes=25,no=26,missing=25
				25:leaf=46.2708
				26:leaf=4.55402
		6:[f15<0.279069] yes=13,no=14,missing=13
			13:[f6<3.7785] yes=27,no=28,missing=27
				27:leaf=0.0354321
				28:leaf=6.2862
			14:[f14<0.279274] yes=29,no=30,missing=29
				29:leaf=0.591174
				30:leaf=-0.0520085
booster[66]:
0:[f13<0.267362] yes=1,no=2,missing=1
	1:[f5<3.40605] yes=3,no=4,missing=3
		3:[f5<-0.228173] yes=7,no=8,missing=7
			7:[f3<-0.653075] yes=15,no=16,missing=15
				15:leaf=-5.3053
				16:leaf=-0.0806905
			8:[f11<-2.23577] yes=17,no=18,missing=17
				17:leaf=30.3927
				18:leaf=0.429525
		4:[f13<0.265732] yes=9,no=10,missing=9
			9:[f5<4.97679] yes=19,no=20,missing=19
				19:leaf=40.3632
				20:leaf=59.8427
			10:[f3<-0.128759] yes=21,no=22,missing=21
				21:leaf=58.42
				22:leaf=9.29404
	2:[f13<0.274936] yes=5,no=6,missing=5
		5:[f5<5.32987] yes=11,no=12,missing=11
			11:[f5<1.17529] yes=23,no=24,missing=23
				23:leaf=-1.46949
				24:leaf=4.8419
			12:[f11<-2.22802] yes=25,no=26,missing=25
				25:leaf=45.817
				26:leaf=4.50962
		6:[f12<-2.21967] yes=13,no=14,missing=13
			13:[f6<4.82502] yes=27,no=28,missing=27
				27:leaf=0.177586
				28:leaf=7.22829
			14:[f14<0.279274] yes=29,no=30,missing=29
				29:leaf=0.585265
				30:leaf=-0.0515822
booster[67]:
0:[f13<0.267917] yes=1,no=2,missing=1
	1:[f5<3.40605] yes=3,no=4,missing=3
		3:[f5<-0.228173] yes=7,no=8,missing=7
			7:[f3<-0.450321] yes=15,no=16,missing=15
				15:leaf=-5.48252
				16:leaf=-0.0953365
			8:[f11<-2.23675] yes=17,no=18,missing=17
				17:leaf=35.1093
				18:leaf=4.74975
		4:[f13<0.265732] yes=9,no=10,missing=9
			9:[f5<4.97679] yes=19,no=20,missing=19
				19:leaf=39.9607
				20:leaf=59.2481
			10:[f3<-0.142229] yes=21,no=22,missing=21
				21:leaf=58.2347
				22:leaf=9.36666
	2:[f13<0.274936] yes=5,no=6,missing=5
		5:[f5<5.33458] yes=11,no=12,missing=11
			11:[f9<0.0693159] yes=23,no=24,missing=23
				23:leaf=0.802382
				24:leaf=12.9835
			12:[f4<2.94269] yes=25,no=26,missing=25
				25:leaf=-4.2917
				26:leaf=39.9389
		6:[f14<0.274721] yes=13,no=14,missing=13
			13:[f4<2.57346] yes=27,no=28,missing=27
				27:leaf=-0.23491
				28:leaf=7.90967
			14:[f12<-2.22039] yes=29,no=30,missing=29
				29:leaf=0.889804
				30:leaf=-0.0502487
booster[68]:
0:[f13<0.267917] yes=1,no=2,missing=1
	1:[f5<3.40605] yes=3,no=4,missing=3
		3:[f5<-0.228173] yes=7,no=8,missing=7
			7:[f3<-0.450321] yes=15,no=16,missing=15
				15:leaf=-5.43683
				16:leaf=-0.0943837
			8:[f11<-2.23675] yes=17,no=18,missing=17
				17:leaf=34.761
				18:leaf=4.70244
		4:[f13<0.265732] yes=9,no=10,missing=9
			9:[f5<4.97679] yes=19,no=20,missing=19
				19:leaf=39.5623
				20:leaf=58.6595
			10:[f9<-0.0306628] yes=21,no=22,missing=21
				21:leaf=58.9916
				22:leaf=9.41631
	2:[f13<0.274936] yes=5,no=6,missing=5
		5:[f5<5.33458] yes=11,no=12,missing=11
			11:[f9<0.0693159] yes=23,no=24,missing=23
				23:leaf=0.794361
				24:leaf=12.8543
			12:[f4<2.94269] yes=25,no=26,missing=25
				25:leaf=-4.25037
				26:leaf=39.5465
		6:[f14<0.274721] yes=13,no=14,missing=13
			13:[f4<2.57346] yes=27,no=28,missing=27
				27:leaf=-0.232567
				28:leaf=7.83145
			14:[f12<-2.21967] yes=29,no=30,missing=29
				29:leaf=0.837283
				30:leaf=-0.0497957
booster[69]:
0:[f13<0.268452] yes=1,no=2,missing=1
	1:[f5<3.40605] yes=3,no=4,missing=3
		3:[f5<-0.124747] yes=7,no=8,missing=7
			7:[f3<-0.308394] yes=15,no=16,missing=15
				15:leaf=-6.61131
				16:leaf=-0.135644
			8:[f11<-2.23588] yes=17,no=18,missing=17
				17:leaf=29.979
				18:leaf=1.39573
		4:[f13<0.265732] yes=9,no=10,missing=9
			9:[f5<4.97679] yes=19,no=20,missing=19
				19:leaf=39.1678
				20:leaf=58.0767
			10:[f3<0.0895146] yes=21,no=22,missing=21
				21:leaf=8.7215
				22:leaf=55.9924
	2:[f13<0.275791] yes=5,no=6,missing=5
		5:[f9<-0.0952571] yes=11,no=12,missing=11
			11:[f5<2.87144] yes=23,no=24,missing=23
				23:leaf=-6.96739
				24:leaf=35.8959
			12:[f9<0.0781101] yes=25,no=26,missing=25
				25:leaf=-0.428915
				26:leaf=13.4944
		6:[f14<0.274721] yes=13,no=14,missing=13
			13:[f4<2.57346] yes=27,no=28,missing=27
				27:leaf=-0.230247
				28:leaf=7.75401
			14:[f12<-2.21967] yes=29,no=30,missing=29
				29:leaf=0.825806
				30:leaf=-0.0497502
booster[70]:
0:[f13<0.266211] yes=1,no=2,missing=1
	1:[f5<3.04268] yes=3,no=4,missing=3
		3:[f5<-0.228173] yes=7,no=8,missing=7
			7:[f3<-0.47539] yes=15,no=16,missing=15
				15:leaf=0.196572
				16:leaf=-0.0455187
			8:[f5<2.99605] yes=17,no=18,missing=17
				17:leaf=40.7166
				18:leaf=5.01
		4:[f11<-2.23586] yes=9,no=10,missing=9
			9:[f5<3.56248] yes=19,no=20,missing=19
				19:leaf=30.8865
				20:leaf=51.352
			10:[f3<0.0801281] yes=21,no=22,missing=21
				21:leaf=15.8698
				22:leaf=58.5467
	2:[f11<-2.23093] yes=5,no=6,missing=5
		5:[f3<0.0919744] yes=11,no=12,missing=11
			11:[f3<-0.260029] yes=23,no=24,missing=23
				23:leaf=36.025
				24:leaf=-0.953321
			12:[f9<-0.0344192] yes=25,no=26,missing=25
				25:leaf=58.654
				26:leaf=6.50105
		6:[f13<0.276228] yes=13,no=14,missing=13
			13:[f9<-0.107685] yes=27,no=28,missing=27
				27:leaf=11.7269
				28:leaf=0.240794
			14:[f14<0.279274] yes=29,no=30,missing=29
				29:leaf=0.575802
				30:leaf=-0.0491966
booster[71]:
0:[f13<0.267362] yes=1,no=2,missing=1
	1:[f5<3.40605] yes=3,no=4,missing=3
		3:[f5<-0.228173] yes=7,no=8,missing=7
			7:[f3<-0.653075] yes=15,no=16,missing=15
				15:leaf=-5.37125
				16:leaf=-0.0765334
			8:[f11<-2.23577] yes=17,no=18,missing=17
				17:leaf=28.9845
				18:leaf=0.185317
		4:[f11<-2.23582] yes=9,no=10,missing=9
			9:[f10<8.88414] yes=19,no=20,missing=19
				19:leaf=50.941
				20:leaf=-3.67216
			10:[f3<-0.0571039] yes=21,no=22,missing=21
				21:leaf=51.2961
				22:leaf=17.5623
	2:[f13<0.274936] yes=5,no=6,missing=5
		5:[f5<5.32987] yes=11,no=12,missing=11
			11:[f5<1.17529] yes=23,no=24,missing=23
				23:leaf=-1.5033
				24:leaf=4.68333
			12:[f11<-2.22802] yes=25,no=26,missing=25
				25:leaf=44.4806
				26:leaf=3.7763
		6:[f15<0.279069] yes=13,no=14,missing=13
			13:[f6<2.63839] yes=27,no=28,missing=27
				27:leaf=-0.300312
				28:leaf=4.84179
			14:[f14<0.279274] yes=29,no=30,missing=29
				29:leaf=0.566232
				30:leaf=-0.0490084
booster[72]:
0:[f13<0.266211] yes=1,no=2,missing=1
	1:[f5<3.24756] yes=3,no=4,missing=3
		3:[f5<-0.228173] yes=7,no=8,missing=7
			7:[f3<-0.47539] yes=15,no=16,missing=15
				15:leaf=0.195972
				16:leaf=-0.044299
			8:[f13<0.262767] yes=17,no=18,missing=17
				17:leaf=36.1773
				18:leaf=7.34464
		4:[f11<-2.23582] yes=9,no=10,missing=9
			9:[f5<4.46657] yes=19,no=20,missing=19
				19:leaf=40.5272
				20:leaf=55.9593
			10:[f4<0.00393265] yes=21,no=22,missing=21
				21:leaf=-0.301516
				22:leaf=35.1408
	2:[f11<-2.23093] yes=5,no=6,missing=5
		5:[f3<0.0919744] yes=11,no=12,missing=11
			11:[f3<-0.260029] yes=23,no=24,missing=23
				23:leaf=35.4839
				24:leaf=-0.976086
			12:[f9<-0.0344192] yes=25,no=26,missing=25
				25:leaf=57.9237
				26:leaf=6.39662
		6:[f13<0.276228] yes=13,no=14,missing=13
			13:[f9<-0.107685] yes=27,no=28,missing=27
				27:leaf=11.5841
				28:leaf=0.220755
			14:[f14<0.274721] yes=29,no=30,missing=29
				29:leaf=1.23323
				30:leaf=-0.0474795
booster[73]:
0:[f13<0.268452] yes=1,no=2,missing=1
	1:[f5<3.40605] yes=3,no=4,missing=3
		3:[f5<-0.124747] yes=7,no=8,missing=7
			7:[f3<-0.308394] yes=15,no=16,missing=15
				15:leaf=-7.09467
				16:leaf=-0.13317
			8:[f11<-2.23675] yes=17,no=18,missing=17
				17:leaf=33.2145
				18:leaf=3.65622
		4:[f13<0.265732] yes=9,no=10,missing=9
			9:[f5<4.97679] yes=19,no=20,missing=19
				19:leaf=37.6194
				20:leaf=56.1848
			10:[f3<0.0895146] yes=21,no=22,missing=21
				21:leaf=8.27949
				22:leaf=54.4464
	2:[f13<0.275791] yes=5,no=6,missing=5
		5:[f9<-0.0952571] yes=11,no=12,missing=11
			11:[f5<2.87144] yes=23,no=24,missing=23
				23:leaf=-7.11103
				24:leaf=35.2157
			12:[f9<0.0781101] yes=25,no=26,missing=25
				25:leaf=-0.454277
				26:leaf=13.3158
		6:[f15<0.279069] yes=13,no=14,missing=13
			13:[f6<2.73158] yes=27,no=28,missing=27
				27:leaf=-0.260787
				28:leaf=4.93536
			14:[f14<0.279274] yes=29,no=30,missing=29
				29:leaf=0.558099
				30:leaf=-0.0484847
booster[74]:
0:[f13<0.266211] yes=1,no=2,missing=1
	1:[f5<3.24756] yes=3,no=4,missing=3
		3:[f5<-0.228173] yes=7,no=8,missing=7
			7:[f3<-0.47539] yes=15,no=16,missing=15
				15:leaf=0.230466
				16:leaf=-0.0425257
			8:[f13<0.262767] yes=17,no=18,missing=17
				17:leaf=35.4924
				18:leaf=7.19013
		4:[f11<-2.23582] yes=9,no=10,missing=9
			9:[f5<4.46657] yes=19,no=20,missing=19
				19:leaf=39.7735
				20:leaf=54.9084
			10:[f4<0.00393265] yes=21,no=22,missing=21
				21:leaf=-0.549148
				22:leaf=34.4732
	2:[f11<-2.23093] yes=5,no=6,missing=5
		5:[f5<5.25659] yes=11,no=12,missing=11
			11:[f3<-0.260029] yes=23,no=24,missing=23
				23:leaf=35.096
				24:leaf=1.3389
			12:[f8<-0.0438545] yes=25,no=26,missing=25
				25:leaf=17.5121
				26:leaf=65.875
		6:[f13<0.276228] yes=13,no=14,missing=13
			13:[f9<-0.120792] yes=27,no=28,missing=27
				27:leaf=12.0531
				28:leaf=0.296885
			14:[f12<-2.21967] yes=29,no=30,missing=29
				29:leaf=0.815893
				30:leaf=-0.0468592
booster[75]:
0:[f13<0.267362] yes=1,no=2,missing=1
	1:[f5<3.40605] yes=3,no=4,missing=3
		3:[f5<-0.228173] yes=7,no=8,missing=7
			7:[f3<-0.653075] yes=15,no=16,missing=15
				15:leaf=-5.66182
				16:leaf=-0.0764585
			8:[f11<-2.23577] yes=17,no=18,missing=17
				17:leaf=27.9214
				18:leaf=-0.00645274
		4:[f11<-2.23536] yes=9,no=10,missing=9
			9:[f5<4.97731] yes=19,no=20,missing=19
				19:leaf=41.7502
				20:leaf=56.2053
			10:[f3<-0.0906447] yes=21,no=22,missing=21
				21:leaf=52.392
				22:leaf=14.7879
	2:[f13<0.269825] yes=5,no=6,missing=5
		5:[f5<5.25659] yes=11,no=12,missing=11
			11:[f3<0.154398] yes=23,no=24,missing=23
				23:leaf=1.25292
				24:leaf=23.8319
			12:[f4<2.32948] yes=25,no=26,missing=25
				25:leaf=1.34423
				26:leaf=65.3297
		6:[f13<0.276228] yes=13,no=14,missing=13
			13:[f9<-0.117179] yes=27,no=28,missing=27
				27:leaf=11.43
				28:leaf=0.135672
			14:[f14<0.274721] yes=29,no=30,missing=29
				29:leaf=1.21582
				30:leaf=-0.0460815
booster[76]:
0:[f13<0.266211] yes=1,no=2,missing=1
	1:[f5<3.24756] yes=3,no=4,missing=3
		3:[f5<-0.228173] yes=7,no=8,missing=7
			7:[f3<-0.47539] yes=15,no=16,missing=15
				15:leaf=0.229695
				16:leaf=-0.0413367
			8:[f13<0.262767] yes=17,no=18,missing=17
				17:leaf=34.8665
				18:leaf=6.99447
		4:[f11<-2.23582] yes=9,no=10,missing=9
			9:[f5<4.46657] yes=19,no=20,missing=19
				19:leaf=38.9907
				20:leaf=53.8536
			10:[f4<0.00393265] yes=21,no=22,missing=21
				21:leaf=-0.721666
				22:leaf=33.8665
	2:[f11<-2.23093] yes=5,no=6,missing=5
		5:[f3<0.0919744] yes=11,no=12,missing=11
			11:[f3<-0.260029] yes=23,no=24,missing=23
				23:leaf=34.5686
				24:leaf=-1.03055
			12:[f9<-0.0344192] yes=25,no=26,missing=25
				25:leaf=56.4959
				26:leaf=6.08613
		6:[f13<0.276228] yes=13,no=14,missing=13
			13:[f9<-0.105153] yes=27,no=28,missing=27
				27:leaf=10.9224
				28:leaf=0.175916
			14:[f15<0.278751] yes=29,no=30,missing=29
				29:leaf=0.91671
				30:leaf=-0.045825
booster[77]:
0:[f13<0.266211] yes=1,no=2,missing=1
	1:[f5<3.24756] yes=3,no=4,missing=3
		3:[f5<-0.228173] yes=7,no=8,missing=7
			7:[f3<-0.47539] yes=15,no=16,missing=15
				15:leaf=0.228547
				16:leaf=-0.0409236
			8:[f13<0.262767] yes=17,no=18,missing=17
				17:leaf=34.5224
				18:leaf=6.92503
		4:[f13<0.264632] yes=9,no=10,missing=9
			9:[f5<4.03382] yes=19,no=20,missing=19
				19:leaf=36.2057
				20:leaf=50.6196
			10:[f4<0.0661644] yes=21,no=22,missing=21
				21:leaf=-2.82978
				22:leaf=34.3965
	2:[f11<-2.23093] yes=5,no=6,missing=5
		5:[f3<0.0919744] yes=11,no=12,missing=11
			11:[f3<-0.260029] yes=23,no=24,missing=23
				23:leaf=34.2276
				24:leaf=-1.02026
			12:[f9<-0.0344192] yes=25,no=26,missing=25
				25:leaf=55.9404
				26:leaf=6.02593
		6:[f13<0.276228] yes=13,no=14,missing=13
			13:[f9<-0.107685] yes=27,no=28,missing=27
				27:leaf=11.0362
				28:leaf=0.203388
			14:[f14<0.274721] yes=29,no=30,missing=29
				29:leaf=1.20413
				30:leaf=-0.0451712
booster[78]:
0:[f13<0.267362] yes=1,no=2,missing=1
	1:[f5<3.40605] yes=3,no=4,missing=3
		3:[f5<-0.228173] yes=7,no=8,missing=7
			7:[f3<-0.653075] yes=15,no=16,missing=15
				15:leaf=-5.97749
				16:leaf=-0.0756603
			8:[f11<-2.23577] yes=17,no=18,missing=17
				17:leaf=27.1358
				18:leaf=-0.156531
		4:[f11<-2.23536] yes=9,no=10,missing=9
			9:[f5<4.97731] yes=19,no=20,missing=19
				19:leaf=40.5123
				20:leaf=54.6334
			10:[f3<-0.0906447] yes=21,no=22,missing=21
				21:leaf=51.2466
				22:leaf=14.3236
	2:[f11<-2.22578] yes=5,no=6,missing=5
		5:[f5<5.32987] yes=11,no=12,missing=11
			11:[f9<0.0759774] yes=23,no=24,missing=23
				23:leaf=0.812948
				24:leaf=14.7095
			12:[f4<4.41333] yes=25,no=26,missing=25
				25:leaf=4.51316
				26:leaf=45.0258
		6:[f11<-2.22269] yes=13,no=14,missing=13
			13:[f9<0.195781] yes=27,no=28,missing=27
				27:leaf=0.265292
				28:leaf=15.7079
			14:[f14<0.279274] yes=29,no=30,missing=29
				29:leaf=0.552384
				30:leaf=-0.0457765
booster[79]:
0:[f13<0.268452] yes=1,no=2,missing=1
	1:[f5<3.40605] yes=3,no=4,missing=3
		3:[f5<-0.124747] yes=7,no=8,missing=7
			7:[f3<-0.308394] yes=15,no=16,missing=15
				15:leaf=-7.83863
				16:leaf=-0.138976
			8:[f11<-2.23675] yes=17,no=18,missing=17
				17:leaf=31.4155
				18:leaf=3.2655
		4:[f13<0.265732] yes=9,no=10,missing=9
			9:[f5<4.97679] yes=19,no=20,missing=19
				19:leaf=35.3893
				20:leaf=53.3999
			10:[f3<0.0895146] yes=21,no=22,missing=21
				21:leaf=7.62524
				22:leaf=52.598
	2:[f13<0.274999] yes=5,no=6,missing=5
		5:[f9<-0.0952552] yes=11,no=12,missing=11
			11:[f5<2.24395] yes=23,no=24,missing=23
				23:leaf=-7.87239
				24:leaf=36.915
			12:[f9<0.0781101] yes=25,no=26,missing=25
				25:leaf=-0.472319
				26:leaf=13.1225
		6:[f15<0.279069] yes=13,no=14,missing=13
			13:[f6<3.7785] yes=27,no=28,missing=27
				27:leaf=-0.0113559
				28:leaf=6.04077
			14:[f14<0.279274] yes=29,no=30,missing=29
				29:leaf=0.543059
				30:leaf=-0.0453672
booster[80]:
0:[f13<0.266211] yes=1,no=2,missing=1
	1:[f5<3.24756] yes=3,no=4,missing=3
		3:[f5<-0.228173] yes=7,no=8,missing=7
			7:[f3<-0.47539] yes=15,no=16,missing=15
				15:leaf=0.266976
				16:leaf=-0.0383699
			8:[f13<0.262767] yes=17,no=18,missing=17
				17:leaf=33.6037
				18:leaf=6.66075
		4:[f11<-2.23582] yes=9,no=10,missing=9
			9:[f5<4.46657] yes=19,no=20,missing=19
				19:leaf=37.5109
				20:leaf=51.8517
			10:[f4<0.00393265] yes=21,no=22,missing=21
				21:leaf=-1.16515
				22:leaf=32.6393
	2:[f11<-2.23026] yes=5,no=6,missing=5
		5:[f5<5.25659] yes=11,no=12,missing=11
			11:[f3<-0.253003] yes=23,no=24,missing=23
				23:leaf=26.5374
				24:leaf=1.12931
			12:[f8<-0.0438545] yes=25,no=26,missing=25
				25:leaf=14.9985
				26:leaf=62.2736
		6:[f13<0.276228] yes=13,no=14,missing=13
			13:[f9<-0.117179] yes=27,no=28,missing=27
				27:leaf=11.1238
				28:leaf=0.11523
			14:[f12<-2.21967] yes=29,no=30,missing=29
				29:leaf=0.794712
				30:leaf=-0.0441549
booster[81]:
0:[f13<0.268452] yes=1,no=2,missing=1
	1:[f5<3.40605] yes=3,no=4,missing=3
		3:[f5<-0.124747] yes=7,no=8,missing=7
			7:[f3<-0.308394] yes=15,no=16,missing=15
				15:leaf=-7.97565
				16:leaf=-0.140598
			8:[f11<-2.23577] yes=17,no=18,missing=17
				17:leaf=26.3866
				18:leaf=0.501857
		4:[f13<0.265732] yes=9,no=10,missing=9
			9:[f5<4.97679] yes=19,no=20,missing=19
				19:leaf=34.684
				20:leaf=52.4417
			10:[f3<-0.142229] yes=21,no=22,missing=21
				21:leaf=53.6215
				22:leaf=7.68199
	2:[f13<0.274999] yes=5,no=6,missing=5
		5:[f9<-0.0952552] yes=11,no=12,missing=11
			11:[f5<2.24395] yes=23,no=24,missing=23
				23:leaf=-7.90035
				24:leaf=36.4329
			12:[f9<0.0781101] yes=25,no=26,missing=25
				25:leaf=-0.475259
				26:leaf=12.9795
		6:[f14<0.274721] yes=13,no=14,missing=13
			13:[f4<2.57346] yes=27,no=28,missing=27
				27:leaf=-0.29091
				28:leaf=7.61487
			14:[f12<-2.21967] yes=29,no=30,missing=29
				29:leaf=0.777677
				30:leaf=-0.043853
booster[82]:
0:[f13<0.268452] yes=1,no=2,missing=1
	1:[f5<3.40605] yes=3,no=4,missing=3
		3:[f5<-0.124747] yes=7,no=8,missing=7
			7:[f3<-0.308394] yes=15,no=16,missing=15
				15:leaf=-7.90476
				16:leaf=-0.139193
			8:[f11<-2.23675] yes=17,no=18,missing=17
				17:leaf=30.545
				18:leaf=3.11185
		4:[f13<0.265732] yes=9,no=10,missing=9
			9:[f5<4.97679] yes=19,no=20,missing=19
				19:leaf=34.3382
				20:leaf=51.9207
			10:[f3<0.0895146] yes=21,no=22,missing=21
				21:leaf=7.29098
				22:leaf=51.8086
	2:[f13<0.275791] yes=5,no=6,missing=5
		5:[f5<5.33458] yes=11,no=12,missing=11
			11:[f9<0.0781101] yes=23,no=24,missing=23
				23:leaf=0.324466
				24:leaf=13.0648
			12:[f4<2.94269] yes=25,no=26,missing=25
				25:leaf=-4.30469
				26:leaf=34.6959
		6:[f14<0.274721] yes=13,no=14,missing=13
			13:[f4<2.673] yes=27,no=28,missing=27
				27:leaf=-0.278106
				28:leaf=7.58357
			14:[f15<0.278751] yes=29,no=30,missing=29
				29:leaf=0.870045
				30:leaf=-0.0436592
booster[83]:
0:[f13<0.268452] yes=1,no=2,missing=1
	1:[f5<3.40605] yes=3,no=4,missing=3
		3:[f5<-0.124747] yes=7,no=8,missing=7
			7:[f3<-0.308394] yes=15,no=16,missing=15
				15:leaf=-7.83449
				16:leaf=-0.137802
			8:[f11<-2.23577] yes=17,no=18,missing=17
				17:leaf=25.8984
				18:leaf=0.46588
		4:[f13<0.265732] yes=9,no=10,missing=9
			9:[f5<4.97679] yes=19,no=20,missing=19
				19:leaf=33.9958
				20:leaf=51.4048
			10:[f3<-0.142229] yes=21,no=22,missing=21
				21:leaf=53.0226
				22:leaf=7.44536
	2:[f13<0.274999] yes=5,no=6,missing=5
		5:[f9<-0.0952552] yes=11,no=12,missing=11
			11:[f5<2.24395] yes=23,no=24,missing=23
				23:leaf=-7.82504
				24:leaf=35.9867
			12:[f9<0.0781101] yes=25,no=26,missing=25
				25:leaf=-0.476381
				26:leaf=12.7245
		6:[f14<0.279274] yes=13,no=14,missing=13
			13:[f4<4.39175] yes=27,no=28,missing=27
				27:leaf=-0.032627
				28:leaf=8.07666
			14:[f12<-2.21967] yes=29,no=30,missing=29
				29:leaf=0.76439
				30:leaf=-0.043697
booster[84]:
0:[f13<0.268452] yes=1,no=2,missing=1
	1:[f5<3.40605] yes=3,no=4,missing=3
		3:[f5<-0.124747] yes=7,no=8,missing=7
			7:[f3<-0.308394] yes=15,no=16,missing=15
				15:leaf=-7.76485
				16:leaf=-0.136425
			8:[f11<-2.23675] yes=17,no=18,missing=17
				17:leaf=29.985
				18:leaf=3.0303
		4:[f13<0.265732] yes=9,no=10,missing=9
			9:[f5<4.97679] yes=19,no=20,missing=19
				19:leaf=33.6568
				20:leaf=50.8941
			10:[f3<0.0895146] yes=21,no=22,missing=21
				21:leaf=7.05925
				22:leaf=51.2253
	2:[f13<0.275791] yes=5,no=6,missing=5
		5:[f5<5.33458] yes=11,no=12,missing=11
			11:[f9<0.0781101] yes=23,no=24,missing=23
				23:leaf=0.31608
				24:leaf=12.8227
			12:[f4<2.94269] yes=25,no=26,missing=25
				25:leaf=-4.2952
				26:leaf=34.1508
		6:[f14<0.279274] yes=13,no=14,missing=13
			13:[f4<4.39175] yes=27,no=28,missing=27
				27:leaf=-0.0323009
				28:leaf=7.99645
			14:[f15<0.278751] yes=29,no=30,missing=29
				29:leaf=0.8554
				30:leaf=-0.0435019
booster[85]:
0:[f13<0.266211] yes=1,no=2,missing=1
	1:[f5<3.24756] yes=3,no=4,missing=3
		3:[f5<-0.228173] yes=7,no=8,missing=7
			7:[f3<-0.47539] yes=15,no=16,missing=15
				15:leaf=0.42304
				16:leaf=-0.0324504
			8:[f13<0.262767] yes=17,no=18,missing=17
				17:leaf=32.1586
				18:leaf=6.21219
		4:[f11<-2.23582] yes=9,no=10,missing=9
			9:[f5<4.46657] yes=19,no=20,missing=19
				19:leaf=35.8535
				20:leaf=49.5224
			10:[f4<0.00393265] yes=21,no=22,missing=21
				21:leaf=-2.06684
				22:leaf=31.1482
	2:[f11<-2.23026] yes=5,no=6,missing=5
		5:[f5<5.25659] yes=11,no=12,missing=11
			11:[f3<-0.253003] yes=23,no=24,missing=23
				23:leaf=25.799
				24:leaf=1.01112
			12:[f8<-0.0438545] yes=25,no=26,missing=25
				25:leaf=14.5006
				26:leaf=60.7092
		6:[f11<-2.22305] yes=13,no=14,missing=13
			13:[f9<-0.117194] yes=27,no=28,missing=27
				27:leaf=9.84543
				28:leaf=0.0960807
			14:[f14<0.274721] yes=29,no=30,missing=29
				29:leaf=1.14234
				30:leaf=-0.0419524
booster[86]:
0:[f11<-2.23422] yes=1,no=2,missing=1
	1:[f5<3.04268] yes=3,no=4,missing=3
		3:[f5<-0.19567] yes=7,no=8,missing=7
			7:[f3<-0.47539] yes=15,no=16,missing=15
				15:leaf=0.420924
				16:leaf=-0.0321572
			8:[f5<2.99605] yes=17,no=18,missing=17
				17:leaf=43.4808
				18:leaf=3.39005
		4:[f5<4.25024] yes=9,no=10,missing=9
			9:[f3<-0.00947905] yes=19,no=20,missing=19
				19:leaf=40.9076
				20:leaf=19.4091
			10:[f10<-2.1465] yes=21,no=22,missing=21
				21:leaf=11.8263
				22:leaf=46.4288
	2:[f11<-2.23093] yes=5,no=6,missing=5
		5:[f3<0.0958951] yes=11,no=12,missing=11
			11:[f3<-0.260029] yes=23,no=24,missing=23
				23:leaf=33.8118
				24:leaf=-0.987469
			12:[f5<3.15048] yes=25,no=26,missing=25
				25:leaf=0.265379
				26:leaf=48.8722
		6:[f13<0.276228] yes=13,no=14,missing=13
			13:[f9<-0.120792] yes=27,no=28,missing=27
				27:leaf=11.0001
				28:leaf=0.209387
			14:[f14<0.279274] yes=29,no=30,missing=29
				29:leaf=0.524255
				30:leaf=-0.0419974
booster[87]:
0:[f11<-2.23422] yes=1,no=2,missing=1
	1:[f5<3.04268] yes=3,no=4,missing=3
		3:[f5<-0.19567] yes=7,no=8,missing=7
			7:[f3<-0.47539] yes=15,no=16,missing=15
				15:leaf=0.41882
				16:leaf=-0.0318359
			8:[f5<2.99605] yes=17,no=18,missing=17
				17:leaf=43.1329
				18:leaf=3.35814
		4:[f5<4.25024] yes=9,no=10,missing=9
			9:[f3<-0.00947905] yes=19,no=20,missing=19
				19:leaf=40.502
				20:leaf=19.2156
			10:[f10<-2.1465] yes=21,no=22,missing=21
				21:leaf=11.7179
				22:leaf=45.9664
	2:[f11<-2.23093] yes=5,no=6,missing=5
		5:[f3<0.0919744] yes=11,no=12,missing=11
			11:[f9<0.0392589] yes=23,no=24,missing=23
				23:leaf=-1.78823
				24:leaf=28.052
			12:[f9<-0.0389993] yes=25,no=26,missing=25
				25:leaf=55.3973
				26:leaf=7.64578
		6:[f13<0.276228] yes=13,no=14,missing=13
			13:[f9<-0.120792] yes=27,no=28,missing=27
				27:leaf=10.8904
				28:leaf=0.207294
			14:[f12<-2.21967] yes=29,no=30,missing=29
				29:leaf=0.758385
				30:leaf=-0.0411908
booster[88]:
0:[f13<0.267362] yes=1,no=2,missing=1
	1:[f5<3.40605] yes=3,no=4,missing=3
		3:[f5<-0.228173] yes=7,no=8,missing=7
			7:[f3<-0.653075] yes=15,no=16,missing=15
				15:leaf=-6.17281
				16:leaf=-0.0703263
			8:[f11<-2.23577] yes=17,no=18,missing=17
				17:leaf=24.7852
				18:leaf=-0.590822
		4:[f11<-2.23582] yes=9,no=10,missing=9
			9:[f10<8.88414] yes=19,no=20,missing=19
				19:leaf=43.5369
				20:leaf=-8.28343
			10:[f3<-0.0571039] yes=21,no=22,missing=21
				21:leaf=45.7882
				22:leaf=14.047
	2:[f13<0.271959] yes=5,no=6,missing=5
		5:[f5<5.31332] yes=11,no=12,missing=11
			11:[f9<0.0602244] yes=23,no=24,missing=23
				23:leaf=0.463313
				24:leaf=13.5186
			12:[f9<-0.031014] yes=25,no=26,missing=25
				25:leaf=59.6853
				26:leaf=-2.27124
		6:[f11<-2.22269] yes=13,no=14,missing=13
			13:[f9<-0.151398] yes=27,no=28,missing=27
				27:leaf=11.416
				28:leaf=-0.152484
			14:[f14<0.274721] yes=29,no=30,missing=29
				29:leaf=1.12611
				30:leaf=-0.0408037
booster[89]:
0:[f11<-2.23422] yes=1,no=2,missing=1
	1:[f5<3.04268] yes=3,no=4,missing=3
		3:[f5<-0.19567] yes=7,no=8,missing=7
			7:[f3<-0.47539] yes=15,no=16,missing=15
				15:leaf=0.417077
				16:leaf=-0.0308151
			8:[f5<2.99605] yes=17,no=18,missing=17
				17:leaf=42.7418
				18:leaf=3.1679
		4:[f5<4.25024] yes=9,no=10,missing=9
			9:[f3<-0.00947905] yes=19,no=20,missing=19
				19:leaf=39.71
				20:leaf=18.7964
			10:[f10<-2.1465] yes=21,no=22,missing=21
				21:leaf=11.3343
				22:leaf=45.1701
	2:[f11<-2.23093] yes=5,no=6,missing=5
		5:[f3<0.0958951] yes=11,no=12,missing=11
			11:[f3<-0.260029] yes=23,no=24,missing=23
				23:leaf=33.128
				24:leaf=-1.01517
			12:[f9<0.00498918] yes=25,no=26,missing=25
				25:leaf=47.3108
				26:leaf=-0.569219
		6:[f13<0.276228] yes=13,no=14,missing=13
			13:[f9<-0.120792] yes=27,no=28,missing=27
				27:leaf=10.7002
				28:leaf=0.197082
			14:[f14<0.279274] yes=29,no=30,missing=29
				29:leaf=0.517139
				30:leaf=-0.0407716
booster[90]:
0:[f11<-2.23422] yes=1,no=2,missing=1
	1:[f5<3.04268] yes=3,no=4,missing=3
		3:[f5<-0.19567] yes=7,no=8,missing=7
			7:[f3<-0.47539] yes=15,no=16,missing=15
				15:leaf=0.414992
				16:leaf=-0.0305072
			8:[f5<2.99605] yes=17,no=18,missing=17
				17:leaf=42.3999
				18:leaf=3.13808
		4:[f5<4.25024] yes=9,no=10,missing=9
			9:[f3<-0.00947905] yes=19,no=20,missing=19
				19:leaf=39.3163
				20:leaf=18.609
			10:[f10<-2.1465] yes=21,no=22,missing=21
				21:leaf=11.2304
				22:leaf=44.7202
	2:[f11<-2.23093] yes=5,no=6,missing=5
		5:[f3<0.0919744] yes=11,no=12,missing=11
			11:[f9<0.0392589] yes=23,no=24,missing=23
				23:leaf=-1.79859
				24:leaf=27.4572
			12:[f9<-0.0389993] yes=25,no=26,missing=25
				25:leaf=54.2498
				26:leaf=7.38976
		6:[f13<0.276228] yes=13,no=14,missing=13
			13:[f9<-0.120792] yes=27,no=28,missing=27
				27:leaf=10.5936
				28:leaf=0.195112
			14:[f15<0.278751] yes=29,no=30,missing=29
				29:leaf=0.852575
				30:leaf=-0.0398843
booster[91]:
0:[f11<-2.23422] yes=1,no=2,missing=1
	1:[f5<3.26402] yes=3,no=4,missing=3
		3:[f5<-0.19567] yes=7,no=8,missing=7
			7:[f3<-0.47539] yes=15,no=16,missing=15
				15:leaf=0.412917
				16:leaf=-0.0302023
			8:[f13<0.262767] yes=17,no=18,missing=17
				17:leaf=30.8741
				18:leaf=6.65826
		4:[f5<4.97679] yes=9,no=10,missing=9
			9:[f11<-2.23582] yes=19,no=20,missing=19
				19:leaf=37.3359
				20:leaf=19.0664
			10:[f6<6.41006] yes=21,no=22,missing=21
				21:leaf=49.825
				22:leaf=21.3715
	2:[f11<-2.23093] yes=5,no=6,missing=5
		5:[f3<0.0919744] yes=11,no=12,missing=11
			11:[f9<0.0392589] yes=23,no=24,missing=23
				23:leaf=-1.78062
				24:leaf=27.185
			12:[f9<-0.0389993] yes=25,no=26,missing=25
				25:leaf=53.7156
				26:leaf=7.31656
		6:[f13<0.276228] yes=13,no=14,missing=13
			13:[f9<-0.120792] yes=27,no=28,missing=27
				27:leaf=10.488
				28:leaf=0.193162
			14:[f14<0.274721] yes=29,no=30,missing=29
				29:leaf=1.11009
				30:leaf=-0.0392993
booster[92]:
0:[f11<-2.23422] yes=1,no=2,missing=1
	1:[f5<3.26402] yes=3,no=4,missing=3
		3:[f5<-0.19567] yes=7,no=8,missing=7
			7:[f3<-0.47539] yes=15,no=16,missing=15
				15:leaf=0.410852
				16:leaf=-0.0299005
			8:[f13<0.262767] yes=17,no=18,missing=17
				17:leaf=30.569
				18:leaf=6.59221
		4:[f5<4.97679] yes=9,no=10,missing=9
			9:[f11<-2.23619] yes=19,no=20,missing=19
				19:leaf=38.2775
				20:leaf=20.451
			10:[f6<6.41006] yes=21,no=22,missing=21
				21:leaf=49.3301
				22:leaf=21.1743
	2:[f11<-2.23093] yes=5,no=6,missing=5
		5:[f3<0.0958951] yes=11,no=12,missing=11
			11:[f3<-0.260029] yes=23,no=24,missing=23
				23:leaf=32.5064
				24:leaf=-1.01675
			12:[f5<3.15048] yes=25,no=26,missing=25
				25:leaf=-0.120114
				26:leaf=46.664
		6:[f13<0.276228] yes=13,no=14,missing=13
			13:[f9<-0.120792] yes=27,no=28,missing=27
				27:leaf=10.3835
				28:leaf=0.191231
			14:[f12<-2.21967] yes=29,no=30,missing=29
				29:leaf=0.74536
				30:leaf=-0.0392018
booster[93]:
0:[f13<0.267362] yes=1,no=2,missing=1
	1:[f5<3.40605] yes=3,no=4,missing=3
		3:[f5<-0.228173] yes=7,no=8,missing=7
			7:[f3<-0.653075] yes=15,no=16,missing=15
				15:leaf=-6.45222
				16:leaf=-0.0682024
			8:[f11<-2.23577] yes=17,no=18,missing=17
				17:leaf=23.7032
				18:leaf=-0.894069
		4:[f11<-2.23582] yes=9,no=10,missing=9
			9:[f10<8.88414] yes=19,no=20,missing=19
				19:leaf=41.574
				20:leaf=-9.15498
			10:[f3<-0.0571039] yes=21,no=22,missing=21
				21:leaf=44.3037
				22:leaf=13.1759
	2:[f13<0.271959] yes=5,no=6,missing=5
		5:[f5<5.31332] yes=11,no=12,missing=11
			11:[f9<0.0602244] yes=23,no=24,missing=23
				23:leaf=0.385632
				24:leaf=13.1895
			12:[f9<-0.031014] yes=25,no=26,missing=25
				25:leaf=58.2621
				26:leaf=-2.33942
		6:[f11<-2.22269] yes=13,no=14,missing=13
			13:[f9<-0.175942] yes=27,no=28,missing=27
				27:leaf=11.594
				28:leaf=-0.10657
			14:[f14<0.279274] yes=29,no=30,missing=29
				29:leaf=0.510489
				30:leaf=-0.0395063
booster[94]:
0:[f11<-2.23422] yes=1,no=2,missing=1
	1:[f5<3.26402] yes=3,no=4,missing=3
		3:[f5<-0.19567] yes=7,no=8,missing=7
			7:[f3<-0.47539] yes=15,no=16,missing=15
				15:leaf=0.409139
				16:leaf=-0.0289202
			8:[f13<0.262767] yes=17,no=18,missing=17
				17:leaf=30.0328
				18:leaf=6.40778
		4:[f5<4.97679] yes=9,no=10,missing=9
			9:[f11<-2.23619] yes=19,no=20,missing=19
				19:leaf=37.5089
				20:leaf=20.015
			10:[f6<6.41006] yes=21,no=22,missing=21
				21:leaf=48.5127
				22:leaf=20.6824
	2:[f11<-2.2304] yes=5,no=6,missing=5
		5:[f3<0.116774] yes=11,no=12,missing=11
			11:[f3<-0.253003] yes=23,no=24,missing=23
				23:leaf=27.1947
				24:leaf=-0.420101
			12:[f5<3.43086] yes=25,no=26,missing=25
				25:leaf=5.04809
				26:leaf=57.6466
		6:[f11<-2.22305] yes=13,no=14,missing=13
			13:[f9<-0.117194] yes=27,no=28,missing=27
				27:leaf=9.2595
				28:leaf=0.069755
			14:[f15<0.278751] yes=29,no=30,missing=29
				29:leaf=0.837375
				30:leaf=-0.0385542
booster[95]:
0:[f11<-2.23422] yes=1,no=2,missing=1
	1:[f5<3.26402] yes=3,no=4,missing=3
		3:[f5<-0.19567] yes=7,no=8,missing=7
			7:[f3<-0.47539] yes=15,no=16,missing=15
				15:leaf=0.407093
				16:leaf=-0.0286313
			8:[f13<0.262767] yes=17,no=18,missing=17
				17:leaf=29.736
				18:leaf=6.34421
		4:[f5<4.97679] yes=9,no=10,missing=9
			9:[f11<-2.23582] yes=19,no=20,missing=19
				19:leaf=35.8726
				20:leaf=18.2679
			10:[f6<6.41006] yes=21,no=22,missing=21
				21:leaf=48.0309
				22:leaf=20.4915
	2:[f11<-2.23093] yes=5,no=6,missing=5
		5:[f3<0.0919744] yes=11,no=12,missing=11
			11:[f9<0.0392589] yes=23,no=24,missing=23
				23:leaf=-1.79516
				24:leaf=26.5017
			12:[f9<-0.0389993] yes=25,no=26,missing=25
				25:leaf=52.2846
				26:leaf=6.93634
		6:[f13<0.275791] yes=13,no=14,missing=13
			13:[f9<-0.0977359] yes=27,no=28,missing=27
				27:leaf=9.8209
				28:leaf=0.0392259
			14:[f14<0.274721] yes=29,no=30,missing=29
				29:leaf=1.09466
				30:leaf=-0.0376351
booster[96]:
0:[f11<-2.23422] yes=1,no=2,missing=1
	1:[f5<3.26402] yes=3,no=4,missing=3
		3:[f5<-0.19567] yes=7,no=8,missing=7
			7:[f3<-0.47539] yes=15,no=16,missing=15
				15:leaf=0.405058
				16:leaf=-0.0283452
			8:[f13<0.262767] yes=17,no=18,missing=17
				17:leaf=29.4422
				18:leaf=6.28128
		4:[f5<4.97679] yes=9,no=10,missing=9
			9:[f11<-2.23619] yes=19,no=20,missing=19
				19:leaf=36.7788
				20:leaf=19.6056
			10:[f6<6.41006] yes=21,no=22,missing=21
				21:leaf=47.5539
				22:leaf=20.3023
	2:[f11<-2.23026] yes=5,no=6,missing=5
		5:[f3<0.116774] yes=11,no=12,missing=11
			11:[f3<-0.253003] yes=23,no=24,missing=23
				23:leaf=25.1911
				24:leaf=-0.294983
			12:[f5<3.61773] yes=25,no=26,missing=25
				25:leaf=5.22996
				26:leaf=56.534
		6:[f11<-2.22305] yes=13,no=14,missing=13
			13:[f9<0.0979575] yes=27,no=28,missing=27
				27:leaf=0.389289
				28:leaf=13.2426
			14:[f12<-2.21967] yes=29,no=30,missing=29
				29:leaf=0.732157
				30:leaf=-0.0378997
booster[97]:
0:[f11<-2.23335] yes=1,no=2,missing=1
	1:[f5<3.40605] yes=3,no=4,missing=3
		3:[f5<-0.228173] yes=7,no=8,missing=7
			7:[f3<-0.278352] yes=15,no=16,missing=15
				15:leaf=-1.70921
				16:leaf=-0.0301375
			8:[f11<-2.23675] yes=17,no=18,missing=17
				17:leaf=26.8094
				18:leaf=3.29333
		4:[f11<-2.23582] yes=9,no=10,missing=9
			9:[f10<8.88414] yes=19,no=20,missing=19
				19:leaf=39.9931
				20:leaf=-9.82436
			10:[f4<0.164169] yes=21,no=22,missing=21
				21:leaf=1.82535
				22:leaf=30.0177
	2:[f13<0.269825] yes=5,no=6,missing=5
		5:[f5<5.11922] yes=11,no=12,missing=11
			11:[f3<-0.353579] yes=23,no=24,missing=23
				23:leaf=26.528
				24:leaf=0.356965
			12:[f3<0.0700228] yes=25,no=26,missing=25
				25:leaf=-6.79835
				26:leaf=52.9513
		6:[f11<-2.22305] yes=13,no=14,missing=13
			13:[f9<0.0979575] yes=27,no=28,missing=27
				27:leaf=0.36104
				28:leaf=13.3242
			14:[f14<0.279274] yes=29,no=30,missing=29
				29:leaf=0.503902
				30:leaf=-0.0379066
booster[98]:
0:[f11<-2.23422] yes=1,no=2,missing=1
	1:[f5<3.26402] yes=3,no=4,missing=3
		3:[f5<-0.19567] yes=7,no=8,missing=7
			7:[f3<-0.47539] yes=15,no=16,missing=15
				15:leaf=0.411579
				16:leaf=-0.0277479
			8:[f13<0.262767] yes=17,no=18,missing=17
				17:leaf=28.8864
				18:leaf=6.14491
		4:[f5<4.97679] yes=9,no=10,missing=9
			9:[f11<-2.23531] yes=19,no=20,missing=19
				19:leaf=32.8343
				20:leaf=13.6842
			10:[f6<6.41006] yes=21,no=22,missing=21
				21:leaf=46.7499
				22:leaf=19.8632
	2:[f11<-2.23093] yes=5,no=6,missing=5
		5:[f3<0.0919744] yes=11,no=12,missing=11
			11:[f9<0.0392589] yes=23,no=24,missing=23
				23:leaf=-1.80892
				24:leaf=26.0154
			12:[f9<-0.0389993] yes=25,no=26,missing=25
				25:leaf=51.1951
				26:leaf=6.67292
		6:[f13<0.275791] yes=13,no=14,missing=13
			13:[f9<-0.0977359] yes=27,no=28,missing=27
				27:leaf=9.6922
				28:leaf=0.0150888
			14:[f14<0.274721] yes=29,no=30,missing=29
				29:leaf=1.07907
				30:leaf=-0.0365318
booster[99]:
0:[f11<-2.23422] yes=1,no=2,missing=1
	1:[f5<3.26402] yes=3,no=4,missing=3
		3:[f5<-0.19567] yes=7,no=8,missing=7
			7:[f3<-0.47539] yes=15,no=16,missing=15
				15:leaf=0.409521
				16:leaf=-0.0274707
			8:[f13<0.262767] yes=17,no=18,missing=17
				17:leaf=28.601
				18:leaf=6.08395
		4:[f5<4.97679] yes=9,no=10,missing=9
			9:[f11<-2.23619] yes=19,no=20,missing=19
				19:leaf=35.7122
				20:leaf=18.9609
			10:[f6<6.41006] yes=21,no=22,missing=21
				21:leaf=46.2856
				22:leaf=19.6799
	2:[f11<-2.23093] yes=5,no=6,missing=5
		5:[f3<0.0919744] yes=11,no=12,missing=11
			11:[f9<0.0392589] yes=23,no=24,missing=23
				23:leaf=-1.79085
				24:leaf=25.7575
			12:[f9<-0.0389993] yes=25,no=26,missing=25
				25:leaf=50.691
				26:leaf=6.60682
		6:[f13<0.276228] yes=13,no=14,missing=13
			13:[f9<0.0979575] yes=27,no=28,missing=27
				27:leaf=0.481781
				28:leaf=14.2823
			14:[f15<0.278751] yes=29,no=30,missing=29
				29:leaf=0.822777
				30:leaf=-0.0364857
booster[100]:
0:[f11<-2.23422] yes=1,no=2,missing=1
	1:[f5<3.26402] yes=3,no=4,missing=3
		3:[f5<-0.19567] yes=7,no=8,missing=7
			7:[f3<-0.47539] yes=15,no=16,missing=15
				15:leaf=0.407473
				16:leaf=-0.0271962
			8:[f13<0.262767] yes=17,no=18,missing=17
				17:leaf=28.3184
				18:leaf=6.0236
		4:[f5<4.97679] yes=9,no=10,missing=9
			9:[f11<-2.23531] yes=19,no=20,missing=19
				19:leaf=32.2028
				20:leaf=13.3609
			10:[f6<6.41006] yes=21,no=22,missing=21
				21:leaf=45.8259
				22:leaf=19.4982
	2:[f11<-2.23026] yes=5,no=6,missing=5
		5:[f3<0.116774] yes=11,no=12,missing=11
			11:[f3<-0.253003] yes=23,no=24,missing=23
				23:leaf=24.5121
				24:leaf=-0.340271
			12:[f5<3.61773] yes=25,no=26,missing=25
				25:leaf=4.93872
				26:leaf=54.9937
		6:[f11<-2.22269] yes=13,no=14,missing=13
			13:[f9<0.0981015] yes=27,no=28,missing=27
				27:leaf=0.346114
				28:leaf=12.5633
			14:[f14<0.279274] yes=29,no=30,missing=29
				29:leaf=0.497017
				30:leaf=-0.0368859
booster[101]:
0:[f11<-2.23335] yes=1,no=2,missing=1
	1:[f5<3.40605] yes=3,no=4,missing=3
		3:[f5<-0.228173] yes=7,no=8,missing=7
			7:[f3<-0.278352] yes=15,no=16,missing=15
				15:leaf=-1.80144
				16:leaf=-0.029293
			8:[f11<-2.23675] yes=17,no=18,missing=17
				17:leaf=25.7864
				18:leaf=3.0656
		4:[f11<-2.23582] yes=9,no=10,missing=9
			9:[f10<8.88414] yes=19,no=20,missing=19
				19:leaf=38.4912
				20:leaf=-10.4848
			10:[f4<0.164169] yes=21,no=22,missing=21
				21:leaf=1.37941
				22:leaf=29.1198
	2:[f13<0.269825] yes=5,no=6,missing=5
		5:[f5<5.11922] yes=11,no=12,missing=11
			11:[f3<-0.353579] yes=23,no=24,missing=23
				23:leaf=25.7683
				24:leaf=0.295062
			12:[f3<0.0700228] yes=25,no=26,missing=25
				25:leaf=-6.71572
				26:leaf=51.5137
		6:[f11<-2.22269] yes=13,no=14,missing=13
			13:[f9<0.0981015] yes=27,no=28,missing=27
				27:leaf=0.319248
				28:leaf=12.6332
			14:[f12<-2.21967] yes=29,no=30,missing=29
				29:leaf=0.719528
				30:leaf=-0.0361544
booster[102]:
0:[f11<-2.23422] yes=1,no=2,missing=1
	1:[f5<3.26402] yes=3,no=4,missing=3
		3:[f5<-0.19567] yes=7,no=8,missing=7
			7:[f3<-0.47539] yes=15,no=16,missing=15
				15:leaf=0.414443
				16:leaf=-0.0266181
			8:[f11<-2.23577] yes=17,no=18,missing=17
				17:leaf=21.5364
				18:leaf=-2.30688
		4:[f5<4.97679] yes=9,no=10,missing=9
			9:[f11<-2.23531] yes=19,no=20,missing=19
				19:leaf=31.5612
				20:leaf=13.0248
			10:[f6<6.41006] yes=21,no=22,missing=21
				21:leaf=45.0516
				22:leaf=19.0771
	2:[f11<-2.23093] yes=5,no=6,missing=5
		5:[f3<0.0919744] yes=11,no=12,missing=11
