booster[0]:
0:[f13<0.267917] yes=1,no=2,missing=1
	1:[f5<3.18858] yes=3,no=4,missing=3
		3:[f5<-0.228173] yes=7,no=8,missing=7
			7:[f5<-2.99898] yes=15,no=16,missing=15
				15:[f3<-0.0997911] yes=31,no=32,missing=31
					31:leaf=-0.232591
					32:leaf=-0.256366
				16:[f1<-0.142442] yes=33,no=34,missing=33
					33:leaf=-0.0204651
					34:leaf=-0.190008
			8:[f11<-2.23674] yes=17,no=18,missing=17
				17:[f4<4.99736] yes=35,no=36,missing=35
					35:leaf=167.736
					36:leaf=57.1736
				18:[f9<-0.0310722] yes=37,no=38,missing=37
					37:leaf=150.619
					38:leaf=24.4387
		4:[f13<0.26448] yes=9,no=10,missing=9
			9:[f5<4.03382] yes=19,no=20,missing=19
				19:[f5<3.38984] yes=39,no=40,missing=39
					39:leaf=141.214
					40:leaf=201.992
				20:[f11<-2.23577] yes=41,no=42,missing=41
					41:leaf=269.603
					42:leaf=185.638
			10:[f4<0.538352] yes=21,no=22,missing=21
				21:[f1<0.0706789] yes=43,no=44,missing=43
					43:leaf=22.0763
					44:leaf=171.026
				22:[f3<0.0793204] yes=45,no=46,missing=45
					45:leaf=109.617
					46:leaf=204.471
	2:[f13<0.274936] yes=5,no=6,missing=5
		5:[f5<5.31332] yes=11,no=12,missing=11
			11:[f9<-0.0955045] yes=23,no=24,missing=23
				23:[f5<2.24395] yes=47,no=48,missing=47
					47:leaf=0.114972
					48:leaf=114.844
				24:[f9<0.0693159] yes=49,no=50,missing=49
					49:leaf=1.62607
					50:leaf=36.3482
			12:[f11<-2.22802] yes=25,no=26,missing=25
				25:[f4<3.10519] yes=51,no=52,missing=51
					51:leaf=12.3245
					52:leaf=239.273
				26:[f8<0.00727142] yes=53,no=54,missing=53
					53:leaf=12.3056
					54:leaf=111.125
		6:[f12<-2.22039] yes=13,no=14,missing=13
			13:[f6<3.82275] yes=27,no=28,missing=27
				27:[f6<2.17248] yes=55,no=56,missing=55
					55:leaf=-0.235457
					56:leaf=7.44453
				28:[f6<5.55081] yes=57,no=58,missing=57
					57:leaf=15.8802
					58:leaf=27.6219
			14:[f11<-2.22305] yes=29,no=30,missing=29
				29:[f9<0.221476] yes=59,no=60,missing=59
					59:leaf=1.86626
					60:leaf=45.0359
				30:[f14<0.279274] yes=61,no=62,missing=61
					61:leaf=1.63682
					62:leaf=-0.25002
booster[1]:
0:[f13<0.267917] yes=1,no=2,missing=1
	1:[f5<3.18858] yes=3,no=4,missing=3
		3:[f5<-0.228173] yes=7,no=8,missing=7
			7:[f5<-2.99898] yes=15,no=16,missing=15
				15:[f3<-0.11146] yes=31,no=32,missing=31
					31:leaf=-0.224185
					32:leaf=-0.249663
				16:[f1<-0.142442] yes=33,no=34,missing=33
					33:leaf=-0.020124
					34:leaf=-0.185411
			8:[f11<-2.23674] yes=17,no=18,missing=17
				17:[f5<3.18781] yes=35,no=36,missing=35
					35:leaf=163.716
					36:leaf=54.608
				18:[f9<-0.0310722] yes=37,no=38,missing=37
					37:leaf=147.272
					38:leaf=23.8325
		4:[f13<0.26448] yes=9,no=10,missing=9
			9:[f5<4.03382] yes=19,no=20,missing=19
				19:[f5<3.38984] yes=39,no=40,missing=39
					39:leaf=137.721
					40:leaf=196.978
				20:[f11<-2.23577] yes=41,no=42,missing=41
					41:leaf=262.896
					42:leaf=181.307
			10:[f4<0.538352] yes=21,no=22,missing=21
				21:[f1<0.0706789] yes=43,no=44,missing=43
					43:leaf=21.5273
					44:leaf=167.107
				22:[f3<0.0793204] yes=45,no=46,missing=45
					45:leaf=106.889
					46:leaf=199.416
	2:[f13<0.274936] yes=5,no=6,missing=5
		5:[f5<5.31332] yes=11,no=12,missing=11
			11:[f9<-0.0955045] yes=23,no=24,missing=23
				23:[f5<2.24395] yes=47,no=48,missing=47
					47:leaf=0.112114
					48:leaf=112
				24:[f9<0.0693159] yes=49,no=50,missing=49
					49:leaf=1.58544
					50:leaf=35.4443
			12:[f11<-2.22802] yes=25,no=26,missing=25
				25:[f4<3.10519] yes=51,no=52,missing=51
					51:leaf=12.0384
					52:leaf=233.472
				26:[f8<0.00727142] yes=53,no=54,missing=53
					53:leaf=12.007
					54:leaf=108.655
		6:[f12<-2.22039] yes=13,no=14,missing=13
			13:[f6<3.82275] yes=27,no=28,missing=27
				27:[f6<2.17248] yes=55,no=56,missing=55
					55:leaf=-0.229579
					56:leaf=7.26017
				28:[f6<5.55081] yes=57,no=58,missing=57
					57:leaf=15.4886
					58:leaf=26.9415
			14:[f11<-2.22305] yes=29,no=30,missing=29
				29:[f9<0.221476] yes=59,no=60,missing=59
					59:leaf=1.81966
					60:leaf=43.9441
				30:[f14<0.274721] yes=61,no=62,missing=61
					61:leaf=3.5944
					62:leaf=-0.241526
booster[2]:
0:[f13<0.267917] yes=1,no=2,missing=1
	1:[f5<3.18858] yes=3,no=4,missing=3
		3:[f5<-0.228173] yes=7,no=8,missing=7
			7:[f5<-2.99898] yes=15,no=16,missing=15
				15:[f3<-0.0997911] yes=31,no=32,missing=31
					31:leaf=-0.22111
					32:leaf=-0.243724
				16:[f1<-0.142442] yes=33,no=34,missing=33
					33:leaf=-0.0197886
					34:leaf=-0.180925
			8:[f11<-2.23674] yes=17,no=18,missing=17
				17:[f4<4.99736] yes=35,no=36,missing=35
					35:leaf=159.714
					36:leaf=53.4921
				18:[f9<-0.0310722] yes=37,no=38,missing=37
					37:leaf=143.999
					38:leaf=23.2413
		4:[f13<0.26448] yes=9,no=10,missing=9
			9:[f5<4.03382] yes=19,no=20,missing=19
				19:[f5<3.38984] yes=39,no=40,missing=39
					39:leaf=134.314
					40:leaf=192.089
				20:[f11<-2.23577] yes=41,no=42,missing=41
					41:leaf=256.357
					42:leaf=177.076
			10:[f4<0.538352] yes=21,no=22,missing=21
				21:[f2<-0.000180709] yes=43,no=44,missing=43
					43:leaf=68.4023
					44:leaf=0.153283
				22:[f3<-0.104828] yes=45,no=46,missing=45
					45:leaf=200.795
					46:leaf=106.203
	2:[f13<0.274936] yes=5,no=6,missing=5
		5:[f5<5.31332] yes=11,no=12,missing=11
			11:[f9<-0.0955045] yes=23,no=24,missing=23
				23:[f5<2.24395] yes=47,no=48,missing=47
					47:leaf=0.109327
					48:leaf=109.226
				24:[f9<0.0693159] yes=49,no=50,missing=49
					49:leaf=1.54582
					50:leaf=34.5629
			12:[f11<-2.22802] yes=25,no=26,missing=25
				25:[f4<3.10519] yes=51,no=52,missing=51
					51:leaf=11.759
					52:leaf=227.812
				26:[f8<0.00727142] yes=53,no=54,missing=53
					53:leaf=11.7157
					54:leaf=106.241
		6:[f12<-2.22039] yes=13,no=14,missing=13
			13:[f6<3.60103] yes=27,no=28,missing=27
				27:[f6<1.90737] yes=55,no=56,missing=55
					55:leaf=-0.260328
					56:leaf=6.34579
				28:[f6<4.82502] yes=57,no=58,missing=57
					57:leaf=12.7203
					58:leaf=24.8116
			14:[f11<-2.22305] yes=29,no=30,missing=29
				29:[f9<0.221476] yes=59,no=60,missing=59
					59:leaf=1.77422
					60:leaf=42.8788
				30:[f14<0.279274] yes=61,no=62,missing=61
					61:leaf=1.57989
					62:leaf=-0.237731
booster[3]:
0:[f13<0.267917] yes=1,no=2,missing=1
	1:[f5<3.23854] yes=3,no=4,missing=3
		3:[f5<-0.228173] yes=7,no=8,missing=7
			7:[f5<-2.99898] yes=15,no=16,missing=15
				15:[f3<-0.11146] yes=31,no=32,missing=31
					31:leaf=-0.213126
					32:leaf=-0.237351
				16:[f1<-0.142442] yes=33,no=34,missing=33
					33:leaf=-0.0194588
					34:leaf=-0.176548
			8:[f11<-2.23675] yes=17,no=18,missing=17
				17:[f13<0.262767] yes=35,no=36,missing=35
					35:leaf=162.532
					36:leaf=110.874
				18:[f3<0.0966464] yes=37,no=38,missing=37
					37:leaf=17.4716
					38:leaf=120.081
		4:[f13<0.26448] yes=9,no=10,missing=9
			9:[f5<4.46657] yes=19,no=20,missing=19
				19:[f5<3.38984] yes=39,no=40,missing=39
					39:leaf=139.639
					40:leaf=192.235
				20:[f11<-2.23577] yes=41,no=42,missing=41
					41:leaf=257.657
					42:leaf=162.338
			10:[f4<0.46694] yes=21,no=22,missing=21
				21:[f2<-0.000180709] yes=43,no=44,missing=43
					43:leaf=69.1122
					44:leaf=0.425209
				22:[f9<-0.0325502] yes=45,no=46,missing=45
					45:leaf=211.566
					46:leaf=109.626
	2:[f13<0.274936] yes=5,no=6,missing=5
		5:[f5<5.31332] yes=11,no=12,missing=11
			11:[f9<-0.0955045] yes=23,no=24,missing=23
				23:[f5<2.24395] yes=47,no=48,missing=47
					47:leaf=0.106609
					48:leaf=106.521
				24:[f9<0.0693159] yes=49,no=50,missing=49
					49:leaf=1.50719
					50:leaf=33.7034
			12:[f11<-2.22802] yes=25,no=26,missing=25
				25:[f4<3.10519] yes=51,no=52,missing=51
					51:leaf=11.486
					52:leaf=222.289
				26:[f8<0.00727142] yes=53,no=54,missing=53
					53:leaf=11.4314
					54:leaf=103.88
		6:[f12<-2.21994] yes=13,no=14,missing=13
			13:[f6<3.85843] yes=27,no=28,missing=27
				27:[f6<1.90737] yes=55,no=56,missing=55
					55:leaf=-0.253214
					56:leaf=6.2886
				28:[f6<5.55081] yes=57,no=58,missing=57
					57:leaf=13.3858
					58:leaf=25.4289
			14:[f13<0.276228] yes=29,no=30,missing=29
				29:[f9<0.22106] yes=59,no=60,missing=59
					59:leaf=2.39916
					60:leaf=48.0791
				30:[f14<0.274721] yes=61,no=62,missing=61
					61:leaf=3.46531
					62:leaf=-0.229036
booster[4]:
0:[f13<0.267868] yes=1,no=2,missing=1
	1:[f5<3.40107] yes=3,no=4,missing=3
		3:[f5<-0.228173] yes=7,no=8,missing=7
			7:[f5<-2.99898] yes=15,no=16,missing=15
				15:[f3<-0.0997911] yes=31,no=32,missing=31
					31:leaf=-0.210368
					32:leaf=-0.231704
				16:[f1<-0.142442] yes=33,no=34,missing=33
					33:leaf=-0.0191345
					34:leaf=-0.172277
			8:[f11<-2.23675] yes=17,no=18,missing=17
				17:[f13<0.262767] yes=35,no=36,missing=35
					35:leaf=161.507
					36:leaf=120.592
				18:[f3<0.0966464] yes=37,no=38,missing=37
					37:leaf=17.63
					38:leaf=115.153
		4:[f13<0.26448] yes=9,no=10,missing=9
			9:[f5<4.46657] yes=19,no=20,missing=19
				19:[f10<8.88414] yes=39,no=40,missing=39
					39:leaf=190.335
					40:leaf=95.8309
				20:[f11<-2.23577] yes=41,no=42,missing=41
					41:leaf=251.254
					42:leaf=158.617
			10:[f3<0.0631633] yes=21,no=22,missing=21
				21:[f3<-0.104828] yes=43,no=44,missing=43
					43:leaf=194.059
					44:leaf=39.9646
				22:[f10<-1.32677] yes=45,no=46,missing=45
					45:leaf=120.001
					46:leaf=219.949
	2:[f13<0.274936] yes=5,no=6,missing=5
		5:[f5<5.31332] yes=11,no=12,missing=11
			11:[f9<-0.0955045] yes=23,no=24,missing=23
				23:[f5<2.24395] yes=47,no=48,missing=47
					47:leaf=0.102356
					48:leaf=103.883
				24:[f9<0.0693159] yes=49,no=50,missing=49
					49:leaf=1.66763
					50:leaf=32.6796
			12:[f11<-2.22802] yes=25,no=26,missing=25
				25:[f4<3.10519] yes=51,no=52,missing=51
					51:leaf=11.2193
					52:leaf=216.901
				26:[f8<0.00727142] yes=53,no=54,missing=53
					53:leaf=11.154
					54:leaf=101.571
		6:[f12<-2.22059] yes=13,no=14,missing=13
			13:[f6<3.60103] yes=27,no=28,missing=27
				27:[f6<1.90737] yes=55,no=56,missing=55
					55:leaf=-0.248064
					56:leaf=6.17675
				28:[f6<4.82502] yes=57,no=58,missing=57
					57:leaf=12.3264
					58:leaf=23.5453
			14:[f11<-2.22305] yes=29,no=30,missing=29
				29:[f9<0.221476] yes=59,no=60,missing=59
					59:leaf=1.69423
					60:leaf=41.1129
				30:[f14<0.279274] yes=61,no=62,missing=61
					61:leaf=1.52488
					62:leaf=-0.22601
booster[5]:
0:[f13<0.267917] yes=1,no=2,missing=1
	1:[f5<3.40107] yes=3,no=4,missing=3
		3:[f5<-0.228173] yes=7,no=8,missing=7
			7:[f5<-2.99898] yes=15,no=16,missing=15
				15:[f3<-0.0940354] yes=31,no=32,missing=31
					31:leaf=-0.20549
					32:leaf=-0.226184
				16:[f1<-0.142442] yes=33,no=34,missing=33
					33:leaf=-0.0188155
					34:leaf=-0.168109
			8:[f11<-2.23675] yes=17,no=18,missing=17
				17:[f13<0.262767] yes=35,no=36,missing=35
					35:leaf=157.51
					36:leaf=117.685
				18:[f3<0.0966464] yes=37,no=38,missing=37
					37:leaf=17.0067
					38:leaf=115.494
		4:[f13<0.26448] yes=9,no=10,missing=9
			9:[f5<4.46657] yes=19,no=20,missing=19
				19:[f10<8.88414] yes=39,no=40,missing=39
					39:leaf=185.605
					40:leaf=93.7774
				20:[f11<-2.23577] yes=41,no=42,missing=41
					41:leaf=245.011
					42:leaf=154.983
			10:[f3<0.0631633] yes=21,no=22,missing=21
				21:[f3<-0.104828] yes=43,no=44,missing=43
					43:leaf=189.265
					44:leaf=37.9711
				22:[f10<-1.32677] yes=45,no=46,missing=45
					45:leaf=117.126
					46:leaf=214.32
	2:[f13<0.274936] yes=5,no=6,missing=5
		5:[f5<5.33458] yes=11,no=12,missing=11
			11:[f9<-0.0955045] yes=23,no=24,missing=23
				23:[f5<2.24395] yes=47,no=48,missing=47
					47:leaf=0.101415
					48:leaf=101.31
				24:[f9<0.0693159] yes=49,no=50,missing=49
					49:leaf=1.51816
					50:leaf=32.0526
			12:[f11<-2.22802] yes=25,no=26,missing=25
				25:[f4<3.10519] yes=51,no=52,missing=51
					51:leaf=10.9589
					52:leaf=218.475
				26:[f8<0.00727142] yes=53,no=54,missing=53
					53:leaf=11.6722
					54:leaf=99.3143
		6:[f12<-2.21994] yes=13,no=14,missing=13
			13:[f6<3.85843] yes=27,no=28,missing=27
				27:[f6<2.17248] yes=55,no=56,missing=55
					55:leaf=-0.210789
					56:leaf=6.15978
				28:[f6<5.55081] yes=57,no=58,missing=57
					57:leaf=12.7119
					58:leaf=24.2783
			14:[f13<0.276228] yes=29,no=30,missing=29
				29:[f9<-0.182261] yes=59,no=60,missing=59
					59:leaf=32.3278
					60:leaf=1.35845
				30:[f14<0.274721] yes=61,no=62,missing=61
					61:leaf=3.34081
					62:leaf=-0.21777
booster[6]:
0:[f13<0.267917] yes=1,no=2,missing=1
	1:[f5<3.23854] yes=3,no=4,missing=3
		3:[f5<-0.228173] yes=7,no=8,missing=7
			7:[f5<-2.99898] yes=15,no=16,missing=15
				15:[f1<0.0790443] yes=31,no=32,missing=31
					31:leaf=-0.220408
					32:leaf=-0.199235
				16:[f1<-0.142442] yes=33,no=34,missing=33
					33:leaf=-0.018502
					34:leaf=-0.164041
			8:[f11<-2.23675] yes=17,no=18,missing=17
				17:[f13<0.262767] yes=35,no=36,missing=35
					35:leaf=150.663
					36:leaf=102.542
				18:[f3<0.0966464] yes=37,no=38,missing=37
					37:leaf=16.1768
					38:leaf=111.958
		4:[f13<0.26448] yes=9,no=10,missing=9
			9:[f5<4.16247] yes=19,no=20,missing=19
				19:[f5<3.38984] yes=39,no=40,missing=39
					39:leaf=130.642
					40:leaf=175.446
				20:[f11<-2.23577] yes=41,no=42,missing=41
					41:leaf=235.108
					42:leaf=159.536
			10:[f4<0.46694] yes=21,no=22,missing=21
				21:[f2<-0.000180709] yes=43,no=44,missing=43
					43:leaf=65.2949
					44:leaf=-1.26233
				22:[f9<-0.0325502] yes=45,no=46,missing=45
					45:leaf=197.854
					46:leaf=101.508
	2:[f13<0.274936] yes=5,no=6,missing=5
		5:[f5<5.31332] yes=11,no=12,missing=11
			11:[f9<-0.0955045] yes=23,no=24,missing=23
				23:[f5<2.24395] yes=47,no=48,missing=47
					47:leaf=0.0988942
					48:leaf=98.801
				24:[f9<0.0693159] yes=49,no=50,missing=49
					49:leaf=1.38992
					50:leaf=31.2555
			12:[f11<-2.22802] yes=25,no=26,missing=25
				25:[f4<3.10519] yes=51,no=52,missing=51
					51:leaf=10.7045
					52:leaf=206.675
				26:[f8<0.00727142] yes=53,no=54,missing=53
					53:leaf=10.6151
					54:leaf=97.1073
		6:[f12<-2.22039] yes=13,no=14,missing=13
			13:[f6<3.60103] yes=27,no=28,missing=27
				27:[f6<1.90737] yes=55,no=56,missing=55
					55:leaf=-0.236072
					56:leaf=5.74231
				28:[f6<4.82502] yes=57,no=58,missing=57
					57:leaf=11.5419
					58:leaf=22.5356
			14:[f11<-2.22305] yes=29,no=30,missing=29
				29:[f9<0.221476] yes=59,no=60,missing=59
					59:leaf=1.59187
					60:leaf=40.0977
				30:[f14<0.279274] yes=61,no=62,missing=61
					61:leaf=1.47174
					62:leaf=-0.214983
booster[7]:
0:[f13<0.267868] yes=1,no=2,missing=1
	1:[f5<3.40107] yes=3,no=4,missing=3
		3:[f5<-0.228173] yes=7,no=8,missing=7
			7:[f5<-2.99898] yes=15,no=16,missing=15
				15:[f3<-0.11146] yes=31,no=32,missing=31
					31:leaf=-0.192357
					32:leaf=-0.214553
				16:[f1<-0.142442] yes=33,no=34,missing=33
					33:leaf=-0.0181936
					34:leaf=-0.160073
			8:[f11<-2.23675] yes=17,no=18,missing=17
				17:[f13<0.262767] yes=35,no=36,missing=35
					35:leaf=150
					36:leaf=112.226
				18:[f3<0.0966464] yes=37,no=38,missing=37
					37:leaf=16.0447
					38:leaf=106.6
		4:[f11<-2.23563] yes=9,no=10,missing=9
			9:[f5<4.46657] yes=19,no=20,missing=19
				19:[f10<8.88414] yes=39,no=40,missing=39
					39:leaf=178.512
					40:leaf=87.7952
				20:[f11<-2.23577] yes=41,no=42,missing=41
					41:leaf=233.079
					42:leaf=131.651
			10:[f3<0.0746841] yes=21,no=22,missing=21
				21:[f3<-0.104828] yes=43,no=44,missing=43
					43:leaf=182.084
					44:leaf=42.3867
				22:[f10<-1.32677] yes=45,no=46,missing=45
					45:leaf=116.898
					46:leaf=208.002
	2:[f13<0.274936] yes=5,no=6,missing=5
		5:[f5<5.33458] yes=11,no=12,missing=11
			11:[f9<-0.0955045] yes=23,no=24,missing=23
				23:[f5<2.24395] yes=47,no=48,missing=47
					47:leaf=0.0949217
					48:leaf=96.3541
				24:[f9<0.0693159] yes=49,no=50,missing=49
					49:leaf=1.62127
					50:leaf=30.2965
			12:[f11<-2.22802] yes=25,no=26,missing=25
				25:[f4<3.10519] yes=51,no=52,missing=51
					51:leaf=10.456
					52:leaf=208.189
				26:[f8<0.00727142] yes=53,no=54,missing=53
					53:leaf=11.1324
					54:leaf=94.9494
		6:[f12<-2.22039] yes=13,no=14,missing=13
			13:[f6<3.82275] yes=27,no=28,missing=27
				27:[f6<2.49803] yes=55,no=56,missing=55
					55:leaf=-0.142601
					56:leaf=6.72494
				28:[f6<5.55081] yes=57,no=58,missing=57
					57:leaf=13.335
					58:leaf=23.3247
			14:[f13<0.276228] yes=29,no=30,missing=29
				29:[f9<-0.182261] yes=59,no=60,missing=59
					59:leaf=31.4979
					60:leaf=1.2483
				30:[f14<0.274721] yes=61,no=62,missing=61
					61:leaf=3.22075
					62:leaf=-0.206947
booster[8]:
0:[f13<0.267868] yes=1,no=2,missing=1
	1:[f5<3.40107] yes=3,no=4,missing=3
		3:[f5<-0.228173] yes=7,no=8,missing=7
			7:[f5<-2.99898] yes=15,no=16,missing=15
				15:[f1<0.0790443] yes=31,no=32,missing=31
					31:leaf=-0.209416
					32:leaf=-0.189064
				16:[f1<-0.142442] yes=33,no=34,missing=33
					33:leaf=-0.0178904
					34:leaf=-0.1562
			8:[f11<-2.23675] yes=17,no=18,missing=17
				17:[f13<0.262767] yes=35,no=36,missing=35
					35:leaf=146.288
					36:leaf=109.52
				18:[f9<-0.0319188] yes=37,no=38,missing=37
					37:leaf=119.839
					38:leaf=17.1121
		4:[f13<0.26448] yes=9,no=10,missing=9
			9:[f5<4.46657] yes=19,no=20,missing=19
				19:[f10<8.88414] yes=39,no=40,missing=39
					39:leaf=172.171
					40:leaf=85.9139
				20:[f11<-2.23577] yes=41,no=42,missing=41
					41:leaf=227.287
					42:leaf=145.157
			10:[f3<0.0631633] yes=21,no=22,missing=21
				21:[f3<-0.104828] yes=43,no=44,missing=43
					43:leaf=177.577
					44:leaf=35.3225
				22:[f10<-1.32677] yes=45,no=46,missing=45
					45:leaf=109.274
					46:leaf=200.332
	2:[f13<0.274936] yes=5,no=6,missing=5
		5:[f5<5.31332] yes=11,no=12,missing=11
			11:[f9<-0.0955045] yes=23,no=24,missing=23
				23:[f5<2.24395] yes=47,no=48,missing=47
					47:leaf=0.0925621
					48:leaf=93.9677
				24:[f9<0.0693159] yes=49,no=50,missing=49
					49:leaf=1.49617
					50:leaf=29.5431
			12:[f11<-2.22802] yes=25,no=26,missing=25
				25:[f4<3.10519] yes=51,no=52,missing=51
					51:leaf=10.2133
					52:leaf=196.93
				26:[f8<0.00727142] yes=53,no=54,missing=53
					53:leaf=10.1014
					54:leaf=92.8394
		6:[f12<-2.21994] yes=13,no=14,missing=13
			13:[f6<3.85843] yes=27,no=28,missing=27
				27:[f6<1.90737] yes=55,no=56,missing=55
					55:leaf=-0.225972
					56:leaf=5.55111
				28:[f6<5.55081] yes=57,no=58,missing=57
					57:leaf=11.7706
					58:leaf=22.6281
			14:[f11<-2.22269] yes=29,no=30,missing=29
				29:[f9<0.221476] yes=59,no=60,missing=59
					59:leaf=1.27373
					60:leaf=37.439
				30:[f14<0.279274] yes=61,no=62,missing=61
					61:leaf=1.42041
					62:leaf=-0.20478
booster[9]:
0:[f13<0.267917] yes=1,no=2,missing=1
	1:[f5<3.40107] yes=3,no=4,missing=3
		3:[f5<-0.228173] yes=7,no=8,missing=7
			7:[f5<-2.99898] yes=15,no=16,missing=15
				15:[f3<-0.0772191] yes=31,no=32,missing=31
					31:leaf=-0.187471
					32:leaf=-0.205306
				16:[f1<-0.142442] yes=33,no=34,missing=33
					33:leaf=-0.0175922
					34:leaf=-0.152421
			8:[f11<-2.23675] yes=17,no=18,missing=17
				17:[f13<0.262767] yes=35,no=36,missing=35
					35:leaf=142.668
					36:leaf=106.88
				18:[f3<0.0966464] yes=37,no=38,missing=37
					37:leaf=14.9806
					38:leaf=105.736
		4:[f13<0.26448] yes=9,no=10,missing=9
			9:[f5<4.46657] yes=19,no=20,missing=19
				19:[f10<8.88414] yes=39,no=40,missing=39
					39:leaf=167.892
					40:leaf=84.0729
				20:[f11<-2.23577] yes=41,no=42,missing=41
					41:leaf=221.639
					42:leaf=141.83
			10:[f3<0.0631633] yes=21,no=22,missing=21
				21:[f3<-0.104828] yes=43,no=44,missing=43
					43:leaf=173.191
					44:leaf=33.4919
				22:[f10<-1.32677] yes=45,no=46,missing=45
					45:leaf=106.656
					46:leaf=195.317
	2:[f13<0.274936] yes=5,no=6,missing=5
		5:[f5<5.33458] yes=11,no=12,missing=11
			11:[f9<-0.115154] yes=23,no=24,missing=23
				23:[f5<2.24395] yes=47,no=48,missing=47
					47:leaf=0.147054
					48:leaf=98.2551
				24:[f9<0.0693159] yes=49,no=50,missing=49
					49:leaf=1.66845
					50:leaf=28.9902
			12:[f11<-2.22802] yes=25,no=26,missing=25
				25:[f4<3.10519] yes=51,no=52,missing=51
					51:leaf=9.97618
					52:leaf=198.388
				26:[f3<0.0868966] yes=53,no=54,missing=53
					53:leaf=65.8903
					54:leaf=-1.27202
		6:[f12<-2.22059] yes=13,no=14,missing=13
			13:[f6<3.60103] yes=27,no=28,missing=27
				27:[f6<2.17248] yes=55,no=56,missing=55
					55:leaf=-0.191889
					56:leaf=5.6907
				28:[f6<4.82502] yes=57,no=58,missing=57
					57:leaf=10.9152
					58:leaf=20.8598
			14:[f13<0.276228] yes=29,no=30,missing=29
				29:[f9<-0.182261] yes=59,no=60,missing=59
					59:leaf=30.696
					60:leaf=1.15105
				30:[f14<0.274721] yes=61,no=62,missing=61
					61:leaf=3.10496
					62:leaf=-0.196722
booster[10]:
0:[f13<0.267917] yes=1,no=2,missing=1
	1:[f5<3.40107] yes=3,no=4,missing=3
		3:[f5<-0.228173] yes=7,no=8,missing=7
			7:[f5<-2.99898] yes=15,no=16,missing=15
				15:[f1<0.0790443] yes=31,no=32,missing=31
					31:leaf=-0.199669
					32:leaf=-0.179388
				16:[f1<-0.142442] yes=33,no=34,missing=33
					33:leaf=-0.017299
					34:leaf=-0.148733
			8:[f11<-2.23675] yes=17,no=18,missing=17
				17:[f13<0.262767] yes=35,no=36,missing=35
					35:leaf=139.138
					36:leaf=104.303
				18:[f9<-0.0319188] yes=37,no=38,missing=37
					37:leaf=118.111
					38:leaf=16.0064
		4:[f13<0.26448] yes=9,no=10,missing=9
			9:[f5<4.46657] yes=19,no=20,missing=19
				19:[f10<8.88414] yes=39,no=40,missing=39
					39:leaf=163.719
					40:leaf=82.2713
				20:[f11<-2.23577] yes=41,no=42,missing=41
					41:leaf=216.131
					42:leaf=138.58
			10:[f3<0.0746841] yes=21,no=22,missing=21
				21:[f3<-0.104828] yes=43,no=44,missing=43
					43:leaf=168.912
					44:leaf=35.4557
				22:[f5<4.85564] yes=45,no=46,missing=45
					45:leaf=119.414
					46:leaf=196.583
	2:[f13<0.274936] yes=5,no=6,missing=5
		5:[f5<5.33458] yes=11,no=12,missing=11
			11:[f9<-0.0955045] yes=23,no=24,missing=23
				23:[f5<2.24395] yes=47,no=48,missing=47
					47:leaf=0.0829041
					48:leaf=89.5456
				24:[f9<0.0693159] yes=49,no=50,missing=49
					49:leaf=1.31656
					50:leaf=28.2693
			12:[f11<-2.22802] yes=25,no=26,missing=25
				25:[f4<3.10519] yes=51,no=52,missing=51
					51:leaf=9.74459
					52:leaf=193.588
				26:[f8<0.00727142] yes=53,no=54,missing=53
					53:leaf=9.96687
					54:leaf=90.0583
		6:[f12<-2.22039] yes=13,no=14,missing=13
			13:[f6<3.60103] yes=27,no=28,missing=27
				27:[f6<1.90737] yes=55,no=56,missing=55
					55:leaf=-0.216183
					56:leaf=5.20363
				28:[f6<4.90878] yes=57,no=58,missing=57
					57:leaf=10.5908
					58:leaf=20.5728
			14:[f11<-2.22269] yes=29,no=30,missing=29
				29:[f9<0.221476] yes=59,no=60,missing=59
					59:leaf=1.19462
					60:leaf=36.5143
				30:[f14<0.279274] yes=61,no=62,missing=61
					61:leaf=1.37084
					62:leaf=-0.194639
booster[11]:
0:[f11<-2.23337] yes=1,no=2,missing=1
	1:[f5<3.04268] yes=3,no=4,missing=3
		3:[f5<-0.228173] yes=7,no=8,missing=7
			7:[f1<-0.199845] yes=15,no=16,missing=15
				15:leaf=-0.0170107
				16:[f1<0.203734] yes=31,no=32,missing=31
					31:leaf=-0.192345
					32:leaf=-0.130518
			8:[f11<-2.23698] yes=17,no=18,missing=17
				17:leaf=106.255
				18:[f5<2.99605] yes=33,no=34,missing=33
					33:leaf=80.595
					34:leaf=-5.02265
		4:[f11<-2.23586] yes=9,no=10,missing=9
			9:[f5<4.03382] yes=19,no=20,missing=19
				19:[f5<3.38984] yes=35,no=36,missing=35
					35:leaf=116.448
					36:leaf=157.568
				20:[f5<4.46657] yes=37,no=38,missing=37
					37:leaf=170.308
					38:leaf=210.844
			10:[f3<-0.0571039] yes=21,no=22,missing=21
				21:[f5<3.07218] yes=39,no=40,missing=39
					39:leaf=-2.66982
					40:leaf=169.888
				22:[f3<0.0569007] yes=41,no=42,missing=41
					41:leaf=36.4841
					42:leaf=144.632
	2:[f11<-2.23026] yes=5,no=6,missing=5
		5:[f5<5.11922] yes=11,no=12,missing=11
			11:[f3<-0.353579] yes=23,no=24,missing=23
				23:[f9<0.0341938] yes=43,no=44,missing=43
					43:leaf=7.83767
					44:leaf=185.159
				24:[f3<0.220623] yes=45,no=46,missing=45
					45:leaf=2.86475
					46:leaf=87.229
			12:[f3<0.0700228] yes=25,no=26,missing=25
				25:[f11<-2.23155] yes=47,no=48,missing=47
					47:leaf=-11.2345
					48:leaf=-1.76616
				26:[f7<0.333661] yes=49,no=50,missing=49
					49:leaf=212.815
					50:leaf=41.8221
		6:[f13<0.275791] yes=13,no=14,missing=13
			13:[f9<-0.107685] yes=27,no=28,missing=27
				27:[f5<2.87144] yes=51,no=52,missing=51
					51:leaf=-0.233939
					52:leaf=90.5032
				28:[f9<0.0941605] yes=53,no=54,missing=53
					53:leaf=-0.517853
					54:leaf=30.9943
			14:[f12<-2.21967] yes=29,no=30,missing=29
				29:[f6<4.19005] yes=55,no=56,missing=55
					55:leaf=0.692558
					56:leaf=16.8485
				30:[f14<0.274721] yes=57,no=58,missing=57
					57:leaf=2.9933
					58:leaf=-0.18665
booster[12]:
0:[f11<-2.23337] yes=1,no=2,missing=1
	1:[f5<3.04268] yes=3,no=4,missing=3
		3:[f5<-0.228173] yes=7,no=8,missing=7
			7:[f5<-2.99898] yes=15,no=16,missing=15
				15:[f1<0.0790443] yes=31,no=32,missing=31
					31:leaf=-0.18943
					32:leaf=-0.169712
				16:[f6<3.11829] yes=33,no=34,missing=33
					33:leaf=-0.0329364
					34:leaf=-0.140972
			8:[f11<-2.23698] yes=17,no=18,missing=17
				17:leaf=104.041
				18:[f5<2.99605] yes=35,no=36,missing=35
					35:leaf=78.832
					36:leaf=-4.90493
		4:[f11<-2.23586] yes=9,no=10,missing=9
			9:[f5<4.03382] yes=19,no=20,missing=19
				19:[f5<3.38984] yes=37,no=38,missing=37
					37:leaf=113.555
					38:leaf=153.663
				20:[f7<0.18021] yes=39,no=40,missing=39
					39:leaf=200.732
					40:leaf=78.7219
			10:[f3<-0.0571039] yes=21,no=22,missing=21
				21:[f10<11.7685] yes=41,no=42,missing=41
					41:leaf=166.729
					42:leaf=28.0352
				22:[f3<0.0569007] yes=43,no=44,missing=43
					43:leaf=35.5751
					44:leaf=141.06
	2:[f11<-2.23026] yes=5,no=6,missing=5
		5:[f5<5.11922] yes=11,no=12,missing=11
			11:[f3<-0.353579] yes=23,no=24,missing=23
				23:[f9<0.0341938] yes=45,no=46,missing=45
					45:leaf=7.64873
					46:leaf=180.675
				24:[f3<0.220623] yes=47,no=48,missing=47
					47:leaf=2.7932
					48:leaf=85.1209
			12:[f3<0.0700228] yes=25,no=26,missing=25
				25:[f11<-2.23155] yes=49,no=50,missing=49
					49:leaf=-10.9753
					50:leaf=-1.72692
				26:[f7<0.333661] yes=51,no=52,missing=51
					51:leaf=207.618
					52:leaf=40.9508
		6:[f13<0.275791] yes=13,no=14,missing=13
			13:[f9<-0.107685] yes=27,no=28,missing=27
				27:[f5<2.87144] yes=53,no=54,missing=53
					53:leaf=-0.228127
					54:leaf=88.2576
				28:[f9<0.0941605] yes=55,no=56,missing=55
					55:leaf=-0.504913
					56:leaf=30.2252
			14:[f12<-2.22059] yes=29,no=30,missing=29
				29:[f6<3.1139] yes=57,no=58,missing=57
					57:leaf=0.191043
					58:leaf=14.3613
				30:[f14<0.279274] yes=59,no=60,missing=59
					59:leaf=1.32295
					60:leaf=-0.183635
booster[13]:
0:[f11<-2.23337] yes=1,no=2,missing=1
	1:[f5<3.04268] yes=3,no=4,missing=3
		3:[f5<-0.228173] yes=7,no=8,missing=7
			7:[f1<-0.199845] yes=15,no=16,missing=15
				15:leaf=-0.0161782
				16:[f1<0.203734] yes=31,no=32,missing=31
					31:leaf=-0.182872
					32:leaf=-0.123557
			8:[f11<-2.23698] yes=17,no=18,missing=17
				17:leaf=101.873
				18:[f5<2.99605] yes=33,no=34,missing=33
					33:leaf=77.1076
					34:leaf=-4.78997
		4:[f11<-2.23586] yes=9,no=10,missing=9
			9:[f5<3.56248] yes=19,no=20,missing=19
				19:[f11<-2.23675] yes=35,no=36,missing=35
					35:leaf=124.214
					36:leaf=71.4278
				20:[f5<4.46657] yes=37,no=38,missing=37
					37:leaf=156.195
					38:leaf=200.635
			10:[f3<-0.0571039] yes=21,no=22,missing=21
				21:[f5<3.07218] yes=39,no=40,missing=39
					39:leaf=-2.98689
					40:leaf=161.631
				22:[f3<0.0569007] yes=41,no=42,missing=41
					41:leaf=34.6887
					42:leaf=137.576
	2:[f11<-2.23026] yes=5,no=6,missing=5
		5:[f5<5.11922] yes=11,no=12,missing=11
			11:[f3<-0.353579] yes=23,no=24,missing=23
				23:[f9<0.0341938] yes=43,no=44,missing=43
					43:leaf=7.46434
					44:leaf=176.299
				24:[f3<0.220623] yes=45,no=46,missing=45
					45:leaf=2.72344
					46:leaf=83.0639
			12:[f3<0.0700228] yes=25,no=26,missing=25
				25:[f11<-2.23155] yes=47,no=48,missing=47
					47:leaf=-10.722
					48:leaf=-1.68854
				26:[f7<0.333661] yes=49,no=50,missing=49
					49:leaf=202.548
					50:leaf=40.0976
		6:[f13<0.275791] yes=13,no=14,missing=13
			13:[f9<-0.107685] yes=27,no=28,missing=27
				27:[f5<2.87144] yes=51,no=52,missing=51
					51:leaf=-0.222459
					52:leaf=86.0678
				28:[f9<0.0941605] yes=53,no=54,missing=53
					53:leaf=-0.492296
					54:leaf=29.4752
			14:[f12<-2.21967] yes=29,no=30,missing=29
				29:[f6<3.85843] yes=55,no=56,missing=55
					55:leaf=0.480013
					56:leaf=15.0929
				30:[f14<0.274721] yes=57,no=58,missing=57
					57:leaf=2.88561
					58:leaf=-0.177461
booster[14]:
0:[f11<-2.23337] yes=1,no=2,missing=1
	1:[f5<3.04268] yes=3,no=4,missing=3
		3:[f5<-0.228173] yes=7,no=8,missing=7
			7:[f5<-2.99898] yes=15,no=16,missing=15
				15:[f1<0.0788057] yes=31,no=32,missing=31
					31:leaf=-0.18016
					32:leaf=-0.161344
				16:[f3<0.142072] yes=33,no=34,missing=33
					33:leaf=-0.133657
					34:leaf=-0.0309028
			8:[f11<-2.23698] yes=17,no=18,missing=17
				17:leaf=99.7511
				18:[f5<2.99605] yes=35,no=36,missing=35
					35:leaf=75.4208
					36:leaf=-4.67771
		4:[f11<-2.23586] yes=9,no=10,missing=9
			9:[f5<4.03382] yes=19,no=20,missing=19
				19:[f5<3.38984] yes=37,no=38,missing=37
					37:leaf=107.97
					38:leaf=146.107
				20:[f5<4.46657] yes=39,no=40,missing=39
					39:leaf=157.604
					40:leaf=195.65
			10:[f3<-0.0571039] yes=21,no=22,missing=21
				21:[f10<11.7685] yes=41,no=42,missing=41
					41:leaf=158.631
					42:leaf=26.2459
				22:[f3<0.0569007] yes=43,no=44,missing=43
					43:leaf=33.8244
					44:leaf=134.178
	2:[f11<-2.23026] yes=5,no=6,missing=5
		5:[f5<5.11922] yes=11,no=12,missing=11
			11:[f3<-0.353579] yes=23,no=24,missing=23
				23:[f9<0.0341938] yes=45,no=46,missing=45
					45:leaf=7.2844
					46:leaf=172.029
				24:[f3<0.220623] yes=47,no=48,missing=47
					47:leaf=2.65543
					48:leaf=81.0565
			12:[f3<0.0700228] yes=25,no=26,missing=25
				25:[f11<-2.23207] yes=49,no=50,missing=49
					49:leaf=-12.12
					50:leaf=-3.22684
				26:[f7<0.333661] yes=51,no=52,missing=51
					51:leaf=197.602
					52:leaf=39.2623
		6:[f13<0.275791] yes=13,no=14,missing=13
			13:[f9<-0.107685] yes=27,no=28,missing=27
				27:[f5<2.87144] yes=53,no=54,missing=53
					53:leaf=-0.216933
					54:leaf=83.9322
				28:[f9<0.0941605] yes=55,no=56,missing=55
					55:leaf=-0.479995
					56:leaf=28.7438
			14:[f15<0.279069] yes=29,no=30,missing=29
				29:[f6<3.28212] yes=57,no=58,missing=57
					57:leaf=0.300745
					58:leaf=14.6912
				30:[f14<0.279274] yes=59,no=60,missing=59
					59:leaf=1.27671
					60:leaf=-0.174535
booster[15]:
0:[f11<-2.23337] yes=1,no=2,missing=1
	1:[f5<3.18858] yes=3,no=4,missing=3
		3:[f5<-0.228173] yes=7,no=8,missing=7
			7:[f5<-2.99898] yes=15,no=16,missing=15
				15:[f3<-0.0714141] yes=31,no=32,missing=31
					31:leaf=-0.160203
					32:leaf=-0.176146
				16:[f6<3.11829] yes=33,no=34,missing=33
					33:leaf=-0.029752
					34:leaf=-0.13055
			8:[f11<-2.23594] yes=17,no=18,missing=17
				17:[f13<0.262767] yes=35,no=36,missing=35
					35:leaf=117.939
					36:leaf=72.0822
				18:[f3<0.0753915] yes=37,no=38,missing=37
					37:leaf=-2.30971
					38:leaf=94.656
		4:[f13<0.264632] yes=9,no=10,missing=9
			9:[f5<4.03382] yes=19,no=20,missing=19
				19:[f5<3.26402] yes=39,no=40,missing=39
					39:leaf=91.0145
					40:leaf=134.383
				20:[f5<4.97731] yes=41,no=42,missing=41
					41:leaf=163.342
					42:leaf=197.624
			10:[f4<0.538352] yes=21,no=22,missing=21
				21:[f2<-0.000180709] yes=43,no=44,missing=43
					43:leaf=74.8788
					44:leaf=-7.52229
				22:[f5<5.03306] yes=45,no=46,missing=45
					45:leaf=95.6233
					46:leaf=179.786
	2:[f11<-2.23026] yes=5,no=6,missing=5
		5:[f5<5.11922] yes=11,no=12,missing=11
			11:[f3<-0.353579] yes=23,no=24,missing=23
				23:[f9<0.0341938] yes=47,no=48,missing=47
					47:leaf=7.10879
					48:leaf=167.863
				24:[f3<0.220623] yes=49,no=50,missing=49
					49:leaf=2.58911
					50:leaf=79.0976
			12:[f3<0.0700228] yes=25,no=26,missing=25
				25:[f11<-2.23207] yes=51,no=52,missing=51
					51:leaf=-11.8506
					52:leaf=-3.15237
				26:[f7<0.333661] yes=53,no=54,missing=53
					53:leaf=192.777
					54:leaf=38.4443
		6:[f13<0.276228] yes=13,no=14,missing=13
			13:[f9<-0.107685] yes=27,no=28,missing=27
				27:[f5<2.87144] yes=55,no=56,missing=55
					55:leaf=-0.315954
					56:leaf=76.547
				28:[f9<0.0941605] yes=57,no=58,missing=57
					57:leaf=-0.483865
					58:leaf=29.151
			14:[f12<-2.21967] yes=29,no=30,missing=29
				29:[f6<4.19005] yes=59,no=60,missing=59
					59:leaf=0.61204
					60:leaf=15.4486
				30:[f14<0.274721] yes=61,no=62,missing=61
					61:leaf=2.78177
					62:leaf=-0.169344
booster[16]:
0:[f11<-2.23337] yes=1,no=2,missing=1
	1:[f5<3.18858] yes=3,no=4,missing=3
		3:[f5<-0.228173] yes=7,no=8,missing=7
			7:[f1<0.203734] yes=15,no=16,missing=15
				15:[f1<-0.199845] yes=31,no=32,missing=31
					31:leaf=-0.0148977
					32:leaf=-0.169541
				16:leaf=-0.113236
			8:[f11<-2.23594] yes=17,no=18,missing=17
				17:[f13<0.262767] yes=33,no=34,missing=33
					33:leaf=115.055
					34:leaf=70.3365
				18:[f3<0.0753915] yes=35,no=36,missing=35
					35:leaf=-2.25279
					36:leaf=92.5048
		4:[f11<-2.23582] yes=9,no=10,missing=9
			9:[f5<4.19275] yes=19,no=20,missing=19
				19:[f5<3.56248] yes=37,no=38,missing=37
					37:leaf=105.019
					38:leaf=143.693
				20:[f7<0.18021] yes=39,no=40,missing=39
					39:leaf=184.487
					40:leaf=68.4845
			10:[f3<-0.0571039] yes=21,no=22,missing=21
				21:[f10<8.29215] yes=41,no=42,missing=41
					41:leaf=155.532
					42:leaf=89.1495
				22:[f3<0.053891] yes=43,no=44,missing=43
					43:leaf=37.8986
					44:leaf=142.567
	2:[f11<-2.23026] yes=5,no=6,missing=5
		5:[f5<5.11922] yes=11,no=12,missing=11
			11:[f3<-0.353579] yes=23,no=24,missing=23
				23:[f9<0.0341938] yes=45,no=46,missing=45
					45:leaf=6.93742
					46:leaf=163.797
				24:[f3<0.220623] yes=47,no=48,missing=47
					47:leaf=2.52445
					48:leaf=77.1861
			12:[f3<0.0700228] yes=25,no=26,missing=25
				25:[f11<-2.23155] yes=49,no=50,missing=49
					49:leaf=-10.0567
					50:leaf=-1.50926
				26:[f7<0.333661] yes=51,no=52,missing=51
					51:leaf=188.07
					52:leaf=37.6434
		6:[f13<0.275791] yes=13,no=14,missing=13
			13:[f9<-0.117179] yes=27,no=28,missing=27
				27:[f5<2.87144] yes=53,no=54,missing=53
					53:leaf=-0.194112
					54:leaf=84.5834
				28:[f9<0.0941605] yes=55,no=56,missing=55
					55:leaf=-0.21897
					56:leaf=27.3073
			14:[f15<0.279069] yes=29,no=30,missing=29
				29:[f6<3.04293] yes=57,no=58,missing=57
					57:leaf=0.112416
					58:leaf=13.3561
				30:[f14<0.279274] yes=59,no=60,missing=59
					59:leaf=1.23206
					60:leaf=-0.165985
booster[17]:
0:[f13<0.266211] yes=1,no=2,missing=1
	1:[f5<3.04268] yes=3,no=4,missing=3
		3:[f5<-0.228173] yes=7,no=8,missing=7
			7:[f1<0.203734] yes=15,no=16,missing=15
				15:[f3<-0.201078] yes=31,no=32,missing=31
					31:leaf=-0.117117
					32:leaf=-0.166031
				16:leaf=-0.110839
			8:[f5<2.99605] yes=17,no=18,missing=17
				17:[f1<-0.170042] yes=33,no=34,missing=33
					33:leaf=20.1502
					34:leaf=112.696
				18:[f11<-2.23698] yes=35,no=36,missing=35
					35:leaf=92.8189
					36:leaf=-5.52311
		4:[f11<-2.23586] yes=9,no=10,missing=9
			9:[f5<3.56248] yes=19,no=20,missing=19
				19:[f11<-2.23675] yes=37,no=38,missing=37
					37:leaf=113.023
					38:leaf=62.6933
				20:[f5<4.46657] yes=39,no=40,missing=39
					39:leaf=141.441
					40:leaf=181.604
			10:[f5<3.40653] yes=21,no=22,missing=21
				21:[f3<0.0966464] yes=41,no=42,missing=41
					41:leaf=-7.07604
					42:leaf=110.501
				22:[f4<0.0614168] yes=43,no=44,missing=43
					43:leaf=37.7661
					44:leaf=120.699
	2:[f11<-2.23026] yes=5,no=6,missing=5
		5:[f5<5.25395] yes=11,no=12,missing=11
			11:[f3<-0.253003] yes=23,no=24,missing=23
				23:[f9<0.0379776] yes=45,no=46,missing=45
					45:leaf=11.4806
					46:leaf=158.051
				24:[f9<-0.0344192] yes=47,no=48,missing=47
					47:leaf=44.5072
					48:leaf=-0.612364
			12:[f9<7.81313e-06] yes=25,no=26,missing=25
				25:[f3<0.00468259] yes=49,no=50,missing=49
					49:leaf=-1.47884
					50:leaf=185.053
				26:[f1<0.0228988] yes=51,no=52,missing=51
					51:leaf=-12.7315
					52:leaf=153.511
		6:[f13<0.276228] yes=13,no=14,missing=13
			13:[f9<-0.107685] yes=27,no=28,missing=27
				27:[f5<2.87144] yes=53,no=54,missing=53
					53:leaf=-0.303275
					54:leaf=72.9238
				28:[f9<0.0941605] yes=55,no=56,missing=55
					55:leaf=-0.466406
					56:leaf=27.7836
			14:[f12<-2.21967] yes=29,no=30,missing=29
				29:[f6<4.19005] yes=57,no=58,missing=57
					57:leaf=0.572669
					58:leaf=14.7959
				30:[f14<0.274721] yes=59,no=60,missing=59
					59:leaf=2.68163
					60:leaf=-0.161024
booster[18]:
0:[f13<0.266211] yes=1,no=2,missing=1
	1:[f5<3.04268] yes=3,no=4,missing=3
		3:[f5<-0.228173] yes=7,no=8,missing=7
			7:[f1<0.203734] yes=15,no=16,missing=15
				15:[f3<-0.201078] yes=31,no=32,missing=31
					31:leaf=-0.114322
					32:leaf=-0.161884
				16:leaf=-0.108194
			8:[f5<2.99605] yes=17,no=18,missing=17
				17:[f1<-0.170042] yes=33,no=34,missing=33
					33:leaf=19.8983
					34:leaf=110.442
				18:[f11<-2.23698] yes=35,no=36,missing=35
					35:leaf=90.8852
					36:leaf=-5.39566
		4:[f11<-2.23586] yes=9,no=10,missing=9
			9:[f5<3.56248] yes=19,no=20,missing=19
				19:[f11<-2.23675] yes=37,no=38,missing=37
					37:leaf=110.219
					38:leaf=61.1652
				20:[f5<4.46657] yes=39,no=40,missing=39
					39:leaf=137.932
					40:leaf=177.092
			10:[f5<3.40653] yes=21,no=22,missing=21
				21:[f3<0.0966464] yes=41,no=42,missing=41
					41:leaf=-6.90129
					42:leaf=107.969
				22:[f4<0.00393265] yes=43,no=44,missing=43
					43:leaf=28.2737
					44:leaf=114.215
	2:[f11<-2.23093] yes=5,no=6,missing=5
		5:[f5<5.25395] yes=11,no=12,missing=11
			11:[f3<-0.260029] yes=23,no=24,missing=23
				23:[f9<0.030357] yes=45,no=46,missing=45
					45:leaf=6.55871
					46:leaf=157.263
				24:[f3<0.104717] yes=47,no=48,missing=47
					47:leaf=0.0130316
					48:leaf=57.58
			12:[f9<7.81313e-06] yes=25,no=26,missing=25
				25:leaf=181.194
				26:[f1<0.0228988] yes=49,no=50,missing=49
					49:leaf=-13.5345
					50:leaf=150.222
		6:[f13<0.275791] yes=13,no=14,missing=13
			13:[f9<-0.0977359] yes=27,no=28,missing=27
				27:[f5<2.87144] yes=51,no=52,missing=51
					51:leaf=-0.28232
					52:leaf=76.5574
				28:[f9<0.0979575] yes=53,no=54,missing=53
					53:leaf=-0.281141
					54:leaf=28.3857
			14:[f15<0.278751] yes=29,no=30,missing=29
				29:[f6<2.67227] yes=55,no=56,missing=55
					55:leaf=-0.102888
					56:leaf=12.2811
				30:[f14<0.279274] yes=57,no=58,missing=57
					57:leaf=1.18894
					58:leaf=-0.15778
booster[19]:
0:[f13<0.266211] yes=1,no=2,missing=1
	1:[f5<3.04268] yes=3,no=4,missing=3
		3:[f5<-0.228173] yes=7,no=8,missing=7
			7:[f1<0.203734] yes=15,no=16,missing=15
				15:[f3<-0.201078] yes=31,no=32,missing=31
					31:leaf=-0.111594
					32:leaf=-0.15784
				16:leaf=-0.105613
			8:[f5<2.99605] yes=17,no=18,missing=17
				17:[f1<-0.170042] yes=33,no=34,missing=33
					33:leaf=19.6495
					34:leaf=108.233
				18:[f11<-2.23698] yes=35,no=36,missing=35
					35:leaf=88.9917
					36:leaf=-5.27114
		4:[f11<-2.23586] yes=9,no=10,missing=9
			9:[f5<3.56248] yes=19,no=20,missing=19
				19:[f11<-2.23675] yes=37,no=38,missing=37
					37:leaf=107.484
					38:leaf=59.6743
				20:[f5<4.46657] yes=39,no=40,missing=39
					39:leaf=134.51
					40:leaf=172.691
			10:[f5<3.40653] yes=21,no=22,missing=21
				21:[f3<0.0966464] yes=41,no=42,missing=41
					41:leaf=-6.73086
					42:leaf=105.495
				22:[f4<0.0614168] yes=43,no=44,missing=43
					43:leaf=35.7401
					44:leaf=114.856
	2:[f11<-2.23026] yes=5,no=6,missing=5
		5:[f5<5.25395] yes=11,no=12,missing=11
			11:[f3<-0.253003] yes=23,no=24,missing=23
				23:[f9<0.0379776] yes=45,no=46,missing=45
					45:leaf=10.9187
					46:leaf=150.58
				24:[f9<-0.0344192] yes=47,no=48,missing=47
					47:leaf=43.0756
					48:leaf=-0.699646
			12:[f9<7.81313e-06] yes=25,no=26,missing=25
				25:[f3<0.00468259] yes=49,no=50,missing=49
					49:leaf=-1.45684
					50:leaf=176.738
				26:[f1<0.0228988] yes=51,no=52,missing=51
					51:leaf=-12.1736
					52:leaf=147.003
		6:[f13<0.276228] yes=13,no=14,missing=13
			13:[f9<-0.107685] yes=27,no=28,missing=27
				27:[f5<2.87144] yes=53,no=54,missing=53
					53:leaf=-0.288905
					54:leaf=69.3831
				28:[f9<0.0941605] yes=55,no=56,missing=55
					55:leaf=-0.455777
					56:leaf=26.4705
			14:[f12<-2.21967] yes=29,no=30,missing=29
				29:[f6<4.59059] yes=57,no=58,missing=57
					57:leaf=0.701425
					58:leaf=15.4735
				30:[f14<0.274721] yes=59,no=60,missing=59
					59:leaf=2.58507
					60:leaf=-0.153114
booster[20]:
0:[f13<0.267917] yes=1,no=2,missing=1
	1:[f5<3.40107] yes=3,no=4,missing=3
		3:[f5<-0.228173] yes=7,no=8,missing=7
			7:[f11<-2.23371] yes=15,no=16,missing=15
				15:[f11<-2.23378] yes=31,no=32,missing=31
					31:leaf=-0.15256
					32:leaf=-0.299528
				16:[f3<0.240411] yes=33,no=34,missing=33
					33:leaf=-0.959426
					34:leaf=-8.64546
			8:[f11<-2.23675] yes=17,no=18,missing=17
				17:[f13<0.262767] yes=35,no=36,missing=35
					35:leaf=110.721
					36:leaf=78.1375
				18:[f9<-0.0319188] yes=37,no=38,missing=37
					37:leaf=96.3505
					38:leaf=8.95876
		4:[f13<0.265732] yes=9,no=10,missing=9
			9:[f5<4.97679] yes=19,no=20,missing=19
				19:[f11<-2.23582] yes=39,no=40,missing=39
					39:leaf=138.001
					40:leaf=86.0914
				20:[f6<6.41006] yes=41,no=42,missing=41
					41:leaf=176.014
					42:leaf=101.491
			10:[f9<-0.0306628] yes=21,no=22,missing=21
				21:[f6<-0.943714] yes=43,no=44,missing=43
					43:leaf=-20.4585
					44:leaf=161.065
				22:[f3<-0.104828] yes=45,no=46,missing=45
					45:leaf=134.934
					46:leaf=5.29536
	2:[f13<0.274936] yes=5,no=6,missing=5
		5:[f5<5.33458] yes=11,no=12,missing=11
			11:[f3<-0.188479] yes=23,no=24,missing=23
				23:[f9<0.0693157] yes=47,no=48,missing=47
					47:leaf=17.2319
					48:leaf=94.6558
				24:[f9<-0.118317] yes=49,no=50,missing=49
					49:leaf=59.2918
					50:leaf=1.19977
			12:[f11<-2.22802] yes=25,no=26,missing=25
				25:[f4<3.10519] yes=51,no=52,missing=51
					51:leaf=7.37538
					52:leaf=162.631
				26:[f3<0.0571166] yes=53,no=54,missing=53
					53:leaf=70.8479
					54:leaf=-1.12526
		6:[f15<0.278751] yes=13,no=14,missing=13
			13:[f6<2.67227] yes=27,no=28,missing=27
				27:[f6<1.90723] yes=55,no=56,missing=55
					55:leaf=-0.301659
					56:leaf=4.06078
				28:[f6<4.93494] yes=57,no=58,missing=57
					57:leaf=8.2051
					58:leaf=17.0581
			14:[f11<-2.22269] yes=29,no=30,missing=29
				29:[f9<0.221476] yes=59,no=60,missing=59
					59:leaf=0.754963
					60:leaf=32.9613
				30:[f14<0.279274] yes=61,no=62,missing=61
					61:leaf=1.1473
					62:leaf=-0.151395
booster[21]:
0:[f13<0.266211] yes=1,no=2,missing=1
	1:[f5<3.04268] yes=3,no=4,missing=3
		3:[f5<-0.228173] yes=7,no=8,missing=7
			7:[f1<0.135527] yes=15,no=16,missing=15
				15:[f3<-0.150968] yes=31,no=32,missing=31
					31:leaf=-0.122839
					32:leaf=-0.151183
				16:[f3<0.063703] yes=33,no=34,missing=33
					33:leaf=-0.125104
					34:leaf=-0.074554
			8:[f5<2.99605] yes=17,no=18,missing=17
				17:[f1<-0.170042] yes=35,no=36,missing=35
					35:leaf=19.2919
					36:leaf=105.889
				18:[f11<-2.23698] yes=37,no=38,missing=37
					37:leaf=84.831
					38:leaf=-5.35624
		4:[f11<-2.23586] yes=9,no=10,missing=9
			9:[f5<4.03382] yes=19,no=20,missing=19
				19:[f9<4.32011e-05] yes=39,no=40,missing=39
					39:leaf=89.7704
					40:leaf=123.108
				20:[f7<0.18021] yes=41,no=42,missing=41
					41:leaf=160.575
					42:leaf=56.849
			10:[f5<3.40653] yes=21,no=22,missing=21
				21:[f3<0.0966464] yes=43,no=44,missing=43
					43:leaf=-6.86269
					44:leaf=101.415
				22:[f4<0.00393265] yes=45,no=46,missing=45
					45:leaf=25.1846
					46:leaf=106.348
	2:[f11<-2.23093] yes=5,no=6,missing=5
		5:[f5<5.0379] yes=11,no=12,missing=11
			11:[f3<-0.260029] yes=23,no=24,missing=23
				23:[f9<0.030357] yes=47,no=48,missing=47
					47:leaf=6.88765
					48:leaf=147.279
				24:[f9<-0.0389993] yes=49,no=50,missing=49
					49:leaf=38.2154
					50:leaf=-1.12488
			12:[f3<0.0704179] yes=25,no=26,missing=25
				25:[f1<0.022165] yes=51,no=52,missing=51
					51:leaf=-10.2286
					52:leaf=138.842
				26:[f7<0.333661] yes=53,no=54,missing=53
					53:leaf=174.439
					54:leaf=33.4729
		6:[f13<0.275791] yes=13,no=14,missing=13
			13:[f9<-0.0977359] yes=27,no=28,missing=27
				27:[f5<2.87144] yes=55,no=56,missing=55
					55:leaf=-0.665853
					56:leaf=72.1818
				28:[f9<0.0979575] yes=57,no=58,missing=57
					57:leaf=-0.364586
					58:leaf=26.6866
			14:[f12<-2.22039] yes=29,no=30,missing=29
				29:[f6<3.04293] yes=59,no=60,missing=59
					59:leaf=0.0288938
					60:leaf=11.6315
				30:[f14<0.274721] yes=61,no=62,missing=61
					61:leaf=2.49196
					62:leaf=-0.144947
booster[22]:
0:[f11<-2.23335] yes=1,no=2,missing=1
	1:[f5<3.23854] yes=3,no=4,missing=3
		3:[f5<-0.228173] yes=7,no=8,missing=7
			7:[f11<-2.23371] yes=15,no=16,missing=15
				15:[f11<-2.23378] yes=31,no=32,missing=31
					31:leaf=-0.14502
					32:leaf=-0.268369
				16:[f9<-0.0328564] yes=33,no=34,missing=33
					33:leaf=-2.75079
					34:leaf=-0.334027
			8:[f11<-2.23577] yes=17,no=18,missing=17
				17:[f13<0.262767] yes=35,no=36,missing=35
					35:leaf=102.856
					36:leaf=55.5256
				18:[f3<0.106757] yes=37,no=38,missing=37
					37:leaf=-4.04017
					38:leaf=91.4925
		4:[f13<0.264632] yes=9,no=10,missing=9
			9:[f5<4.16247] yes=19,no=20,missing=19
				19:[f13<0.26342] yes=39,no=40,missing=39
					39:leaf=123.409
					40:leaf=92.9794
				20:[f10<2.28797] yes=41,no=42,missing=41
					41:leaf=157.042
					42:leaf=15.609
			10:[f4<0.538352] yes=21,no=22,missing=21
				21:[f2<-0.000180709] yes=43,no=44,missing=43
					43:leaf=70.3695
					44:leaf=-11.3194
				22:[f3<0.053891] yes=45,no=46,missing=45
					45:leaf=74.9516
					46:leaf=134.106
	2:[f13<0.271959] yes=5,no=6,missing=5
		5:[f5<5.3117] yes=11,no=12,missing=11
			11:[f3<-0.284738] yes=23,no=24,missing=23
				23:[f9<0.0428701] yes=47,no=48,missing=47
					47:leaf=11.702
					48:leaf=95.2383
				24:[f9<-0.0344192] yes=49,no=50,missing=49
					49:leaf=29.5924
					50:leaf=-0.150834
			12:[f9<-0.031014] yes=25,no=26,missing=25
				25:[f5<5.35338] yes=51,no=52,missing=51
					51:leaf=92.4807
					52:leaf=164.188
				26:[f1<0.263101] yes=53,no=54,missing=53
					53:leaf=0.375186
					54:leaf=116.351
		6:[f13<0.276228] yes=13,no=14,missing=13
			13:[f9<-0.151398] yes=27,no=28,missing=27
				27:[f5<2.87144] yes=55,no=56,missing=55
					55:leaf=-0.616201
					56:leaf=69.3774
				28:[f9<0.125979] yes=57,no=58,missing=57
					57:leaf=-1.08176
					58:leaf=27.1802
			14:[f15<0.278751] yes=29,no=30,missing=29
				29:[f6<2.64039] yes=59,no=60,missing=59
					59:leaf=-0.150016
					60:leaf=11.1348
				30:[f14<0.279274] yes=61,no=62,missing=61
					61:leaf=1.10708
					62:leaf=-0.143209
booster[23]:
0:[f13<0.266211] yes=1,no=2,missing=1
	1:[f5<3.04268] yes=3,no=4,missing=3
		3:[f5<-0.228173] yes=7,no=8,missing=7
			7:[f1<0.135527] yes=15,no=16,missing=15
				15:[f9<-0.119693] yes=31,no=32,missing=31
					31:leaf=-0.0875729
					32:leaf=-0.143133
				16:[f3<0.063703] yes=33,no=34,missing=33
					33:leaf=-0.118486
					34:leaf=-0.0696136
			8:[f5<2.99605] yes=17,no=18,missing=17
				17:[f1<-0.170042] yes=35,no=36,missing=35
					35:leaf=17.9071
					36:leaf=103.077
				18:[f11<-2.23698] yes=37,no=38,missing=37
					37:leaf=80.9209
					38:leaf=-5.8267
		4:[f11<-2.23586] yes=9,no=10,missing=9
			9:[f5<3.56248] yes=19,no=20,missing=19
				19:[f11<-2.23675] yes=39,no=40,missing=39
					39:leaf=97.204
					40:leaf=53.8943
				20:[f5<4.46657] yes=41,no=42,missing=41
					41:leaf=121.676
					42:leaf=156.565
			10:[f5<3.40653] yes=21,no=22,missing=21
				21:[f3<0.0966464] yes=43,no=44,missing=43
					43:leaf=-6.97882
					44:leaf=96.8719
				22:[f3<0.00219886] yes=45,no=46,missing=45
					45:leaf=57.3585
					46:leaf=131.877
	2:[f11<-2.23093] yes=5,no=6,missing=5
		5:[f5<5.0379] yes=11,no=12,missing=11
			11:[f3<-0.260029] yes=23,no=24,missing=23
				23:[f9<0.030357] yes=47,no=48,missing=47
					47:leaf=6.33905
					48:leaf=141.748
				24:[f9<-0.0389993] yes=49,no=50,missing=49
					49:leaf=36.5052
					50:leaf=-1.18321
			12:[f3<0.0704179] yes=25,no=26,missing=25
				25:[f1<0.022165] yes=51,no=52,missing=51
					51:leaf=-10.2419
					52:leaf=135.355
				26:[f7<0.333661] yes=53,no=54,missing=53
					53:leaf=167.882
					54:leaf=32.2867
		6:[f13<0.274936] yes=13,no=14,missing=13
			13:[f9<-0.0977359] yes=27,no=28,missing=27
				27:[f5<2.24395] yes=55,no=56,missing=55
					55:leaf=-0.582471
					56:leaf=74.3195
				28:[f9<0.0941605] yes=57,no=58,missing=57
					57:leaf=-0.447382
					58:leaf=26.2633
			14:[f12<-2.21967] yes=29,no=30,missing=29
				29:[f6<5.55081] yes=59,no=60,missing=59
					59:leaf=0.919958
					60:leaf=17.5155
				30:[f11<-2.22269] yes=61,no=62,missing=61
					61:leaf=1.85675
					62:leaf=-0.137849
booster[24]:
0:[f13<0.267917] yes=1,no=2,missing=1
	1:[f5<3.40107] yes=3,no=4,missing=3
		3:[f5<-0.228173] yes=7,no=8,missing=7
			7:[f11<-2.23371] yes=15,no=16,missing=15
				15:[f11<-2.23378] yes=31,no=32,missing=31
					31:leaf=-0.13785
					32:leaf=-0.236616
				16:[f9<-0.0380477] yes=33,no=34,missing=33
					33:leaf=-4.34259
					34:leaf=-0.731151
			8:[f11<-2.23675] yes=17,no=18,missing=17
				17:[f13<0.262767] yes=35,no=36,missing=35
					35:leaf=100.542
					36:leaf=69.7763
				18:[f9<-0.0319188] yes=37,no=38,missing=37
					37:leaf=89.4578
					38:leaf=7.59267
		4:[f13<0.265732] yes=9,no=10,missing=9
			9:[f5<4.97679] yes=19,no=20,missing=19
				19:[f11<-2.23582] yes=39,no=40,missing=39
					39:leaf=124.818
					40:leaf=77.8979
				20:[f6<6.41006] yes=41,no=42,missing=41
					41:leaf=161.105
					42:leaf=90.9915
			10:[f3<0.0895146] yes=21,no=22,missing=21
				21:[f3<-0.104828] yes=43,no=44,missing=43
					43:leaf=124.832
					44:leaf=0.46557
				22:[f10<-1.32761] yes=45,no=46,missing=45
					45:leaf=45.9314
					46:leaf=148.472
	2:[f13<0.273571] yes=5,no=6,missing=5
		5:[f5<5.31332] yes=11,no=12,missing=11
			11:[f3<-0.185679] yes=23,no=24,missing=23
				23:[f9<0.0692445] yes=47,no=48,missing=47
					47:leaf=12.7181
					48:leaf=100.175
				24:[f9<-0.118317] yes=49,no=50,missing=49
					49:leaf=82.9333
					50:leaf=1.29604
			12:[f4<4.41333] yes=25,no=26,missing=25
				25:[f8<-0.413135] yes=51,no=52,missing=51
					51:leaf=85.2117
					52:leaf=-0.900707
				26:[f11<-2.22802] yes=53,no=54,missing=53
					53:leaf=145.388
					54:leaf=51.345
		6:[f11<-2.22305] yes=13,no=14,missing=13
			13:[f9<-0.18523] yes=27,no=28,missing=27
				27:[f5<2.97449] yes=55,no=56,missing=55
					55:leaf=-0.777662
					56:leaf=60.5215
				28:[f9<0.195781] yes=57,no=58,missing=57
					57:leaf=-1.17031
					58:leaf=25.1429
			14:[f15<0.278751] yes=29,no=30,missing=29
				29:[f6<2.64039] yes=59,no=60,missing=59
					59:leaf=-0.169234
					60:leaf=10.7099
				30:[f14<0.274721] yes=61,no=62,missing=61
					61:leaf=2.40561
					62:leaf=-0.135302
booster[25]:
0:[f13<0.266211] yes=1,no=2,missing=1
	1:[f5<3.04268] yes=3,no=4,missing=3
		3:[f5<-0.228173] yes=7,no=8,missing=7
			7:[f1<0.135527] yes=15,no=16,missing=15
				15:[f3<-0.150968] yes=31,no=32,missing=31
					31:leaf=-0.109656
					32:leaf=-0.136765
				16:[f3<0.063703] yes=33,no=34,missing=33
					33:leaf=-0.112206
					34:leaf=-0.0649457
			8:[f5<2.99605] yes=17,no=18,missing=17
				17:[f1<-0.170042] yes=35,no=36,missing=35
					35:leaf=17.5884
					36:leaf=100.864
				18:[f11<-2.23698] yes=37,no=38,missing=37
					37:leaf=77.1404
					38:leaf=-5.86745
		4:[f11<-2.23586] yes=9,no=10,missing=9
			9:[f5<4.04308] yes=19,no=20,missing=19
				19:[f1<7.47697e-05] yes=39,no=40,missing=39
					39:leaf=82.2838
					40:leaf=113.583
				20:[f7<0.18021] yes=41,no=42,missing=41
					41:leaf=146.419
					42:leaf=49.7614
			10:[f1<0.0512106] yes=21,no=22,missing=21
				21:[f3<0.053891] yes=43,no=44,missing=43
					43:leaf=28.7709
					44:leaf=115.897
				22:[f6<0.141638] yes=45,no=46,missing=45
					45:leaf=-5.46654
					46:leaf=142.05
	2:[f11<-2.2304] yes=5,no=6,missing=5
		5:[f5<5.11922] yes=11,no=12,missing=11
			11:[f3<-0.253003] yes=23,no=24,missing=23
				23:[f9<0.0341938] yes=47,no=48,missing=47
					47:leaf=8.31827
					48:leaf=133.318
				24:[f3<0.23332] yes=49,no=50,missing=49
					49:leaf=1.02007
					50:leaf=73.1872
			12:[f3<0.0700228] yes=25,no=26,missing=25
				25:[f1<0.022165] yes=51,no=52,missing=51
					51:leaf=-8.13786
					52:leaf=133.091
				26:[f7<0.333661] yes=53,no=54,missing=53
					53:leaf=158.084
					54:leaf=30.6368
		6:[f13<0.276228] yes=13,no=14,missing=13
			13:[f9<-0.117179] yes=27,no=28,missing=27
				27:[f5<2.87144] yes=55,no=56,missing=55
					55:leaf=-0.961471
					56:leaf=66.1855
				28:[f9<0.0979575] yes=57,no=58,missing=57
					57:leaf=-0.382556
					58:leaf=24.2707
			14:[f12<-2.21967] yes=29,no=30,missing=29
				29:[f6<4.59059] yes=59,no=60,missing=59
					59:leaf=0.559342
					60:leaf=13.8534
				30:[f14<0.279274] yes=61,no=62,missing=61
					61:leaf=1.07162
					62:leaf=-0.133149
booster[26]:
0:[f11<-2.23335] yes=1,no=2,missing=1
	1:[f5<3.40107] yes=3,no=4,missing=3
		3:[f5<-0.228173] yes=7,no=8,missing=7
			7:[f11<-2.23371] yes=15,no=16,missing=15
				15:[f11<-2.23378] yes=31,no=32,missing=31
					31:leaf=-0.131074
					32:leaf=-0.253754
				16:[f9<-0.0328564] yes=33,no=34,missing=33
					33:leaf=-3.31114
					34:leaf=-0.340766
			8:[f11<-2.23675] yes=17,no=18,missing=17
				17:[f13<0.262767] yes=35,no=36,missing=35
					35:leaf=95.945
					36:leaf=65.9988
				18:[f3<0.0966464] yes=37,no=38,missing=37
					37:leaf=6.97958
					38:leaf=93.741
		4:[f13<0.265732] yes=9,no=10,missing=9
			9:[f5<4.97679] yes=19,no=20,missing=19
				19:[f11<-2.23564] yes=39,no=40,missing=39
					39:leaf=116.139
					40:leaf=69.841
				20:[f12<1.19746] yes=41,no=42,missing=41
					41:leaf=157.791
					42:leaf=110.708
			10:[f3<-0.0592618] yes=21,no=22,missing=21
				21:leaf=126.587
				22:[f7<0.0152152] yes=43,no=44,missing=43
					43:leaf=-5.89648
					44:leaf=106.108
	2:[f13<0.271959] yes=5,no=6,missing=5
		5:[f5<5.3117] yes=11,no=12,missing=11
			11:[f3<-0.284738] yes=23,no=24,missing=23
				23:[f9<0.0428701] yes=45,no=46,missing=45
					45:leaf=10.3324
					46:leaf=87.6898
				24:[f9<-0.0344192] yes=47,no=48,missing=47
					47:leaf=27.4653
					48:leaf=-0.274838
			12:[f4<2.59755] yes=25,no=26,missing=25
				25:[f1<0.36125] yes=49,no=50,missing=49
					49:leaf=-8.37592
					50:leaf=127.584
				26:[f12<9.38586] yes=51,no=52,missing=51
					51:leaf=141.693
					52:leaf=-5.9071
		6:[f13<0.276228] yes=13,no=14,missing=13
			13:[f9<-0.151398] yes=27,no=28,missing=27
				27:[f5<2.87144] yes=53,no=54,missing=53
					53:leaf=-0.662658
					54:leaf=63.699
				28:[f9<0.125979] yes=55,no=56,missing=55
					55:leaf=-1.14496
					56:leaf=24.9431
			14:[f15<0.278751] yes=29,no=30,missing=29
				29:[f6<2.64039] yes=57,no=58,missing=57
					57:leaf=-0.178971
					58:leaf=10.282
				30:[f14<0.274721] yes=59,no=60,missing=59
					59:leaf=2.31886
					60:leaf=-0.128116
booster[27]:
0:[f13<0.267917] yes=1,no=2,missing=1
	1:[f5<3.40107] yes=3,no=4,missing=3
		3:[f5<-0.228173] yes=7,no=8,missing=7
			7:[f11<-2.23371] yes=15,no=16,missing=15
				15:[f11<-2.23378] yes=31,no=32,missing=31
					31:leaf=-0.1278
					32:leaf=-0.248203
				16:[f9<-0.0380477] yes=33,no=34,missing=33
					33:leaf=-4.7104
					34:leaf=-0.761875
			8:[f11<-2.23675] yes=17,no=18,missing=17
				17:[f13<0.262767] yes=35,no=36,missing=35
					35:leaf=93.5708
					36:leaf=64.4078
				18:[f9<-0.0319188] yes=37,no=38,missing=37
					37:leaf=84.2634
					38:leaf=6.37209
		4:[f13<0.265732] yes=9,no=10,missing=9
			9:[f5<4.97679] yes=19,no=20,missing=19
				19:[f11<-2.23582] yes=39,no=40,missing=39
					39:leaf=115.806
					40:leaf=72.4246
				20:[f6<6.41006] yes=41,no=42,missing=41
					41:leaf=150.304
					42:leaf=83.863
			10:[f9<-0.0306628] yes=21,no=22,missing=21
				21:[f6<-0.943714] yes=43,no=44,missing=43
					43:leaf=-20.1967
					44:leaf=143.114
				22:[f3<-0.104828] yes=45,no=46,missing=45
					45:leaf=117.11
					46:leaf=2.00172
	2:[f13<0.273571] yes=5,no=6,missing=5
		5:[f5<5.32998] yes=11,no=12,missing=11
			11:[f5<1.26347] yes=23,no=24,missing=23
				23:[f9<0.0692488] yes=47,no=48,missing=47
					47:leaf=-1.20352
					48:leaf=-15.5395
				24:[f9<0.0876167] yes=49,no=50,missing=49
					49:leaf=7.31259
					50:leaf=108.322
			12:[f4<4.41333] yes=25,no=26,missing=25
				25:[f8<-0.413135] yes=51,no=52,missing=51
					51:leaf=81.8323
					52:leaf=-1.09425
				26:[f11<-2.22802] yes=53,no=54,missing=53
					53:leaf=141.517
					54:leaf=54.5937
		6:[f11<-2.22269] yes=13,no=14,missing=13
			13:[f9<-0.18523] yes=27,no=28,missing=27
				27:[f5<2.97449] yes=55,no=56,missing=55
					55:leaf=-0.858301
					56:leaf=53.0297
				28:[f9<0.195781] yes=57,no=58,missing=57
					57:leaf=-1.09347
					58:leaf=24.0181
			14:[f12<-2.21967] yes=29,no=30,missing=29
				29:[f6<5.55081] yes=59,no=60,missing=59
					59:leaf=0.803415
					60:leaf=16.3444
				30:[f14<0.279274] yes=61,no=62,missing=61
					61:leaf=1.03397
					62:leaf=-0.127356
booster[28]:
0:[f13<0.266211] yes=1,no=2,missing=1
	1:[f5<3.04268] yes=3,no=4,missing=3
		3:[f5<-0.228173] yes=7,no=8,missing=7
			7:[f1<0.135527] yes=15,no=16,missing=15
				15:[f3<-0.0714141] yes=31,no=32,missing=31
					31:leaf=-0.112718
					32:leaf=-0.128046
				16:[f3<0.063703] yes=33,no=34,missing=33
					33:leaf=-0.103114
					34:leaf=-0.0576598
			8:[f5<2.99605] yes=17,no=18,missing=17
				17:[f1<-0.170042] yes=35,no=36,missing=35
					35:leaf=16.1171
					36:leaf=98.1454
				18:[f11<-2.23698] yes=37,no=38,missing=37
					37:leaf=71.585
					38:leaf=-6.04016
		4:[f11<-2.23586] yes=9,no=10,missing=9
			9:[f5<4.04134] yes=19,no=20,missing=19
				19:[f4<6.04383] yes=39,no=40,missing=39
					39:leaf=89.7846
					40:leaf=-61.9832
				20:[f7<0.18021] yes=41,no=42,missing=41
					41:leaf=135.982
					42:leaf=44.8241
			10:[f1<0.0512106] yes=21,no=22,missing=21
				21:[f3<0.053891] yes=43,no=44,missing=43
					43:leaf=25.5499
					44:leaf=108.876
				22:[f6<0.141638] yes=45,no=46,missing=45
					45:leaf=-5.59796
					46:leaf=134.857
	2:[f11<-2.23093] yes=5,no=6,missing=5
		5:[f5<3.40913] yes=11,no=12,missing=11
			11:[f9<-0.0532899] yes=23,no=24,missing=23
				23:[f5<0.949845] yes=47,no=48,missing=47
					47:leaf=-5.14988
					48:leaf=75.2404
				24:[f3<-0.181745] yes=49,no=50,missing=49
					49:leaf=24.5441
					50:leaf=-2.75985
			12:[f9<-0.0344192] yes=25,no=26,missing=25
				25:[f4<2.43973] yes=51,no=52,missing=51
					51:leaf=7.33321
					52:leaf=139.325
				26:[f3<-0.171892] yes=53,no=54,missing=53
					53:leaf=113.664
					54:leaf=2.54822
		6:[f11<-2.22463] yes=13,no=14,missing=13
			13:[f9<-0.0977359] yes=27,no=28,missing=27
				27:[f5<2.87144] yes=55,no=56,missing=55
					55:leaf=-1.01286
					56:leaf=67.1269
				28:[f9<0.0941605] yes=57,no=58,missing=57
					57:leaf=-0.62085
					58:leaf=22.6595
			14:[f15<0.278751] yes=29,no=30,missing=29
				29:[f6<2.78875] yes=59,no=60,missing=59
					59:leaf=-0.0864164
					60:leaf=10.2183
				30:[f14<0.274721] yes=61,no=62,missing=61
					61:leaf=2.23521
					62:leaf=-0.121025
booster[29]:
0:[f11<-2.23335] yes=1,no=2,missing=1
	1:[f5<3.40605] yes=3,no=4,missing=3
		3:[f5<-0.228173] yes=7,no=8,missing=7
			7:[f11<-2.23371] yes=15,no=16,missing=15
				15:[f11<-2.23377] yes=31,no=32,missing=31
					31:leaf=-0.122438
					32:leaf=0.000762098
				16:[f9<-0.0328564] yes=33,no=34,missing=33
					33:leaf=-3.03436
					34:leaf=-0.260104
			8:[f11<-2.23588] yes=17,no=18,missing=17
				17:[f13<0.262767] yes=35,no=36,missing=35
					35:leaf=89.0406
					36:leaf=50.4523
				18:[f3<0.0966464] yes=37,no=38,missing=37
					37:leaf=-6.37533
					38:leaf=86.1948
		4:[f13<0.265732] yes=9,no=10,missing=9
			9:[f5<4.97679] yes=19,no=20,missing=19
				19:[f11<-2.23564] yes=39,no=40,missing=39
					39:leaf=108.133
					40:leaf=65.6662
				20:[f12<1.19746] yes=41,no=42,missing=41
					41:leaf=147.307
					42:leaf=102.553
			10:[f3<-0.0592618] yes=21,no=22,missing=21
				21:leaf=118.371
				22:[f7<0.0152152] yes=43,no=44,missing=43
					43:leaf=-7.01432
					44:leaf=101.885
	2:[f13<0.271959] yes=5,no=6,missing=5
		5:[f5<5.3117] yes=11,no=12,missing=11
			11:[f3<-0.284738] yes=23,no=24,missing=23
				23:[f9<0.0428701] yes=45,no=46,missing=45
					45:leaf=9.52424
					46:leaf=82.9056
				24:[f3<0.154398] yes=47,no=48,missing=47
					47:leaf=1.0751
					48:leaf=40.5494
			12:[f4<2.59755] yes=25,no=26,missing=25
				25:[f1<0.36125] yes=49,no=50,missing=49
					49:leaf=-8.22259
					50:leaf=125.107
				26:[f12<9.38586] yes=51,no=52,missing=51
					51:leaf=133.072
					52:leaf=-6.10283
		6:[f13<0.276564] yes=13,no=14,missing=13
			13:[f9<-0.151398] yes=27,no=28,missing=27
				27:[f5<2.97042] yes=53,no=54,missing=53
					53:leaf=2.10628
					54:leaf=61.7172
				28:[f9<0.125979] yes=55,no=56,missing=55
					55:leaf=-1.10055
					56:leaf=22.8988
			14:[f12<-2.21967] yes=29,no=30,missing=29
				29:[f6<5.55081] yes=57,no=58,missing=57
					57:leaf=0.753824
					58:leaf=15.7477
				30:[f14<0.279274] yes=59,no=60,missing=59
					59:leaf=0.997599
					60:leaf=-0.120713
booster[30]:
0:[f13<0.267917] yes=1,no=2,missing=1
	1:[f5<3.40107] yes=3,no=4,missing=3
		3:[f5<-0.228173] yes=7,no=8,missing=7
			7:[f11<-2.23367] yes=15,no=16,missing=15
				15:[f11<-2.23371] yes=31,no=32,missing=31
					31:leaf=-0.118851
					32:leaf=-0.674036
				16:[f9<-0.0375061] yes=33,no=34,missing=33
					33:leaf=-4.50884
					34:leaf=-0.76079
			8:[f11<-2.23675] yes=17,no=18,missing=17
				17:[f13<0.262767] yes=35,no=36,missing=35
					35:leaf=86.8536
					36:leaf=59.4744
				18:[f3<0.0966464] yes=37,no=38,missing=37
					37:leaf=4.1683
					38:leaf=68.6336
		4:[f13<0.265732] yes=9,no=10,missing=9
			9:[f5<4.97679] yes=19,no=20,missing=19
				19:[f11<-2.23564] yes=39,no=40,missing=39
					39:leaf=105.295
					40:leaf=63.1695
				20:[f6<6.41006] yes=41,no=42,missing=41
					41:leaf=140.241
					42:leaf=77.2725
			10:[f3<0.0895146] yes=21,no=22,missing=21
				21:[f3<-0.104828] yes=43,no=44,missing=43
					43:leaf=109.698
					44:leaf=-1.24523
				22:[f10<-1.32761] yes=45,no=46,missing=45
					45:leaf=41.7305
					46:leaf=134.301
	2:[f13<0.273571] yes=5,no=6,missing=5
		5:[f5<5.32998] yes=11,no=12,missing=11
			11:[f5<1.26347] yes=23,no=24,missing=23
				23:[f9<0.0922822] yes=47,no=48,missing=47
					47:leaf=-1.33764
					48:leaf=-18.0853
				24:[f9<0.0876167] yes=49,no=50,missing=49
					49:leaf=6.8019
					50:leaf=104.286
			12:[f4<4.41333] yes=25,no=26,missing=25
				25:[f8<-0.413135] yes=51,no=52,missing=51
					51:leaf=78.7178
					52:leaf=-1.42506
				26:[f4<5.77695] yes=53,no=54,missing=53
					53:leaf=127.851
					54:leaf=27.8438
		6:[f11<-2.22269] yes=13,no=14,missing=13
			13:[f9<-0.18523] yes=27,no=28,missing=27
				27:[f5<2.97449] yes=55,no=56,missing=55
					55:leaf=-0.936947
					56:leaf=49.6438
				28:[f9<0.195781] yes=57,no=58,missing=57
					57:leaf=-1.08473
					58:leaf=22.7922
			14:[f15<0.278751] yes=29,no=30,missing=29
				29:[f6<2.57159] yes=59,no=60,missing=59
					59:leaf=-0.236157
					60:leaf=9.44874
				30:[f14<0.274721] yes=61,no=62,missing=61
					61:leaf=2.15456
					62:leaf=-0.11655
booster[31]:
0:[f13<0.266211] yes=1,no=2,missing=1
	1:[f5<3.24756] yes=3,no=4,missing=3
		3:[f5<-0.228173] yes=7,no=8,missing=7
			7:[f1<0.0422353] yes=15,no=16,missing=15
				15:[f1<-0.199845] yes=31,no=32,missing=31
					31:leaf=0.013882
					32:leaf=-0.118634
				16:[f2<-0.183047] yes=33,no=34,missing=33
					33:leaf=-0.0650066
					34:leaf=-0.106599
			8:[f11<-2.23652] yes=17,no=18,missing=17
				17:[f13<0.262767] yes=35,no=36,missing=35
					35:leaf=82.9123
					36:leaf=45.7585
				18:[f3<-0.0811614] yes=37,no=38,missing=37
					37:leaf=107.727
					38:leaf=-1.44956
		4:[f13<0.264632] yes=9,no=10,missing=9
			9:[f5<4.16763] yes=19,no=20,missing=19
				19:[f3<-0.00399083] yes=39,no=40,missing=39
					39:leaf=106.404
					40:leaf=79.6008
				20:[f10<2.28797] yes=41,no=42,missing=41
					41:leaf=126.718
					42:leaf=4.95606
			10:[f4<0.0661644] yes=21,no=22,missing=21
				21:[f3<4.19602e-05] yes=43,no=44,missing=43
					43:leaf=-18.0585
					44:leaf=78.0627
				22:[f5<4.85968] yes=45,no=46,missing=45
					45:leaf=59.1188
					46:leaf=128.192
	2:[f11<-2.23093] yes=5,no=6,missing=5
		5:[f5<5.0379] yes=11,no=12,missing=11
			11:[f3<-0.260029] yes=23,no=24,missing=23
				23:[f9<0.030357] yes=47,no=48,missing=47
					47:leaf=4.24934
					48:leaf=121.85
				24:[f9<-0.0389993] yes=49,no=50,missing=49
					49:leaf=32.3025
					50:leaf=-1.62879
			12:[f3<0.0704179] yes=25,no=26,missing=25
				25:[f1<0.022165] yes=51,no=52,missing=51
					51:leaf=-10.9049
					52:leaf=127.351
				26:[f7<0.333661] yes=53,no=54,missing=53
					53:leaf=145.981
					54:leaf=25.5108
		6:[f11<-2.22463] yes=13,no=14,missing=13
			13:[f9<-0.0977359] yes=27,no=28,missing=27
				27:[f5<2.87144] yes=55,no=56,missing=55
					55:leaf=-1.04862
					56:leaf=63.6296
				28:[f9<0.0941605] yes=57,no=58,missing=57
					57:leaf=-0.709529
					58:leaf=20.9428
			14:[f15<0.278751] yes=29,no=30,missing=29
				29:[f6<2.57159] yes=59,no=60,missing=59
					59:leaf=-0.231596
					60:leaf=9.15712
				30:[f14<0.279274] yes=61,no=62,missing=61
					61:leaf=0.962516
					62:leaf=-0.113542
booster[32]:
0:[f11<-2.23335] yes=1,no=2,missing=1
	1:[f5<3.40605] yes=3,no=4,missing=3
		3:[f5<-0.228173] yes=7,no=8,missing=7
			7:[f11<-2.23371] yes=15,no=16,missing=15
				15:[f11<-2.23377] yes=31,no=32,missing=31
					31:leaf=-0.113472
					32:leaf=0.0381953
				16:[f9<-0.0328564] yes=33,no=34,missing=33
					33:leaf=-3.46263
					34:leaf=-0.195524
			8:[f11<-2.23588] yes=17,no=18,missing=17
				17:[f13<0.262767] yes=35,no=36,missing=35
					35:leaf=82.6428
					36:leaf=47.3856
				18:[f3<0.0966464] yes=37,no=38,missing=37
					37:leaf=-6.58466
					38:leaf=81.9555
		4:[f13<0.265732] yes=9,no=10,missing=9
			9:[f5<4.97679] yes=19,no=20,missing=19
				19:[f11<-2.23619] yes=39,no=40,missing=39
					39:leaf=105.493
					40:leaf=67.9069
				20:[f12<1.19746] yes=41,no=42,missing=41
					41:leaf=137.115
					42:leaf=94.7207
			10:[f3<-0.0592618] yes=21,no=22,missing=21
				21:leaf=111.17
				22:[f7<0.0152152] yes=43,no=44,missing=43
					43:leaf=-7.62989
					44:leaf=97.1416
	2:[f11<-2.23026] yes=5,no=6,missing=5
		5:[f5<5.04251] yes=11,no=12,missing=11
			11:[f3<-0.353579] yes=23,no=24,missing=23
				23:[f9<0.0341938] yes=45,no=46,missing=45
					45:leaf=3.54297
					46:leaf=120.06
				24:[f3<0.16388] yes=47,no=48,missing=47
					47:leaf=0.221454
					48:leaf=45.285
			12:[f3<0.0704179] yes=25,no=26,missing=25
				25:[f11<-2.23203] yes=49,no=50,missing=49
					49:leaf=-13.2005
					50:leaf=-2.62999
				26:[f7<0.333661] yes=51,no=52,missing=51
					51:leaf=139.264
					52:leaf=24.9794
		6:[f13<0.276228] yes=13,no=14,missing=13
			13:[f9<-0.117179] yes=27,no=28,missing=27
				27:[f5<2.87144] yes=53,no=54,missing=53
					53:leaf=-1.03145
					54:leaf=56.814
				28:[f9<0.169987] yes=55,no=56,missing=55
					55:leaf=-0.394312
					56:leaf=24.4631
			14:[f12<-2.21744] yes=29,no=30,missing=29
				29:[f6<5.60495] yes=57,no=58,missing=57
					57:leaf=0.5033
					58:leaf=13.8919
				30:[f14<0.274721] yes=59,no=60,missing=59
					59:leaf=2.08489
					60:leaf=-0.11072
booster[33]:
0:[f11<-2.23335] yes=1,no=2,missing=1
	1:[f5<3.40605] yes=3,no=4,missing=3
		3:[f5<-0.228173] yes=7,no=8,missing=7
			7:[f11<-2.23371] yes=15,no=16,missing=15
				15:[f11<-2.23377] yes=31,no=32,missing=31
					31:leaf=-0.110637
					32:leaf=0.0373768
				16:[f9<-0.0392552] yes=33,no=34,missing=33
					33:leaf=-3.57692
					34:leaf=-0.254333
			8:[f11<-2.23588] yes=17,no=18,missing=17
				17:[f13<0.262767] yes=35,no=36,missing=35
					35:leaf=80.5976
					36:leaf=46.2172
				18:[f3<0.0966464] yes=37,no=38,missing=37
					37:leaf=-6.42131
					38:leaf=80.0204
		4:[f13<0.265732] yes=9,no=10,missing=9
			9:[f5<4.97679] yes=19,no=20,missing=19
				19:[f11<-2.23619] yes=39,no=40,missing=39
					39:leaf=102.871
					40:leaf=66.2194
				20:[f12<1.86559] yes=41,no=42,missing=41
					41:leaf=130.506
					42:leaf=70.5657
			10:[f3<-0.0592618] yes=21,no=22,missing=21
				21:[f1<0.305684] yes=43,no=44,missing=43
					43:leaf=110.038
					44:leaf=31.7011
				22:[f7<0.0152152] yes=45,no=46,missing=45
					45:leaf=-7.44128
					46:leaf=94.794
	2:[f13<0.271959] yes=5,no=6,missing=5
		5:[f5<5.3117] yes=11,no=12,missing=11
			11:[f3<-0.284738] yes=23,no=24,missing=23
				23:[f9<0.0428701] yes=47,no=48,missing=47
					47:leaf=8.62443
					48:leaf=76.723
				24:[f9<-0.0344192] yes=49,no=50,missing=49
					49:leaf=24.5811
					50:leaf=-0.584475
			12:[f4<2.59755] yes=25,no=26,missing=25
				25:[f1<0.36125] yes=51,no=52,missing=51
					51:leaf=-8.34516
					52:leaf=116.589
				26:[f12<9.38586] yes=53,no=54,missing=53
					53:leaf=122.725
					54:leaf=-6.26559
		6:[f13<0.276564] yes=13,no=14,missing=13
			13:[f9<-0.151398] yes=27,no=28,missing=27
				27:[f5<2.97042] yes=55,no=56,missing=55
					55:leaf=1.90096
					56:leaf=56.7881
				28:[f9<0.169987] yes=57,no=58,missing=57
					57:leaf=-1.03079
					58:leaf=22.8759
			14:[f15<0.27838] yes=29,no=30,missing=29
				29:[f6<2.78875] yes=59,no=60,missing=59
					59:leaf=-0.109668
					60:leaf=9.58857
				30:[f14<0.279274] yes=61,no=62,missing=61
					61:leaf=0.92861
					62:leaf=-0.108913
booster[34]:
0:[f13<0.268452] yes=1,no=2,missing=1
	1:[f5<3.40107] yes=3,no=4,missing=3
		3:[f5<-0.124747] yes=7,no=8,missing=7
			7:[f3<0.242588] yes=15,no=16,missing=15
				15:[f11<-2.23367] yes=31,no=32,missing=31
					31:leaf=-0.111655
					32:leaf=-1.70662
				16:[f11<-2.23326] yes=33,no=34,missing=33
					33:leaf=-0.42734
					34:leaf=-18.5027
			8:[f11<-2.23588] yes=17,no=18,missing=17
				17:[f13<0.262767] yes=35,no=36,missing=35
					35:leaf=78.6243
					36:leaf=44.5234
				18:[f9<-0.0310722] yes=37,no=38,missing=37
					37:leaf=60.7643
					38:leaf=-3.80795
		4:[f13<0.265732] yes=9,no=10,missing=9
			9:[f5<4.97679] yes=19,no=20,missing=19
				19:[f11<-2.23531] yes=39,no=40,missing=39
					39:leaf=93.1395
					40:leaf=51.4179
				20:[f12<1.19746] yes=41,no=42,missing=41
					41:leaf=130.478
					42:leaf=89.8517
			10:[f3<0.0895146] yes=21,no=22,missing=21
				21:[f3<-0.142229] yes=43,no=44,missing=43
					43:leaf=105.952
					44:leaf=-0.348664
				22:[f8<-0.214103] yes=45,no=46,missing=45
					45:leaf=-4.38429
					46:leaf=125.752
	2:[f13<0.273571] yes=5,no=6,missing=5
		5:[f5<5.35338] yes=11,no=12,missing=11
			11:[f9<0.0781101] yes=23,no=24,missing=23
				23:[f9<-0.0906378] yes=47,no=48,missing=47
					47:leaf=18.9051
					48:leaf=-0.327194
				24:[f5<1.26347] yes=49,no=50,missing=49
					49:leaf=-17.5394
					50:leaf=93.3531
			12:[f4<4.41333] yes=25,no=26,missing=25
				25:[f8<-0.413135] yes=51,no=52,missing=51
					51:leaf=75.4114
					52:leaf=-6.07717
				26:[f4<5.75346] yes=53,no=54,missing=53
					53:leaf=125.307
					54:leaf=23.0488
		6:[f11<-2.22269] yes=13,no=14,missing=13
			13:[f9<-0.18523] yes=27,no=28,missing=27
				27:[f5<2.97449] yes=55,no=56,missing=55
					55:leaf=-1.06676
					56:leaf=45.4289
				28:[f9<0.195781] yes=57,no=58,missing=57
					57:leaf=-1.08967
					58:leaf=21.2198
			14:[f12<-2.21744] yes=29,no=30,missing=29
				29:[f6<5.60495] yes=59,no=60,missing=59
					59:leaf=0.471641
					60:leaf=13.4271
				30:[f14<0.274721] yes=61,no=62,missing=61
					61:leaf=2.00971
					62:leaf=-0.105957
booster[35]:
0:[f13<0.268452] yes=1,no=2,missing=1
	1:[f5<3.40107] yes=3,no=4,missing=3
		3:[f5<-0.124747] yes=7,no=8,missing=7
			7:[f3<0.242588] yes=15,no=16,missing=15
				15:[f11<-2.23367] yes=31,no=32,missing=31
					31:leaf=-0.108865
					32:leaf=-1.66408
				16:[f11<-2.23326] yes=33,no=34,missing=33
					33:leaf=-0.418183
					34:leaf=-18.1062
			8:[f11<-2.23588] yes=17,no=18,missing=17
				17:[f13<0.262767] yes=35,no=36,missing=35
					35:leaf=76.6788
					36:leaf=43.4258
				18:[f9<-0.0319188] yes=37,no=38,missing=37
					37:leaf=62.006
					38:leaf=-3.4073
		4:[f13<0.265732] yes=9,no=10,missing=9
			9:[f5<4.97679] yes=19,no=20,missing=19
				19:[f11<-2.23582] yes=39,no=40,missing=39
					39:leaf=95.1604
					40:leaf=58.8986
				20:[f6<6.41006] yes=41,no=42,missing=41
					41:leaf=124.171
					42:leaf=66.6839
			10:[f3<0.0895146] yes=21,no=22,missing=21
				21:[f3<-0.142229] yes=43,no=44,missing=43
					43:leaf=103.348
					44:leaf=-0.339981
				22:[f12<6.56491] yes=45,no=46,missing=45
					45:leaf=127.397
					46:leaf=33.13
	2:[f13<0.273571] yes=5,no=6,missing=5
		5:[f5<5.35338] yes=11,no=12,missing=11
			11:[f9<0.0781101] yes=23,no=24,missing=23
				23:[f9<-0.0582833] yes=47,no=48,missing=47
					47:leaf=15.3256
					48:leaf=-0.795732
				24:[f5<1.26347] yes=49,no=50,missing=49
					49:leaf=-17.1075
					50:leaf=91.0735
			12:[f4<4.41333] yes=25,no=26,missing=25
				25:[f8<-0.413135] yes=51,no=52,missing=51
					51:leaf=73.8403
					52:leaf=-5.93215
				26:[f4<5.75346] yes=53,no=54,missing=53
					53:leaf=122.279
					54:leaf=22.5686
		6:[f11<-2.22269] yes=13,no=14,missing=13
			13:[f9<-0.18523] yes=27,no=28,missing=27
				27:[f5<2.97449] yes=55,no=56,missing=55
					55:leaf=-1.04046
					56:leaf=44.3104
				28:[f9<0.195781] yes=57,no=58,missing=57
					57:leaf=-1.06244
					58:leaf=20.6983
			14:[f15<0.27838] yes=29,no=30,missing=29
				29:[f6<2.57159] yes=59,no=60,missing=59
					59:leaf=-0.238367
					60:leaf=8.84289
				30:[f14<0.279274] yes=61,no=62,missing=61
					61:leaf=0.895893
					62:leaf=-0.10398
booster[36]:
0:[f13<0.268452] yes=1,no=2,missing=1
	1:[f5<3.40107] yes=3,no=4,missing=3
		3:[f5<-0.124747] yes=7,no=8,missing=7
			7:[f3<0.242588] yes=15,no=16,missing=15
				15:[f9<-0.0407105] yes=31,no=32,missing=31
					31:leaf=-2.26282
					32:leaf=-0.210876
				16:[f11<-2.23326] yes=33,no=34,missing=33
					33:leaf=-0.409221
					34:leaf=-17.7182
			8:[f11<-2.23588] yes=17,no=18,missing=17
				17:[f13<0.262767] yes=35,no=36,missing=35
					35:leaf=74.7813
					36:leaf=42.3552
				18:[f9<-0.0310722] yes=37,no=38,missing=37
					37:leaf=57.9486
					38:leaf=-3.62844
		4:[f13<0.265732] yes=9,no=10,missing=9
			9:[f5<4.97679] yes=19,no=20,missing=19
				19:[f11<-2.23564] yes=39,no=40,missing=39
					39:leaf=90.7584
					40:leaf=53.8197
				20:[f12<3.32642] yes=41,no=42,missing=41
					41:leaf=119.29
					42:leaf=29.9459
			10:[f3<0.0895146] yes=21,no=22,missing=21
				21:[f3<-0.142229] yes=43,no=44,missing=43
					43:leaf=100.807
					44:leaf=-0.331515
				22:[f8<-0.214103] yes=45,no=46,missing=45
					45:leaf=-4.9592
					46:leaf=119.725
	2:[f13<0.273571] yes=5,no=6,missing=5
		5:[f5<5.35338] yes=11,no=12,missing=11
			11:[f9<0.0781101] yes=23,no=24,missing=23
				23:[f9<-0.0955045] yes=47,no=48,missing=47
					47:leaf=18.5338
					48:leaf=-0.265502
				24:[f5<1.26347] yes=49,no=50,missing=49
					49:leaf=-16.6861
					50:leaf=88.8496
			12:[f4<4.41333] yes=25,no=26,missing=25
				25:[f8<-0.413135] yes=51,no=52,missing=51
					51:leaf=72.302
					52:leaf=-5.79059
				26:[f11<-2.22802] yes=53,no=54,missing=53
					53:leaf=126.044
					54:leaf=43.5166
		6:[f11<-2.22269] yes=13,no=14,missing=13
			13:[f9<-0.18523] yes=27,no=28,missing=27
				27:[f5<2.97449] yes=55,no=56,missing=55
					55:leaf=-1.01481
					56:leaf=43.2194
				28:[f9<0.195781] yes=57,no=58,missing=57
					57:leaf=-1.0359
					58:leaf=20.1896
			14:[f12<-2.21744] yes=29,no=30,missing=29
				29:[f6<5.60495] yes=59,no=60,missing=59
					59:leaf=0.441202
					60:leaf=12.9833
				30:[f14<0.274721] yes=61,no=62,missing=61
					61:leaf=1.93722
					62:leaf=-0.100754
booster[37]:
0:[f13<0.266211] yes=1,no=2,missing=1
	1:[f5<3.24756] yes=3,no=4,missing=3
		3:[f5<-0.228173] yes=7,no=8,missing=7
			7:[f9<-0.0407683] yes=15,no=16,missing=15
				15:[f9<-0.119693] yes=31,no=32,missing=31
					31:leaf=-6.86782e-05
					32:leaf=-0.0343553
				16:[f3<0.298472] yes=33,no=34,missing=33
					33:leaf=-0.0977532
					34:leaf=-0.00841269
			8:[f11<-2.23652] yes=17,no=18,missing=17
				17:[f13<0.262767] yes=35,no=36,missing=35
					35:leaf=71.161
					36:leaf=39.2042
				18:[f3<-0.0811614] yes=37,no=38,missing=37
					37:leaf=102.743
					38:leaf=-2.6238
		4:[f13<0.264632] yes=9,no=10,missing=9
			9:[f5<4.16763] yes=19,no=20,missing=19
				19:[f3<-0.00399083] yes=39,no=40,missing=39
					39:leaf=93.0848
					40:leaf=67.4569
				20:[f10<2.28797] yes=41,no=42,missing=41
					41:leaf=109.745
					42:leaf=-2.0216
			10:[f4<0.0661644] yes=21,no=22,missing=21
				21:[f3<4.19602e-05] yes=43,no=44,missing=43
					43:leaf=-20.3304
					44:leaf=67.0346
				22:[f5<4.85968] yes=45,no=46,missing=45
					45:leaf=51.2631
					46:leaf=114.519
	2:[f11<-2.23093] yes=5,no=6,missing=5
		5:[f5<3.40913] yes=11,no=12,missing=11
			11:[f7<0.0239382] yes=23,no=24,missing=23
				23:[f3<0.186125] yes=47,no=48,missing=47
					47:leaf=-1.88608
					48:leaf=-21.5599
				24:[f5<3.05045] yes=49,no=50,missing=49
					49:leaf=-3.29941
					50:leaf=33.1533
			12:[f9<-0.0344192] yes=25,no=26,missing=25
				25:[f4<2.43973] yes=51,no=52,missing=51
					51:leaf=0.300543
					52:leaf=120.681
				26:[f3<-0.171892] yes=53,no=54,missing=53
					53:leaf=95.3633
					54:leaf=1.11083
		6:[f11<-2.22463] yes=13,no=14,missing=13
			13:[f9<-0.11982] yes=27,no=28,missing=27
				27:[f5<2.87144] yes=55,no=56,missing=55
					55:leaf=-1.97568
					56:leaf=63.8023
				28:[f9<0.0941605] yes=57,no=58,missing=57
					57:leaf=-0.440253
					58:leaf=18.145
			14:[f15<0.27838] yes=29,no=30,missing=29
				29:[f6<2.78875] yes=59,no=60,missing=59
					59:leaf=-0.118374
					60:leaf=8.90968
				30:[f14<0.279274] yes=61,no=62,missing=61
					61:leaf=0.864309
					62:leaf=-0.0976556
booster[38]:
0:[f13<0.266211] yes=1,no=2,missing=1
	1:[f5<3.24756] yes=3,no=4,missing=3
		3:[f5<-0.228173] yes=7,no=8,missing=7
			7:[f9<-0.0407683] yes=15,no=16,missing=15
				15:[f9<-0.119693] yes=31,no=32,missing=31
					31:leaf=-6.70842e-05
					32:leaf=-0.0335054
				16:[f1<0.135527] yes=33,no=34,missing=33
					33:leaf=-0.0961707
					34:leaf=-0.0654478
			8:[f11<-2.23652] yes=17,no=18,missing=17
				17:[f13<0.262767] yes=35,no=36,missing=35
					35:leaf=69.4051
					36:leaf=38.2513
				18:[f3<-0.0811614] yes=37,no=38,missing=37
					37:leaf=100.432
					38:leaf=-2.55891
		4:[f13<0.264632] yes=9,no=10,missing=9
			9:[f5<4.16763] yes=19,no=20,missing=19
				19:[f3<-0.00399083] yes=39,no=40,missing=39
					39:leaf=90.7844
					40:leaf=65.7846
				20:[f10<2.28797] yes=41,no=42,missing=41
					41:leaf=107.015
					42:leaf=-1.98791
			10:[f4<0.0661644] yes=21,no=22,missing=21
				21:[f3<4.19602e-05] yes=43,no=44,missing=43
					43:leaf=-19.8302
					44:leaf=65.4385
				22:[f5<4.85968] yes=45,no=46,missing=45
					45:leaf=49.9927
					46:leaf=111.712
	2:[f11<-2.23026] yes=5,no=6,missing=5
		5:[f5<5.04251] yes=11,no=12,missing=11
			11:[f3<-0.253003] yes=23,no=24,missing=23
				23:[f9<0.0379776] yes=47,no=48,missing=47
					47:leaf=5.56896
					48:leaf=104.261
				24:[f9<-0.0389993] yes=49,no=50,missing=49
					49:leaf=25.5711
					50:leaf=-1.52684
			12:[f3<0.0704179] yes=25,no=26,missing=25
				25:[f1<0.022165] yes=51,no=52,missing=51
					51:leaf=-9.82762
					52:leaf=122.029
				26:[f7<0.333661] yes=53,no=54,missing=53
					53:leaf=124.684
					54:leaf=22.4422
		6:[f13<0.276228] yes=13,no=14,missing=13
			13:[f9<-0.117179] yes=27,no=28,missing=27
				27:[f5<2.87144] yes=55,no=56,missing=55
					55:leaf=-1.82234
					56:leaf=50.785
				28:[f9<0.184182] yes=57,no=58,missing=57
					57:leaf=-0.445813
					58:leaf=22.2707
			14:[f12<-2.21744] yes=29,no=30,missing=29
				29:[f6<5.60495] yes=59,no=60,missing=59
					59:leaf=0.412605
					60:leaf=12.5495
				30:[f14<0.274721] yes=61,no=62,missing=61
					61:leaf=1.86733
					62:leaf=-0.0952213
booster[39]:
0:[f11<-2.23335] yes=1,no=2,missing=1
	1:[f5<3.40605] yes=3,no=4,missing=3
		3:[f5<-0.228173] yes=7,no=8,missing=7
			7:[f11<-2.23371] yes=15,no=16,missing=15
				15:[f9<-0.0407683] yes=31,no=32,missing=31
					31:leaf=-0.0287877
					32:leaf=-0.0922334
				16:[f9<-0.0392552] yes=33,no=34,missing=33
					33:leaf=-3.85417
					34:leaf=-0.0735878
			8:[f11<-2.23675] yes=17,no=18,missing=17
				17:[f2<6.58556e-09] yes=35,no=36,missing=35
					35:leaf=76.0153
					36:leaf=55.3778
				18:[f3<-0.0556148] yes=37,no=38,missing=37
					37:leaf=89.3622
					38:leaf=3.8095
		4:[f13<0.265732] yes=9,no=10,missing=9
			9:[f5<4.97679] yes=19,no=20,missing=19
				19:[f11<-2.23619] yes=39,no=40,missing=39
					39:leaf=88.9483
					40:leaf=56.4037
				20:[f12<1.86559] yes=41,no=42,missing=41
					41:leaf=113.044
					42:leaf=57.9379
			10:[f3<-0.0592618] yes=21,no=22,missing=21
				21:[f1<0.305684] yes=43,no=44,missing=43
					43:leaf=97.4683
					44:leaf=26.1628
				22:[f7<0.0152152] yes=45,no=46,missing=45
					45:leaf=-9.20927
					46:leaf=88.0293
	2:[f13<0.270401] yes=5,no=6,missing=5
		5:[f5<5.11922] yes=11,no=12,missing=11
			11:[f3<-0.351538] yes=23,no=24,missing=23
				23:[f9<0.0395046] yes=47,no=48,missing=47
					47:leaf=5.18818
					48:leaf=102.271
				24:[f3<0.23332] yes=49,no=50,missing=49
					49:leaf=0.0947557
					50:leaf=57.7974
			12:[f3<0.0700228] yes=25,no=26,missing=25
				25:[f9<-0.0338636] yes=51,no=52,missing=51
					51:leaf=-19.1246
					52:leaf=-3.51946
				26:[f12<2.1755] yes=53,no=54,missing=53
					53:leaf=119.19
					54:leaf=18.5307
		6:[f13<0.276564] yes=13,no=14,missing=13
			13:[f9<-0.117179] yes=27,no=28,missing=27
				27:[f5<2.87144] yes=55,no=56,missing=55
					55:leaf=-1.59904
					56:leaf=47.6716
				28:[f9<0.125979] yes=57,no=58,missing=57
					57:leaf=-1.08074
					58:leaf=21.7138
			14:[f15<0.27838] yes=29,no=30,missing=29
				29:[f6<2.57159] yes=59,no=60,missing=59
					59:leaf=-0.250773
					60:leaf=8.22345
				30:[f14<0.279274] yes=61,no=62,missing=61
					61:leaf=0.833811
					62:leaf=-0.0937336
booster[40]:
0:[f13<0.268452] yes=1,no=2,missing=1
	1:[f5<3.40605] yes=3,no=4,missing=3
		3:[f5<-0.124747] yes=7,no=8,missing=7
			7:[f3<0.242588] yes=15,no=16,missing=15
				15:[f9<-0.0407105] yes=31,no=32,missing=31
					31:leaf=-2.38329
					32:leaf=-0.182299
				16:[f11<-2.23326] yes=33,no=34,missing=33
					33:leaf=-0.314552
					34:leaf=-18.2128
			8:[f11<-2.23588] yes=17,no=18,missing=17
				17:[f13<0.262767] yes=35,no=36,missing=35
					35:leaf=67.8305
					36:leaf=38.9655
				18:[f9<-0.0310722] yes=37,no=38,missing=37
					37:leaf=55.436
					38:leaf=-4.13098
		4:[f13<0.265732] yes=9,no=10,missing=9
			9:[f5<4.97679] yes=19,no=20,missing=19
				19:[f11<-2.23619] yes=39,no=40,missing=39
					39:leaf=86.7374
					40:leaf=55.0021
				20:[f12<3.32642] yes=41,no=42,missing=41
					41:leaf=108.485
					42:leaf=23.7109
			10:[f3<0.0895146] yes=21,no=22,missing=21
				21:[f3<-0.142229] yes=43,no=44,missing=43
					43:leaf=92.5904
					44:leaf=-0.979616
				22:[f12<6.56491] yes=45,no=46,missing=45
					45:leaf=115.717
					46:leaf=28.7338
	2:[f13<0.273571] yes=5,no=6,missing=5
		5:[f5<5.35338] yes=11,no=12,missing=11
			11:[f5<1.26347] yes=23,no=24,missing=23
				23:[f9<0.0947649] yes=47,no=48,missing=47
					47:leaf=-1.41786
					48:leaf=-18.5084
				24:[f9<0.0876167] yes=49,no=50,missing=49
					49:leaf=4.1821
					50:leaf=96.121
			12:[f4<4.41333] yes=25,no=26,missing=25
				25:[f8<-0.413135] yes=51,no=52,missing=51
					51:leaf=69.3569
					52:leaf=-5.83242
				26:[f4<5.75346] yes=53,no=54,missing=53
					53:leaf=112.558
					54:leaf=16.6212
		6:[f11<-2.22269] yes=13,no=14,missing=13
			13:[f1<0.129804] yes=27,no=28,missing=27
				27:[f3<-0.797212] yes=55,no=56,missing=55
					55:leaf=-35.6471
					56:leaf=-0.284498
				28:[f5<2.24951] yes=57,no=58,missing=57
					57:leaf=-2.90426
					58:leaf=30.4187
			14:[f12<-2.21967] yes=29,no=30,missing=29
				29:[f6<4.70879] yes=59,no=60,missing=59
					59:leaf=0.337586
					60:leaf=11.1884
				30:[f14<0.274721] yes=61,no=62,missing=61
					61:leaf=1.79215
					62:leaf=-0.0909031
booster[41]:
0:[f13<0.266211] yes=1,no=2,missing=1
	1:[f5<3.24756] yes=3,no=4,missing=3
		3:[f5<-0.228173] yes=7,no=8,missing=7
			7:[f9<-0.0407683] yes=15,no=16,missing=15
				15:[f3<-0.0695003] yes=31,no=32,missing=31
					31:leaf=0.0347827
					32:leaf=0.00657277
				16:[f3<0.298472] yes=33,no=34,missing=33
					33:leaf=-0.0860808
					34:leaf=0.00185679
			8:[f11<-2.23652] yes=17,no=18,missing=17
				17:[f13<0.262767] yes=35,no=36,missing=35
					35:leaf=64.4647
					36:leaf=35.2964
				18:[f3<-0.0811614] yes=37,no=38,missing=37
					37:leaf=95.7154
					38:leaf=-2.7807
		4:[f13<0.264632] yes=9,no=10,missing=9
			9:[f5<4.16763] yes=19,no=20,missing=19
				19:[f3<-0.00399083] yes=39,no=40,missing=39
					39:leaf=84.9473
					40:leaf=60.6768
				20:[f10<2.28797] yes=41,no=42,missing=41
					41:leaf=99.4972
					42:leaf=-4.34721
			10:[f4<0.0661644] yes=21,no=22,missing=21
				21:[f3<4.19602e-05] yes=43,no=44,missing=43
					43:leaf=-20.3468
					44:leaf=60.5843
				22:[f5<4.85968] yes=45,no=46,missing=45
					45:leaf=46.4951
					46:leaf=105.338
	2:[f11<-2.23093] yes=5,no=6,missing=5
		5:[f5<3.40913] yes=11,no=12,missing=11
			11:[f9<0.1205] yes=23,no=24,missing=23
				23:[f3<0.26339] yes=47,no=48,missing=47
					47:leaf=-1.34155
					48:leaf=69.2678
				24:[f3<0.23924] yes=49,no=50,missing=49
					49:leaf=-5.93232
					50:leaf=-19.344
			12:[f3<0.116955] yes=25,no=26,missing=25
				25:[f3<-0.171892] yes=51,no=52,missing=51
					51:leaf=85.6801
					52:leaf=3.52239
				26:[f7<0.453852] yes=53,no=54,missing=53
					53:leaf=124.771
					54:leaf=-31.1289
		6:[f13<0.273571] yes=13,no=14,missing=13
			13:[f5<5.35338] yes=27,no=28,missing=27
				27:[f9<-0.122465] yes=55,no=56,missing=55
					55:leaf=20.5587
					56:leaf=0.31487
				28:[f4<2.94269] yes=57,no=58,missing=57
					57:leaf=-1.61564
					58:leaf=91.1255
			14:[f11<-2.22269] yes=29,no=30,missing=29
				29:[f9<-0.18523] yes=59,no=60,missing=59
					59:leaf=18.3565
					60:leaf=-0.283627
				30:[f15<0.27838] yes=61,no=62,missing=61
					61:leaf=1.66767
					62:leaf=-0.0873884
booster[42]:
0:[f11<-2.23335] yes=1,no=2,missing=1
	1:[f5<3.40605] yes=3,no=4,missing=3
		3:[f5<-0.228173] yes=7,no=8,missing=7
			7:[f11<-2.23371] yes=15,no=16,missing=15
				15:[f9<-0.0407683] yes=31,no=32,missing=31
					31:leaf=0.0301964
					32:leaf=-0.0830213
				16:[f9<-0.0392552] yes=33,no=34,missing=33
					33:leaf=-3.67654
					34:leaf=-0.023295
			8:[f11<-2.23577] yes=17,no=18,missing=17
				17:[f13<0.262767] yes=35,no=36,missing=35
					35:leaf=64.5714
					36:leaf=36.5185
				18:[f3<0.0979789] yes=37,no=38,missing=37
					37:leaf=-6.60411
					38:leaf=69.9773
		4:[f13<0.265732] yes=9,no=10,missing=9
			9:[f5<4.97679] yes=19,no=20,missing=19
				19:[f4<0.0423658] yes=39,no=40,missing=39
					39:leaf=42.8634
					40:leaf=77.012
				20:[f12<1.19746] yes=41,no=42,missing=41
					41:leaf=108.034
					42:leaf=71.6563
			10:[f1<0.0526544] yes=21,no=22,missing=21
				21:[f3<0.0806845] yes=43,no=44,missing=43
					43:leaf=0.666656
					44:leaf=86.9787
				22:[f3<-0.0125242] yes=45,no=46,missing=45
					45:leaf=66.9278
					46:leaf=142.935
	2:[f13<0.270401] yes=5,no=6,missing=5
		5:[f5<5.11922] yes=11,no=12,missing=11
			11:[f3<-0.351538] yes=23,no=24,missing=23
				23:[f9<0.0395046] yes=47,no=48,missing=47
					47:leaf=4.42381
					48:leaf=96.5055
				24:[f3<0.23332] yes=49,no=50,missing=49
					49:leaf=-0.000377537
					50:leaf=54.7304
			12:[f3<0.0700228] yes=25,no=26,missing=25
				25:[f9<-0.0338636] yes=51,no=52,missing=51
					51:leaf=-19.912
					52:leaf=-3.47856
				26:[f12<1.83876] yes=53,no=54,missing=53
					53:leaf=117.697
					54:leaf=42.9534
		6:[f13<0.276564] yes=13,no=14,missing=13
			13:[f9<-0.120792] yes=27,no=28,missing=27
				27:[f5<1.38207] yes=55,no=56,missing=55
					55:leaf=-2.30855
					56:leaf=46.6851
				28:[f9<0.184182] yes=57,no=58,missing=57
					57:leaf=-0.940953
					58:leaf=23.6456
			14:[f12<-2.21744] yes=29,no=30,missing=29
				29:[f6<5.60495] yes=59,no=60,missing=59
					59:leaf=0.349534
					60:leaf=11.9114
				30:[f14<0.279274] yes=61,no=62,missing=61
					61:leaf=0.808716
					62:leaf=-0.0874803
booster[43]:
0:[f11<-2.23335] yes=1,no=2,missing=1
	1:[f5<3.40605] yes=3,no=4,missing=3
		3:[f5<-0.228173] yes=7,no=8,missing=7
			7:[f11<-2.23371] yes=15,no=16,missing=15
				15:[f9<-0.0407683] yes=31,no=32,missing=31
					31:leaf=0.0294484
					32:leaf=-0.0809474
				16:[f9<-0.0392552] yes=33,no=34,missing=33
					33:leaf=-3.59037
					34:leaf=-0.0227241
			8:[f11<-2.23577] yes=17,no=18,missing=17
				17:[f13<0.262767] yes=35,no=36,missing=35
					35:leaf=62.9734
					36:leaf=35.6172
				18:[f3<0.0979789] yes=37,no=38,missing=37
					37:leaf=-6.44031
					38:leaf=68.3373
		4:[f13<0.265732] yes=9,no=10,missing=9
			9:[f5<4.97679] yes=19,no=20,missing=19
				19:[f11<-2.23619] yes=39,no=40,missing=39
					39:leaf=80.9081
					40:leaf=50.4629
				20:[f12<3.32642] yes=41,no=42,missing=41
					41:leaf=100.916
					42:leaf=19.726
			10:[f3<-0.0592618] yes=21,no=22,missing=21
				21:[f1<0.305684] yes=43,no=44,missing=43
					43:leaf=90.7825
					44:leaf=23.2606
				22:[f7<0.0152152] yes=45,no=46,missing=45
					45:leaf=-10.0129
					46:leaf=82.5283
	2:[f13<0.270401] yes=5,no=6,missing=5
		5:[f5<5.11922] yes=11,no=12,missing=11
			11:[f3<-0.351538] yes=23,no=24,missing=23
				23:[f9<0.0395046] yes=47,no=48,missing=47
					47:leaf=4.31598
					48:leaf=94.158
				24:[f3<0.23332] yes=49,no=50,missing=49
					49:leaf=-0.000368112
					50:leaf=53.4024
			12:[f3<0.0700228] yes=25,no=26,missing=25
				25:[f9<-0.0338636] yes=51,no=52,missing=51
					51:leaf=-19.5386
					52:leaf=-3.39617
				26:[f12<1.83876] yes=53,no=54,missing=53
					53:leaf=114.823
					54:leaf=41.9622
		6:[f13<0.276564] yes=13,no=14,missing=13
			13:[f9<-0.117179] yes=27,no=28,missing=27
				27:[f5<2.87144] yes=55,no=56,missing=55
					55:leaf=-1.8953
					56:leaf=44.5235
				28:[f9<0.184182] yes=57,no=58,missing=57
					57:leaf=-0.962979
					58:leaf=23.0612
			14:[f15<0.27838] yes=29,no=30,missing=29
				29:[f6<1.90723] yes=59,no=60,missing=59
					59:leaf=-0.432064
					60:leaf=7.40151
				30:[f14<0.274721] yes=61,no=62,missing=61
					61:leaf=1.72947
					62:leaf=-0.0837508
booster[44]:
0:[f11<-2.23335] yes=1,no=2,missing=1
	1:[f5<3.40605] yes=3,no=4,missing=3
		3:[f5<-0.228173] yes=7,no=8,missing=7
			7:[f11<-2.23371] yes=15,no=16,missing=15
				15:[f9<-0.0407683] yes=31,no=32,missing=31
					31:leaf=0.0287189
					32:leaf=-0.0789253
				16:[f9<-0.0392552] yes=33,no=34,missing=33
					33:leaf=-3.50622
					34:leaf=-0.0221671
			8:[f11<-2.23675] yes=17,no=18,missing=17
				17:[f2<6.58556e-09] yes=35,no=36,missing=35
					35:leaf=68.278
					36:leaf=48.2478
				18:[f3<-0.0556148] yes=37,no=38,missing=37
					37:leaf=84.277
					38:leaf=2.73259
		4:[f13<0.265732] yes=9,no=10,missing=9
			9:[f9<4.63994e-08] yes=19,no=20,missing=19
				19:[f5<4.85968] yes=39,no=40,missing=39
					39:leaf=68.9205
					40:leaf=102.17
				20:[f9<8.16972e-08] yes=41,no=42,missing=41
					41:leaf=-33.177
					42:leaf=65.561
			10:[f3<-0.0592618] yes=21,no=22,missing=21
				21:[f1<0.305684] yes=43,no=44,missing=43
					43:leaf=88.5912
					44:leaf=22.9698
				22:[f7<0.0152152] yes=45,no=46,missing=45
					45:leaf=-9.76541
					46:leaf=80.5339
	2:[f13<0.271959] yes=5,no=6,missing=5
		5:[f5<5.3117] yes=11,no=12,missing=11
			11:[f3<0.154398] yes=23,no=24,missing=23
				23:[f9<0.0696097] yes=47,no=48,missing=47
					47:leaf=1.29216
					48:leaf=39.6048
				24:[f5<0.809485] yes=49,no=50,missing=49
					49:leaf=-14.4483
					50:leaf=74.4953
			12:[f4<2.59755] yes=25,no=26,missing=25
				25:[f1<0.36125] yes=51,no=52,missing=51
					51:leaf=-8.55291
					52:leaf=102.519
				26:[f12<9.38586] yes=53,no=54,missing=53
					53:leaf=97.8218
					54:leaf=-6.34053
		6:[f11<-2.22269] yes=13,no=14,missing=13
			13:[f9<-0.175942] yes=27,no=28,missing=27
				27:[f5<2.97449] yes=55,no=56,missing=55
					55:leaf=0.739769
					56:leaf=42.0719
				28:[f9<0.169987] yes=57,no=58,missing=57
					57:leaf=-0.866244
					58:leaf=18.4525
			14:[f12<-2.21744] yes=29,no=30,missing=29
				29:[f6<5.60495] yes=59,no=60,missing=59
					59:leaf=0.32503
					60:leaf=11.5232
				30:[f14<0.279274] yes=61,no=62,missing=61
					61:leaf=0.78018
					62:leaf=-0.0835247
booster[45]:
0:[f13<0.268452] yes=1,no=2,missing=1
	1:[f5<3.40605] yes=3,no=4,missing=3
		3:[f5<-0.124747] yes=7,no=8,missing=7
			7:[f3<0.242588] yes=15,no=16,missing=15
				15:[f9<-0.0407105] yes=31,no=32,missing=31
					31:leaf=-2.30455
					32:leaf=-0.169086
				16:[f11<-2.23326] yes=33,no=34,missing=33
					33:leaf=-0.234178
					34:leaf=-19.4155
			8:[f11<-2.23577] yes=17,no=18,missing=17
				17:[f3<-0.0141724] yes=35,no=36,missing=35
					35:leaf=91.9995
					36:leaf=44.507
				18:[f9<-0.0319188] yes=37,no=38,missing=37
					37:leaf=54.414
					38:leaf=-4.68738
		4:[f13<0.265732] yes=9,no=10,missing=9
			9:[f5<4.97679] yes=19,no=20,missing=19
				19:[f11<-2.23619] yes=39,no=40,missing=39
					39:leaf=77.1755
					40:leaf=47.577
				20:[f6<6.41006] yes=41,no=42,missing=41
					41:leaf=97.8953
					42:leaf=47.067
			10:[f3<0.0895146] yes=21,no=22,missing=21
				21:[f3<-0.142229] yes=43,no=44,missing=43
					43:leaf=84.269
					44:leaf=-1.64295
				22:[f12<6.56491] yes=45,no=46,missing=45
					45:leaf=106.219
					46:leaf=23.6567
	2:[f13<0.273571] yes=5,no=6,missing=5
		5:[f5<5.35338] yes=11,no=12,missing=11
			11:[f5<1.26347] yes=23,no=24,missing=23
				23:[f9<0.0922822] yes=47,no=48,missing=47
					47:leaf=-1.42176
					48:leaf=-18.9453
				24:[f9<0.0876167] yes=49,no=50,missing=49
					49:leaf=3.74954
					50:leaf=91.4676
			12:[f4<2.94269] yes=25,no=26,missing=25
				25:[f6<2.28795] yes=51,no=52,missing=51
					51:leaf=60.2782
					52:leaf=-5.06379
				26:[f11<-2.22802] yes=53,no=54,missing=53
					53:leaf=107.364
					54:leaf=38.771
		6:[f11<-2.22269] yes=13,no=14,missing=13
			13:[f1<0.129804] yes=27,no=28,missing=27
				27:[f3<-0.797212] yes=55,no=56,missing=55
					55:leaf=-37.1582
					56:leaf=-0.380542
				28:[f5<2.24951] yes=57,no=58,missing=57
					57:leaf=-3.17606
					58:leaf=28.6289
			14:[f15<0.27838] yes=29,no=30,missing=29
				29:[f6<1.90723] yes=59,no=60,missing=59
					59:leaf=-0.429393
					60:leaf=7.13685
				30:[f14<0.274721] yes=61,no=62,missing=61
					61:leaf=1.66688
					62:leaf=-0.0799536
booster[46]:
0:[f13<0.268452] yes=1,no=2,missing=1
	1:[f5<3.40605] yes=3,no=4,missing=3
		3:[f5<-0.124747] yes=7,no=8,missing=7
			7:[f3<0.242588] yes=15,no=16,missing=15
				15:[f9<-0.0407105] yes=31,no=32,missing=31
					31:leaf=-2.24727
					32:leaf=-0.164862
				16:[f11<-2.23326] yes=33,no=34,missing=33
					33:leaf=-0.22916
					34:leaf=-18.9995
			8:[f11<-2.23577] yes=17,no=18,missing=17
				17:[f13<0.262767] yes=35,no=36,missing=35
					35:leaf=58.8579
					36:leaf=32.7161
				18:[f9<-0.0319188] yes=37,no=38,missing=37
					37:leaf=53.1128
					38:leaf=-4.57077
		4:[f13<0.265732] yes=9,no=10,missing=9
			9:[f9<4.63994e-08] yes=19,no=20,missing=19
				19:[f3<1.84498e-08] yes=39,no=40,missing=39
					39:leaf=41.2396
					40:leaf=91.8897
				20:[f9<8.16972e-08] yes=41,no=42,missing=41
					41:leaf=-33.733
					42:leaf=62.2535
			10:[f9<-0.0306628] yes=21,no=22,missing=21
				21:[f6<-0.943714] yes=43,no=44,missing=43
					43:leaf=-21.2211
					44:leaf=98.8449
				22:[f3<-0.142229] yes=45,no=46,missing=45
					45:leaf=84.0827
					46:leaf=-0.747349
	2:[f13<0.273571] yes=5,no=6,missing=5
		5:[f5<5.35338] yes=11,no=12,missing=11
			11:[f5<1.26347] yes=23,no=24,missing=23
				23:[f9<0.0947649] yes=47,no=48,missing=47
					47:leaf=-1.3959
					48:leaf=-18.6244
				24:[f9<0.0876167] yes=49,no=50,missing=49
					49:leaf=3.6559
					50:leaf=89.2444
			12:[f4<2.94269] yes=25,no=26,missing=25
				25:[f6<2.28795] yes=51,no=52,missing=51
					51:leaf=59.2735
					52:leaf=-4.94322
				26:[f11<-2.22802] yes=53,no=54,missing=53
					53:leaf=104.783
					54:leaf=37.8709
		6:[f11<-2.22269] yes=13,no=14,missing=13
			13:[f1<0.129804] yes=27,no=28,missing=27
				27:[f3<-0.797212] yes=55,no=56,missing=55
					55:leaf=-36.3221
					56:leaf=-0.371035
				28:[f9<-0.160197] yes=57,no=58,missing=57
					57:leaf=40.7309
					58:leaf=5.23105
			14:[f12<-2.21744] yes=29,no=30,missing=29
				29:[f6<5.60495] yes=59,no=60,missing=59
					59:leaf=0.301838
					60:leaf=11.148
				30:[f14<0.279274] yes=61,no=62,missing=61
					61:leaf=0.752644
					62:leaf=-0.0794378
booster[47]:
0:[f13<0.268452] yes=1,no=2,missing=1
	1:[f5<3.40605] yes=3,no=4,missing=3
		3:[f5<-0.124747] yes=7,no=8,missing=7
			7:[f3<0.242588] yes=15,no=16,missing=15
				15:[f11<-2.23338] yes=31,no=32,missing=31
					31:leaf=-0.079824
					32:leaf=-1.69231
				16:[f11<-2.23326] yes=33,no=34,missing=33
					33:leaf=-0.224249
					34:leaf=-18.5924
			8:[f11<-2.23577] yes=17,no=18,missing=17
				17:[f3<-0.0141724] yes=35,no=36,missing=35
					35:leaf=89.0023
					36:leaf=42.2011
				18:[f9<-0.0319188] yes=37,no=38,missing=37
					37:leaf=51.8427
					38:leaf=-4.45706
		4:[f13<0.265732] yes=9,no=10,missing=9
			9:[f5<4.97679] yes=19,no=20,missing=19
				19:[f4<0.0423658] yes=39,no=40,missing=39
					39:leaf=35.6103
					40:leaf=68.4284
				20:[f12<1.86559] yes=41,no=42,missing=41
					41:leaf=93.4724
					42:leaf=44.2344
			10:[f3<0.0895146] yes=21,no=22,missing=21
				21:[f3<-0.142229] yes=43,no=44,missing=43
					43:leaf=80.118
					44:leaf=-1.67596
				22:[f10<-1.32761] yes=45,no=46,missing=45
					45:leaf=16.6226
					46:leaf=101.196
	2:[f13<0.273571] yes=5,no=6,missing=5
		5:[f5<5.35338] yes=11,no=12,missing=11
			11:[f9<-0.0955045] yes=23,no=24,missing=23
				23:[f5<2.24395] yes=47,no=48,missing=47
					47:leaf=-3.81114
					48:leaf=58.32
				24:[f9<0.0781101] yes=49,no=50,missing=49
					49:leaf=-0.502142
					50:leaf=20.0153
			12:[f4<2.94269] yes=25,no=26,missing=25
				25:[f6<2.28795] yes=51,no=52,missing=51
					51:leaf=58.2856
					52:leaf=-4.82553
				26:[f11<-2.22802] yes=53,no=54,missing=53
					53:leaf=102.264
					54:leaf=36.9918
		6:[f11<-2.22269] yes=13,no=14,missing=13
			13:[f1<0.129804] yes=27,no=28,missing=27
				27:[f3<-0.797212] yes=55,no=56,missing=55
					55:leaf=-35.5049
					56:leaf=-0.361766
				28:[f9<-0.160197] yes=57,no=58,missing=57
					57:leaf=39.7338
					58:leaf=5.10127
			14:[f15<0.27838] yes=29,no=30,missing=29
				29:[f6<3.60103] yes=59,no=60,missing=59
					59:leaf=0.0763681
					60:leaf=8.88622
				30:[f14<0.274721] yes=61,no=62,missing=61
					61:leaf=1.60654
					62:leaf=-0.0760273
booster[48]:
0:[f13<0.268452] yes=1,no=2,missing=1
	1:[f5<3.40605] yes=3,no=4,missing=3
		3:[f5<-0.124747] yes=7,no=8,missing=7
			7:[f3<0.242588] yes=15,no=16,missing=15
				15:[f9<-0.0407105] yes=31,no=32,missing=31
					31:leaf=-2.17721
					32:leaf=-0.152173
				16:[f11<-2.23326] yes=33,no=34,missing=33
					33:leaf=-0.219444
					34:leaf=-18.1939
			8:[f11<-2.23675] yes=17,no=18,missing=17
				17:[f2<6.58556e-09] yes=35,no=36,missing=35
					35:leaf=63.0644
					36:leaf=43.4888
				18:[f3<-0.0556148] yes=37,no=38,missing=37
					37:leaf=53.5518
					38:leaf=0.686952
		4:[f13<0.265732] yes=9,no=10,missing=9
			9:[f9<4.63994e-08] yes=19,no=20,missing=19
				19:[f5<4.85968] yes=39,no=40,missing=39
					39:leaf=61.9397
					40:leaf=93.205
				20:[f9<8.16972e-08] yes=41,no=42,missing=41
					41:leaf=-34.0351
					42:leaf=59.1304
			10:[f3<0.0895146] yes=21,no=22,missing=21
				21:[f3<-0.142229] yes=43,no=44,missing=43
					43:leaf=78.1485
					44:leaf=-1.63423
				22:[f12<6.56491] yes=45,no=46,missing=45
					45:leaf=99.5528
					46:leaf=19.8684
	2:[f13<0.273571] yes=5,no=6,missing=5
		5:[f5<5.35338] yes=11,no=12,missing=11
			11:[f5<1.26347] yes=23,no=24,missing=23
				23:[f9<0.0922822] yes=47,no=48,missing=47
					47:leaf=-1.33096
					48:leaf=-18.5209
				24:[f9<0.0876167] yes=49,no=50,missing=49
					49:leaf=3.48492
					50:leaf=86.5888
			12:[f4<2.94269] yes=25,no=26,missing=25
				25:[f6<2.28795] yes=51,no=52,missing=51
					51:leaf=57.3142
					52:leaf=-4.71064
				26:[f3<0.111142] yes=53,no=54,missing=53
					53:leaf=119.676
					54:leaf=54.821
		6:[f11<-2.22269] yes=13,no=14,missing=13
			13:[f1<0.129804] yes=27,no=28,missing=27
				27:[f3<-0.797212] yes=55,no=56,missing=55
					55:leaf=-34.706
					56:leaf=-0.352728
				28:[f5<2.24951] yes=57,no=58,missing=57
					57:leaf=-3.83708
					58:leaf=27.2217
			14:[f12<-2.21744] yes=29,no=30,missing=29
				29:[f6<5.60495] yes=59,no=60,missing=59
					59:leaf=0.281991
					60:leaf=10.7597
				30:[f14<0.279274] yes=61,no=62,missing=61
					61:leaf=0.726066
					62:leaf=-0.0755511
