booster[0]:
0:[f5<-0.00138261] yes=1,no=2,missing=2
	1:[f5<-0.00241032] yes=3,no=4,missing=4
		3:[f5<-0.00399719] yes=7,no=8,missing=8
			7:[f9<0.485786] yes=15,no=16,missing=16
				15:[f15<0.0244324] yes=31,no=32,missing=32
					31:[f11<-2.23725] yes=63,no=64,missing=64
						63:[f9<7.11728e-06] yes=125,no=126,missing=126
							125:[f1<-0.127858] yes=233,no=234,missing=234
								233:leaf=0.649428
								234:leaf=0.025
							126:[f2<-7.9785e-05] yes=235,no=236,missing=236
								235:leaf=0.631944
								236:leaf=0.0546875
						64:[f5<-0.00591686] yes=127,no=128,missing=128
							127:[f2<-0.0856528] yes=237,no=238,missing=238
								237:leaf=0.269118
								238:leaf=0.0541744
							128:[f10<-0.68636] yes=239,no=240,missing=240
								239:leaf=0.0516975
								240:leaf=0.630585
					32:[f7<1.29322] yes=65,no=66,missing=66
						65:[f9<-1.12807] yes=129,no=130,missing=130
							129:[f12<-2.05572] yes=241,no=242,missing=242
								241:leaf=0.0422067
								242:leaf=-0.0127903
							130:[f7<-0.466331] yes=243,no=244,missing=244
								243:leaf=0.0225138
								244:leaf=0.0496199
						66:[f4<0.0139707] yes=131,no=132,missing=132
							131:[f12<-0.627063] yes=245,no=246,missing=246
								245:leaf=0.0122137
								246:leaf=-0.04485
							132:[f2<-0.298256] yes=247,no=248,missing=248
								247:leaf=0.0478597
								248:leaf=-0.0496552
				16:[f11<-2.22501] yes=33,no=34,missing=34
					33:[f11<-2.22702] yes=67,no=68,missing=68
						67:[f12<-0.264517] yes=133,no=134,missing=134
							133:[f14<1.13378] yes=249,no=250,missing=250
								249:leaf=0.0434193
								250:leaf=-0.0104496
							134:[f1<-0.0017112] yes=251,no=252,missing=252
								251:leaf=0.208333
								252:leaf=-0.0451659
						68:[f7<0.152302] yes=135,no=136,missing=136
							135:[f12<-1.99538] yes=253,no=254,missing=254
								253:leaf=0.0245436
								254:leaf=-0.0200994
							136:[f10<-0.527915] yes=255,no=256,missing=256
								255:leaf=0.0423438
								256:leaf=-0.0446629
					34:[f3<0.0957434] yes=69,no=70,missing=70
						69:[f2<0.501224] yes=137,no=138,missing=138
							137:[f4<-2.53894] yes=257,no=258,missing=258
								257:leaf=-0.000531915
								258:leaf=-0.0496961
							138:leaf=0.0470588
						70:[f4<-0.00613741] yes=139,no=140,missing=140
							139:leaf=0.0497495
							140:leaf=-0.0333333
			8:[f15<1.22708] yes=17,no=18,missing=18
				17:[f12<-2.22553] yes=35,no=36,missing=36
					35:[f3<-0.0512332] yes=71,no=72,missing=72
						71:leaf=0.0497487
						72:[f6<0.00957052] yes=141,no=142,missing=142
							141:[f8<-0.00455084] yes=259,no=260,missing=260
								259:leaf=0.411111
								260:leaf=0.639572
							142:leaf=0.0482759
					36:[f6<0.00957052] yes=73,no=74,missing=74
						73:[f6<-0.00875172] yes=143,no=144,missing=144
							143:[f10<-1.81393] yes=261,no=262,missing=262
								261:leaf=0.0500625
								262:leaf=0.0399069
							144:[f4<-0.00846823] yes=263,no=264,missing=264
								263:leaf=0.110213
								264:leaf=0.348202
						74:[f10<-1.84528] yes=145,no=146,missing=146
							145:[f1<0.104979] yes=265,no=266,missing=266
								265:leaf=0.0495561
								266:leaf=0.0468277
							146:[f4<-1.20633e-05] yes=267,no=268,missing=268
								267:leaf=0.0462269
								268:leaf=0.033917
				18:[f4<0.0105656] yes=37,no=38,missing=38
					37:[f3<0.0449777] yes=75,no=76,missing=76
						75:[f6<-0.00547323] yes=147,no=148,missing=148
							147:[f11<-2.23965] yes=269,no=270,missing=270
								269:leaf=0.345833
								270:leaf=0.0521422
							148:[f4<-0.00846823] yes=271,no=272,missing=272
								271:leaf=0.324668
								272:leaf=0.487407
						76:[f1<0.00382701] yes=149,no=150,missing=150
							149:[f9<-8.60133e-05] yes=273,no=274,missing=274
								273:leaf=0.0464263
								274:leaf=-0.0153846
							150:[f2<0.000473058] yes=275,no=276,missing=276
								275:leaf=0.0332201
								276:leaf=0.0464876
					38:[f8<-1.11183] yes=77,no=78,missing=78
						77:leaf=0.2
						78:[f9<-1.12807] yes=151,no=152,missing=152
							151:[f6<0.0415117] yes=277,no=278,missing=278
								277:leaf=0.04375
								278:leaf=-0.0444444
							152:[f9<0.0238034] yes=279,no=280,missing=280
								279:leaf=0.0479106
								280:leaf=0.0417877
		4:[f6<0.00957052] yes=9,no=10,missing=10
			9:[f6<-0.00875172] yes=19,no=20,missing=20
				19:[f6<-0.0126751] yes=39,no=40,missing=40
					39:[f10<-1.81393] yes=79,no=80,missing=80
						79:[f7<0.413151] yes=153,no=154,missing=154
							153:[f11<-2.23836] yes=281,no=282,missing=282
								281:leaf=0.0473887
								282:leaf=0.0496192
							154:[f2<-0.171902] yes=283,no=284,missing=284
								283:leaf=-0.0444444
								284:leaf=0.075
						80:[f11<-2.23953] yes=155,no=156,missing=156
							155:[f3<2.7768e-07] yes=285,no=286,missing=286
								285:leaf=0.0408314
								286:leaf=0.00190931
							156:[f9<0.0737571] yes=287,no=288,missing=288
								287:leaf=0.0414807
								288:leaf=-0.045
					40:[f1<-0.0483538] yes=81,no=82,missing=82
						81:[f2<-0.0208175] yes=157,no=158,missing=158
							157:[f8<-0.171932] yes=289,no=290,missing=290
								289:leaf=0.0497826
								290:leaf=0.238059
							158:[f7<-0.000766132] yes=291,no=292,missing=292
								291:leaf=0.310345
								292:leaf=0.0409977
						82:[f9<0.00462634] yes=159,no=160,missing=160
							159:[f7<0.000547619] yes=293,no=294,missing=294
								293:leaf=0.0977053
								294:leaf=0.254486
							160:[f3<-1.52609] yes=295,no=296,missing=296
								295:leaf=-0.025
								296:leaf=0.0499209
				20:[f4<0.0105656] yes=41,no=42,missing=42
					41:[f4<-0.00846823] yes=83,no=84,missing=84
						83:[f8<-0.0420379] yes=161,no=162,missing=162
							161:[f1<0.0651291] yes=297,no=298,missing=298
								297:leaf=0.492398
								298:leaf=0.0909483
							162:[f2<-4.76312e-07] yes=299,no=300,missing=300
								299:leaf=0.0456014
								300:leaf=0.184327
						84:[f4<0.00737415] yes=163,no=164,missing=164
							163:[f11<-2.22856] yes=301,no=302,missing=302
								301:leaf=0.645547
								302:leaf=0.0490741
							164:[f6<-0.00547323] yes=303,no=304,missing=304
								303:leaf=0.0696133
								304:leaf=0.575793
					42:[f11<-2.23953] yes=85,no=86,missing=86
						85:leaf=-0.0375
						86:[f8<0.000456485] yes=165,no=166,missing=166
							165:leaf=0.0501728
							166:[f1<0.00735359] yes=305,no=306,missing=306
								305:leaf=0.0450704
								306:leaf=0.0173077
			10:[f1<0.0502635] yes=21,no=22,missing=22
				21:[f1<0.0395347] yes=43,no=44,missing=44
					43:[f7<0.120884] yes=87,no=88,missing=88
						87:[f15<0.0451526] yes=167,no=168,missing=168
							167:[f10<-2.1985] yes=307,no=308,missing=308
								307:leaf=0.225
								308:leaf=0.0424955
							168:[f10<-1.00476] yes=309,no=310,missing=310
								309:leaf=0.0498474
								310:leaf=0.0601399
						88:leaf=-0.0375
					44:[f6<0.0133708] yes=89,no=90,missing=90
						89:[f9<6.56793e-05] yes=169,no=170,missing=170
							169:[f7<-0.000274462] yes=311,no=312,missing=312
								311:leaf=0.127147
								312:leaf=0.0439506
							170:[f4<0.00108281] yes=313,no=314,missing=314
								313:leaf=0.586458
								314:leaf=0.131897
						90:[f12<-0.319546] yes=171,no=172,missing=172
							171:leaf=0.0495425
							172:[f3<-8.40447e-05] yes=315,no=316,missing=316
								315:leaf=0.00740741
								316:leaf=0.0433735
				22:[f10<-1.81393] yes=45,no=46,missing=46
					45:[f9<0.116283] yes=91,no=92,missing=92
						91:[f11<-2.23965] yes=173,no=174,missing=174
							173:leaf=-0.025
							174:[f7<-0.04878] yes=317,no=318,missing=318
								317:leaf=0.0450181
								318:leaf=0.0496291
						92:[f4<0.00212241] yes=175,no=176,missing=176
							175:[f1<0.0651291] yes=319,no=320,missing=320
								319:leaf=0.147917
								320:leaf=0.025
							176:[f3<-0.0194456] yes=321,no=322,missing=322
								321:leaf=0.225
								322:leaf=0.0484375
					46:[f2<-4.76312e-07] yes=93,no=94,missing=94
						93:[f12<-2.21818] yes=177,no=178,missing=178
							177:[f3<0.00221467] yes=323,no=324,missing=324
								323:leaf=0.0422642
								324:leaf=0.0278125
							178:[f11<-2.23962] yes=325,no=326,missing=326
								325:leaf=0.0185185
								326:leaf=0.047431
						94:[f3<2.7768e-07] yes=179,no=180,missing=180
							179:[f13<0.0119373] yes=327,no=328,missing=328
								327:leaf=0.0415218
								328:leaf=0.026883
							180:[f4<-9.97004e-07] yes=329,no=330,missing=330
								329:leaf=0.0328947
								330:leaf=0.0117358
	2:[f5<0.00241182] yes=5,no=6,missing=6
		5:[f6<-0.00875172] yes=11,no=12,missing=12
			11:[f5<-6.38474e-07] yes=23,no=24,missing=24
				23:[f6<-0.0126751] yes=47,no=48,missing=48
					47:[f7<0.460611] yes=95,no=96,missing=96
						95:[f14<0.549865] yes=181,no=182,missing=182
							181:[f11<-2.23806] yes=331,no=332,missing=332
								331:leaf=0.0470359
								332:leaf=0.0497067
							182:[f8<-0.202925] yes=333,no=334,missing=334
								333:leaf=-0.00909091
								334:leaf=0.0431566
						96:leaf=-0.0472222
					48:[f14<0.27896] yes=97,no=98,missing=98
						97:[f7<0.00415439] yes=183,no=184,missing=184
							183:[f1<-0.103653] yes=335,no=336,missing=336
								335:leaf=0.156818
								336:leaf=0.0497328
							184:[f4<0.00108281] yes=337,no=338,missing=338
								337:leaf=0.191954
								338:leaf=0.0525939
						98:[f2<-0.0454441] yes=185,no=186,missing=186
							185:[f8<-0.0897919] yes=339,no=340,missing=340
								339:leaf=0.0683363
								340:leaf=0.266811
							186:[f1<-0.0483538] yes=341,no=342,missing=342
								341:leaf=0.0496795
								342:leaf=0.608029
				24:[f5<0.000185762] yes=49,no=50,missing=50
					49:[f14<0.905652] yes=99,no=100,missing=100
						99:[f13<0.0103451] yes=187,no=188,missing=188
							187:[f6<-0.219894] yes=343,no=344,missing=344
								343:leaf=0.285936
								344:leaf=-0.00560241
							188:leaf=0.549263
						100:[f10<-1.33803] yes=189,no=190,missing=190
							189:[f8<-8.73812e-06] yes=345,no=346,missing=346
								345:leaf=0.263889
								346:leaf=0.54
							190:leaf=0.548832
					50:[f6<-0.0126751] yes=101,no=102,missing=102
						101:leaf=0.549495
						102:[f5<0.00147261] yes=191,no=192,missing=192
							191:[f10<-1.9484] yes=347,no=348,missing=348
								347:leaf=0.565454
								348:leaf=0.625025
							192:[f1<-0.18083] yes=349,no=350,missing=350
								349:leaf=0.633775
								350:leaf=0.551518
			12:[f6<0.00957052] yes=25,no=26,missing=26
				25:[f4<-0.01223] yes=51,no=52,missing=52
					51:[f5<-6.38474e-07] yes=103,no=104,missing=104
						103:[f14<0.0656784] yes=193,no=194,missing=194
							193:leaf=-0.0491667
							194:[f3<-0.827819] yes=351,no=352,missing=352
								351:leaf=-0.0444444
								352:leaf=0.0437891
						104:[f10<-2.05897] yes=195,no=196,missing=196
							195:[f11<-2.23965] yes=353,no=354,missing=354
								353:leaf=0.239316
								354:leaf=0.542466
							196:leaf=0.547787
					52:[f4<0.0105656] yes=105,no=106,missing=106
						105:[f4<0.00737415] yes=197,no=198,missing=198
							197:[f11<-2.22702] yes=355,no=356,missing=356
								355:leaf=0.648079
								356:leaf=0.374619
							198:[f5<-1e-06] yes=357,no=358,missing=358
								357:leaf=0.116119
								358:leaf=0.595194
						106:[f5<-6.38474e-07] yes=199,no=200,missing=200
							199:[f1<-0.151698] yes=359,no=360,missing=360
								359:leaf=-0.04375
								360:leaf=0.0496429
							200:leaf=0.54881
				26:[f5<-6.38474e-07] yes=53,no=54,missing=54
					53:[f7<-0.0338636] yes=107,no=108,missing=108
						107:[f10<-0.326331] yes=201,no=202,missing=202
							201:[f11<-2.23776] yes=361,no=362,missing=362
								361:leaf=0.117216
								362:leaf=0.0448385
							202:[f4<-0.000154285] yes=363,no=364,missing=364
								363:leaf=0.551351
								364:leaf=0.0529412
						108:[f13<0.0103703] yes=203,no=204,missing=204
							203:[f1<0.00382701] yes=365,no=366,missing=366
								365:leaf=0.0393963
								366:leaf=0.00113636
							204:[f9<0.485786] yes=367,no=368,missing=368
								367:leaf=0.0490418
								368:leaf=-0.03125
					54:leaf=0.550348
		6:[f11<-2.23965] yes=13,no=14,missing=14
			13:[f13<0.0103431] yes=27,no=28,missing=28
				27:[f5<1.78064] yes=55,no=56,missing=56
					55:[f4<1.0496e-07] yes=109,no=110,missing=110
						109:[f7<-0.000115893] yes=205,no=206,missing=206
							205:leaf=0.538265
							206:[f1<-0.18083] yes=369,no=370,missing=370
								369:leaf=0.252
								370:leaf=0.452057
						110:[f3<-0.511731] yes=207,no=208,missing=208
							207:leaf=0.531667
							208:[f7<-7.49378e-05] yes=371,no=372,missing=372
								371:leaf=0.18125
								372:leaf=0.318644
					56:[f7<-7.49378e-05] yes=111,no=112,missing=112
						111:[f1<-0.18083] yes=209,no=210,missing=210
							209:leaf=0.41875
							210:leaf=0.1
						112:[f12<-1.87148] yes=211,no=212,missing=212
							211:leaf=0.136364
							212:[f4<1.0496e-07] yes=373,no=374,missing=374
								373:leaf=0.247619
								374:leaf=0.1
				28:[f5<0.0293126] yes=57,no=58,missing=58
					57:[f5<0.00365513] yes=113,no=114,missing=114
						113:[f9<-1.88114e-05] yes=213,no=214,missing=214
							213:[f1<4.24567e-05] yes=375,no=376,missing=376
								375:leaf=0.175
								376:leaf=0.545
							214:[f3<-0.0327873] yes=377,no=378,missing=378
								377:leaf=0.135
								378:leaf=0.276613
						114:[f2<0.00172508] yes=215,no=216,missing=216
							215:leaf=0.159884
							216:[f9<-1.88114e-05] yes=379,no=380,missing=380
								379:leaf=0.305882
								380:leaf=0.1125
					58:[f1<4.24567e-05] yes=115,no=116,missing=116
						115:leaf=0.485
						116:[f1<0.00101849] yes=217,no=218,missing=218
							217:leaf=0.12
							218:leaf=0.366667
			14:[f5<0.00365513] yes=29,no=30,missing=30
				29:[f15<1.31409] yes=59,no=60,missing=60
					59:[f12<-2.22553] yes=117,no=118,missing=118
						117:[f6<0.00179802] yes=219,no=220,missing=220
							219:[f1<-0.293524] yes=381,no=382,missing=382
								381:leaf=0.598953
								382:leaf=0.649191
							220:leaf=0.545
						118:[f11<-2.23682] yes=221,no=222,missing=222
							221:[f10<-1.84528] yes=383,no=384,missing=384
								383:leaf=0.561604
								384:leaf=0.550942
							222:[f6<0.00957052] yes=385,no=386,missing=386
								385:leaf=0.584844
								386:leaf=0.549869
					60:[f4<0.0105656] yes=119,no=120,missing=120
						119:[f4<-0.00846823] yes=223,no=224,missing=224
							223:[f3<0.0449777] yes=387,no=388,missing=388
								387:leaf=0.574573
								388:leaf=0.549501
							224:[f3<-0.0327873] yes=389,no=390,missing=390
								389:leaf=0.596386
								390:leaf=0.642827
						120:leaf=0.549764
				30:[f13<0.0103703] yes=61,no=62,missing=62
					61:[f5<0.0716572] yes=121,no=122,missing=122
						121:[f5<0.0114673] yes=225,no=226,missing=226
							225:leaf=0.537258
							226:[f9<-8.60133e-05] yes=391,no=392,missing=392
								391:leaf=0.533846
								392:leaf=0.456387
						122:[f6<1.32485e-05] yes=227,no=228,missing=228
							227:[f1<0.000415112] yes=393,no=394,missing=394
								393:leaf=0.490526
								394:leaf=0.2125
							228:[f4<0.000380243] yes=395,no=396,missing=396
								395:leaf=0.285417
								396:leaf=0.425581
					62:[f15<0.0244324] yes=123,no=124,missing=124
						123:[f5<0.00843392] yes=229,no=230,missing=230
							229:[f7<-0.25534] yes=397,no=398,missing=398
								397:leaf=0.644326
								398:leaf=0.545804
							230:[f11<-2.23865] yes=399,no=400,missing=400
								399:leaf=0.075
								400:leaf=0.549731
						124:[f5<0.00514507] yes=231,no=232,missing=232
							231:[f7<-0.25534] yes=401,no=402,missing=402
								401:leaf=0.575954
								402:leaf=0.551301
							232:leaf=0.54962
booster[1]:
0:[f5<-0.00138261] yes=1,no=2,missing=2
	1:[f5<-0.00241032] yes=3,no=4,missing=4
		3:[f5<-0.00399719] yes=7,no=8,missing=8
			7:[f9<0.485786] yes=15,no=16,missing=16
				15:[f15<0.0244324] yes=31,no=32,missing=32
					31:[f11<-2.23725] yes=63,no=64,missing=64
						63:[f9<7.11728e-06] yes=125,no=126,missing=126
							125:[f1<-0.127858] yes=233,no=234,missing=234
								233:leaf=0.584543
								234:leaf=0.02375
							126:[f2<-7.9785e-05] yes=235,no=236,missing=236
								235:leaf=0.570505
								236:leaf=0.0493896
						64:[f5<-0.00591686] yes=127,no=128,missing=128
							127:[f1<0.175608] yes=237,no=238,missing=238
								237:leaf=0.0487775
								238:leaf=0.255536
							128:[f1<-0.0017112] yes=239,no=240,missing=240
								239:leaf=0.0521621
								240:leaf=0.580669
					32:[f7<1.29322] yes=65,no=66,missing=66
						65:[f9<-1.12807] yes=129,no=130,missing=130
							129:[f12<-2.05572] yes=241,no=242,missing=242
								241:leaf=0.0379875
								242:leaf=-0.0115117
							130:[f7<-0.466331] yes=243,no=244,missing=244
								243:leaf=0.0202628
								244:leaf=0.0446579
						66:[f4<0.0139707] yes=131,no=132,missing=132
							131:[f12<-0.627063] yes=245,no=246,missing=246
								245:leaf=0.0109942
								246:leaf=-0.0403665
							132:[f2<-0.298256] yes=247,no=248,missing=248
								247:leaf=0.0430762
								248:leaf=-0.0447239
				16:[f11<-2.22501] yes=33,no=34,missing=34
					33:[f11<-2.22702] yes=67,no=68,missing=68
						67:[f6<0.0415117] yes=133,no=134,missing=134
							133:[f10<-1.4375] yes=249,no=250,missing=250
								249:leaf=0.0393462
								250:leaf=-0.0157189
							134:[f8<-0.202925] yes=251,no=252,missing=252
								251:leaf=0.0455076
								252:leaf=-0.0478672
						68:[f7<0.152302] yes=135,no=136,missing=136
							135:[f5<-0.0712893] yes=253,no=254,missing=254
								253:leaf=-0.00981242
								254:leaf=0.0285207
							136:[f10<-0.527915] yes=255,no=256,missing=256
								255:leaf=0.0381101
								256:leaf=-0.0402217
					34:[f3<0.0957434] yes=69,no=70,missing=70
						69:[f2<0.501224] yes=137,no=138,missing=138
							137:[f4<-2.53894] yes=257,no=258,missing=258
								257:leaf=-0.00047929
								258:leaf=-0.0447268
							138:leaf=0.0424083
						70:[f4<-0.00613741] yes=139,no=140,missing=140
							139:leaf=0.0447795
							140:leaf=-0.0311111
			8:[f15<1.22708] yes=17,no=18,missing=18
				17:[f12<-2.22553] yes=35,no=36,missing=36
					35:[f3<-0.0512332] yes=71,no=72,missing=72
						71:leaf=0.0447989
						72:[f6<0.00957052] yes=141,no=142,missing=142
							141:[f6<0.000486024] yes=259,no=260,missing=260
								259:leaf=0.0730656
								260:leaf=0.569566
							142:leaf=0.0436147
					36:[f6<0.00957052] yes=73,no=74,missing=74
						73:[f6<-0.00875172] yes=143,no=144,missing=144
							143:[f10<-1.81393] yes=261,no=262,missing=262
								261:leaf=0.0450566
								262:leaf=0.0359164
							144:[f4<0.0105656] yes=263,no=264,missing=264
								263:leaf=0.293946
								264:leaf=0.0136806
						74:[f10<-1.84528] yes=145,no=146,missing=146
							145:[f1<0.104979] yes=265,no=266,missing=266
								265:leaf=0.0446011
								266:leaf=0.0421469
							146:[f3<4.51324e-05] yes=267,no=268,missing=268
								267:leaf=0.0305766
								268:leaf=0.0422973
				18:[f4<0.0105656] yes=37,no=38,missing=38
					37:[f3<0.0449777] yes=75,no=76,missing=76
						75:[f6<-0.00547323] yes=147,no=148,missing=148
							147:[f11<-2.23965] yes=269,no=270,missing=270
								269:leaf=0.314132
								270:leaf=0.0469327
							148:[f4<-0.00846823] yes=271,no=272,missing=272
								271:leaf=0.292208
								272:leaf=0.438671
						76:[f1<0.000160722] yes=149,no=150,missing=150
							149:[f9<-8.60133e-05] yes=273,no=274,missing=274
								273:leaf=0.0435457
								274:leaf=0.00102564
							150:[f13<0.0113689] yes=275,no=276,missing=276
								275:leaf=0.040071
								276:leaf=0.0318284
					38:[f8<-1.11183] yes=77,no=78,missing=78
						77:leaf=0.186667
						78:[f9<-1.12807] yes=151,no=152,missing=152
							151:[f6<0.0415117] yes=277,no=278,missing=278
								277:leaf=0.0399219
								278:leaf=-0.0404938
							152:[f1<4.24567e-05] yes=279,no=280,missing=280
								279:leaf=0.0438264
								280:leaf=0.0388542
		4:[f6<0.00957052] yes=9,no=10,missing=10
			9:[f6<-0.00875172] yes=19,no=20,missing=20
				19:[f6<-0.0126751] yes=39,no=40,missing=40
					39:[f10<-1.81393] yes=79,no=80,missing=80
						79:[f7<0.413151] yes=153,no=154,missing=154
							153:[f11<-2.23836] yes=281,no=282,missing=282
								281:leaf=0.0426517
								282:leaf=0.0446587
							154:[f2<-0.171902] yes=283,no=284,missing=284
								283:leaf=-0.0404938
								284:leaf=0.07125
						80:[f11<-2.23953] yes=155,no=156,missing=156
							155:[f3<2.7768e-07] yes=285,no=286,missing=286
								285:leaf=0.0367529
								286:leaf=0.00171883
							156:[f3<0.000587812] yes=287,no=288,missing=288
								287:leaf=0.0360895
								288:leaf=0.0441043
					40:[f1<-0.0483538] yes=81,no=82,missing=82
						81:[f2<-0.0708123] yes=157,no=158,missing=158
							157:[f8<-0.171932] yes=289,no=290,missing=290
								289:leaf=0.044826
								290:leaf=0.31218
							158:[f8<-0.0897919] yes=291,no=292,missing=292
								291:leaf=0.42167
								292:leaf=0.0454814
						82:[f9<0.00462634] yes=159,no=160,missing=160
							159:[f7<0.000547619] yes=293,no=294,missing=294
								293:leaf=0.0879584
								294:leaf=0.229041
							160:[f3<-1.52609] yes=295,no=296,missing=296
								295:leaf=-0.02375
								296:leaf=0.0449367
				20:[f4<0.0105656] yes=41,no=42,missing=42
					41:[f4<-0.00846823] yes=83,no=84,missing=84
						83:[f8<-0.0420379] yes=161,no=162,missing=162
							161:[f1<0.0651291] yes=297,no=298,missing=298
								297:leaf=0.443446
								298:leaf=0.0819319
							162:[f7<0.00415439] yes=299,no=300,missing=300
								299:leaf=0.163682
								300:leaf=0.0367273
						84:[f4<0.00737415] yes=163,no=164,missing=164
							163:[f11<-2.22856] yes=301,no=302,missing=302
								301:leaf=0.580994
								302:leaf=0.0442575
							164:[f6<-0.00547323] yes=303,no=304,missing=304
								303:leaf=0.0626904
								304:leaf=0.518282
					42:[f11<-2.23953] yes=85,no=86,missing=86
						85:leaf=-0.0346875
						86:[f8<0.000456485] yes=165,no=166,missing=166
							165:[f4<0.0226454] yes=305,no=306,missing=306
								305:leaf=0.0434323
								306:leaf=0.0466494
							166:[f1<0.00735359] yes=307,no=308,missing=308
								307:leaf=0.0406269
								308:leaf=0.0156435
			10:[f1<0.0502635] yes=21,no=22,missing=22
				21:[f1<0.0395347] yes=43,no=44,missing=44
					43:[f13<0.0124974] yes=87,no=88,missing=88
						87:[f7<-0.0245421] yes=167,no=168,missing=168
							167:[f7<-0.0338636] yes=309,no=310,missing=310
								309:leaf=0.0489052
								310:leaf=0.077684
							168:[f3<0.053866] yes=311,no=312,missing=312
								311:leaf=0.0449162
								312:leaf=0.0592335
						88:[f7<0.120884] yes=169,no=170,missing=170
							169:[f4<1.24334] yes=313,no=314,missing=314
								313:leaf=0.0421273
								314:leaf=-0.000412585
							170:leaf=-0.0346875
					44:[f6<0.0133708] yes=89,no=90,missing=90
						89:[f9<6.56793e-05] yes=171,no=172,missing=172
							171:[f10<-0.0517204] yes=315,no=316,missing=316
								315:leaf=0.10664
								316:leaf=0.200859
							172:[f4<0.00108281] yes=317,no=318,missing=318
								317:leaf=0.529034
								318:leaf=0.118934
						90:[f12<-0.319546] yes=173,no=174,missing=174
							173:leaf=0.0445947
							174:[f3<-8.40447e-05] yes=319,no=320,missing=320
								319:leaf=0.0066941
								320:leaf=0.0390884
				22:[f10<-1.81393] yes=45,no=46,missing=46
					45:[f9<0.116283] yes=91,no=92,missing=92
						91:[f11<-2.23965] yes=175,no=176,missing=176
							175:leaf=-0.02375
							176:[f3<-0.0127747] yes=321,no=322,missing=322
								321:leaf=0.0416113
								322:leaf=0.0449538
						92:[f4<0.00212241] yes=177,no=178,missing=178
							177:[f3<-0.00318911] yes=323,no=324,missing=324
								323:leaf=0.0176042
								324:leaf=0.134253
							178:[f3<-0.0194456] yes=325,no=326,missing=326
								325:leaf=0.21375
								326:leaf=0.0437451
					46:[f2<-4.76312e-07] yes=93,no=94,missing=94
						93:[f12<-2.21818] yes=179,no=180,missing=180
							179:[f9<-1.88114e-05] yes=327,no=328,missing=328
								327:leaf=0.0418799
								328:leaf=0.0315872
							180:[f11<-2.23962] yes=329,no=330,missing=330
								329:leaf=0.0167353
								330:leaf=0.0426895
						94:[f3<2.7768e-07] yes=181,no=182,missing=182
							181:[f7<-0.04878] yes=331,no=332,missing=332
								331:leaf=0.0251707
								332:leaf=0.0378475
							182:[f4<-9.97004e-07] yes=333,no=334,missing=334
								333:leaf=0.0296074
								334:leaf=0.0105635
	2:[f5<0.00241182] yes=5,no=6,missing=6
		5:[f6<-0.00875172] yes=11,no=12,missing=12
			11:[f5<-6.38474e-07] yes=23,no=24,missing=24
				23:[f6<-0.0126751] yes=47,no=48,missing=48
					47:[f7<0.460611] yes=95,no=96,missing=96
						95:[f14<0.549865] yes=183,no=184,missing=184
							183:[f11<-2.23806] yes=335,no=336,missing=336
								335:leaf=0.0423336
								336:leaf=0.0447371
							184:[f8<-0.202925] yes=337,no=338,missing=338
								337:leaf=-0.00820937
								338:leaf=0.0388421
						96:leaf=-0.0427623
					48:[f14<0.27896] yes=97,no=98,missing=98
						97:[f7<0.00415439] yes=185,no=186,missing=186
							185:[f1<-0.103653] yes=339,no=340,missing=340
								339:leaf=0.141849
								340:leaf=0.0447633
							186:[f11<-2.23889] yes=341,no=342,missing=342
								341:leaf=0.245906
								342:leaf=0.0713386
						98:[f2<-0.00638607] yes=187,no=188,missing=188
							187:[f4<-0.00122811] yes=343,no=344,missing=344
								343:leaf=0.0440302
								344:leaf=0.263812
							188:[f1<-0.0483538] yes=345,no=346,missing=346
								345:leaf=0.0446775
								346:leaf=0.583833
				24:[f5<0.000185762] yes=49,no=50,missing=50
					49:[f10<-1.38824] yes=99,no=100,missing=100
						99:[f13<0.0103451] yes=189,no=190,missing=190
							189:[f1<4.24567e-05] yes=347,no=348,missing=348
								347:leaf=0.188128
								348:leaf=0.510668
							190:leaf=0.494363
						100:[f8<-8.73812e-06] yes=191,no=192,missing=192
							191:[f4<-0.680644] yes=349,no=350,missing=350
								349:leaf=0.303012
								350:leaf=0.487125
							192:leaf=0.494703
					50:[f6<-0.0126751] yes=101,no=102,missing=102
						101:leaf=0.494548
						102:[f5<0.00147261] yes=193,no=194,missing=194
							193:[f10<-1.4375] yes=351,no=352,missing=352
								351:leaf=0.513812
								352:leaf=0.567691
							194:[f1<-0.18083] yes=353,no=354,missing=354
								353:leaf=0.570817
								354:leaf=0.496371
			12:[f6<0.00957052] yes=25,no=26,missing=26
				25:[f4<-0.00846823] yes=51,no=52,missing=52
					51:[f5<-6.38474e-07] yes=103,no=104,missing=104
						103:[f2<-0.194904] yes=195,no=196,missing=196
							195:[f1<0.087015] yes=355,no=356,missing=356
								355:leaf=0.576832
								356:leaf=0.0304141
							196:[f14<0.0656784] yes=357,no=358,missing=358
								357:leaf=-0.0373601
								358:leaf=0.0368918
						104:[f10<-2.05897] yes=197,no=198,missing=198
							197:[f11<-2.23965] yes=359,no=360,missing=360
								359:leaf=0.22012
								360:leaf=0.488632
							198:leaf=0.492905
					52:[f4<0.0105656] yes=105,no=106,missing=106
						105:[f4<0.00737415] yes=199,no=200,missing=200
							199:[f3<-0.0512332] yes=361,no=362,missing=362
								361:leaf=0.304273
								362:leaf=0.583401
							200:[f5<-1e-06] yes=363,no=364,missing=364
								363:leaf=0.104542
								364:leaf=0.535697
						106:[f5<-6.38474e-07] yes=201,no=202,missing=202
							201:[f1<-0.151698] yes=365,no=366,missing=366
								365:leaf=-0.0399219
								366:leaf=0.0446825
							202:leaf=0.493954
				26:[f5<-6.38474e-07] yes=53,no=54,missing=54
					53:[f7<-0.0338636] yes=107,no=108,missing=108
						107:[f10<-0.326331] yes=203,no=204,missing=204
							203:[f11<-2.23776] yes=367,no=368,missing=368
								367:leaf=0.105537
								368:leaf=0.0403581
							204:[f4<-0.000154285] yes=369,no=370,missing=370
								369:leaf=0.497706
								370:leaf=0.0479585
						108:[f13<0.0103703] yes=205,no=206,missing=206
							205:[f1<0.00382701] yes=371,no=372,missing=372
								371:leaf=0.0354628
								372:leaf=0.00102531
							206:[f9<0.485786] yes=373,no=374,missing=374
								373:leaf=0.044138
								374:leaf=-0.0285156
					54:leaf=0.495314
		6:[f11<-2.23965] yes=13,no=14,missing=14
			13:[f13<0.0103431] yes=27,no=28,missing=28
				27:[f5<1.78064] yes=55,no=56,missing=56
					55:[f4<1.0496e-07] yes=109,no=110,missing=110
						109:[f7<-0.000115893] yes=207,no=208,missing=208
							207:leaf=0.484988
							208:[f1<-0.18083] yes=375,no=376,missing=376
								375:leaf=0.227808
								376:leaf=0.406994
						110:[f3<-0.511731] yes=209,no=210,missing=210
							209:leaf=0.480272
							210:[f7<-7.49378e-05] yes=377,no=378,missing=378
								377:leaf=0.16388
								378:leaf=0.28732
					56:[f7<-7.49378e-05] yes=111,no=112,missing=112
						111:[f1<-0.18083] yes=211,no=212,missing=212
							211:leaf=0.382109
							212:leaf=0.0933333
						112:[f15<0.59202] yes=213,no=214,missing=214
							213:leaf=0.142063
							214:[f4<-4.11239e-05] yes=379,no=380,missing=380
								379:leaf=0.255402
								380:leaf=0.189892
				28:[f5<0.0293126] yes=57,no=58,missing=58
					57:[f5<0.00365513] yes=113,no=114,missing=114
						113:[f9<-1.88114e-05] yes=215,no=216,missing=216
							215:[f1<4.24567e-05] yes=381,no=382,missing=382
								381:leaf=0.160417
								382:leaf=0.49595
							216:[f7<6.11716e-05] yes=383,no=384,missing=384
								383:leaf=0.21943
								384:leaf=0.397871
						114:[f2<0.00172508] yes=217,no=218,missing=218
							217:[f12<-2.20334] yes=385,no=386,missing=386
								385:leaf=0.185465
								386:leaf=0.136196
							218:[f9<-1.88114e-05] yes=387,no=388,missing=388
								387:leaf=0.277093
								388:leaf=0.104063
					58:[f1<4.24567e-05] yes=115,no=116,missing=116
						115:leaf=0.44135
						116:[f1<0.00101849] yes=219,no=220,missing=220
							219:leaf=0.1104
							220:leaf=0.342222
			14:[f5<0.00365513] yes=29,no=30,missing=30
				29:[f15<1.31409] yes=59,no=60,missing=60
					59:[f12<-2.22553] yes=117,no=118,missing=118
						117:[f6<0.00179802] yes=221,no=222,missing=222
							221:[f1<-0.293524] yes=389,no=390,missing=390
								389:leaf=0.539371
								390:leaf=0.584318
							222:leaf=0.490995
						118:[f11<-2.23682] yes=223,no=224,missing=224
							223:[f8<0.0174976] yes=391,no=392,missing=392
								391:leaf=0.497616
								392:leaf=0.51511
							224:[f10<-1.88013] yes=393,no=394,missing=394
								393:leaf=0.507222
								394:leaf=0.538582
					60:[f4<0.0105656] yes=119,no=120,missing=120
						119:[f4<-0.00846823] yes=225,no=226,missing=226
							225:[f3<0.0449777] yes=395,no=396,missing=396
								395:leaf=0.51713
								396:leaf=0.494593
							226:[f3<-0.0327873] yes=397,no=398,missing=398
								397:leaf=0.536758
								398:leaf=0.578561
						120:leaf=0.494807
				30:[f13<0.0103703] yes=61,no=62,missing=62
					61:[f5<0.0140375] yes=121,no=122,missing=122
						121:[f9<-8.60133e-05] yes=227,no=228,missing=228
							227:leaf=0.494591
							228:[f3<-0.102069] yes=399,no=400,missing=400
								399:leaf=0.301837
								400:leaf=0.477653
						122:[f5<0.0716572] yes=229,no=230,missing=230
							229:[f9<-8.60133e-05] yes=401,no=402,missing=402
								401:leaf=0.474504
								402:leaf=0.402602
							230:[f6<1.32485e-05] yes=403,no=404,missing=404
								403:leaf=0.436483
								404:leaf=0.307334
					62:[f15<0.0321991] yes=123,no=124,missing=124
						123:[f5<0.00661384] yes=231,no=232,missing=232
							231:[f1<-0.127858] yes=405,no=406,missing=406
								405:leaf=0.575358
								406:leaf=0.503459
							232:leaf=0.495007
						124:leaf=0.494702
booster[2]:
0:[f5<-0.00138261] yes=1,no=2,missing=2
	1:[f5<-0.00241032] yes=3,no=4,missing=4
		3:[f5<-0.00399719] yes=7,no=8,missing=8
			7:[f9<0.485786] yes=15,no=16,missing=16
				15:[f15<0.0244324] yes=31,no=32,missing=32
					31:[f11<-2.23752] yes=63,no=64,missing=64
						63:[f9<7.11728e-06] yes=123,no=124,missing=124
							123:[f1<-0.127858] yes=229,no=230,missing=230
								229:leaf=0.526139
								230:leaf=0.0225625
							124:[f2<-7.9785e-05] yes=231,no=232,missing=232
								231:leaf=0.51504
								232:leaf=0.0447667
						64:[f5<-0.00591686] yes=125,no=126,missing=126
							125:[f2<-0.0856528] yes=233,no=234,missing=234
								233:leaf=0.223668
								234:leaf=0.043867
							126:[f10<-0.68636] yes=235,no=236,missing=236
								235:leaf=0.0411805
								236:leaf=0.512708
					32:[f7<1.29322] yes=65,no=66,missing=66
						65:[f9<-1.12807] yes=127,no=128,missing=128
							127:[f12<-2.05572] yes=237,no=238,missing=238
								237:leaf=0.03419
								238:leaf=-0.0103609
							128:[f9<0.0737571] yes=239,no=240,missing=240
								239:leaf=0.0403149
								240:leaf=0.0331225
						66:[f4<-0.00846823] yes=129,no=130,missing=130
							129:[f11<-2.23953] yes=241,no=242,missing=242
								241:leaf=0.143891
								242:leaf=-0.0363407
							130:[f1<1.28145] yes=243,no=244,missing=244
								243:leaf=0.039461
								244:leaf=-0.0160327
				16:[f8<-0.63794] yes=33,no=34,missing=34
					33:[f6<-0.0751589] yes=67,no=68,missing=68
						67:[f2<-0.517242] yes=131,no=132,missing=132
							131:[f3<0.128268] yes=245,no=246,missing=246
								245:leaf=0.0246754
								246:leaf=0.0374286
							132:[f7<0.120884] yes=247,no=248,missing=248
								247:leaf=-0.0035011
								248:leaf=-0.0385855
						68:[f4<-0.322118] yes=133,no=134,missing=134
							133:[f13<0.0208899] yes=249,no=250,missing=250
								249:leaf=0.0188482
								250:leaf=0.0408214
							134:[f2<0.72705] yes=251,no=252,missing=252
								251:leaf=-0.0450726
								252:leaf=0.0224997
					34:[f10<-1.77995] yes=69,no=70,missing=70
						69:[f13<0.0164075] yes=135,no=136,missing=136
							135:leaf=0.0608183
							136:leaf=0.040632
						70:[f11<-2.22556] yes=137,no=138,missing=138
							137:[f14<1.52061] yes=253,no=254,missing=254
								253:leaf=-0.040342
								254:leaf=-0.00868202
							138:[f4<-2.53894] yes=255,no=256,missing=256
								255:leaf=0.000130477
								256:leaf=-0.0405053
			8:[f15<1.22708] yes=17,no=18,missing=18
				17:[f12<-2.22553] yes=35,no=36,missing=36
					35:[f3<-0.0512332] yes=71,no=72,missing=72
						71:leaf=0.0403415
						72:[f6<0.00957052] yes=139,no=140,missing=140
							139:[f8<-0.00455084] yes=257,no=258,missing=258
								257:leaf=0.316706
								258:leaf=0.519091
							140:leaf=0.0394037
					36:[f6<0.00957052] yes=73,no=74,missing=74
						73:[f6<-0.00875172] yes=141,no=142,missing=142
							141:[f10<-1.81393] yes=259,no=260,missing=260
								259:leaf=0.0405513
								260:leaf=0.032325
							142:[f4<-0.00846823] yes=261,no=262,missing=262
								261:leaf=0.0698067
								262:leaf=0.290423
						74:[f10<-1.84528] yes=143,no=144,missing=144
							143:[f10<-2.21475] yes=263,no=264,missing=264
								263:leaf=0.0378692
								264:leaf=0.0401745
							144:[f6<0.0457853] yes=265,no=266,missing=266
								265:leaf=0.0310033
								266:leaf=-0.000408026
				18:[f4<0.0105656] yes=37,no=38,missing=38
					37:[f3<0.0449777] yes=75,no=76,missing=76
						75:[f6<-0.00547323] yes=145,no=146,missing=146
							145:[f11<-2.23965] yes=267,no=268,missing=268
								267:leaf=0.285336
								268:leaf=0.0422437
							146:[f4<-0.00846823] yes=269,no=270,missing=270
								269:leaf=0.262994
								270:leaf=0.394808
						76:[f1<0.00382701] yes=147,no=148,missing=148
							147:[f9<-8.60133e-05] yes=271,no=272,missing=272
								271:leaf=0.0376839
								272:leaf=-0.0170627
							148:[f10<-1.9944] yes=273,no=274,missing=274
								273:leaf=0.0255806
								274:leaf=0.0366847
					38:[f8<-1.11183] yes=77,no=78,missing=78
						77:leaf=0.174222
						78:[f6<-0.518519] yes=149,no=150,missing=150
							149:leaf=-0.0435481
							150:[f9<-1.12807] yes=275,no=276,missing=276
								275:leaf=-0.00253873
								276:leaf=0.0378211
		4:[f15<1.31409] yes=9,no=10,missing=10
			9:[f6<0.00957052] yes=19,no=20,missing=20
				19:[f6<-0.00875172] yes=39,no=40,missing=40
					39:[f6<-0.0126751] yes=79,no=80,missing=80
						79:[f10<-1.81393] yes=151,no=152,missing=152
							151:[f7<0.413151] yes=277,no=278,missing=278
								277:leaf=0.0394314
								278:leaf=-0.010308
							152:[f3<4.51324e-05] yes=279,no=280,missing=280
								279:leaf=0.0294569
								280:leaf=0.0377603
						80:[f1<-0.0483538] yes=153,no=154,missing=154
							153:[f3<0.00491502] yes=281,no=282,missing=282
								281:leaf=0.0467895
								282:leaf=0.21429
							154:[f9<0.00462634] yes=283,no=284,missing=284
								283:leaf=0.193276
								284:leaf=0.040315
					40:[f4<-0.00846823] yes=81,no=82,missing=82
						81:[f8<-0.0420379] yes=155,no=156,missing=156
							155:[f1<0.0651291] yes=285,no=286,missing=286
								285:leaf=0.405786
								286:leaf=0.0738093
							156:[f2<0.0727242] yes=287,no=288,missing=288
								287:leaf=0.0650363
								288:leaf=0.415508
						82:[f4<0.0105656] yes=157,no=158,missing=158
							157:[f4<0.00737415] yes=289,no=290,missing=290
								289:leaf=0.51918
								290:leaf=0.391741
							158:[f11<-2.23962] yes=291,no=292,missing=292
								291:leaf=-0.0213906
								292:leaf=0.0408688
				20:[f1<0.0502635] yes=41,no=42,missing=42
					41:[f1<0.0395347] yes=83,no=84,missing=84
						83:[f8<-0.124415] yes=159,no=160,missing=160
							159:[f10<-0.926461] yes=293,no=294,missing=294
								293:leaf=0.0420646
								294:leaf=0.16821
							160:[f3<-1.52609] yes=295,no=296,missing=296
								295:leaf=-0.00047777
								296:leaf=0.0393193
						84:[f7<-0.000766132] yes=161,no=162,missing=162
							161:[f7<-0.00197405] yes=297,no=298,missing=298
								297:leaf=0.0925852
								298:leaf=0.222111
							162:[f7<-0.000274462] yes=299,no=300,missing=300
								299:leaf=0.0265818
								300:leaf=0.0370602
					42:[f10<-1.81393] yes=85,no=86,missing=86
						85:[f9<0.116283] yes=163,no=164,missing=164
							163:[f7<-0.04878] yes=301,no=302,missing=302
								301:leaf=0.0361038
								302:leaf=0.0402382
							164:[f4<0.00212241] yes=303,no=304,missing=304
								303:leaf=0.121361
								304:leaf=0.0506169
						86:[f2<-4.76312e-07] yes=165,no=166,missing=166
							165:[f12<-2.21818] yes=305,no=306,missing=306
								305:leaf=0.0323209
								306:leaf=0.0383661
							166:[f3<2.7768e-07] yes=307,no=308,missing=308
								307:leaf=0.0302174
								308:leaf=0.0203011
			10:[f4<0.0105656] yes=21,no=22,missing=22
				21:[f6<-0.00547323] yes=43,no=44,missing=44
					43:[f7<0.000547619] yes=87,no=88,missing=88
						87:[f7<0.000184911] yes=167,no=168,missing=168
							167:[f9<-1.00241e-06] yes=309,no=310,missing=310
								309:leaf=0.0206562
								310:leaf=0.0419816
							168:[f3<2.7768e-07] yes=311,no=312,missing=312
								311:leaf=0.135954
								312:leaf=0.282411
						88:[f10<-0.0517204] yes=169,no=170,missing=170
							169:[f1<-0.0483538] yes=313,no=314,missing=314
								313:leaf=0.0417149
								314:leaf=-0.0295922
							170:leaf=0.597766
					44:[f6<0.00957052] yes=89,no=90,missing=90
						89:[f11<-2.22974] yes=171,no=172,missing=172
							171:[f4<-0.00846823] yes=315,no=316,missing=316
								315:leaf=0.243879
								316:leaf=0.5267
							172:[f1<-0.0875254] yes=317,no=318,missing=318
								317:leaf=-0.0929924
								318:leaf=0.0340216
						90:[f7<-0.000274462] yes=173,no=174,missing=174
							173:[f4<1.0496e-07] yes=319,no=320,missing=320
								319:leaf=0.277221
								320:leaf=0.383425
							174:[f4<1.0496e-07] yes=321,no=322,missing=322
								321:leaf=0.00200479
								322:leaf=0.0168452
				22:[f4<0.0451098] yes=45,no=46,missing=46
					45:[f4<0.0354791] yes=91,no=92,missing=92
						91:[f11<-2.23965] yes=175,no=176,missing=176
							175:[f9<-1.00241e-06] yes=323,no=324,missing=324
								323:leaf=-0.0321022
								324:leaf=0.0232373
							176:[f1<0.0395347] yes=325,no=326,missing=326
								325:leaf=0.037883
								326:leaf=0.0273869
						92:[f7<-4.46403e-05] yes=177,no=178,missing=178
							177:leaf=0.0382667
							178:[f1<0.00735359] yes=327,no=328,missing=328
								327:leaf=0.0199518
								328:leaf=0.00611337
					46:[f6<-0.518519] yes=93,no=94,missing=94
						93:leaf=-0.0332736
						94:leaf=0.0404688
	2:[f5<0.00241182] yes=5,no=6,missing=6
		5:[f6<-0.00875172] yes=11,no=12,missing=12
			11:[f5<-6.38474e-07] yes=23,no=24,missing=24
				23:[f6<-0.0126751] yes=47,no=48,missing=48
					47:[f7<0.460611] yes=95,no=96,missing=96
						95:[f14<0.549865] yes=179,no=180,missing=180
							179:[f11<-2.23806] yes=329,no=330,missing=330
								329:leaf=0.0381014
								330:leaf=0.0402644
							180:[f8<-0.0636357] yes=331,no=332,missing=332
								331:leaf=0.0271261
								332:leaf=0.0369178
						96:leaf=-0.0387237
					48:[f14<0.27896] yes=97,no=98,missing=98
						97:[f7<0.00415439] yes=181,no=182,missing=182
							181:[f1<-0.103653] yes=333,no=334,missing=334
								333:leaf=0.128309
								334:leaf=0.0402904
							182:[f2<-0.0328695] yes=335,no=336,missing=336
								335:leaf=0.0416338
								336:leaf=0.170806
						98:[f2<-0.0454441] yes=183,no=184,missing=184
							183:[f8<-0.0897919] yes=337,no=338,missing=338
								337:leaf=0.0461504
								338:leaf=0.21887
							184:[f1<-0.0483538] yes=339,no=340,missing=340
								339:leaf=0.0400345
								340:leaf=0.495372
				24:[f5<0.000185762] yes=49,no=50,missing=50
					49:[f10<-1.38824] yes=99,no=100,missing=100
						99:[f13<0.0103451] yes=185,no=186,missing=186
							185:[f6<-0.219894] yes=341,no=342,missing=342
								341:leaf=0.223557
								342:leaf=-0.0242215
							186:leaf=0.44495
						100:[f8<-8.73812e-06] yes=187,no=188,missing=188
							187:[f4<-0.680644] yes=343,no=344,missing=344
								343:leaf=0.272809
								344:leaf=0.438847
							188:leaf=0.445239
					50:[f6<-0.0126751] yes=101,no=102,missing=102
						101:leaf=0.445095
						102:[f5<0.00147261] yes=189,no=190,missing=190
							189:[f10<-1.9484] yes=345,no=346,missing=346
								345:leaf=0.457562
								346:leaf=0.50669
							190:[f1<-0.18083] yes=347,no=348,missing=348
								347:leaf=0.514113
								348:leaf=0.446739
			12:[f6<0.00957052] yes=25,no=26,missing=26
				25:[f4<-0.00846823] yes=51,no=52,missing=52
					51:[f5<-6.38474e-07] yes=103,no=104,missing=104
						103:[f2<-0.194904] yes=191,no=192,missing=192
							191:[f1<0.087015] yes=349,no=350,missing=350
								349:leaf=0.519973
								350:leaf=0.0283865
							192:[f14<0.0656784] yes=351,no=352,missing=352
								351:leaf=-0.0336446
								352:leaf=0.0332054
						104:[f10<-2.05897] yes=193,no=194,missing=194
							193:[f11<-2.23965] yes=353,no=354,missing=354
								353:leaf=0.198293
								354:leaf=0.439869
							194:leaf=0.443628
					52:[f4<0.0105656] yes=105,no=106,missing=106
						105:[f4<0.00737415] yes=195,no=196,missing=196
							195:[f11<-2.22702] yes=355,no=356,missing=356
								355:leaf=0.525076
								356:leaf=0.280074
							196:[f5<-1e-06] yes=357,no=358,missing=358
								357:leaf=0.0941191
								358:leaf=0.482147
						106:[f5<-6.38474e-07] yes=197,no=198,missing=198
							197:[f1<-0.151698] yes=359,no=360,missing=360
								359:leaf=-0.0364287
								360:leaf=0.0402178
							198:[f11<-2.23965] yes=361,no=362,missing=362
								361:leaf=0.236579
								362:leaf=0.44486
				26:[f5<-6.38474e-07] yes=53,no=54,missing=54
					53:[f7<-0.0338636] yes=107,no=108,missing=108
						107:[f10<-0.326331] yes=199,no=200,missing=200
							199:[f1<0.0266116] yes=363,no=364,missing=364
								363:leaf=0.0845465
								364:leaf=0.0319947
							200:[f4<-0.000512198] yes=365,no=366,missing=366
								365:leaf=0.504198
								366:leaf=0.124785
						108:[f13<0.0103703] yes=201,no=202,missing=202
							201:[f1<0.00382701] yes=367,no=368,missing=368
								367:leaf=0.031922
								368:leaf=0.000925108
							202:[f10<-0.000565036] yes=369,no=370,missing=370
								369:leaf=0.0397194
								370:leaf=-0.0366862
					54:leaf=0.445784
		6:[f11<-2.23965] yes=13,no=14,missing=14
			13:[f13<0.0103431] yes=27,no=28,missing=28
				27:[f5<1.78064] yes=55,no=56,missing=56
					55:[f4<1.0496e-07] yes=109,no=110,missing=110
						109:[f7<-0.000115893] yes=203,no=204,missing=204
							203:leaf=0.436984
							204:[f1<-0.18083] yes=371,no=372,missing=372
								371:leaf=0.205938
								372:leaf=0.366424
						110:[f3<-0.511731] yes=205,no=206,missing=206
							205:leaf=0.433846
							206:[f7<-7.49378e-05] yes=373,no=374,missing=374
								373:leaf=0.148175
								374:leaf=0.259075
					56:[f7<-7.49378e-05] yes=111,no=112,missing=112
						111:[f1<-0.18083] yes=207,no=208,missing=208
							207:leaf=0.348675
							208:leaf=0.0871111
						112:[f15<0.59202] yes=209,no=210,missing=210
							209:leaf=0.128692
							210:[f10<-1.6607] yes=375,no=376,missing=376
								375:leaf=0.248028
								376:leaf=0.18121
				28:[f5<0.0293126] yes=57,no=58,missing=58
					57:[f5<0.00365513] yes=113,no=114,missing=114
						113:[f9<-1.88114e-05] yes=211,no=212,missing=212
							211:[f1<4.24567e-05] yes=377,no=378,missing=378
								377:leaf=0.147049
								378:leaf=0.451315
							212:[f7<6.11716e-05] yes=379,no=380,missing=380
								379:leaf=0.197814
								380:leaf=0.366041
						114:[f2<0.00172508] yes=213,no=214,missing=214
							213:[f12<-2.20334] yes=381,no=382,missing=382
								381:leaf=0.168605
								382:leaf=0.122755
							214:[f9<-1.88114e-05] yes=383,no=384,missing=384
								383:leaf=0.251014
								384:leaf=0.0962578
					58:[f1<4.24567e-05] yes=115,no=116,missing=116
						115:leaf=0.401628
						116:[f1<0.00101849] yes=215,no=216,missing=216
							215:leaf=0.101568
							216:leaf=0.319407
			14:[f5<0.00365513] yes=29,no=30,missing=30
				29:[f6<0.00957052] yes=59,no=60,missing=60
					59:[f6<-0.00875172] yes=117,no=118,missing=118
						117:[f12<-2.22553] yes=217,no=218,missing=218
							217:leaf=0.494231
							218:leaf=0.444256
						118:[f4<-0.00846823] yes=219,no=220,missing=220
							219:[f3<0.0449777] yes=385,no=386,missing=386
								385:leaf=0.462771
								386:leaf=0.443858
							220:[f4<0.00737415] yes=387,no=388,missing=388
								387:leaf=0.51823
								388:leaf=0.471452
					60:leaf=0.444593
				30:[f13<0.0103703] yes=61,no=62,missing=62
					61:[f5<0.0716572] yes=119,no=120,missing=120
						119:[f5<0.00843392] yes=221,no=222,missing=222
							221:[f3<0.109578] yes=389,no=390,missing=390
								389:leaf=0.437161
								390:leaf=0.0242545
							222:[f9<0.000117007] yes=391,no=392,missing=392
								391:leaf=0.376972
								392:leaf=0.441555
						120:[f6<1.32485e-05] yes=223,no=224,missing=224
							223:[f1<0.000415112] yes=393,no=394,missing=394
								393:leaf=0.398801
								394:leaf=0.163826
							224:[f4<0.000380243] yes=395,no=396,missing=396
								395:leaf=0.226965
								396:leaf=0.353994
					62:[f15<0.0321991] yes=121,no=122,missing=122
						121:[f5<0.00661384] yes=225,no=226,missing=226
							225:[f1<-0.127858] yes=397,no=398,missing=398
								397:leaf=0.517848
								398:leaf=0.453125
							226:leaf=0.445507
						122:[f5<0.00514507] yes=227,no=228,missing=228
							227:[f7<-0.32848] yes=399,no=400,missing=400
								399:leaf=0.469893
								400:leaf=0.445986
							228:[f11<-2.23865] yes=401,no=402,missing=402
								401:leaf=0.443538
								402:leaf=0.445229
booster[3]:
0:[f5<-0.00138261] yes=1,no=2,missing=2
	1:[f5<-0.00241032] yes=3,no=4,missing=4
		3:[f5<-0.00399719] yes=7,no=8,missing=8
			7:[f9<0.485786] yes=15,no=16,missing=16
				15:[f15<0.0244324] yes=31,no=32,missing=32
					31:[f11<-2.23725] yes=63,no=64,missing=64
						63:[f9<7.11728e-06] yes=125,no=126,missing=126
							125:[f1<-0.127858] yes=233,no=234,missing=234
								233:leaf=0.473573
								234:leaf=0.0214344
							126:[f2<-7.9785e-05] yes=235,no=236,missing=236
								235:leaf=0.464966
								236:leaf=0.0402711
						64:[f5<-0.00591686] yes=127,no=128,missing=128
							127:[f5<-0.0108323] yes=237,no=238,missing=238
								237:leaf=0.0366719
								238:leaf=0.0721732
							128:[f1<-0.0017112] yes=239,no=240,missing=240
								239:leaf=0.0415777
								240:leaf=0.472201
					32:[f7<1.29322] yes=65,no=66,missing=66
						65:[f9<-1.12807] yes=129,no=130,missing=130
							129:[f12<-2.05572] yes=241,no=242,missing=242
								241:leaf=0.0307722
								242:leaf=-0.00932519
							130:[f7<-0.466331] yes=243,no=244,missing=244
								243:leaf=0.0144523
								244:leaf=0.0361777
						66:[f4<-0.00846823] yes=131,no=132,missing=132
							131:[f11<-2.23953] yes=245,no=246,missing=246
								245:leaf=0.133099
								246:leaf=-0.032708
							132:[f1<1.28145] yes=247,no=248,missing=248
								247:leaf=0.0355168
								248:leaf=-0.0144313
				16:[f8<-0.63794] yes=33,no=34,missing=34
					33:[f6<-0.0751589] yes=67,no=68,missing=68
						67:[f2<-0.517242] yes=133,no=134,missing=134
							133:[f3<0.128268] yes=249,no=250,missing=250
								249:leaf=0.0222127
								250:leaf=0.0336881
							134:[f5<-0.0712893] yes=251,no=252,missing=252
								251:leaf=-0.0198863
								252:leaf=0.01685
						68:[f4<-0.322118] yes=135,no=136,missing=136
							135:[f13<0.0208899] yes=253,no=254,missing=254
								253:leaf=0.0169648
								254:leaf=0.03674
							136:[f2<0.72705] yes=255,no=256,missing=256
								255:leaf=-0.0405687
								256:leaf=0.0202501
					34:[f10<-1.77995] yes=69,no=70,missing=70
						69:[f13<0.0164075] yes=137,no=138,missing=138
							137:leaf=0.0549899
							138:leaf=0.0365724
						70:[f1<-0.18083] yes=139,no=140,missing=140
							139:[f2<0.0948747] yes=257,no=258,missing=258
								257:leaf=0.0302948
								258:leaf=-0.0424839
							140:[f7<-0.00386958] yes=259,no=260,missing=260
								259:leaf=-0.00276834
								260:leaf=-0.0322858
			8:[f15<1.22708] yes=17,no=18,missing=18
				17:[f12<-2.22553] yes=35,no=36,missing=36
					35:[f3<-0.0512332] yes=71,no=72,missing=72
						71:leaf=0.0363276
						72:[f6<0.00957052] yes=141,no=142,missing=142
							141:[f6<0.000486024] yes=261,no=262,missing=262
								261:leaf=0.0231946
								262:leaf=0.461806
							142:leaf=0.0355992
					36:[f6<0.00957052] yes=73,no=74,missing=74
						73:[f6<-0.00875172] yes=143,no=144,missing=144
							143:[f9<0.000265705] yes=263,no=264,missing=264
								263:leaf=0.0288779
								264:leaf=0.0367447
							144:[f4<0.0105656] yes=265,no=266,missing=266
								265:leaf=0.243415
								266:leaf=-0.0167163
						74:[f10<-1.84528] yes=145,no=146,missing=146
							145:[f11<-2.23965] yes=267,no=268,missing=268
								267:leaf=-0.0313422
								268:leaf=0.0357038
							146:[f3<4.51324e-05] yes=269,no=270,missing=270
								269:leaf=0.0244804
								270:leaf=0.0350998
				18:[f4<0.0105656] yes=37,no=38,missing=38
					37:[f3<0.0449777] yes=75,no=76,missing=76
						75:[f6<-0.00547323] yes=147,no=148,missing=148
							147:[f11<-2.23965] yes=271,no=272,missing=272
								271:leaf=0.259181
								272:leaf=0.0380232
							148:[f4<-0.00846823] yes=273,no=274,missing=274
								273:leaf=0.2367
								274:leaf=0.355331
						76:[f1<0.000160722] yes=149,no=150,missing=150
							149:[f8<0.0660398] yes=275,no=276,missing=276
								275:leaf=0.0357204
								276:leaf=0.0294098
							150:[f13<0.0113689] yes=277,no=278,missing=278
								277:leaf=0.032626
								278:leaf=0.0253445
					38:[f8<-1.11183] yes=77,no=78,missing=78
						77:leaf=0.162607
						78:[f9<0.0238034] yes=151,no=152,missing=152
							151:[f9<-1.12807] yes=279,no=280,missing=280
								279:leaf=-0.00230072
								280:leaf=0.0351555
							152:[f11<-2.23776] yes=281,no=282,missing=282
								281:leaf=0.000992797
								282:leaf=0.0313329
		4:[f15<1.31409] yes=9,no=10,missing=10
			9:[f6<0.00957052] yes=19,no=20,missing=20
				19:[f6<-0.00875172] yes=39,no=40,missing=40
					39:[f6<-0.0126751] yes=79,no=80,missing=80
						79:[f10<-1.81393] yes=153,no=154,missing=154
							153:[f7<0.413151] yes=283,no=284,missing=284
								283:leaf=0.0354889
								284:leaf=-0.00942444
							154:[f11<-2.23953] yes=285,no=286,missing=286
								285:leaf=0.0197017
								286:leaf=0.0298608
						80:[f1<-0.0483538] yes=155,no=156,missing=156
							155:[f2<-0.0708123] yes=287,no=288,missing=288
								287:leaf=0.182574
								288:leaf=0.0398419
							156:[f11<-2.23962] yes=289,no=290,missing=290
								289:leaf=-0.0048231
								290:leaf=0.171253
					40:[f4<-0.00846823] yes=81,no=82,missing=82
						81:[f8<-0.0420379] yes=157,no=158,missing=158
							157:[f10<-2.1985] yes=291,no=292,missing=292
								291:leaf=0.128696
								292:leaf=0.432357
							158:[f2<0.0727242] yes=293,no=294,missing=294
								293:leaf=0.0585406
								294:leaf=0.375216
						82:[f4<0.0105656] yes=159,no=160,missing=160
							159:[f4<0.00737415] yes=295,no=296,missing=296
								295:leaf=0.467265
								296:leaf=0.352621
							160:[f11<-2.23962] yes=297,no=298,missing=298
								297:leaf=-0.0203211
								298:leaf=0.0367891
				20:[f1<0.0502635] yes=41,no=42,missing=42
					41:[f1<0.0395347] yes=83,no=84,missing=84
						83:[f8<-0.124415] yes=161,no=162,missing=162
							161:[f10<-0.926461] yes=299,no=300,missing=300
								299:leaf=0.0378671
								300:leaf=0.152012
							162:[f3<-1.52609] yes=301,no=302,missing=302
								301:leaf=-0.000433978
								302:leaf=0.0353887
						84:[f4<-4.11239e-05] yes=163,no=164,missing=164
							163:[f9<6.56793e-05] yes=303,no=304,missing=304
								303:leaf=0.036894
								304:leaf=0.423354
							164:[f11<-2.23962] yes=305,no=306,missing=306
								305:leaf=0.0237102
								306:leaf=0.0974011
					42:[f10<-1.81393] yes=85,no=86,missing=86
						85:[f9<0.116283] yes=165,no=166,missing=166
							165:[f11<-2.23965] yes=307,no=308,missing=308
								307:leaf=-0.0245744
								308:leaf=0.0357234
							166:[f4<0.00212241] yes=309,no=310,missing=310
								309:leaf=0.109731
								310:leaf=0.0457086
						86:[f2<-4.76312e-07] yes=167,no=168,missing=168
							167:[f4<0.0001118] yes=311,no=312,missing=312
								311:leaf=0.0342397
								312:leaf=0.0279356
							168:[f3<2.7768e-07] yes=313,no=314,missing=314
								313:leaf=0.0271962
								314:leaf=0.0182718
			10:[f4<0.0105656] yes=21,no=22,missing=22
				21:[f6<-0.00547323] yes=43,no=44,missing=44
					43:[f7<0.000547619] yes=87,no=88,missing=88
						87:[f7<0.000184911] yes=169,no=170,missing=170
							169:[f12<-0.889576] yes=315,no=316,missing=316
								315:leaf=0.00969112
								316:leaf=0.0362461
							170:[f3<2.7768e-07] yes=317,no=318,missing=318
								317:leaf=0.122445
								318:leaf=0.255656
						88:[f10<-0.0517204] yes=171,no=172,missing=172
							171:[f1<-0.0363418] yes=319,no=320,missing=320
								319:leaf=0.036791
								320:leaf=-0.0375394
							172:leaf=0.538375
					44:[f6<0.00957052] yes=89,no=90,missing=90
						89:[f11<-2.22974] yes=173,no=174,missing=174
							173:[f4<-0.00846823] yes=321,no=322,missing=322
								321:leaf=0.219799
								322:leaf=0.474034
							174:[f6<0.00327835] yes=323,no=324,missing=324
								323:leaf=0.0306986
								324:leaf=-0.0861566
						90:[f7<-0.000274462] yes=175,no=176,missing=176
							175:[f4<1.0496e-07] yes=325,no=326,missing=326
								325:leaf=0.249716
								326:leaf=0.346066
							176:[f1<0.0502635] yes=327,no=328,missing=328
								327:leaf=0.00347805
								328:leaf=0.0317997
				22:[f4<0.0451098] yes=45,no=46,missing=46
					45:[f4<0.0354791] yes=91,no=92,missing=92
						91:[f9<-4.86181e-06] yes=177,no=178,missing=178
							177:[f1<-0.000218724] yes=329,no=330,missing=330
								329:leaf=-0.0197855
								330:leaf=0.0299206
							178:[f7<-2.81811e-05] yes=331,no=332,missing=332
								331:leaf=-0.0407108
								332:leaf=0.0249201
						92:[f7<-4.46403e-05] yes=179,no=180,missing=180
							179:leaf=0.0349867
							180:[f2<6.20192e-06] yes=333,no=334,missing=334
								333:leaf=0.0292554
								334:leaf=0.00874041
					46:[f6<-0.518519] yes=93,no=94,missing=94
						93:leaf=-0.0310554
						94:leaf=0.0364262
	2:[f5<0.00241182] yes=5,no=6,missing=6
		5:[f6<-0.00875172] yes=11,no=12,missing=12
			11:[f5<-6.38474e-07] yes=23,no=24,missing=24
				23:[f6<-0.0126751] yes=47,no=48,missing=48
					47:[f7<0.460611] yes=95,no=96,missing=96
						95:[f14<0.549865] yes=181,no=182,missing=182
							181:[f1<-0.127858] yes=335,no=336,missing=336
								335:leaf=0.032463
								336:leaf=0.0357456
							182:[f8<-0.202925] yes=337,no=338,missing=338
								337:leaf=-0.0100437
								338:leaf=0.0314941
						96:leaf=-0.0350664
					48:[f14<0.27896] yes=97,no=98,missing=98
						97:[f11<-2.23889] yes=183,no=184,missing=184
							183:[f13<0.0105579] yes=339,no=340,missing=340
								339:leaf=0.0294886
								340:leaf=0.297031
							184:[f1<-0.0106051] yes=341,no=342,missing=342
								341:leaf=0.0388779
								342:leaf=0.105251
						98:[f2<-0.00638607] yes=185,no=186,missing=186
							185:[f4<-0.00122811] yes=343,no=344,missing=344
								343:leaf=0.0243521
								344:leaf=0.21618
							186:[f1<-0.0483538] yes=345,no=346,missing=346
								345:leaf=0.036273
								346:leaf=0.476003
				24:[f5<0.000185762] yes=49,no=50,missing=50
					49:[f10<-1.38824] yes=99,no=100,missing=100
						99:[f13<0.0103451] yes=187,no=188,missing=188
							187:[f1<4.24567e-05] yes=347,no=348,missing=348
								347:leaf=0.150399
								348:leaf=0.437905
							188:leaf=0.400476
						100:[f8<-8.73812e-06] yes=189,no=190,missing=190
							189:[f1<-2.35202e-05] yes=349,no=350,missing=350
								349:leaf=0.399062
								350:leaf=0.24625
							190:leaf=0.400721
					50:[f6<-0.0126751] yes=101,no=102,missing=102
						101:leaf=0.400587
						102:[f5<0.00147261] yes=191,no=192,missing=192
							191:[f3<0.000205708] yes=351,no=352,missing=352
								351:leaf=0.449395
								352:leaf=0.398627
							192:[f1<-0.18083] yes=353,no=354,missing=354
								353:leaf=0.463043
								354:leaf=0.402069
			12:[f6<0.00957052] yes=25,no=26,missing=26
				25:[f4<-0.00846823] yes=51,no=52,missing=52
					51:[f5<-6.38474e-07] yes=103,no=104,missing=104
						103:[f2<-0.194904] yes=193,no=194,missing=194
							193:[f1<0.087015] yes=355,no=356,missing=356
								355:leaf=0.468719
								356:leaf=0.026494
							194:[f14<0.0656784] yes=357,no=358,missing=358
								357:leaf=-0.0302986
								358:leaf=0.0298873
						104:[f10<-2.05897] yes=195,no=196,missing=196
							195:[f11<-2.23965] yes=359,no=360,missing=360
								359:leaf=0.178631
								360:leaf=0.395972
							196:leaf=0.399277
					52:[f4<0.0105656] yes=105,no=106,missing=106
						105:[f4<0.00530659] yes=197,no=198,missing=198
							197:[f11<-2.22702] yes=361,no=362,missing=362
								361:leaf=0.473022
								362:leaf=0.25221
							198:[f5<-1e-06] yes=363,no=364,missing=364
								363:leaf=0.201733
								364:leaf=0.460408
						106:[f5<-6.38474e-07] yes=199,no=200,missing=200
							199:[f1<-0.151698] yes=365,no=366,missing=366
								365:leaf=-0.0332412
								366:leaf=0.0361992
							200:[f11<-2.23965] yes=367,no=368,missing=368
								367:leaf=0.217653
								368:leaf=0.400395
				26:[f5<-6.38474e-07] yes=53,no=54,missing=54
					53:[f7<-0.0338636] yes=107,no=108,missing=108
						107:[f10<-0.326331] yes=201,no=202,missing=202
							201:[f11<-2.23776] yes=369,no=370,missing=370
								369:leaf=0.0911994
								370:leaf=0.0314804
							202:[f4<-0.000154285] yes=371,no=372,missing=372
								371:leaf=0.409453
								372:leaf=0.0317003
						108:[f13<0.0103703] yes=203,no=204,missing=204
							203:[f1<0.00382701] yes=373,no=374,missing=374
								373:leaf=0.0287347
								374:leaf=0.000834699
							204:[f9<0.485786] yes=375,no=376,missing=376
								375:leaf=0.0357529
								376:leaf=-0.0247206
					54:leaf=0.401207
		6:[f11<-2.23965] yes=13,no=14,missing=14
			13:[f13<0.0103431] yes=27,no=28,missing=28
				27:[f5<1.78064] yes=55,no=56,missing=56
					55:[f4<1.0496e-07] yes=109,no=110,missing=110
						109:[f5<1.07908] yes=205,no=206,missing=206
							205:[f2<-0.0583671] yes=377,no=378,missing=378
								377:leaf=0.0955894
								378:leaf=0.357479
							206:[f7<-7.49378e-05] yes=379,no=380,missing=380
								379:leaf=0.376995
								380:leaf=0.256724
						110:[f3<-0.0512332] yes=207,no=208,missing=208
							207:leaf=0.383264
							208:[f5<0.251163] yes=381,no=382,missing=382
								381:leaf=0.258113
								382:leaf=0.161488
					56:[f7<-7.49378e-05] yes=111,no=112,missing=112
						111:[f1<-0.18083] yes=209,no=210,missing=210
							209:leaf=0.318166
							210:leaf=0.0813037
						112:[f12<-1.87148] yes=211,no=212,missing=212
							211:leaf=0.0993529
							212:[f4<-2.12709] yes=383,no=384,missing=384
								383:leaf=0.0374475
								384:leaf=0.182261
				28:[f5<0.0293126] yes=57,no=58,missing=58
					57:[f5<0.00365513] yes=113,no=114,missing=114
						113:[f9<-1.88114e-05] yes=213,no=214,missing=214
							213:[f1<4.24567e-05] yes=385,no=386,missing=386
								385:leaf=0.134795
								386:leaf=0.410696
							214:[f3<-0.0327873] yes=387,no=388,missing=388
								387:leaf=0.085298
								388:leaf=0.20611
						114:[f2<0.00172508] yes=215,no=216,missing=216
							215:[f12<-2.20334] yes=389,no=390,missing=390
								389:leaf=0.153277
								390:leaf=0.110641
							216:[f1<0.000160722] yes=391,no=392,missing=392
								391:leaf=0.224247
								392:leaf=0.061773
					58:[f1<4.24567e-05] yes=115,no=116,missing=116
						115:leaf=0.365482
						116:[f1<0.00101849] yes=217,no=218,missing=218
							217:leaf=0.0934426
							218:leaf=0.298114
			14:[f5<0.00365513] yes=29,no=30,missing=30
				29:[f15<1.31409] yes=59,no=60,missing=60
					59:[f12<-2.22553] yes=117,no=118,missing=118
						117:[f6<0.00179802] yes=219,no=220,missing=220
							219:[f1<-0.293524] yes=393,no=394,missing=394
								393:leaf=0.436502
								394:leaf=0.47452
							220:leaf=0.398086
						118:[f13<0.0137234] yes=221,no=222,missing=222
							221:[f8<0.0067625] yes=395,no=396,missing=396
								395:leaf=0.402924
								396:leaf=0.416169
							222:[f10<-1.88013] yes=397,no=398,missing=398
								397:leaf=0.41055
								398:leaf=0.439149
					60:[f4<0.0105656] yes=119,no=120,missing=120
						119:[f4<-0.00846823] yes=223,no=224,missing=224
							223:[f3<0.0449777] yes=399,no=400,missing=400
								399:leaf=0.419183
								400:leaf=0.40082
							224:[f3<-0.0327873] yes=401,no=402,missing=402
								401:leaf=0.435947
								402:leaf=0.469585
						120:leaf=0.399278
				30:[f13<0.0103703] yes=61,no=62,missing=62
					61:[f5<0.0140375] yes=121,no=122,missing=122
						121:[f9<-8.60133e-05] yes=225,no=226,missing=226
							225:[f4<0.00334685] yes=403,no=404,missing=404
								403:leaf=0.320233
								404:leaf=0.404054
							226:[f3<-0.102069] yes=405,no=406,missing=406
								405:leaf=0.235234
								406:leaf=0.386379
						122:[f9<0.000117007] yes=227,no=228,missing=228
							227:[f4<-0.000512198] yes=407,no=408,missing=408
								407:leaf=0.209891
								408:leaf=0.347754
							228:[f4<-0.223761] yes=409,no=410,missing=410
								409:leaf=0.133142
								410:leaf=0.392268
					62:[f15<0.0321991] yes=123,no=124,missing=124
						123:[f5<0.00661384] yes=229,no=230,missing=230
							229:[f1<-0.127858] yes=411,no=412,missing=412
								411:leaf=0.466086
								412:leaf=0.407823
							230:[f7<-0.466331] yes=413,no=414,missing=414
								413:leaf=0.410516
								414:leaf=0.400487
						124:[f11<-2.23682] yes=231,no=232,missing=232
							231:[f5<0.406054] yes=415,no=416,missing=416
								415:leaf=0.400351
								416:leaf=0.370747
							232:[f5<0.00514507] yes=417,no=418,missing=418
								417:leaf=0.40631
								418:leaf=0.40077
booster[4]:
0:[f5<-0.00138261] yes=1,no=2,missing=2
	1:[f5<-0.00241032] yes=3,no=4,missing=4
		3:[f5<-0.00399719] yes=7,no=8,missing=8
			7:[f9<0.485786] yes=15,no=16,missing=16
				15:[f15<0.0244324] yes=31,no=32,missing=32
					31:[f11<-2.23752] yes=63,no=64,missing=64
						63:[f9<7.11728e-06] yes=123,no=124,missing=124
							123:[f1<-0.127858] yes=229,no=230,missing=230
								229:leaf=0.426256
								230:leaf=0.0203627
							124:[f2<-7.9785e-05] yes=231,no=232,missing=232
								231:leaf=0.419761
								232:leaf=0.0365373
						64:[f5<-0.00591686] yes=125,no=126,missing=126
							125:[f6<0.518901] yes=233,no=234,missing=234
								233:leaf=0.0354907
								234:leaf=0.215232
							126:[f10<-0.68636] yes=235,no=236,missing=236
								235:leaf=0.0327973
								236:leaf=0.416788
					32:[f7<1.29322] yes=65,no=66,missing=66
						65:[f9<-1.12807] yes=127,no=128,missing=128
							127:[f12<-2.05572] yes=237,no=238,missing=238
								237:leaf=0.027696
								238:leaf=-0.00839299
							128:[f13<0.0208899] yes=239,no=240,missing=240
								239:leaf=0.0300098
								240:leaf=0.0329599
						66:[f4<-0.00846823] yes=129,no=130,missing=130
							129:[f11<-2.23953] yes=241,no=242,missing=242
								241:leaf=0.123117
								242:leaf=-0.0294383
							130:[f6<1.84044] yes=243,no=244,missing=244
								243:leaf=0.0263259
								244:leaf=-0.0379395
				16:[f11<-2.22501] yes=33,no=34,missing=34
					33:[f11<-2.22702] yes=67,no=68,missing=68
						67:[f4<-0.322118] yes=131,no=132,missing=132
							131:[f12<-1.21613] yes=245,no=246,missing=246
								245:leaf=0.0204445
								246:leaf=-0.00984923
							132:[f7<-0.25534] yes=247,no=248,missing=248
								247:leaf=0.0155693
								248:leaf=-0.0227259
						68:[f7<0.152302] yes=133,no=134,missing=134
							133:[f12<-1.99538] yes=249,no=250,missing=250
								249:leaf=0.0190996
								250:leaf=-0.0168357
							134:[f8<-0.807331] yes=251,no=252,missing=252
								251:leaf=0.0299333
								252:leaf=-0.0040342
					34:[f3<0.0957434] yes=69,no=70,missing=70
						69:[f2<0.501224] yes=135,no=136,missing=136
							135:[f4<-2.53894] yes=253,no=254,missing=254
								253:leaf=0.00274945
								254:leaf=-0.0333105
							136:leaf=0.0405286
						70:[f4<-0.00613741] yes=137,no=138,missing=138
							137:leaf=0.0327695
							138:leaf=-0.0321629
			8:[f15<1.22708] yes=17,no=18,missing=18
				17:[f12<-2.22553] yes=35,no=36,missing=36
					35:[f3<-0.0512332] yes=71,no=72,missing=72
						71:leaf=0.0327131
						72:[f6<0.00957052] yes=139,no=140,missing=140
							139:[f8<-0.00455084] yes=255,no=256,missing=256
								255:leaf=0.241982
								256:leaf=0.421379
							140:leaf=0.032162
					36:[f6<0.00957052] yes=73,no=74,missing=74
						73:[f6<-0.00875172] yes=141,no=142,missing=142
							141:[f10<-0.216021] yes=257,no=258,missing=258
								257:leaf=0.0303611
								258:leaf=0.0207514
							142:[f4<-0.00846823] yes=259,no=260,missing=260
								259:leaf=0.0384918
								260:leaf=0.243012
						74:[f10<-1.84528] yes=143,no=144,missing=144
							143:[f1<0.104979] yes=261,no=262,missing=262
								261:leaf=0.0326035
								262:leaf=0.0304143
							144:[f2<-7.9785e-05] yes=263,no=264,missing=264
								263:leaf=0.0324826
								264:leaf=0.0219605
				18:[f4<0.0105656] yes=37,no=38,missing=38
					37:[f3<0.0449777] yes=75,no=76,missing=76
						75:[f6<-0.00547323] yes=145,no=146,missing=146
							145:[f11<-2.23965] yes=265,no=266,missing=266
								265:leaf=0.235422
								266:leaf=0.0342244
							146:[f6<0.00957052] yes=267,no=268,missing=268
								267:leaf=0.293736
								268:leaf=-0.139899
						76:[f1<0.000160722] yes=147,no=148,missing=148
							147:[f8<0.0660398] yes=269,no=270,missing=270
								269:leaf=0.0321503
								270:leaf=0.0264963
							148:[f13<0.0113689] yes=271,no=272,missing=272
								271:leaf=0.0293664
								272:leaf=0.0228124
					38:[f8<-1.11183] yes=77,no=78,missing=78
						77:leaf=0.151767
						78:[f1<4.24567e-05] yes=149,no=150,missing=150
							149:[f9<-1.12807] yes=273,no=274,missing=274
								273:leaf=-0.00208503
								274:leaf=0.0322463
							150:[f9<0.0179345] yes=275,no=276,missing=276
								275:leaf=0.0298718
								276:leaf=0.0188034
		4:[f15<1.31409] yes=9,no=10,missing=10
			9:[f6<0.00957052] yes=19,no=20,missing=20
				19:[f6<-0.00875172] yes=39,no=40,missing=40
					39:[f6<-0.0126751] yes=79,no=80,missing=80
						79:[f10<-1.81393] yes=151,no=152,missing=152
							151:[f7<0.413151] yes=277,no=278,missing=278
								277:leaf=0.0319406
								278:leaf=-0.00861663
							152:[f3<4.51324e-05] yes=279,no=280,missing=280
								279:leaf=0.0236938
								280:leaf=0.0310647
						80:[f1<-0.0483538] yes=153,no=154,missing=154
							153:[f3<0.00491502] yes=281,no=282,missing=282
								281:leaf=0.0372479
								282:leaf=0.178547
							154:[f9<0.00462634] yes=283,no=284,missing=284
								283:leaf=0.157788
								284:leaf=0.0191916
					40:[f4<-0.00846823] yes=81,no=82,missing=82
						81:[f8<-0.0420379] yes=155,no=156,missing=156
							155:[f1<0.0651291] yes=285,no=286,missing=286
								285:leaf=0.333428
								286:leaf=0.0537334
							156:[f2<0.00698825] yes=287,no=288,missing=288
								287:leaf=0.0193411
								288:leaf=0.142736
						82:[f4<0.0105656] yes=157,no=158,missing=158
							157:[f2<0.0499438] yes=289,no=290,missing=290
								289:leaf=0.421146
								290:leaf=0.313761
							158:[f11<-2.23962] yes=291,no=292,missing=292
								291:leaf=-0.019305
								292:leaf=0.0331166
				20:[f1<0.0502635] yes=41,no=42,missing=42
					41:[f1<0.0395347] yes=83,no=84,missing=84
						83:[f8<-0.124415] yes=159,no=160,missing=160
							159:[f10<-0.926461] yes=293,no=294,missing=294
								293:leaf=0.0340884
								294:leaf=0.137373
							160:[f9<0.0302926] yes=295,no=296,missing=296
								295:leaf=0.0322681
								296:leaf=0.022693
						84:[f7<-0.000766132] yes=161,no=162,missing=162
							161:[f7<-0.00197405] yes=297,no=298,missing=298
								297:leaf=0.0743659
								298:leaf=0.191841
							162:[f7<-0.000274462] yes=299,no=300,missing=300
								299:leaf=0.0215642
								300:leaf=0.0288002
					42:[f10<-1.81393] yes=85,no=86,missing=86
						85:[f9<0.116283] yes=163,no=164,missing=164
							163:[f3<-0.0127747] yes=301,no=302,missing=302
								301:leaf=0.0299068
								302:leaf=0.0329018
							164:[f4<0.00212241] yes=303,no=304,missing=304
								303:leaf=0.099215
								304:leaf=0.0412763
						86:[f2<-4.76312e-07] yes=165,no=166,missing=166
							165:[f12<-2.21818] yes=305,no=306,missing=306
								305:leaf=0.0258205
								306:leaf=0.0312019
							166:[f9<-1.05944e-07] yes=307,no=308,missing=308
								307:leaf=0.0198185
								308:leaf=0.029057
			10:[f4<0.0105656] yes=21,no=22,missing=22
				21:[f6<-0.00547323] yes=43,no=44,missing=44
					43:[f7<0.000547619] yes=87,no=88,missing=88
						87:[f7<0.000184911] yes=167,no=168,missing=168
							167:[f9<-1.00241e-06] yes=309,no=310,missing=310
								309:leaf=0.0159339
								310:leaf=0.0342837
							168:[f3<2.7768e-07] yes=311,no=312,missing=312
								311:leaf=0.110278
								312:leaf=0.231436
						88:[f10<-0.0517204] yes=169,no=170,missing=170
							169:[f1<-0.0483538] yes=313,no=314,missing=314
								313:leaf=0.0339625
								314:leaf=-0.0255765
							170:leaf=0.484885
					44:[f6<0.00957052] yes=89,no=90,missing=90
						89:[f11<-2.22974] yes=171,no=172,missing=172
							171:[f4<-0.00846823] yes=315,no=316,missing=316
								315:leaf=0.198098
								316:leaf=0.426633
							172:[f1<-0.0875254] yes=317,no=318,missing=318
								317:leaf=-0.0824776
								318:leaf=0.0279127
						90:[f7<-0.000274462] yes=173,no=174,missing=174
							173:[f4<1.0496e-07] yes=319,no=320,missing=320
								319:leaf=0.224939
								320:leaf=0.312346
							174:[f4<1.0496e-07] yes=321,no=322,missing=322
								321:leaf=0.0013465
								322:leaf=0.0148911
				22:[f4<0.0451098] yes=45,no=46,missing=46
					45:[f10<-2.1985] yes=91,no=92,missing=92
						91:[f3<-0.0512332] yes=175,no=176,missing=176
							175:leaf=-0.0288847
							176:leaf=0.0171796
						92:[f4<0.0354791] yes=177,no=178,missing=178
							177:[f1<0.0395347] yes=323,no=324,missing=324
								323:leaf=0.0318499
								324:leaf=0.0214688
							178:[f7<-4.46403e-05] yes=325,no=326,missing=326
								325:leaf=0.0319878
								326:leaf=0.0102419
					46:[f6<-0.518519] yes=93,no=94,missing=94
						93:leaf=-0.028985
						94:leaf=0.0327875
	2:[f5<0.00241182] yes=5,no=6,missing=6
		5:[f6<-0.00875172] yes=11,no=12,missing=12
			11:[f5<-6.38474e-07] yes=23,no=24,missing=24
				23:[f6<-0.0126751] yes=47,no=48,missing=48
					47:[f7<0.460611] yes=95,no=96,missing=96
						95:[f8<-0.0420379] yes=179,no=180,missing=180
							179:[f1<-0.127858] yes=327,no=328,missing=328
								327:leaf=0.00450212
								328:leaf=0.0285206
							180:[f11<-2.23965] yes=329,no=330,missing=330
								329:leaf=0.0261837
								330:leaf=0.032758
						96:leaf=-0.0317546
					48:[f14<0.27896] yes=97,no=98,missing=98
						97:[f4<0.00108281] yes=181,no=182,missing=182
							181:[f4<-0.000154285] yes=331,no=332,missing=332
								331:leaf=0.0422729
								332:leaf=0.474629
							182:[f1<-0.103653] yes=333,no=334,missing=334
								333:leaf=0.11235
								334:leaf=0.0265209
						98:[f2<-0.0454441] yes=183,no=184,missing=184
							183:[f8<-0.0897919] yes=335,no=336,missing=336
								335:leaf=0.0295385
								336:leaf=0.179829
							184:[f9<-1.88114e-05] yes=337,no=338,missing=338
								337:leaf=0.122955
								338:leaf=0.420862
				24:[f5<0.000185762] yes=49,no=50,missing=50
					49:[f10<-1.47526] yes=99,no=100,missing=100
						99:[f13<0.0103451] yes=185,no=186,missing=186
							185:[f1<4.24567e-05] yes=339,no=340,missing=340
								339:leaf=0.118279
								340:leaf=0.395175
							186:leaf=0.360387
						100:[f8<-8.73812e-06] yes=187,no=188,missing=188
							187:[f15<0.635296] yes=341,no=342,missing=342
								341:leaf=0.413525
								342:leaf=0.140941
							188:[f14<0.905652] yes=343,no=344,missing=344
								343:leaf=0.390837
								344:leaf=0.359962
					50:[f6<-0.0126751] yes=101,no=102,missing=102
						101:leaf=0.360529
						102:[f5<0.00147261] yes=189,no=190,missing=190
							189:[f10<-1.4375] yes=345,no=346,missing=346
								345:leaf=0.373184
								346:leaf=0.415536
							190:[f1<-0.18083] yes=347,no=348,missing=348
								347:leaf=0.417045
								348:leaf=0.361866
			12:[f6<0.00957052] yes=25,no=26,missing=26
				25:[f4<-0.00846823] yes=51,no=52,missing=52
					51:[f5<-6.38474e-07] yes=103,no=104,missing=104
						103:[f2<-0.194904] yes=191,no=192,missing=192
							191:[f1<0.087015] yes=349,no=350,missing=350
								349:leaf=0.422516
								350:leaf=0.0247278
							192:[f14<0.0656784] yes=351,no=352,missing=352
								351:leaf=-0.0272854
								352:leaf=0.0269008
						104:[f10<-2.05897] yes=193,no=194,missing=194
							193:[f11<-2.23965] yes=353,no=354,missing=354
								353:leaf=0.160918
								354:leaf=0.356457
							194:leaf=0.35936
					52:[f4<0.0105656] yes=105,no=106,missing=106
						105:[f4<0.00737415] yes=195,no=196,missing=196
							195:[f3<-0.0512332] yes=355,no=356,missing=356
								355:leaf=0.185554
								356:leaf=0.425329
							196:[f5<-1e-06] yes=357,no=358,missing=358
								357:leaf=0.0646222
								358:leaf=0.387926
						106:[f5<-6.38474e-07] yes=197,no=198,missing=198
							197:[f1<-0.151698] yes=359,no=360,missing=360
								359:leaf=-0.0303326
								360:leaf=0.0325822
							198:leaf=0.360169
				26:[f5<-6.38474e-07] yes=53,no=54,missing=54
					53:[f7<-0.0338636] yes=107,no=108,missing=108
						107:[f10<-0.326331] yes=199,no=200,missing=200
							199:[f1<0.0266116] yes=361,no=362,missing=362
								361:leaf=0.0725145
								362:leaf=0.024367
							200:[f4<-0.000512198] yes=363,no=364,missing=364
								363:leaf=0.416096
								364:leaf=0.0966622
						108:[f13<0.0103703] yes=201,no=202,missing=202
							201:[f1<0.00382701] yes=365,no=366,missing=366
								365:leaf=0.0258657
								366:leaf=0.000753125
							202:[f10<-0.000565036] yes=367,no=368,missing=368
								367:leaf=0.0321736
								368:leaf=-0.031569
					54:leaf=0.361087
		6:[f11<-2.23965] yes=13,no=14,missing=14
			13:[f13<0.0103431] yes=27,no=28,missing=28
				27:[f5<1.78064] yes=55,no=56,missing=56
					55:[f4<1.0496e-07] yes=109,no=110,missing=110
						109:[f7<-7.49378e-05] yes=203,no=204,missing=204
							203:leaf=0.352444
							204:[f1<-0.127858] yes=369,no=370,missing=370
								369:leaf=0.0844022
								370:leaf=0.297741
						110:[f3<-0.511731] yes=205,no=206,missing=206
							205:leaf=0.354859
							206:[f7<-7.49378e-05] yes=371,no=372,missing=372
								371:leaf=0.116486
								372:leaf=0.212182
					56:[f7<-7.49378e-05] yes=111,no=112,missing=112
						111:[f1<-0.18083] yes=207,no=208,missing=208
							207:leaf=0.290326
							208:leaf=0.0758835
						112:[f1<-0.0731674] yes=209,no=210,missing=210
							209:[f7<-4.46403e-05] yes=373,no=374,missing=374
								373:leaf=0.114747
								374:leaf=0.0641639
							210:[f4<-4.11239e-05] yes=375,no=376,missing=376
								375:leaf=0.19299
								376:leaf=0.139672
				28:[f8<1.45634e-05] yes=57,no=58,missing=58
					57:[f5<0.00365513] yes=113,no=114,missing=114
						113:[f10<-1.17205] yes=211,no=212,missing=212
							211:[f7<-2.81811e-05] yes=377,no=378,missing=378
								377:leaf=0.240002
								378:leaf=0.0808533
							212:[f3<0.000205708] yes=379,no=380,missing=380
								379:leaf=0.231154
								380:leaf=0.120003
						114:leaf=0.101927
					58:[f9<-1.88114e-05] yes=115,no=116,missing=116
						115:[f4<0.0105656] yes=213,no=214,missing=214
							213:leaf=0.330223
							214:[f7<-1.00314e-06] yes=381,no=382,missing=382
								381:leaf=0.27318
								382:leaf=0.143374
						116:[f9<7.11728e-06] yes=215,no=216,missing=216
							215:[f3<-8.40447e-05] yes=383,no=384,missing=384
								383:leaf=0.103524
								384:leaf=0.0480026
							216:[f1<0.000415112] yes=385,no=386,missing=386
								385:leaf=0.287739
								386:leaf=0.0723885
			14:[f5<0.00365513] yes=29,no=30,missing=30
				29:[f6<0.00957052] yes=59,no=60,missing=60
					59:[f6<-0.00875172] yes=117,no=118,missing=118
						117:[f12<-2.22553] yes=217,no=218,missing=218
							217:[f9<-1.00241e-06] yes=387,no=388,missing=388
								387:leaf=0.417375
								388:leaf=0.352485
							218:leaf=0.359366
						118:[f4<0.0105656] yes=219,no=220,missing=220
							219:[f4<-0.00846823] yes=389,no=390,missing=390
								389:leaf=0.370487
								390:leaf=0.408915
							220:leaf=0.355121
					60:leaf=0.359673
				30:[f13<0.0103703] yes=61,no=62,missing=62
					61:[f5<0.0114673] yes=119,no=120,missing=120
						119:[f9<6.56793e-05] yes=221,no=222,missing=222
							221:[f4<-0.0169043] yes=391,no=392,missing=392
								391:leaf=0.189037
								392:leaf=0.354513
							222:leaf=0.363561
						120:[f9<0.000117007] yes=223,no=224,missing=224
							223:[f9<-8.60133e-05] yes=393,no=394,missing=394
								393:leaf=0.323073
								394:leaf=0.187814
							224:[f4<-0.223761] yes=395,no=396,missing=396
								395:leaf=0.120937
								396:leaf=0.359442
					62:[f15<0.0244324] yes=121,no=122,missing=122
						121:[f5<0.00843392] yes=225,no=226,missing=226
							225:[f7<-0.25534] yes=397,no=398,missing=398
								397:leaf=0.42989
								398:leaf=0.348888
							226:[f8<-0.0147718] yes=399,no=400,missing=400
								399:leaf=0.396028
								400:leaf=0.360039
						122:[f5<0.00514507] yes=227,no=228,missing=228
							227:[f7<-0.25534] yes=401,no=402,missing=402
								401:leaf=0.381537
								402:leaf=0.361725
							228:[f11<-2.23865] yes=403,no=404,missing=404
								403:leaf=0.359216
								404:leaf=0.360643
booster[5]:
0:[f5<-0.00138261] yes=1,no=2,missing=2
	1:[f5<-0.00241032] yes=3,no=4,missing=4
		3:[f5<-0.00399719] yes=7,no=8,missing=8
			7:[f9<0.485786] yes=15,no=16,missing=16
				15:[f15<0.0244324] yes=31,no=32,missing=32
					31:[f11<-2.23725] yes=63,no=64,missing=64
						63:[f9<7.11728e-06] yes=125,no=126,missing=126
							125:[f1<-0.127858] yes=233,no=234,missing=234
								233:leaf=0.38367
								234:leaf=0.0193445
							126:[f2<-7.9785e-05] yes=235,no=236,missing=236
								235:leaf=0.378951
								236:leaf=0.0328335
						64:[f5<-0.00591686] yes=127,no=128,missing=128
							127:[f13<0.0156586] yes=237,no=238,missing=238
								237:leaf=0.061499
								238:leaf=0.0292095
							128:[f1<-0.0017112] yes=239,no=240,missing=240
								239:leaf=0.0331217
								240:leaf=0.384009
					32:[f7<1.29322] yes=65,no=66,missing=66
						65:[f9<-1.12807] yes=129,no=130,missing=130
							129:[f12<-2.05572] yes=241,no=242,missing=242
								241:leaf=0.0249274
								242:leaf=-0.00755398
							130:[f10<-2.22464] yes=243,no=244,missing=244
								243:leaf=0.0439548
								244:leaf=0.0291889
						66:[f4<0.0139707] yes=131,no=132,missing=132
							131:[f12<-0.627063] yes=245,no=246,missing=246
								245:leaf=0.00966334
								246:leaf=-0.0271806
							132:[f2<-0.298256] yes=247,no=248,missing=248
								247:leaf=0.028836
								248:leaf=-0.0334892
				16:[f11<-2.22501] yes=33,no=34,missing=34
					33:[f11<-2.22702] yes=67,no=68,missing=68
						67:[f6<0.0415117] yes=133,no=134,missing=134
							133:[f10<-1.4375] yes=249,no=250,missing=250
								249:leaf=0.0306263
								250:leaf=-0.0112182
							134:[f8<-0.202925] yes=251,no=252,missing=252
								251:leaf=0.0390144
								252:leaf=-0.038218
						68:[f5<-0.0712893] yes=135,no=136,missing=136
							135:[f7<-0.000172243] yes=253,no=254,missing=254
								253:leaf=-0.0130915
								254:leaf=0.0249681
							136:[f12<-1.99538] yes=255,no=256,missing=256
								255:leaf=0.0322706
								256:leaf=-0.0147855
					34:[f3<0.0957434] yes=69,no=70,missing=70
						69:[f2<0.501224] yes=137,no=138,missing=138
							137:[f4<-2.53894] yes=257,no=258,missing=258
								257:leaf=0.00247743
								258:leaf=-0.0299797
							138:leaf=0.0365234
						70:[f4<-0.00613741] yes=139,no=140,missing=140
							139:leaf=0.0294959
							140:leaf=-0.0300187
			8:[f15<1.22708] yes=17,no=18,missing=18
				17:[f12<-2.22553] yes=35,no=36,missing=36
					35:[f3<-0.0512332] yes=71,no=72,missing=72
						71:leaf=0.0294582
						72:[f6<0.00957052] yes=141,no=142,missing=142
							141:[f6<0.000486024] yes=259,no=260,missing=260
								259:leaf=-0.013515
								260:leaf=0.374462
							142:leaf=0.0290567
					36:[f6<0.00957052] yes=73,no=74,missing=74
						73:[f6<-0.00875172] yes=143,no=144,missing=144
							143:[f9<0.000541718] yes=261,no=262,missing=262
								261:leaf=0.0234951
								262:leaf=0.0305215
							144:[f4<0.0105656] yes=263,no=264,missing=264
								263:leaf=0.202102
								264:leaf=-0.0393359
						74:[f10<-1.84528] yes=145,no=146,missing=146
							145:[f10<-2.21475] yes=265,no=266,missing=266
								265:leaf=0.0273164
								266:leaf=0.0293729
							146:[f6<0.0457853] yes=267,no=268,missing=268
								267:leaf=0.0227451
								268:leaf=-0.00581721
				18:[f4<0.0105656] yes=37,no=38,missing=38
					37:[f3<0.0449777] yes=75,no=76,missing=76
						75:[f6<-0.00547323] yes=147,no=148,missing=148
							147:[f11<-2.23965] yes=269,no=270,missing=270
								269:leaf=0.213842
								270:leaf=0.030805
							148:[f4<-0.00846823] yes=271,no=272,missing=272
								271:leaf=0.183745
								272:leaf=0.291352
						76:[f1<0.00382701] yes=149,no=150,missing=150
							149:[f9<-8.60133e-05] yes=273,no=274,missing=274
								273:leaf=0.0275964
								274:leaf=-0.0213005
							150:[f7<-3.35865e-06] yes=275,no=276,missing=276
								275:leaf=0.0286891
								276:leaf=0.0175994
					38:[f8<-1.11183] yes=77,no=78,missing=78
						77:leaf=0.141649
						78:[f6<-0.518519] yes=151,no=152,missing=152
							151:leaf=-0.0440423
							152:[f6<9.74383e-05] yes=277,no=278,missing=278
								277:leaf=0.0286635
								278:leaf=0.0246149
		4:[f15<1.31409] yes=9,no=10,missing=10
			9:[f6<0.00957052] yes=19,no=20,missing=20
				19:[f6<-0.00875172] yes=39,no=40,missing=40
					39:[f6<-0.0126751] yes=79,no=80,missing=80
						79:[f10<-0.0517204] yes=153,no=154,missing=154
							153:[f15<0.572312] yes=279,no=280,missing=280
								279:leaf=0.0272715
								280:leaf=0.0214323
							154:[f3<2.7768e-07] yes=281,no=282,missing=282
								281:leaf=0.00030107
								282:leaf=0.0228546
						80:[f1<-0.0483538] yes=155,no=156,missing=156
							155:[f2<-0.0856528] yes=283,no=284,missing=284
								283:leaf=0.18438
								284:leaf=0.0351891
							156:[f11<-2.23962] yes=285,no=286,missing=286
								285:leaf=-0.0200793
								286:leaf=0.139572
					40:[f4<-0.00846823] yes=81,no=82,missing=82
						81:[f8<-0.0420379] yes=157,no=158,missing=158
							157:[f10<-2.1985] yes=287,no=288,missing=288
								287:leaf=0.100917
								288:leaf=0.356488
							158:[f7<0.000184911] yes=289,no=290,missing=290
								289:leaf=0.14081
								290:leaf=0.0183709
						82:[f4<0.0105656] yes=159,no=160,missing=160
							159:[f2<0.0727242] yes=291,no=292,missing=292
								291:leaf=0.378189
								292:leaf=0.258728
							160:[f11<-2.23962] yes=293,no=294,missing=294
								293:leaf=-0.0183398
								294:leaf=0.0298108
				20:[f1<0.0502635] yes=41,no=42,missing=42
					41:[f6<0.0133708] yes=83,no=84,missing=84
						83:[f7<-0.136761] yes=161,no=162,missing=162
							161:[f1<-0.293524] yes=295,no=296,missing=296
								295:leaf=0.0192676
								296:leaf=-0.0282472
							162:[f3<0.00491502] yes=297,no=298,missing=298
								297:leaf=0.0757173
								298:leaf=0.0230896
						84:[f1<0.0395347] yes=163,no=164,missing=164
							163:[f9<0.0302926] yes=299,no=300,missing=300
								299:leaf=0.029592
								300:leaf=0.0204372
							164:[f7<-0.00197405] yes=301,no=302,missing=302
								301:leaf=0.0185331
								302:leaf=0.0267224
					42:[f12<-0.996916] yes=85,no=86,missing=86
						85:[f3<4.51324e-05] yes=165,no=166,missing=166
							165:[f3<-1.35215e-05] yes=303,no=304,missing=304
								303:leaf=0.0271728
								304:leaf=0.0189358
							166:[f11<-2.23965] yes=305,no=306,missing=306
								305:leaf=-0.0350745
								306:leaf=0.0291559
						86:[f3<2.7768e-07] yes=167,no=168,missing=168
							167:[f15<1.25331] yes=307,no=308,missing=308
								307:leaf=0.0253456
								308:leaf=-0.0151142
							168:[f3<0.000104561] yes=309,no=310,missing=310
								309:leaf=-0.0332349
								310:leaf=0.0239885
			10:[f4<0.0105656] yes=21,no=22,missing=22
				21:[f6<-0.00547323] yes=43,no=44,missing=44
					43:[f7<0.000547619] yes=87,no=88,missing=88
						87:[f7<0.000184911] yes=169,no=170,missing=170
							169:[f12<-0.889576] yes=311,no=312,missing=312
								311:leaf=0.00667896
								312:leaf=0.0295324
							170:[f3<2.7768e-07] yes=313,no=314,missing=314
								313:leaf=0.0993199
								314:leaf=0.209511
						88:[f10<-0.0517204] yes=171,no=172,missing=172
							171:[f1<-0.0363418] yes=315,no=316,missing=316
								315:leaf=0.0299471
								316:leaf=-0.0322797
							172:leaf=0.436709
					44:[f6<0.00957052] yes=89,no=90,missing=90
						89:[f11<-2.22974] yes=173,no=174,missing=174
							173:[f4<-0.00846823] yes=317,no=318,missing=318
								317:leaf=0.178539
								318:leaf=0.383972
							174:[f1<-0.0875254] yes=319,no=320,missing=320
								319:leaf=-0.0762918
								320:leaf=0.0251773
						90:[f7<-0.000274462] yes=175,no=176,missing=176
							175:[f4<1.0496e-07] yes=321,no=322,missing=322
								321:leaf=0.202621
								322:leaf=0.281913
							176:[f1<0.0502635] yes=323,no=324,missing=324
								323:leaf=0.0027151
								324:leaf=0.029148
				22:[f4<0.0451098] yes=45,no=46,missing=46
					45:[f10<-2.1985] yes=91,no=92,missing=92
						91:[f3<-0.0512332] yes=177,no=178,missing=178
							177:leaf=-0.026959
							178:leaf=0.0163206
						92:[f4<0.0354791] yes=179,no=180,missing=180
							179:[f1<0.0395347] yes=325,no=326,missing=326
								325:leaf=0.0286928
								326:leaf=0.0193374
							180:[f7<-4.46403e-05] yes=327,no=328,missing=328
								327:leaf=0.029246
								328:leaf=0.00924619
					46:[f6<-0.518519] yes=93,no=94,missing=94
						93:leaf=-0.0270527
						94:leaf=0.0295122
	2:[f11<-2.23953] yes=5,no=6,missing=6
		5:[f4<-0.0312221] yes=11,no=12,missing=12
			11:[f5<-6.38474e-07] yes=23,no=24,missing=24
				23:[f14<0.0656784] yes=47,no=48,missing=48
					47:[f2<-0.000497739] yes=95,no=96,missing=96
						95:leaf=0.0284716
						96:leaf=-0.0314899
					48:[f7<-7.58262e-07] yes=97,no=98,missing=98
						97:[f11<-2.23965] yes=181,no=182,missing=182
							181:[f3<0.00491502] yes=329,no=330,missing=330
								329:leaf=0.0172528
								330:leaf=-0.016849
							182:[f2<-0.00132611] yes=331,no=332,missing=332
								331:leaf=-0.00642495
								332:leaf=0.0265598
						98:[f14<0.0818098] yes=183,no=184,missing=184
							183:leaf=0.00213055
							184:[f9<-1.5825e-06] yes=333,no=334,missing=334
								333:leaf=0.0233968
								334:leaf=0.0309321
				24:[f8<-8.73812e-06] yes=49,no=50,missing=50
					49:[f6<-0.518519] yes=99,no=100,missing=100
						99:[f10<-1.47526] yes=185,no=186,missing=186
							185:[f12<-1.87148] yes=335,no=336,missing=336
								335:leaf=0.129761
								336:leaf=-0.0256635
							186:[f9<-1.00241e-06] yes=337,no=338,missing=338
								337:leaf=0.395804
								338:leaf=0.11239
						100:[f10<-1.88013] yes=187,no=188,missing=188
							187:[f4<-0.166822] yes=339,no=340,missing=340
								339:leaf=0.382957
								340:leaf=0.319399
							188:[f15<0.118494] yes=341,no=342,missing=342
								341:leaf=0.125809
								342:leaf=0.299261
					50:[f14<0.173127] yes=101,no=102,missing=102
						101:[f5<0.000185762] yes=189,no=190,missing=190
							189:[f10<-2.07819] yes=343,no=344,missing=344
								343:leaf=-0.0486698
								344:leaf=0.0418935
							190:[f2<0.122625] yes=345,no=346,missing=346
								345:leaf=0.313989
								346:leaf=0.118943
						102:[f5<0.144059] yes=191,no=192,missing=192
							191:[f9<-1.5825e-06] yes=347,no=348,missing=348
								347:leaf=0.336685
								348:leaf=0.322582
							192:[f5<0.163013] yes=349,no=350,missing=350
								349:leaf=-0.0190348
								350:leaf=0.270239
			12:[f4<0.0226454] yes=25,no=26,missing=26
				25:[f5<0.00147261] yes=51,no=52,missing=52
					51:[f6<0.00957052] yes=103,no=104,missing=104
						103:[f6<-0.00875172] yes=193,no=194,missing=194
							193:[f5<-6.38474e-07] yes=351,no=352,missing=352
								351:leaf=0.124908
								352:leaf=0.328997
							194:[f4<-0.00846823] yes=353,no=354,missing=354
								353:leaf=0.201456
								354:leaf=0.384169
						104:[f5<-6.38474e-07] yes=195,no=196,missing=196
							195:[f4<0.00334685] yes=355,no=356,missing=356
								355:leaf=0.0237414
								356:leaf=-0.031659
							196:leaf=0.321947
					52:[f11<-2.23965] yes=105,no=106,missing=106
						105:[f10<-0.596626] yes=197,no=198,missing=198
							197:[f8<-6.82304e-07] yes=357,no=358,missing=358
								357:leaf=0.110061
								358:leaf=0.198362
							198:[f5<1.78064] yes=359,no=360,missing=360
								359:leaf=0.263103
								360:leaf=0.148889
						106:[f8<0.000456485] yes=199,no=200,missing=200
							199:[f12<-0.0347727] yes=361,no=362,missing=362
								361:leaf=0.325674
								362:leaf=0.373975
							200:[f5<0.00365513] yes=363,no=364,missing=364
								363:leaf=0.37569
								364:leaf=0.320262
				26:[f5<0.000185762] yes=53,no=54,missing=54
					53:[f6<-0.219894] yes=107,no=108,missing=108
						107:[f5<-6.38474e-07] yes=201,no=202,missing=202
							201:[f1<0.00186032] yes=365,no=366,missing=366
								365:leaf=0.0302576
								366:leaf=0.0248025
							202:[f1<-2.35202e-05] yes=367,no=368,missing=368
								367:leaf=0.437737
								368:leaf=0.340519
						108:[f6<-0.0751589] yes=203,no=204,missing=204
							203:[f1<-2.35202e-05] yes=369,no=370,missing=370
								369:leaf=0.460466
								370:leaf=-0.0680091
							204:[f5<-1e-06] yes=371,no=372,missing=372
								371:leaf=0.0278905
								372:leaf=0.238824
					54:[f11<-2.23965] yes=109,no=110,missing=110
						109:[f10<-1.00476] yes=205,no=206,missing=206
							205:[f3<0.00906807] yes=373,no=374,missing=374
								373:leaf=0.287596
								374:leaf=0.0993167
							206:leaf=0.070803
						110:[f5<0.0843488] yes=207,no=208,missing=208
							207:leaf=0.321749
							208:[f6<0.00957052] yes=375,no=376,missing=376
								375:leaf=0.309092
								376:leaf=0.208843
		6:[f5<0.00365513] yes=13,no=14,missing=14
			13:[f6<0.00957052] yes=27,no=28,missing=28
				27:[f6<-0.00875172] yes=55,no=56,missing=56
					55:[f5<-6.38474e-07] yes=111,no=112,missing=112
						111:[f6<-0.0126751] yes=209,no=210,missing=210
							209:[f7<0.460611] yes=377,no=378,missing=378
								377:leaf=0.0275547
								378:leaf=-0.0287556
							210:[f13<0.0110877] yes=379,no=380,missing=380
								379:leaf=0.276601
								380:leaf=0.0828913
						112:[f6<-0.0126751] yes=211,no=212,missing=212
							211:leaf=0.324088
							212:[f5<0.00147261] yes=381,no=382,missing=382
								381:leaf=0.348855
								382:leaf=0.326864
					56:[f4<0.0105656] yes=113,no=114,missing=114
						113:[f4<-0.00846823] yes=213,no=214,missing=214
							213:[f5<-1e-06] yes=383,no=384,missing=384
								383:leaf=0.0750019
								384:leaf=0.332111
							214:[f4<0.00530659] yes=385,no=386,missing=386
								385:leaf=0.381503
								386:leaf=0.352164
						114:[f5<-6.38474e-07] yes=215,no=216,missing=216
							215:[f1<-0.151698] yes=387,no=388,missing=388
								387:leaf=-0.0276785
								388:leaf=0.0293241
							216:leaf=0.321398
				28:[f5<-6.38474e-07] yes=57,no=58,missing=58
					57:[f10<-0.958465] yes=115,no=116,missing=116
						115:[f10<-2.22464] yes=217,no=218,missing=218
							217:[f2<0.00698825] yes=389,no=390,missing=390
								389:leaf=0.0317636
								390:leaf=0.506157
							218:[f7<-0.0665864] yes=391,no=392,missing=392
								391:leaf=0.0181053
								392:leaf=0.0288145
						116:[f1<0.0266116] yes=219,no=220,missing=220
							219:[f12<-2.1467] yes=393,no=394,missing=394
								393:leaf=0.42958
								394:leaf=0.0280794
							220:[f10<-0.079509] yes=395,no=396,missing=396
								395:leaf=0.0254299
								396:leaf=0.0898462
					58:leaf=0.324536
			14:[f12<-2.21818] yes=29,no=30,missing=30
				29:[f5<0.00661384] yes=59,no=60,missing=60
					59:[f1<-0.0875254] yes=117,no=118,missing=118
						117:[f6<-0.00875172] yes=221,no=222,missing=222
							221:[f2<0.00075955] yes=397,no=398,missing=398
								397:leaf=0.313283
								398:leaf=0.0697344
							222:[f6<0.00327835] yes=399,no=400,missing=400
								399:leaf=0.391612
								400:leaf=0.261897
						118:[f1<-0.0182446] yes=223,no=224,missing=224
							223:[f1<-0.0363418] yes=401,no=402,missing=402
								401:leaf=0.331919
								402:leaf=0.393635
							224:leaf=0.321953
					60:[f5<0.00843392] yes=119,no=120,missing=120
						119:[f7<-0.466331] yes=225,no=226,missing=226
							225:leaf=0.400068
							226:[f1<-0.230861] yes=403,no=404,missing=404
								403:leaf=0.350303
								404:leaf=0.324828
						120:leaf=0.324357
				30:[f5<0.00514507] yes=61,no=62,missing=62
					61:[f7<0.358469] yes=121,no=122,missing=122
						121:[f7<-0.32848] yes=227,no=228,missing=228
							227:[f6<-0.00875172] yes=405,no=406,missing=406
								405:leaf=0.318802
								406:leaf=0.409447
							228:leaf=0.324468
						122:[f6<0.00957052] yes=229,no=230,missing=230
							229:[f6<0.00327835] yes=407,no=408,missing=408
								407:leaf=0.326634
								408:leaf=0.378372
							230:leaf=0.323631
					62:[f11<-2.23623] yes=123,no=124,missing=124
						123:[f5<0.618198] yes=231,no=232,missing=232
							231:[f5<0.290438] yes=409,no=410,missing=410
								409:leaf=0.324376
								410:leaf=0.317687
							232:[f7<0.0297198] yes=411,no=412,missing=412
								411:leaf=0.306431
								412:leaf=0.248768
						124:leaf=0.324639
booster[6]:
0:[f5<-0.00138261] yes=1,no=2,missing=2
	1:[f5<-0.00241032] yes=3,no=4,missing=4
		3:[f5<-0.00399719] yes=7,no=8,missing=8
			7:[f9<0.485786] yes=15,no=16,missing=16
				15:[f15<0.0244324] yes=31,no=32,missing=32
					31:[f11<-2.23725] yes=63,no=64,missing=64
						63:[f9<7.11728e-06] yes=125,no=126,missing=126
							125:[f1<-0.127858] yes=239,no=240,missing=240
								239:leaf=0.345337
								240:leaf=0.0183773
							126:[f2<-7.9785e-05] yes=241,no=242,missing=242
								241:leaf=0.342109
								242:leaf=0.0296528
						64:[f5<-0.00591686] yes=127,no=128,missing=128
							127:[f1<0.175608] yes=243,no=244,missing=244
								243:leaf=0.0286693
								244:leaf=0.195294
							128:[f1<-0.0017112] yes=245,no=246,missing=246
								245:leaf=0.0298195
								246:leaf=0.345821
					32:[f7<1.29322] yes=65,no=66,missing=66
						65:[f9<0.116283] yes=129,no=130,missing=130
							129:[f9<-1.12807] yes=247,no=248,missing=248
								247:leaf=0.00782963
								248:leaf=0.0264512
							130:[f8<0.0660398] yes=249,no=250,missing=250
								249:leaf=0.0274497
								250:leaf=-0.0361754
						66:[f4<-0.00846823] yes=131,no=132,missing=132
							131:[f13<0.0201795] yes=251,no=252,missing=252
								251:leaf=-0.0151143
								252:leaf=-0.0274215
							132:[f1<1.28145] yes=253,no=254,missing=254
								253:leaf=0.0266096
								254:leaf=-0.0119131
				16:[f8<-0.63794] yes=33,no=34,missing=34
					33:[f6<-0.0751589] yes=67,no=68,missing=68
						67:[f10<-1.38824] yes=133,no=134,missing=134
							133:[f15<0.424141] yes=255,no=256,missing=256
								255:leaf=-0.0413352
								256:leaf=0.0274042
							134:[f7<0.120884] yes=257,no=258,missing=258
								257:leaf=-0.00206467
								258:leaf=-0.0303445
						68:[f4<-0.322118] yes=135,no=136,missing=136
							135:[f9<2.50987] yes=259,no=260,missing=260
								259:leaf=0.0369029
								260:leaf=0.0213264
							136:[f5<-0.0712893] yes=261,no=262,missing=262
								261:leaf=-0.0475722
								262:leaf=0.0146037
					34:[f10<-1.77995] yes=69,no=70,missing=70
						69:[f13<0.0164075] yes=137,no=138,missing=138
							137:leaf=0.0452929
							138:[f10<-1.91626] yes=263,no=264,missing=264
								263:leaf=0.029228
								264:leaf=0.026525
						70:[f1<-0.18083] yes=139,no=140,missing=140
							139:[f2<0.0948747] yes=265,no=266,missing=266
								265:leaf=0.0243085
								266:leaf=-0.0348775
							140:[f7<-0.00386958] yes=267,no=268,missing=268
								267:leaf=-0.000822275
								268:leaf=-0.0242949
			8:[f15<1.22708] yes=17,no=18,missing=18
				17:[f12<-2.22553] yes=35,no=36,missing=36
					35:[f8<-0.00455084] yes=71,no=72,missing=72
						71:[f3<-0.0512332] yes=141,no=142,missing=142
							141:leaf=0.0265259
							142:[f9<0.0179345] yes=269,no=270,missing=270
								269:leaf=-0.177692
								270:leaf=0.288894
						72:[f6<0.00957052] yes=143,no=144,missing=144
							143:[f6<-0.00183743] yes=271,no=272,missing=272
								271:leaf=-0.0996674
								272:leaf=0.344062
							144:leaf=0.0262777
					36:[f6<0.00957052] yes=73,no=74,missing=74
						73:[f6<-0.00875172] yes=145,no=146,missing=146
							145:[f10<-1.81393] yes=273,no=274,missing=274
								273:leaf=0.0272902
								274:leaf=0.0207514
							146:[f4<-0.00846823] yes=275,no=276,missing=276
								275:leaf=0.0144381
								276:leaf=0.204043
						74:[f3<4.51324e-05] yes=147,no=148,missing=148
							147:[f3<2.7768e-07] yes=277,no=278,missing=278
								277:leaf=0.0224559
								278:leaf=0.00576775
							148:[f13<0.0103703] yes=279,no=280,missing=280
								279:leaf=0.00336646
								280:leaf=0.0268499
				18:[f4<0.0105656] yes=37,no=38,missing=38
					37:[f3<0.0449777] yes=75,no=76,missing=76
						75:[f6<-0.00547323] yes=149,no=150,missing=150
							149:[f6<-0.00875172] yes=281,no=282,missing=282
								281:leaf=0.0223998
								282:leaf=0.0747603
							150:[f1<0.00735359] yes=283,no=284,missing=284
								283:leaf=0.243572
								284:leaf=0.0104523
						76:[f1<0.000160722] yes=151,no=152,missing=152
							151:[f8<0.0660398] yes=285,no=286,missing=286
								285:leaf=0.0261841
								286:leaf=0.0211376
							152:[f10<-1.9944] yes=287,no=288,missing=288
								287:leaf=0.0192171
								288:leaf=0.0270172
					38:[f8<-1.11183] yes=77,no=78,missing=78
						77:leaf=0.132206
						78:[f9<0.0238034] yes=153,no=154,missing=154
							153:[f9<-1.12807] yes=289,no=290,missing=290
								289:leaf=-0.00419721
								290:leaf=0.0257805
							154:[f1<0.000160722] yes=291,no=292,missing=292
								291:leaf=0.0238507
								292:leaf=0.00774923
		4:[f15<1.31409] yes=9,no=10,missing=10
			9:[f6<0.00957052] yes=19,no=20,missing=20
				19:[f6<-0.00875172] yes=39,no=40,missing=40
					39:[f6<-0.0126751] yes=79,no=80,missing=80
						79:[f10<-1.81393] yes=155,no=156,missing=156
							155:[f7<0.413151] yes=293,no=294,missing=294
								293:leaf=0.0260712
