booster[0]:
0:[f13<0.267917] yes=1,no=2,missing=1
	1:[f5<3.18858] yes=3,no=4,missing=3
		3:[f5<-0.228173] yes=7,no=8,missing=7
			7:[f5<-2.99898] yes=15,no=16,missing=15
				15:leaf=-0.507504
				16:leaf=-0.360705
			8:[f11<-2.23674] yes=17,no=18,missing=17
				17:leaf=329.399
				18:leaf=65.8127
		4:[f13<0.26448] yes=9,no=10,missing=9
			9:[f5<4.03382] yes=19,no=20,missing=19
				19:leaf=356.25
				20:leaf=529.955
			10:[f4<0.538352] yes=21,no=22,missing=21
				21:leaf=62.0682
				22:leaf=272.862
	2:[f13<0.274936] yes=5,no=6,missing=5
		5:[f5<5.31332] yes=11,no=12,missing=11
			11:[f9<-0.0955045] yes=23,no=24,missing=23
				23:leaf=87.6047
				24:leaf=8.66808
			12:[f11<-2.22802] yes=25,no=26,missing=25
				25:leaf=350.806
				26:leaf=67.5483
		6:[f12<-2.22039] yes=13,no=14,missing=13
			13:[f6<3.82275] yes=27,no=28,missing=27
				27:leaf=1.55106
				28:leaf=43.3935
			14:[f11<-2.22305] yes=29,no=30,missing=29
				29:leaf=6.87452
				30:leaf=-0.491174
booster[1]:
0:[f13<0.267917] yes=1,no=2,missing=1
	1:[f5<3.23854] yes=3,no=4,missing=3
		3:[f5<-0.228173] yes=7,no=8,missing=7
			7:[f5<-2.99898] yes=15,no=16,missing=15
				15:leaf=-0.482145
				16:leaf=-0.343217
			8:[f11<-2.23675] yes=17,no=18,missing=17
				17:leaf=309.374
				18:leaf=56.5676
		4:[f13<0.26448] yes=9,no=10,missing=9
			9:[f5<4.46657] yes=19,no=20,missing=19
				19:leaf=374.738
				20:leaf=517.473
			10:[f3<0.0793204] yes=21,no=22,missing=21
				21:leaf=148.805
				22:leaf=403.904
	2:[f13<0.274936] yes=5,no=6,missing=5
		5:[f5<5.31332] yes=11,no=12,missing=11
			11:[f9<-0.0955045] yes=23,no=24,missing=23
				23:leaf=83.24
				24:leaf=8.23486
			12:[f11<-2.22802] yes=25,no=26,missing=25
				25:leaf=333.647
				26:leaf=64.2513
		6:[f12<-2.22039] yes=13,no=14,missing=13
			13:[f6<3.60103] yes=27,no=28,missing=27
				27:leaf=1.11888
				28:leaf=39.4462
			14:[f11<-2.22305] yes=29,no=30,missing=29
				29:leaf=6.53117
				30:leaf=-0.466615
booster[2]:
0:[f13<0.267917] yes=1,no=2,missing=1
	1:[f5<3.40107] yes=3,no=4,missing=3
		3:[f5<-0.228173] yes=7,no=8,missing=7
			7:[f1<-0.199845] yes=15,no=16,missing=15
				15:leaf=-0.0174661
				16:leaf=-0.456215
			8:[f11<-2.23675] yes=17,no=18,missing=17
				17:leaf=303.357
				18:leaf=55.9683
		4:[f11<-2.23563] yes=9,no=10,missing=9
			9:[f5<4.46657] yes=19,no=20,missing=19
				19:leaf=381.752
				20:leaf=494.621
			10:[f3<0.0633341] yes=21,no=22,missing=21
				21:leaf=155.818
				22:leaf=392.566
	2:[f13<0.274936] yes=5,no=6,missing=5
		5:[f5<5.31332] yes=11,no=12,missing=11
			11:[f9<-0.0955045] yes=23,no=24,missing=23
				23:leaf=79.0928
				24:leaf=7.82329
			12:[f9<-0.0610031] yes=25,no=26,missing=25
				25:leaf=288.833
				26:leaf=13.7186
		6:[f12<-2.21994] yes=13,no=14,missing=13
			13:[f6<3.1139] yes=27,no=28,missing=27
				27:leaf=0.411685
				28:leaf=33.3927
			14:[f13<0.276228] yes=29,no=30,missing=29
				29:leaf=7.97896
				30:leaf=-0.442175
booster[3]:
0:[f13<0.267868] yes=1,no=2,missing=1
	1:[f5<3.40107] yes=3,no=4,missing=3
		3:[f5<-0.228173] yes=7,no=8,missing=7
			7:[f5<-2.99898] yes=15,no=16,missing=15
				15:leaf=-0.435299
				16:leaf=-0.305786
			8:[f11<-2.23675] yes=17,no=18,missing=17
				17:leaf=288.311
				18:leaf=51.5292
		4:[f13<0.26448] yes=9,no=10,missing=9
			9:[f5<4.46657] yes=19,no=20,missing=19
				19:leaf=359.397
				20:leaf=467.467
			10:[f3<-0.104828] yes=21,no=22,missing=21
				21:leaf=385.933
				22:leaf=146.757
	2:[f13<0.274936] yes=5,no=6,missing=5
		5:[f5<5.31332] yes=11,no=12,missing=11
			11:[f9<-0.0955045] yes=23,no=24,missing=23
				23:leaf=74.8846
				24:leaf=7.73439
			12:[f11<-2.22802] yes=25,no=26,missing=25
				25:leaf=307.087
				26:leaf=52.2577
		6:[f12<-2.22059] yes=13,no=14,missing=13
			13:[f6<3.82275] yes=27,no=28,missing=27
				27:leaf=1.34429
				28:leaf=37.6948
			14:[f11<-2.22305] yes=29,no=30,missing=29
				29:leaf=5.96181
				30:leaf=-0.421094
booster[4]:
0:[f13<0.267917] yes=1,no=2,missing=1
	1:[f5<3.40107] yes=3,no=4,missing=3
		3:[f5<-0.228173] yes=7,no=8,missing=7
			7:[f11<-2.23211] yes=15,no=16,missing=15
				15:leaf=-0.412348
				16:leaf=-1.43101
			8:[f11<-2.23675] yes=17,no=18,missing=17
				17:leaf=274.011
				18:leaf=50.6502
		4:[f11<-2.23563] yes=9,no=10,missing=9
			9:[f5<4.46657] yes=19,no=20,missing=19
				19:leaf=344.915
				20:leaf=446.793
			10:[f3<0.0746841] yes=21,no=22,missing=21
				21:leaf=140.541
				22:leaf=378.269
	2:[f13<0.274936] yes=5,no=6,missing=5
		5:[f5<5.33458] yes=11,no=12,missing=11
			11:[f9<-0.0955045] yes=23,no=24,missing=23
				23:leaf=71.4214
				24:leaf=7.18826
			12:[f4<2.94269] yes=25,no=26,missing=25
				25:leaf=-8.42891
				26:leaf=269.756
		6:[f12<-2.21994] yes=13,no=14,missing=13
			13:[f6<4.19005] yes=27,no=28,missing=27
				27:leaf=1.49964
				28:leaf=36.8129
			14:[f13<0.276228] yes=29,no=30,missing=29
				29:leaf=7.28314
				30:leaf=-0.399132
booster[5]:
0:[f13<0.267868] yes=1,no=2,missing=1
	1:[f5<3.40107] yes=3,no=4,missing=3
		3:[f5<-0.228173] yes=7,no=8,missing=7
			7:[f5<-2.99898] yes=15,no=16,missing=15
				15:leaf=-0.392943
				16:leaf=-0.270967
			8:[f11<-2.23675] yes=17,no=18,missing=17
				17:leaf=260.42
				18:leaf=46.4411
		4:[f11<-2.23582] yes=9,no=10,missing=9
			9:[f5<4.46657] yes=19,no=20,missing=19
				19:leaf=333.437
				20:leaf=432.608
			10:[f3<-0.0573032] yes=21,no=22,missing=21
				21:leaf=340.64
				22:leaf=138.913
	2:[f13<0.274936] yes=5,no=6,missing=5
		5:[f9<-0.0582833] yes=11,no=12,missing=11
			11:[f5<2.24395] yes=23,no=24,missing=23
				23:leaf=-14.3243
				24:leaf=179.872
			12:[f9<0.0693159] yes=25,no=26,missing=25
				25:leaf=-0.300279
				26:leaf=71.0199
		6:[f12<-2.22059] yes=13,no=14,missing=13
			13:[f6<3.04293] yes=27,no=28,missing=27
				27:leaf=0.174469
				28:leaf=29.887
			14:[f11<-2.22269] yes=29,no=30,missing=29
				29:leaf=5.0714
				30:leaf=-0.380585
booster[6]:
0:[f11<-2.23337] yes=1,no=2,missing=1
	1:[f5<3.04268] yes=3,no=4,missing=3
		3:[f5<-0.228173] yes=7,no=8,missing=7
			7:[f1<-0.199845] yes=15,no=16,missing=15
				15:leaf=0.0160862
				16:leaf=-0.372027
			8:[f11<-2.23698] yes=17,no=18,missing=17
				17:leaf=209.867
				18:leaf=45.6972
		4:[f11<-2.23586] yes=9,no=10,missing=9
			9:[f5<3.56248] yes=19,no=20,missing=19
				19:leaf=227.498
				20:leaf=372.808
			10:[f3<-0.0571039] yes=21,no=22,missing=21
				21:leaf=343.708
				22:leaf=112.827
	2:[f11<-2.23026] yes=5,no=6,missing=5
		5:[f5<5.11922] yes=11,no=12,missing=11
			11:[f3<-0.353579] yes=23,no=24,missing=23
				23:leaf=210.55
				24:leaf=9.10682
			12:[f3<0.0700228] yes=25,no=26,missing=25
				25:leaf=-28.1244
				26:leaf=408.399
		6:[f13<0.275791] yes=13,no=14,missing=13
			13:[f9<-0.107685] yes=27,no=28,missing=27
				27:leaf=81.8872
				28:leaf=2.31473
			14:[f12<-2.21967] yes=29,no=30,missing=29
				29:leaf=5.44764
				30:leaf=-0.359273
booster[7]:
0:[f11<-2.23337] yes=1,no=2,missing=1
	1:[f5<3.04268] yes=3,no=4,missing=3
		3:[f5<-0.228173] yes=7,no=8,missing=7
			7:[f1<-0.199845] yes=15,no=16,missing=15
				15:leaf=0.01555
				16:leaf=-0.353439
			8:[f11<-2.23698] yes=17,no=18,missing=17
				17:leaf=201.123
				18:leaf=43.5117
		4:[f11<-2.23586] yes=9,no=10,missing=9
			9:[f5<4.03382] yes=19,no=20,missing=19
				19:leaf=246.061
				20:leaf=381.68
			10:[f3<-0.0571039] yes=21,no=22,missing=21
				21:leaf=326.748
				22:leaf=107.201
	2:[f11<-2.23026] yes=5,no=6,missing=5
		5:[f5<5.11922] yes=11,no=12,missing=11
			11:[f3<-0.353579] yes=23,no=24,missing=23
				23:leaf=200.201
				24:leaf=8.65193
			12:[f3<0.0700228] yes=25,no=26,missing=25
				25:leaf=-26.7851
				26:leaf=388.405
		6:[f13<0.275791] yes=13,no=14,missing=13
			13:[f9<-0.107685] yes=27,no=28,missing=27
				27:leaf=77.8068
				28:leaf=2.19905
			14:[f15<0.279069] yes=29,no=30,missing=29
				29:leaf=5.7206
				30:leaf=-0.340768
booster[8]:
0:[f13<0.267917] yes=1,no=2,missing=1
	1:[f5<3.40107] yes=3,no=4,missing=3
		3:[f5<-0.228173] yes=7,no=8,missing=7
			7:[f3<-0.450321] yes=15,no=16,missing=15
				15:leaf=-10.4402
				16:leaf=-0.459394
			8:[f11<-2.23675] yes=17,no=18,missing=17
				17:leaf=224.14
				18:leaf=35.9521
		4:[f13<0.265732] yes=9,no=10,missing=9
			9:[f5<4.97679] yes=19,no=20,missing=19
				19:leaf=258.845
				20:leaf=373.14
			10:[f3<0.0895146] yes=21,no=22,missing=21
				21:leaf=65.1167
				22:leaf=336.36
	2:[f13<0.274936] yes=5,no=6,missing=5
		5:[f5<5.33458] yes=11,no=12,missing=11
			11:[f5<1.17529] yes=23,no=24,missing=23
				23:leaf=-6.30214
				24:leaf=26.9879
			12:[f4<2.94269] yes=25,no=26,missing=25
				25:leaf=-12.1337
				26:leaf=233.946
		6:[f14<0.279274] yes=13,no=14,missing=13
			13:[f4<4.39175] yes=27,no=28,missing=27
				27:leaf=0.519847
				28:leaf=42.3434
			14:[f12<-2.21967] yes=29,no=30,missing=29
				29:leaf=4.91791
				30:leaf=-0.330254
booster[9]:
0:[f11<-2.23337] yes=1,no=2,missing=1
	1:[f5<3.24756] yes=3,no=4,missing=3
		3:[f5<-0.228173] yes=7,no=8,missing=7
			7:[f3<-0.468563] yes=15,no=16,missing=15
				15:leaf=0.25508
				16:leaf=-0.312599
			8:[f13<0.262854] yes=17,no=18,missing=17
				17:leaf=222.575
				18:leaf=46.6171
		4:[f13<0.26448] yes=9,no=10,missing=9
			9:[f5<4.16247] yes=19,no=20,missing=19
				19:leaf=252.393
				20:leaf=345.154
			10:[f4<0.462893] yes=21,no=22,missing=21
				21:leaf=34.7065
				22:leaf=218.505
	2:[f11<-2.23093] yes=5,no=6,missing=5
		5:[f5<5.03396] yes=11,no=12,missing=11
			11:[f3<-0.353579] yes=23,no=24,missing=23
				23:leaf=242.046
				24:leaf=6.47601
			12:[f3<0.0704179] yes=25,no=26,missing=25
				25:leaf=-29.0318
				26:leaf=359.807
		6:[f13<0.275791] yes=13,no=14,missing=13
			13:[f9<-0.105153] yes=27,no=28,missing=27
				27:leaf=72.89
				28:leaf=1.94373
			14:[f14<0.274721] yes=29,no=30,missing=29
				29:leaf=7.2825
				30:leaf=-0.306481
booster[10]:
0:[f11<-2.23337] yes=1,no=2,missing=1
	1:[f5<3.24756] yes=3,no=4,missing=3
		3:[f5<-0.228173] yes=7,no=8,missing=7
			7:[f3<-0.468563] yes=15,no=16,missing=15
				15:leaf=0.246578
				16:leaf=-0.29698
			8:[f11<-2.23577] yes=17,no=18,missing=17
				17:leaf=169.815
				18:leaf=7.68808
		4:[f13<0.264632] yes=9,no=10,missing=9
			9:[f5<4.16247] yes=19,no=20,missing=19
				19:leaf=237.165
				20:leaf=326.27
			10:[f4<0.538352] yes=21,no=22,missing=21
				21:leaf=26.455
				22:leaf=208.499
	2:[f11<-2.23093] yes=5,no=6,missing=5
		5:[f5<5.03396] yes=11,no=12,missing=11
			11:[f3<-0.353579] yes=23,no=24,missing=23
				23:leaf=230.212
				24:leaf=6.15262
			12:[f3<0.0704179] yes=25,no=26,missing=25
				25:leaf=-27.6462
				26:leaf=342.217
		6:[f13<0.276228] yes=13,no=14,missing=13
			13:[f9<-0.105153] yes=27,no=28,missing=27
				27:leaf=65.9072
				28:leaf=1.87841
			14:[f15<0.279069] yes=29,no=30,missing=29
				29:leaf=5.21559
				30:leaf=-0.293732
booster[11]:
0:[f13<0.267917] yes=1,no=2,missing=1
	1:[f5<3.40605] yes=3,no=4,missing=3
		3:[f5<-0.228173] yes=7,no=8,missing=7
			7:[f3<-0.450321] yes=15,no=16,missing=15
				15:leaf=-21.82
				16:leaf=-0.492402
			8:[f11<-2.23675] yes=17,no=18,missing=17
				17:leaf=193.864
				18:leaf=28.7176
		4:[f13<0.265732] yes=9,no=10,missing=9
			9:[f5<4.97679] yes=19,no=20,missing=19
				19:leaf=222.804
				20:leaf=326.194
			10:[f9<-0.0306628] yes=21,no=22,missing=21
				21:leaf=319.204
				22:leaf=55.4659
	2:[f13<0.274936] yes=5,no=6,missing=5
		5:[f5<5.33458] yes=11,no=12,missing=11
			11:[f5<1.17529] yes=23,no=24,missing=23
				23:leaf=-7.08752
				24:leaf=24.411
			12:[f11<-2.22802] yes=25,no=26,missing=25
				25:leaf=243.993
				26:leaf=25.2026
		6:[f14<0.279274] yes=13,no=14,missing=13
			13:[f4<4.23353] yes=27,no=28,missing=27
				27:leaf=0.368718
				28:leaf=39.226
			14:[f12<-2.21967] yes=29,no=30,missing=29
				29:leaf=4.47322
				30:leaf=-0.284296
booster[12]:
0:[f11<-2.23337] yes=1,no=2,missing=1
	1:[f5<3.24756] yes=3,no=4,missing=3
		3:[f5<-0.228173] yes=7,no=8,missing=7
			7:[f3<-0.468563] yes=15,no=16,missing=15
				15:leaf=0.965692
				16:leaf=-0.257538
			8:[f13<0.262767] yes=17,no=18,missing=17
				17:leaf=198.019
				18:leaf=40.4411
		4:[f11<-2.23582] yes=9,no=10,missing=9
			9:[f5<4.46657] yes=19,no=20,missing=19
				19:leaf=226.749
				20:leaf=309.223
			10:[f4<0.164169] yes=21,no=22,missing=21
				21:leaf=33.9766
				22:leaf=187.368
	2:[f11<-2.23093] yes=5,no=6,missing=5
		5:[f5<5.03396] yes=11,no=12,missing=11
			11:[f3<-0.353579] yes=23,no=24,missing=23
				23:leaf=217.462
				24:leaf=5.00721
			12:[f3<0.0704179] yes=25,no=26,missing=25
				25:leaf=-30.4651
				26:leaf=315.59
		6:[f13<0.276228] yes=13,no=14,missing=13
			13:[f9<-0.107685] yes=27,no=28,missing=27
				27:leaf=63.2037
				28:leaf=1.46879
			14:[f14<0.274721] yes=29,no=30,missing=29
				29:leaf=6.70162
				30:leaf=-0.264217
booster[13]:
0:[f13<0.266211] yes=1,no=2,missing=1
	1:[f5<3.04268] yes=3,no=4,missing=3
		3:[f5<-0.228173] yes=7,no=8,missing=7
			7:[f3<-0.47539] yes=15,no=16,missing=15
				15:leaf=0.691306
				16:leaf=-0.245144
			8:[f5<2.99605] yes=17,no=18,missing=17
				17:leaf=211.247
				18:leaf=28.008
		4:[f11<-2.23586] yes=9,no=10,missing=9
			9:[f5<3.56248] yes=19,no=20,missing=19
				19:leaf=160.486
				20:leaf=265.9
			10:[f3<0.0633341] yes=21,no=22,missing=21
				21:leaf=79.1862
				22:leaf=279.744
	2:[f11<-2.23026] yes=5,no=6,missing=5
		5:[f5<5.25659] yes=11,no=12,missing=11
			11:[f3<-0.253003] yes=23,no=24,missing=23
				23:leaf=147.429
				24:leaf=7.00666
			12:[f8<-0.0438545] yes=25,no=26,missing=25
				25:leaf=75.7202
				26:leaf=335.132
		6:[f13<0.276228] yes=13,no=14,missing=13
			13:[f9<-0.117179] yes=27,no=28,missing=27
				27:leaf=61.7823
				28:leaf=1.07137
			14:[f14<0.279274] yes=29,no=30,missing=29
				29:leaf=3.00176
				30:leaf=-0.255066
booster[14]:
0:[f13<0.266211] yes=1,no=2,missing=1
	1:[f5<3.24756] yes=3,no=4,missing=3
		3:[f5<-0.228173] yes=7,no=8,missing=7
			7:[f3<-0.47539] yes=15,no=16,missing=15
				15:leaf=0.674023
				16:leaf=-0.232896
			8:[f11<-2.23577] yes=17,no=18,missing=17
				17:leaf=140.297
				18:leaf=-5.12829
		4:[f13<0.264632] yes=9,no=10,missing=9
			9:[f5<4.16763] yes=19,no=20,missing=19
				19:leaf=194.687
				20:leaf=269.759
			10:[f4<0.0661644] yes=21,no=22,missing=21
				21:leaf=-9.31158
				22:leaf=181.257
	2:[f11<-2.23093] yes=5,no=6,missing=5
		5:[f3<0.0919744] yes=11,no=12,missing=11
			11:[f3<-0.260029] yes=23,no=24,missing=23
				23:leaf=179.003
				24:leaf=-5.4805
			12:[f9<-0.0344192] yes=25,no=26,missing=25
				25:leaf=294.158
				26:leaf=31.9373
		6:[f13<0.275791] yes=13,no=14,missing=13
			13:[f9<-0.0977359] yes=27,no=28,missing=27
				27:leaf=58.6031
				28:leaf=0.920987
			14:[f15<0.279069] yes=29,no=30,missing=29
				29:leaf=4.73713
				30:leaf=-0.239048
booster[15]:
0:[f13<0.267362] yes=1,no=2,missing=1
	1:[f5<3.40605] yes=3,no=4,missing=3
		3:[f5<-0.228173] yes=7,no=8,missing=7
			7:[f3<-0.653075] yes=15,no=16,missing=15
				15:leaf=-34.9887
				16:leaf=-0.453556
			8:[f11<-2.23577] yes=17,no=18,missing=17
				17:leaf=137.22
				18:leaf=-2.92639
		4:[f13<0.265732] yes=9,no=10,missing=9
			9:[f5<4.97679] yes=19,no=20,missing=19
				19:leaf=181.908
				20:leaf=274.575
			10:[f3<-0.128759] yes=21,no=22,missing=21
				21:leaf=282.502
				22:leaf=38.6335
	2:[f11<-2.22578] yes=5,no=6,missing=5
		5:[f5<5.32987] yes=11,no=12,missing=11
			11:[f9<0.0759774] yes=23,no=24,missing=23
				23:leaf=4.05435
				24:leaf=74.7928
			12:[f4<4.41333] yes=25,no=26,missing=25
				25:leaf=22.7347
				26:leaf=229.083
		6:[f11<-2.22269] yes=13,no=14,missing=13
			13:[f9<0.195781] yes=27,no=28,missing=27
				27:leaf=1.24854
				28:leaf=79.0032
			14:[f14<0.274721] yes=29,no=30,missing=29
				29:leaf=6.22887
				30:leaf=-0.228398
booster[16]:
0:[f13<0.268452] yes=1,no=2,missing=1
	1:[f5<3.40605] yes=3,no=4,missing=3
		3:[f5<-0.124747] yes=7,no=8,missing=7
			7:[f3<-0.308394] yes=15,no=16,missing=15
				15:leaf=-42.9779
				16:leaf=-0.805266
			8:[f11<-2.23675] yes=17,no=18,missing=17
				17:leaf=153.352
				18:leaf=14.3189
		4:[f13<0.265732] yes=9,no=10,missing=9
			9:[f5<4.97679] yes=19,no=20,missing=19
				19:leaf=172.84
				20:leaf=260.935
			10:[f3<0.0895146] yes=21,no=22,missing=21
				21:leaf=37.8556
				22:leaf=262.083
	2:[f13<0.274936] yes=5,no=6,missing=5
		5:[f5<5.33458] yes=11,no=12,missing=11
			11:[f9<0.0781101] yes=23,no=24,missing=23
				23:leaf=1.82499
				24:leaf=66.5705
			12:[f4<2.94269] yes=25,no=26,missing=25
				25:leaf=-24.7873
				26:leaf=178.476
		6:[f12<-2.22039] yes=13,no=14,missing=13
			13:[f6<4.59059] yes=27,no=28,missing=27
				27:leaf=0.407879
				28:leaf=37.4917
			14:[f14<0.279274] yes=29,no=30,missing=29
				29:leaf=2.78451
				30:leaf=-0.221516
booster[17]:
0:[f13<0.268452] yes=1,no=2,missing=1
	1:[f5<3.40605] yes=3,no=4,missing=3
		3:[f5<-0.124747] yes=7,no=8,missing=7
			7:[f3<-0.308394] yes=15,no=16,missing=15
				15:leaf=-41.0678
				16:leaf=-0.765026
			8:[f11<-2.23577] yes=17,no=18,missing=17
				17:leaf=124.748
				18:leaf=0.779288
		4:[f13<0.265732] yes=9,no=10,missing=9
			9:[f5<4.97679] yes=19,no=20,missing=19
				19:leaf=164.223
				20:leaf=247.972
			10:[f3<-0.142229] yes=21,no=22,missing=21
				21:leaf=265.895
				22:leaf=35.5019
	2:[f13<0.274999] yes=5,no=6,missing=5
		5:[f9<-0.0952552] yes=11,no=12,missing=11
			11:[f5<2.24395] yes=23,no=24,missing=23
				23:leaf=-41.0497
				24:leaf=181.736
			12:[f9<0.0781101] yes=25,no=26,missing=25
				25:leaf=-2.65086
				26:leaf=61.2096
		6:[f12<-2.21967] yes=13,no=14,missing=13
			13:[f6<4.82502] yes=27,no=28,missing=27
				27:leaf=0.47438
				28:leaf=36.0205
			14:[f14<0.279274] yes=29,no=30,missing=29
				29:leaf=2.64535
				30:leaf=-0.21083
booster[18]:
0:[f11<-2.23422] yes=1,no=2,missing=1
	1:[f5<3.26402] yes=3,no=4,missing=3
		3:[f5<-0.19567] yes=7,no=8,missing=7
			7:[f3<-0.47539] yes=15,no=16,missing=15
				15:leaf=2.76965
				16:leaf=-0.120308
			8:[f13<0.262767] yes=17,no=18,missing=17
				17:leaf=153.204
				18:leaf=33.0088
		4:[f5<4.97679] yes=9,no=10,missing=9
			9:[f11<-2.23582] yes=19,no=20,missing=19
				19:leaf=186.353
				20:leaf=94.0014
			10:[f6<6.41006] yes=21,no=22,missing=21
				21:leaf=245.731
				22:leaf=103.476
	2:[f11<-2.23093] yes=5,no=6,missing=5
		5:[f3<0.0919744] yes=11,no=12,missing=11
			11:[f9<0.0392589] yes=23,no=24,missing=23
				23:leaf=-9.68568
				24:leaf=136.59
			12:[f9<-0.0389993] yes=25,no=26,missing=25
				25:leaf=276.139
				26:leaf=37.1964
		6:[f13<0.276228] yes=13,no=14,missing=13
			13:[f9<-0.120792] yes=27,no=28,missing=27
				27:leaf=53.8916
				28:leaf=0.690622
			14:[f14<0.274721] yes=29,no=30,missing=29
				29:leaf=5.64761
				30:leaf=-0.194933
booster[19]:
0:[f13<0.267362] yes=1,no=2,missing=1
	1:[f5<3.40605] yes=3,no=4,missing=3
		3:[f5<-0.228173] yes=7,no=8,missing=7
			7:[f3<-0.653075] yes=15,no=16,missing=15
				15:leaf=-31.7707
				16:leaf=-0.345504
			8:[f11<-2.23577] yes=17,no=18,missing=17
				17:leaf=112.921
				18:leaf=-4.78452
		4:[f11<-2.23582] yes=9,no=10,missing=9
			9:[f10<8.88414] yes=19,no=20,missing=19
				19:leaf=200.715
				20:leaf=-56.4285
			10:[f3<-0.0571039] yes=21,no=22,missing=21
				21:leaf=218.35
				22:leaf=62.213
	2:[f13<0.271959] yes=5,no=6,missing=5
		5:[f5<5.31332] yes=11,no=12,missing=11
			11:[f3<0.154398] yes=23,no=24,missing=23
				23:leaf=2.92027
				24:leaf=80.7868
			12:[f9<-0.031014] yes=25,no=26,missing=25
				25:leaf=285.87
				26:leaf=-12.5557
		6:[f11<-2.22269] yes=13,no=14,missing=13
			13:[f9<-0.175942] yes=27,no=28,missing=27
				27:leaf=58.3904
				28:leaf=-0.86362
			14:[f15<0.278751] yes=29,no=30,missing=29
				29:leaf=4.26912
				30:leaf=-0.187695
booster[20]:
0:[f11<-2.23422] yes=1,no=2,missing=1
	1:[f5<3.26402] yes=3,no=4,missing=3
		3:[f5<-0.19567] yes=7,no=8,missing=7
			7:[f3<-0.47539] yes=15,no=16,missing=15
				15:leaf=2.70905
				16:leaf=-0.0970351
			8:[f13<0.262767] yes=17,no=18,missing=17
				17:leaf=140.056
				18:leaf=28.5485
		4:[f5<4.97679] yes=9,no=10,missing=9
			9:[f11<-2.23619] yes=19,no=20,missing=19
				19:leaf=174.174
				20:leaf=91.2701
			10:[f6<6.41006] yes=21,no=22,missing=21
				21:leaf=225.643
				22:leaf=91.5673
	2:[f11<-2.23093] yes=5,no=6,missing=5
		5:[f3<0.0919744] yes=11,no=12,missing=11
			11:[f3<-0.260029] yes=23,no=24,missing=23
				23:leaf=155.783
				24:leaf=-7.44713
			12:[f9<-0.0389993] yes=25,no=26,missing=25
				25:leaf=257.87
				26:leaf=33.7693
		6:[f13<0.276228] yes=13,no=14,missing=13
			13:[f9<-0.120792] yes=27,no=28,missing=27
				27:leaf=49.3098
				28:leaf=0.48347
			14:[f14<0.274721] yes=29,no=30,missing=29
				29:leaf=5.37472
				30:leaf=-0.176114
booster[21]:
0:[f11<-2.23422] yes=1,no=2,missing=1
	1:[f5<3.26402] yes=3,no=4,missing=3
		3:[f5<-0.19567] yes=7,no=8,missing=7
			7:[f3<-0.47539] yes=15,no=16,missing=15
				15:leaf=2.64132
				16:leaf=-0.0921871
			8:[f13<0.262767] yes=17,no=18,missing=17
				17:leaf=133.137
				18:leaf=27.1325
		4:[f5<4.80262] yes=9,no=10,missing=9
			9:[f11<-2.23531] yes=19,no=20,missing=19
				19:leaf=146.254
				20:leaf=51.2047
			10:[f9<5.16869e-08] yes=21,no=22,missing=21
				21:leaf=216.392
				22:leaf=132.097
	2:[f13<0.269825] yes=5,no=6,missing=5
		5:[f3<0.116774] yes=11,no=12,missing=11
			11:[f3<-0.253003] yes=23,no=24,missing=23
				23:leaf=116.537
				24:leaf=-2.48699
			12:[f5<3.61773] yes=25,no=26,missing=25
				25:leaf=22.1562
				26:leaf=273.402
		6:[f11<-2.22305] yes=13,no=14,missing=13
			13:[f9<0.0979575] yes=27,no=28,missing=27
				27:leaf=1.3459
				28:leaf=63.6466
			14:[f12<-2.21744] yes=29,no=30,missing=29
				29:leaf=3.12726
				30:leaf=-0.170408
booster[22]:
0:[f11<-2.23422] yes=1,no=2,missing=1
	1:[f5<3.26402] yes=3,no=4,missing=3
		3:[f5<-0.19567] yes=7,no=8,missing=7
			7:[f3<-0.47539] yes=15,no=16,missing=15
				15:leaf=2.57529
				16:leaf=-0.0875813
			8:[f13<0.262767] yes=17,no=18,missing=17
				17:leaf=126.559
				18:leaf=25.7867
		4:[f5<4.97679] yes=9,no=10,missing=9
			9:[f11<-2.23619] yes=19,no=20,missing=19
				19:leaf=157.756
				20:leaf=81.3815
			10:[f6<6.41006] yes=21,no=22,missing=21
				21:leaf=204.934
				22:leaf=78.3264
	2:[f11<-2.23093] yes=5,no=6,missing=5
		5:[f3<0.0919744] yes=11,no=12,missing=11
			11:[f9<0.0392589] yes=23,no=24,missing=23
				23:leaf=-9.82489
				24:leaf=120.872
			12:[f9<0.00498918] yes=25,no=26,missing=25
				25:leaf=196.167
				26:leaf=-9.3267
		6:[f13<0.276228] yes=13,no=14,missing=13
			13:[f9<-0.120792] yes=27,no=28,missing=27
				27:leaf=46.5936
				28:leaf=0.194178
			14:[f14<0.279274] yes=29,no=30,missing=29
				29:leaf=2.43399
				30:leaf=-0.16237
booster[23]:
0:[f11<-2.23422] yes=1,no=2,missing=1
	1:[f5<3.40605] yes=3,no=4,missing=3
		3:[f5<-0.19567] yes=7,no=8,missing=7
			7:[f3<-0.47539] yes=15,no=16,missing=15
				15:leaf=2.51091
				16:leaf=-0.0832055
			8:[f11<-2.23675] yes=17,no=18,missing=17
				17:leaf=109.47
				18:leaf=18.9189
		4:[f3<3.98167e-05] yes=9,no=10,missing=9
			9:[f11<-2.23529] yes=19,no=20,missing=19
				19:leaf=136.205
				20:leaf=24.366
			10:[f10<-2.1465] yes=21,no=22,missing=21
				21:leaf=29.0158
				22:leaf=179.636
	2:[f13<0.269825] yes=5,no=6,missing=5
		5:[f3<0.116774] yes=11,no=12,missing=11
			11:[f3<-0.253003] yes=23,no=24,missing=23
				23:leaf=108.032
				24:leaf=-2.5963
			12:[f5<3.61773] yes=25,no=26,missing=25
				25:leaf=19.4026
				26:leaf=251.848
		6:[f11<-2.22269] yes=13,no=14,missing=13
			13:[f9<0.0981015] yes=27,no=28,missing=27
				27:leaf=0.96385
				28:leaf=59.0962
			14:[f15<0.27838] yes=29,no=30,missing=29
				29:leaf=4.06515
				30:leaf=-0.153291
booster[24]:
0:[f11<-2.23335] yes=1,no=2,missing=1
	1:[f5<3.40605] yes=3,no=4,missing=3
		3:[f5<-0.228173] yes=7,no=8,missing=7
			7:[f3<-0.278352] yes=15,no=16,missing=15
				15:leaf=-12.687
				16:leaf=-0.0715556
			8:[f11<-2.23588] yes=17,no=18,missing=17
				17:leaf=90.0976
				18:leaf=-2.09811
		4:[f11<-2.23582] yes=9,no=10,missing=9
			9:[f10<8.88414] yes=19,no=20,missing=19
				19:leaf=157.249
				20:leaf=-75.5613
			10:[f1<0.0513914] yes=21,no=22,missing=21
				21:leaf=48.2787
				22:leaf=215.338
	2:[f13<0.269825] yes=5,no=6,missing=5
		5:[f5<5.11922] yes=11,no=12,missing=11
			11:[f3<-0.353579] yes=23,no=24,missing=23
				23:leaf=110.391
				24:leaf=0.143027
			12:[f3<0.0700228] yes=25,no=26,missing=25
				25:leaf=-33.7308
				26:leaf=227.471
		6:[f11<-2.22269] yes=13,no=14,missing=13
			13:[f9<0.0981015] yes=27,no=28,missing=27
				27:leaf=0.915674
				28:leaf=56.16
			14:[f14<0.274721] yes=29,no=30,missing=29
				29:leaf=5.00012
				30:leaf=-0.144996
booster[25]:
0:[f11<-2.23422] yes=1,no=2,missing=1
	1:[f5<3.46935] yes=3,no=4,missing=3
		3:[f5<-0.19567] yes=7,no=8,missing=7
			7:[f3<-0.47539] yes=15,no=16,missing=15
				15:leaf=2.76531
				16:leaf=-0.07499
			8:[f11<-2.23675] yes=17,no=18,missing=17
				17:leaf=98.4655
				18:leaf=14.7935
		4:[f3<3.98167e-05] yes=9,no=10,missing=9
			9:[f11<-2.23529] yes=19,no=20,missing=19
				19:leaf=123.931
				20:leaf=18.7715
			10:[f10<-2.1465] yes=21,no=22,missing=21
				21:leaf=22.5305
				22:leaf=167.05
	2:[f11<-2.23093] yes=5,no=6,missing=5
		5:[f3<0.0958951] yes=11,no=12,missing=11
			11:[f9<0.0392589] yes=23,no=24,missing=23
				23:leaf=-9.06048
				24:leaf=106.341
			12:[f9<0.00498918] yes=25,no=26,missing=25
				25:leaf=185.824
				26:leaf=-11.0561
		6:[f13<0.274936] yes=13,no=14,missing=13
			13:[f9<-0.0977359] yes=27,no=28,missing=27
				27:leaf=46.7019
				28:leaf=-1.06185
			14:[f15<0.278751] yes=29,no=30,missing=29
				29:leaf=3.73905
				30:leaf=-0.13621
booster[26]:
0:[f11<-2.23422] yes=1,no=2,missing=1
	1:[f5<3.46935] yes=3,no=4,missing=3
		3:[f5<-0.19567] yes=7,no=8,missing=7
			7:[f3<-0.47539] yes=15,no=16,missing=15
				15:leaf=2.69618
				16:leaf=-0.0712434
			8:[f11<-2.23675] yes=17,no=18,missing=17
				17:leaf=93.5781
				18:leaf=14.0597
		4:[f3<3.98167e-05] yes=9,no=10,missing=9
			9:[f3<-0.00707046] yes=19,no=20,missing=19
				19:leaf=144.705
				20:leaf=54.0485
			10:[f10<-2.1465] yes=21,no=22,missing=21
				21:leaf=21.5064
				22:leaf=158.735
	2:[f11<-2.23093] yes=5,no=6,missing=5
		5:[f3<0.104078] yes=11,no=12,missing=11
			11:[f3<-0.260029] yes=23,no=24,missing=23
				23:leaf=126.747
				24:leaf=-5.50787
			12:[f9<0.00498918] yes=25,no=26,missing=25
				25:leaf=195.497
				26:leaf=-13.7183
		6:[f13<0.273571] yes=13,no=14,missing=13
			13:[f5<5.35338] yes=27,no=28,missing=27
				27:leaf=1.58539
				28:leaf=127.832
			14:[f14<0.279274] yes=29,no=30,missing=29
				29:leaf=2.26825
				30:leaf=-0.130195
booster[27]:
0:[f11<-2.23422] yes=1,no=2,missing=1
	1:[f5<3.46935] yes=3,no=4,missing=3
		3:[f5<-0.19567] yes=7,no=8,missing=7
			7:[f3<-0.47539] yes=15,no=16,missing=15
				15:leaf=2.62877
				16:leaf=-0.067684
			8:[f3<-0.0556148] yes=17,no=18,missing=17
				17:leaf=221.124
				18:leaf=44.0946
		4:[f5<4.97679] yes=9,no=10,missing=9
			9:[f4<0.0423658] yes=19,no=20,missing=19
				19:leaf=36.9171
				20:leaf=116.901
			10:[f12<1.19746] yes=21,no=22,missing=21
				21:leaf=171.338
				22:leaf=93.2895
	2:[f13<0.269825] yes=5,no=6,missing=5
		5:[f5<5.30906] yes=11,no=12,missing=11
			11:[f3<-0.253003] yes=23,no=24,missing=23
				23:leaf=91.2958
				24:leaf=1.99655
			12:[f10<-0.306183] yes=25,no=26,missing=25
				25:leaf=51.1093
				26:leaf=219.96
		6:[f11<-2.22269] yes=13,no=14,missing=13
			13:[f9<0.169987] yes=27,no=28,missing=27
				27:leaf=0.997215
				28:leaf=63.1111
			14:[f12<-2.21744] yes=29,no=30,missing=29
				29:leaf=2.76996
				30:leaf=-0.126612
booster[28]:
0:[f11<-2.23335] yes=1,no=2,missing=1
	1:[f5<3.40605] yes=3,no=4,missing=3
		3:[f5<-0.228173] yes=7,no=8,missing=7
			7:[f3<-0.278352] yes=15,no=16,missing=15
				15:leaf=-17.4486
				16:leaf=-0.0301309
			8:[f3<0.0966464] yes=17,no=18,missing=17
				17:leaf=27.1711
				18:leaf=216.192
		4:[f11<-2.23619] yes=9,no=10,missing=9
			9:[f12<8.73542] yes=19,no=20,missing=19
				19:leaf=134.715
				20:leaf=10.9304
			10:[f3<-0.0561088] yes=21,no=22,missing=21
				21:leaf=174.481
				22:leaf=37.2113
	2:[f13<0.271959] yes=5,no=6,missing=5
		5:[f5<5.3117] yes=11,no=12,missing=11
			11:[f9<0.0602157] yes=23,no=24,missing=23
				23:leaf=-0.116208
				24:leaf=55.6784
			12:[f10<0.357773] yes=25,no=26,missing=25
				25:leaf=20.0559
				26:leaf=234.082
		6:[f11<-2.2278] yes=13,no=14,missing=13
			13:[f9<-0.0822507] yes=27,no=28,missing=27
				27:leaf=-56.4635
				28:leaf=-5.63484
			14:[f13<0.272199] yes=29,no=30,missing=29
				29:leaf=132.791
				30:leaf=-0.109045
booster[29]:
0:[f13<0.265732] yes=1,no=2,missing=1
	1:[f5<3.04268] yes=3,no=4,missing=3
		3:[f9<0.567943] yes=7,no=8,missing=7
			7:[f3<-0.465058] yes=15,no=16,missing=15
				15:leaf=96.6643
				16:leaf=-0.0468489
			8:[f3<0.261467] yes=17,no=18,missing=17
				17:leaf=157.475
				18:leaf=0.0980301
		4:[f5<4.25024] yes=9,no=10,missing=9
			9:[f1<0.0498283] yes=19,no=20,missing=19
				19:leaf=50.2414
				20:leaf=165.055
			10:[f9<-0.010253] yes=21,no=22,missing=21
				21:leaf=174.852
				22:leaf=112.791
	2:[f11<-2.23093] yes=5,no=6,missing=5
		5:[f3<0.0919744] yes=11,no=12,missing=11
			11:[f9<0.0597256] yes=23,no=24,missing=23
				23:leaf=-6.06873
				24:leaf=157.771
			12:[f9<-0.0389993] yes=25,no=26,missing=25
				25:leaf=191.261
				26:leaf=16.7746
		6:[f13<0.276228] yes=13,no=14,missing=13
			13:[f5<1.17529] yes=27,no=28,missing=27
				27:leaf=-10.8182
				28:leaf=15.6099
			14:[f14<0.274721] yes=29,no=30,missing=29
				29:leaf=4.65501
				30:leaf=-0.112368
booster[30]:
0:[f13<0.265732] yes=1,no=2,missing=1
	1:[f5<3.04268] yes=3,no=4,missing=3
		3:[f9<0.567943] yes=7,no=8,missing=7
			7:[f3<-0.465058] yes=15,no=16,missing=15
				15:leaf=93.4421
				16:leaf=-0.0445082
			8:[f3<0.261467] yes=17,no=18,missing=17
				17:leaf=152.225
				18:leaf=0.094354
		4:[f5<4.25024] yes=9,no=10,missing=9
			9:[f3<-0.0392845] yes=19,no=20,missing=19
				19:leaf=143.957
				20:leaf=45.3207
			10:[f9<-0.010253] yes=21,no=22,missing=21
				21:leaf=166.242
				22:leaf=107.181
	2:[f11<-2.23093] yes=5,no=6,missing=5
		5:[f3<0.0919744] yes=11,no=12,missing=11
			11:[f9<0.0597256] yes=23,no=24,missing=23
				23:leaf=-5.76559
				24:leaf=150.035
			12:[f9<-0.0389993] yes=25,no=26,missing=25
				25:leaf=181.841
				26:leaf=15.9436
		6:[f13<0.275791] yes=13,no=14,missing=13
			13:[f9<-0.11982] yes=27,no=28,missing=27
				27:leaf=43.2228
				28:leaf=-1.07455
			14:[f14<0.279274] yes=29,no=30,missing=29
				29:leaf=2.12325
				30:leaf=-0.109175
booster[31]:
0:[f13<0.265732] yes=1,no=2,missing=1
	1:[f5<3.04268] yes=3,no=4,missing=3
		3:[f9<0.567943] yes=7,no=8,missing=7
			7:[f3<-0.465058] yes=15,no=16,missing=15
				15:leaf=90.3274
				16:leaf=-0.0422845
			8:[f3<0.261467] yes=17,no=18,missing=17
				17:leaf=147.151
				18:leaf=0.0908157
		4:[f5<4.25024] yes=9,no=10,missing=9
			9:[f1<0.0498283] yes=19,no=20,missing=19
				19:leaf=44.8127
				20:leaf=152.717
			10:[f9<5.16869e-08] yes=21,no=22,missing=21
				21:leaf=130.965
				22:leaf=75.0504
	2:[f13<0.270401] yes=5,no=6,missing=5
		5:[f5<5.30906] yes=11,no=12,missing=11
			11:[f3<0.23332] yes=23,no=24,missing=23
				23:leaf=2.8705
				24:leaf=132.128
			12:[f10<-0.306183] yes=25,no=26,missing=25
				25:leaf=31.5391
				26:leaf=203.561
		6:[f11<-2.22269] yes=13,no=14,missing=13
			13:[f9<0.125979] yes=27,no=28,missing=27
				27:leaf=-0.120908
				28:leaf=59.1301
			14:[f15<0.27838] yes=29,no=30,missing=29
				29:leaf=3.56612
				30:leaf=-0.103115
booster[32]:
0:[f13<0.265548] yes=1,no=2,missing=1
	1:[f5<3.04268] yes=3,no=4,missing=3
		3:[f9<0.567943] yes=7,no=8,missing=7
			7:[f3<-0.465058] yes=15,no=16,missing=15
				15:leaf=87.3165
				16:leaf=-0.0398
			8:[f3<0.261467] yes=17,no=18,missing=17
				17:leaf=142.246
				18:leaf=0.105312
		4:[f13<0.262767] yes=9,no=10,missing=9
			9:[f5<3.88861] yes=19,no=20,missing=19
				19:leaf=89.9109
				20:leaf=122.127
			10:[f9<-0.00576077] yes=21,no=22,missing=21
				21:leaf=139.386
				22:leaf=35.6055
	2:[f11<-2.23093] yes=5,no=6,missing=5
		5:[f3<-0.260029] yes=11,no=12,missing=11
			11:[f9<0.028591] yes=23,no=24,missing=23
				23:leaf=-54.614
				24:leaf=212.96
			12:[f9<-0.0344192] yes=25,no=26,missing=25
				25:leaf=82.9321
				26:leaf=-8.80898
		6:[f13<0.273571] yes=13,no=14,missing=13
			13:[f5<5.35338] yes=27,no=28,missing=27
				27:leaf=0.733626
				28:leaf=111.86
			14:[f12<-2.21744] yes=29,no=30,missing=29
				29:leaf=2.5511
				30:leaf=-0.0961288
booster[33]:
0:[f13<0.265732] yes=1,no=2,missing=1
	1:[f5<3.26402] yes=3,no=4,missing=3
		3:[f5<-0.19567] yes=7,no=8,missing=7
			7:[f3<-0.47539] yes=15,no=16,missing=15
				15:leaf=-6.19449
				16:leaf=-0.0546181
			8:[f13<0.262767] yes=17,no=18,missing=17
				17:leaf=86.6146
				18:leaf=4.47595
		4:[f5<4.97679] yes=9,no=10,missing=9
			9:[f11<-2.23619] yes=19,no=20,missing=19
				19:leaf=97.7701
				20:leaf=36.183
			10:[f6<6.41006] yes=21,no=22,missing=21
				21:leaf=129.192
				22:leaf=25.2827
	2:[f11<-2.23093] yes=5,no=6,missing=5
		5:[f1<0.109438] yes=11,no=12,missing=11
			11:[f9<-0.0344192] yes=23,no=24,missing=23
				23:leaf=63.3199
				24:leaf=-7.99732
			12:[f5<3.19953] yes=25,no=26,missing=25
				25:leaf=-7.48739
				26:leaf=191.442
		6:[f13<0.273571] yes=13,no=14,missing=13
			13:[f5<5.35338] yes=27,no=28,missing=27
				27:leaf=0.696966
				28:leaf=106.376
			14:[f14<0.274721] yes=29,no=30,missing=29
				29:leaf=4.32581
				30:leaf=-0.0899071
booster[34]:
0:[f13<0.265732] yes=1,no=2,missing=1
	1:[f5<3.46935] yes=3,no=4,missing=3
		3:[f5<-0.19567] yes=7,no=8,missing=7
			7:[f3<-0.47539] yes=15,no=16,missing=15
				15:leaf=-6.03963
				16:leaf=-0.0518893
			8:[f3<-0.0556148] yes=17,no=18,missing=17
				17:leaf=191.828
				18:leaf=29.2837
		4:[f3<3.98167e-05] yes=9,no=10,missing=9
			9:[f11<-2.23529] yes=19,no=20,missing=19
				19:leaf=83.0888
				20:leaf=-13.9373
			10:[f12<0.555188] yes=21,no=22,missing=21
				21:leaf=121.953
				22:leaf=68.6656
	2:[f11<-2.23093] yes=5,no=6,missing=5
		5:[f3<-0.260029] yes=11,no=12,missing=11
			11:[f9<0.028591] yes=23,no=24,missing=23
				23:leaf=-61.502
				24:leaf=200.263
			12:[f9<-0.0344192] yes=25,no=26,missing=25
				25:leaf=77.0664
				26:leaf=-9.0527
		6:[f11<-2.22269] yes=13,no=14,missing=13
			13:[f5<1.17529] yes=27,no=28,missing=27
				27:leaf=-9.59377
				28:leaf=12.7084
			14:[f14<0.279274] yes=29,no=30,missing=29
				29:leaf=1.98029
				30:leaf=-0.0908681
booster[35]:
0:[f13<0.265548] yes=1,no=2,missing=1
	1:[f5<3.04268] yes=3,no=4,missing=3
		3:[f9<0.567943] yes=7,no=8,missing=7
			7:[f3<-0.465058] yes=15,no=16,missing=15
				15:leaf=81.3381
				16:leaf=-0.0771276
			8:[f3<0.261467] yes=17,no=18,missing=17
				17:leaf=133.67
				18:leaf=0.105352
		4:[f13<0.262767] yes=9,no=10,missing=9
			9:[f5<3.88861] yes=19,no=20,missing=19
				19:leaf=79.1036
				20:leaf=105.792
			10:[f1<0.0467052] yes=21,no=22,missing=21
				21:leaf=31.5862
				22:leaf=149.723
	2:[f13<0.270401] yes=5,no=6,missing=5
		5:[f3<0.104078] yes=11,no=12,missing=11
			11:[f9<0.0597256] yes=23,no=24,missing=23
				23:leaf=-4.93905
				24:leaf=103.183
			12:[f5<3.73509] yes=25,no=26,missing=25
				25:leaf=6.71456
				26:leaf=168.594
		6:[f11<-2.22269] yes=13,no=14,missing=13
			13:[f9<0.169987] yes=27,no=28,missing=27
				27:leaf=-0.208197
				28:leaf=60.5448
			14:[f12<-2.21967] yes=29,no=30,missing=29
				29:leaf=2.78916
				30:leaf=-0.0850458
booster[36]:
0:[f13<0.265548] yes=1,no=2,missing=1
	1:[f5<3.04268] yes=3,no=4,missing=3
		3:[f9<0.567943] yes=7,no=8,missing=7
			7:[f3<-0.465058] yes=15,no=16,missing=15
				15:leaf=78.6268
				16:leaf=-0.0732742
			8:[f3<0.261467] yes=17,no=18,missing=17
				17:leaf=129.215
				18:leaf=0.10184
		4:[f1<0.051704] yes=9,no=10,missing=9
			9:[f13<0.26342] yes=19,no=20,missing=19
				19:leaf=83.8912
				20:leaf=21.2787
			10:[f11<-2.23577] yes=21,no=22,missing=21
				21:leaf=102.546
				22:leaf=163.841
	2:[f11<-2.23093] yes=5,no=6,missing=5
		5:[f1<0.109438] yes=11,no=12,missing=11
			11:[f3<0.0919744] yes=23,no=24,missing=23
				23:leaf=-6.61207
				24:leaf=59.8788
			12:[f5<3.19953] yes=25,no=26,missing=25
				25:leaf=-7.10554
				26:leaf=176.081
		6:[f13<0.273571] yes=13,no=14,missing=13
			13:[f5<5.40162] yes=27,no=28,missing=27
				27:leaf=0.602074
				28:leaf=105.607
			14:[f14<0.274721] yes=29,no=30,missing=29
				29:leaf=4.01511
				30:leaf=-0.0774157
booster[37]:
0:[f13<0.265548] yes=1,no=2,missing=1
	1:[f5<3.26402] yes=3,no=4,missing=3
		3:[f5<-0.19567] yes=7,no=8,missing=7
			7:[f3<-0.47539] yes=15,no=16,missing=15
				15:leaf=-9.88776
				16:leaf=-0.0406876
			8:[f3<-0.0556148] yes=17,no=18,missing=17
				17:leaf=177.897
				18:leaf=22.6556
		4:[f9<4.63994e-08] yes=9,no=10,missing=9
			9:[f3<1.84498e-08] yes=19,no=20,missing=19
				19:leaf=14.2243
				20:leaf=102.636
			10:[f9<8.16972e-08] yes=21,no=22,missing=21
				21:leaf=-138.663
				22:leaf=57.9325
	2:[f11<-2.23093] yes=5,no=6,missing=5
		5:[f3<-0.260029] yes=11,no=12,missing=11
			11:[f9<0.028591] yes=23,no=24,missing=23
				23:leaf=-51.8793
				24:leaf=185.898
			12:[f9<-0.0344192] yes=25,no=26,missing=25
				25:leaf=68.7982
				26:leaf=-8.33259
		6:[f11<-2.22463] yes=13,no=14,missing=13
			13:[f9<-0.11982] yes=27,no=28,missing=27
				27:leaf=43.9124
				28:leaf=-1.96208
			14:[f12<-2.22166] yes=29,no=30,missing=29
				29:leaf=3.15553
				30:leaf=-0.0754691
booster[38]:
0:[f13<0.265732] yes=1,no=2,missing=1
	1:[f5<3.46935] yes=3,no=4,missing=3
		3:[f5<-0.19567] yes=7,no=8,missing=7
			7:[f3<-0.47539] yes=15,no=16,missing=15
				15:leaf=-9.64056
				16:leaf=-0.0380493
			8:[f3<0.0966464] yes=17,no=18,missing=17
				17:leaf=20.9387
				18:leaf=192.833
		4:[f3<3.98167e-05] yes=9,no=10,missing=9
			9:[f3<-0.00395628] yes=19,no=20,missing=19
				19:leaf=88.454
				20:leaf=8.39499
			10:[f11<-2.23495] yes=21,no=22,missing=21
				21:leaf=79.3365
				22:leaf=137.326
	2:[f13<0.270401] yes=5,no=6,missing=5
		5:[f5<5.30906] yes=11,no=12,missing=11
			11:[f3<0.239462] yes=23,no=24,missing=23
				23:leaf=1.05635
				24:leaf=118.942
			12:[f10<-0.306183] yes=25,no=26,missing=25
				25:leaf=18.1556
				26:leaf=170.945
		6:[f11<-2.22269] yes=13,no=14,missing=13
			13:[f9<-0.117194] yes=27,no=28,missing=27
				27:leaf=32.66
				28:leaf=-2.17638
			14:[f14<0.279274] yes=29,no=30,missing=29
				29:leaf=1.84577
				30:leaf=-0.0747321
booster[39]:
0:[f13<0.265548] yes=1,no=2,missing=1
	1:[f5<3.26402] yes=3,no=4,missing=3
		3:[f5<-0.19567] yes=7,no=8,missing=7
			7:[f3<-0.47539] yes=15,no=16,missing=15
				15:leaf=-9.39955
				16:leaf=-0.0367538
			8:[f13<0.262767] yes=17,no=18,missing=17
				17:leaf=71.1566
				18:leaf=-1.57161
		4:[f9<4.63994e-08] yes=9,no=10,missing=9
			9:[f9<4.21904e-08] yes=19,no=20,missing=19
				19:leaf=79.4871
				20:leaf=197.232
			10:[f9<8.16972e-08] yes=21,no=22,missing=21
				21:leaf=-132.692
				22:leaf=52.0699
	2:[f13<0.271959] yes=5,no=6,missing=5
		5:[f5<5.32527] yes=11,no=12,missing=11
			11:[f3<0.259556] yes=23,no=24,missing=23
				23:leaf=0.636604
				24:leaf=97.9177
			12:[f8<-0.155693] yes=25,no=26,missing=25
				25:leaf=-64.3059
				26:leaf=154.485
		6:[f11<-2.2278] yes=13,no=14,missing=13
			13:[f9<-0.0822507] yes=27,no=28,missing=27
				27:leaf=-60.3321
				28:leaf=-5.88081
			14:[f13<0.272199] yes=29,no=30,missing=29
				29:leaf=125.726
				30:leaf=-0.0621429
booster[40]:
0:[f13<0.265548] yes=1,no=2,missing=1
	1:[f5<3.46935] yes=3,no=4,missing=3
		3:[f5<-0.19567] yes=7,no=8,missing=7
			7:[f3<-0.47539] yes=15,no=16,missing=15
				15:leaf=-9.16456
				16:leaf=-0.0349176
			8:[f3<0.0966464] yes=17,no=18,missing=17
				17:leaf=21.5127
				18:leaf=183.034
		4:[f10<8.15336] yes=9,no=10,missing=9
			9:[f9<-0.00866996] yes=19,no=20,missing=19
				19:leaf=109.034
				20:leaf=59.0644
			10:[f11<-2.23618] yes=21,no=22,missing=21
				21:leaf=56.2256
				22:leaf=-110.756
	2:[f11<-2.23093] yes=5,no=6,missing=5
		5:[f1<0.109438] yes=11,no=12,missing=11
			11:[f9<-0.0344192] yes=23,no=24,missing=23
				23:leaf=48.8183
				24:leaf=-7.47617
			12:[f5<3.19953] yes=25,no=26,missing=25
				25:leaf=-7.59137
				26:leaf=161.873
		6:[f13<0.273571] yes=13,no=14,missing=13
			13:[f5<5.40162] yes=27,no=28,missing=27
				27:leaf=0.316507
				28:leaf=94.6565
			14:[f12<-2.21744] yes=29,no=30,missing=29
				29:leaf=2.25115
				30:leaf=-0.0650537
booster[41]:
0:[f13<0.264632] yes=1,no=2,missing=1
	1:[f5<3.04268] yes=3,no=4,missing=3
		3:[f5<3.028] yes=7,no=8,missing=7
			7:[f5<1.29748] yes=15,no=16,missing=15
				15:leaf=-0.0333147
				16:leaf=41.7444
			8:[f11<-2.23725] yes=17,no=18,missing=17
				17:leaf=55.6922
				18:leaf=-60.2902
		4:[f13<0.262767] yes=9,no=10,missing=9
			9:[f4<0.0449046] yes=19,no=20,missing=19
				19:leaf=87.0025
				20:leaf=66.1473
			10:[f1<0.0378038] yes=21,no=22,missing=21
				21:leaf=29.0171
				22:leaf=107.593
	2:[f13<0.264771] yes=5,no=6,missing=5
		5:[f5<3.94918] yes=11,no=12,missing=11
			11:[f5<3.54166] yes=23,no=24,missing=23
				23:leaf=-19.7989
				24:leaf=111.603
			12:[f7<0.0701085] yes=25,no=26,missing=25
				25:leaf=-170.959
				26:leaf=38.0962
		6:[f11<-2.23093] yes=13,no=14,missing=13
			13:[f3<0.0569737] yes=27,no=28,missing=27
				27:leaf=-1.42222
				28:leaf=51.8679
			14:[f11<-2.22269] yes=29,no=30,missing=29
				29:leaf=1.87355
				30:leaf=-0.0605237
booster[42]:
0:[f13<0.264632] yes=1,no=2,missing=1
	1:[f5<3.04268] yes=3,no=4,missing=3
		3:[f5<3.028] yes=7,no=8,missing=7
			7:[f5<1.29748] yes=15,no=16,missing=15
				15:leaf=-0.0316505
				16:leaf=39.9553
			8:[f11<-2.23725] yes=17,no=18,missing=17
				17:leaf=53.8358
				18:leaf=-57.6525
		4:[f5<4.03382] yes=9,no=10,missing=9
			9:[f5<4.03257] yes=19,no=20,missing=19
				19:leaf=45.0176
				20:leaf=-206.117
			10:[f7<0.18021] yes=21,no=22,missing=21
				21:leaf=77.8834
				22:leaf=-46.0944
	2:[f13<0.264771] yes=5,no=6,missing=5
		5:[f5<3.94918] yes=11,no=12,missing=11
			11:[f5<3.54166] yes=23,no=24,missing=23
				23:leaf=-18.8456
				24:leaf=106.82
			12:[f7<0.0701085] yes=25,no=26,missing=25
				25:leaf=-162.981
				26:leaf=36.8263
		6:[f11<-2.23093] yes=13,no=14,missing=13
			13:[f3<-0.183764] yes=27,no=28,missing=27
				27:leaf=75.1269
				28:leaf=1.8728
			14:[f13<0.273571] yes=29,no=30,missing=29
				29:leaf=2.49752
				30:leaf=-0.0556179
booster[43]:
0:[f13<0.265548] yes=1,no=2,missing=1
	1:[f5<3.46935] yes=3,no=4,missing=3
		3:[f5<-0.19567] yes=7,no=8,missing=7
			7:[f3<-0.47539] yes=15,no=16,missing=15
				15:leaf=-10.7781
				16:leaf=-0.0674002
			8:[f3<-0.0556148] yes=17,no=18,missing=17
				17:leaf=160.239
				18:leaf=15.8378
		4:[f3<3.98167e-05] yes=9,no=10,missing=9
			9:[f11<-2.23529] yes=19,no=20,missing=19
				19:leaf=55.3544
				20:leaf=-34.5887
			10:[f11<-2.23495] yes=21,no=22,missing=21
				21:leaf=62.1876
				22:leaf=134.475
	2:[f13<0.270401] yes=5,no=6,missing=5
		5:[f3<0.239462] yes=11,no=12,missing=11
			11:[f5<5.30906] yes=23,no=24,missing=23
				23:leaf=-0.0443037
				24:leaf=99.4647
			12:[f5<1.06067] yes=25,no=26,missing=25
				25:leaf=-32.6078
				26:leaf=211.248
		6:[f13<0.270908] yes=13,no=14,missing=13
			13:[f3<-0.726852] yes=27,no=28,missing=27
				27:leaf=114.275
				28:leaf=-8.51988
			14:[f13<0.27091] yes=29,no=30,missing=29
				29:leaf=147.506
				30:leaf=-0.0486666
booster[44]:
0:[f11<-2.23564] yes=1,no=2,missing=1
	1:[f5<3.04268] yes=3,no=4,missing=3
		3:[f5<3.028] yes=7,no=8,missing=7
			7:[f5<1.29748] yes=15,no=16,missing=15
				15:leaf=-0.0267038
				16:leaf=36.5328
			8:[f4<2.39465] yes=17,no=18,missing=17
				17:leaf=51.5133
				18:leaf=-60.3897
		4:[f12<2.49098] yes=9,no=10,missing=9
			9:[f10<8.88414] yes=19,no=20,missing=19
				19:leaf=67.8659
				20:leaf=17.7855
			10:[f13<0.262767] yes=21,no=22,missing=21
				21:leaf=59.0353
				22:leaf=0.499702
	2:[f11<-2.23093] yes=5,no=6,missing=5
		5:[f3<-0.284788] yes=11,no=12,missing=11
			11:[f9<0.0147719] yes=23,no=24,missing=23
				23:leaf=-29.5112
				24:leaf=165.323
			12:[f9<-0.032465] yes=25,no=26,missing=25
				25:leaf=56.166
				26:leaf=-7.5413
		6:[f13<0.269337] yes=13,no=14,missing=13
			13:[f5<5.44372] yes=27,no=28,missing=27
				27:leaf=-15.4077
				28:leaf=139.615
			14:[f11<-2.23057] yes=29,no=30,missing=29
				29:leaf=27.4654
				30:leaf=-0.0456991
booster[45]:
0:[f13<0.264632] yes=1,no=2,missing=1
	1:[f5<3.04268] yes=3,no=4,missing=3
		3:[f5<3.028] yes=7,no=8,missing=7
			7:[f5<1.29748] yes=15,no=16,missing=15
				15:leaf=-0.036824
				16:leaf=34.9671
			8:[f11<-2.23725] yes=17,no=18,missing=17
				17:leaf=49.7962
				18:leaf=-53.8417
		4:[f11<-2.23727] yes=9,no=10,missing=9
			9:[f4<0.0449046] yes=19,no=20,missing=19
				19:leaf=73.8195
				20:leaf=55.216
			10:[f3<-0.00395628] yes=21,no=22,missing=21
				21:leaf=72.8524
				22:leaf=15.1532
	2:[f13<0.264771] yes=5,no=6,missing=5
		5:[f5<3.94918] yes=11,no=12,missing=11
			11:[f5<3.54166] yes=23,no=24,missing=23
				23:leaf=-17.9551
				24:leaf=99.9142
			12:[f1<0.0278993] yes=25,no=26,missing=25
				25:leaf=-148.033
				26:leaf=77.4452
		6:[f11<-2.23093] yes=13,no=14,missing=13
			13:[f5<3.40653] yes=27,no=28,missing=27
				27:leaf=-7.64782
				28:leaf=33.1439
			14:[f11<-2.22269] yes=29,no=30,missing=29
				29:leaf=1.70468
				30:leaf=-0.0499983
booster[46]:
0:[f11<-2.23564] yes=1,no=2,missing=1
	1:[f5<3.04268] yes=3,no=4,missing=3
		3:[f5<3.028] yes=7,no=8,missing=7
			7:[f5<1.29748] yes=15,no=16,missing=15
				15:leaf=-0.0235303
				16:leaf=33.4685
			8:[f4<2.39465] yes=17,no=18,missing=17
				17:leaf=48.1364
				18:leaf=-55.63
		4:[f12<2.49098] yes=9,no=10,missing=9
			9:[f10<8.88414] yes=19,no=20,missing=19
				19:leaf=61.9577
				20:leaf=14.8217
			10:[f13<0.262767] yes=21,no=22,missing=21
				21:leaf=53.0896
				22:leaf=-1.1637
	2:[f13<0.271959] yes=5,no=6,missing=5
		5:[f5<5.32527] yes=11,no=12,missing=11
			11:[f9<0.0403028] yes=23,no=24,missing=23
				23:leaf=-2.78749
				24:leaf=30.1926
			12:[f9<-0.101951] yes=25,no=26,missing=25
				25:leaf=211.247
				26:leaf=59.8985
		6:[f11<-2.2278] yes=13,no=14,missing=13
			13:[f9<-0.0822507] yes=27,no=28,missing=27
				27:leaf=-58.6417
				28:leaf=-5.95691
			14:[f13<0.272199] yes=29,no=30,missing=29
				29:leaf=122.425
				30:leaf=-0.0435556
booster[47]:
0:[f11<-2.23335] yes=1,no=2,missing=1
	1:[f5<3.44712] yes=3,no=4,missing=3
		3:[f3<-0.303824] yes=7,no=8,missing=7
			7:[f3<-0.634833] yes=15,no=16,missing=15
				15:leaf=-18.2058
				16:leaf=158.455
			8:[f3<0.0972476] yes=17,no=18,missing=17
				17:leaf=-0.607675
				18:leaf=26.6983
		4:[f3<-0.0620621] yes=9,no=10,missing=9
			9:[f11<-2.23507] yes=19,no=20,missing=19
				19:leaf=75.7712
				20:leaf=141.01
			10:[f3<0.00524496] yes=21,no=22,missing=21
				21:leaf=8.52334
				22:leaf=78.818
	2:[f11<-2.22714] yes=5,no=6,missing=5
		5:[f5<1.26347] yes=11,no=12,missing=11
			11:[f9<-0.110183] yes=23,no=24,missing=23
				23:leaf=-57.4698
				24:leaf=-5.10549
			12:[f9<-0.0955045] yes=25,no=26,missing=25
				25:leaf=166.678
				26:leaf=5.58148
		6:[f13<0.273058] yes=13,no=14,missing=13
			13:[f9<-0.0984247] yes=27,no=28,missing=27
				27:leaf=-50.5855
				28:leaf=-4.0423
			14:[f13<0.273118] yes=29,no=30,missing=29
				29:leaf=41.5825
				30:leaf=-0.0432427
booster[48]:
0:[f13<0.264228] yes=1,no=2,missing=1
	1:[f5<3.04151] yes=3,no=4,missing=3
		3:[f5<3.028] yes=7,no=8,missing=7
			7:[f5<1.29748] yes=15,no=16,missing=15
				15:leaf=-0.0546457
				16:leaf=32.0602
			8:[f1<-0.00878236] yes=17,no=18,missing=17
				17:leaf=-57.2228
				18:leaf=35.4101
		4:[f12<8.71158] yes=9,no=10,missing=9
			9:[f4<5.8519] yes=19,no=20,missing=19
				19:leaf=53.0342
				20:leaf=1.54107
			10:[f12<9.27926] yes=21,no=22,missing=21
				21:leaf=-89.2673
				22:leaf=27.4134
	2:[f13<0.264244] yes=5,no=6,missing=5
		5:[f4<0.0010013] yes=11,no=12,missing=11
			11:leaf=-207.867
			12:[f3<0.000258346] yes=23,no=24,missing=23
				23:leaf=-0.000645375
				24:leaf=-64.0545
		6:[f13<0.264261] yes=13,no=14,missing=13
			13:[f5<-0.920765] yes=25,no=26,missing=25
				25:leaf=-0.000173116
				26:leaf=104.099
			14:[f11<-2.23093] yes=27,no=28,missing=27
				27:leaf=5.28694
				28:leaf=-0.037555
booster[49]:
0:[f13<0.264228] yes=1,no=2,missing=1
	1:[f5<3.04151] yes=3,no=4,missing=3
		3:[f5<3.028] yes=7,no=8,missing=7
			7:[f5<3.01877] yes=15,no=16,missing=15
				15:leaf=0.0156069
				16:leaf=47.5646
			8:[f1<-0.00878236] yes=17,no=18,missing=17
				17:leaf=-54.9339
				18:leaf=34.5248
		4:[f12<8.71158] yes=9,no=10,missing=9
			9:[f5<4.03382] yes=19,no=20,missing=19
				19:leaf=39.4748
				20:leaf=59.242
			10:[f12<9.27926] yes=21,no=22,missing=21
				21:leaf=-85.2999
				22:leaf=26.0732
	2:[f13<0.264244] yes=5,no=6,missing=5
		5:[f4<0.0010013] yes=11,no=12,missing=11
			11:leaf=-200.938
			12:[f3<0.000258346] yes=23,no=24,missing=23
				23:leaf=-0.000629234
				24:leaf=-61.6525
		6:[f13<0.264261] yes=13,no=14,missing=13
			13:[f5<-0.920765] yes=25,no=26,missing=25
				25:leaf=-0.000168777
				26:leaf=99.545
			14:[f13<0.271959] yes=27,no=28,missing=27
				27:leaf=3.93178
				28:leaf=-0.0385113
booster[50]:
0:[f13<0.264228] yes=1,no=2,missing=1
	1:[f5<3.04151] yes=3,no=4,missing=3
		3:[f5<3.028] yes=7,no=8,missing=7
			7:[f5<3.01877] yes=15,no=16,missing=15
				15:leaf=0.0148273
				16:leaf=45.9791
			8:[f1<-0.00878236] yes=17,no=18,missing=17
				17:leaf=-52.7365
				18:leaf=33.6617
		4:[f12<8.71158] yes=9,no=10,missing=9
			9:[f4<5.8519] yes=19,no=20,missing=19
				19:leaf=47.9803
				20:leaf=-1.02862
			10:[f13<0.262938] yes=21,no=22,missing=21
				21:leaf=38.6811
				22:leaf=-46.6401
	2:[f13<0.264244] yes=5,no=6,missing=5
		5:[f4<0.0010013] yes=11,no=12,missing=11
			11:leaf=-194.24
			12:[f3<0.000258346] yes=23,no=24,missing=23
				23:leaf=-0.000613499
				24:leaf=-59.3405
		6:[f13<0.264261] yes=13,no=14,missing=13
			13:[f5<-0.920765] yes=25,no=26,missing=25
				25:leaf=-0.000164557
				26:leaf=95.1899
			14:[f11<-2.23093] yes=27,no=28,missing=27
				27:leaf=4.82627
				28:leaf=-0.0339976
booster[51]:
0:[f13<0.264228] yes=1,no=2,missing=1
	1:[f5<3.04151] yes=3,no=4,missing=3
		3:[f5<3.028] yes=7,no=8,missing=7
			7:[f5<1.29748] yes=15,no=16,missing=15
				15:leaf=-0.0534363
				16:leaf=29.349
			8:[f1<-0.00878236] yes=17,no=18,missing=17
				17:leaf=-50.6271
				18:leaf=32.8201
		4:[f12<2.49098] yes=9,no=10,missing=9
			9:[f10<8.88414] yes=19,no=20,missing=19
				19:leaf=51.4123
				20:leaf=5.62366
			10:[f13<0.262767] yes=21,no=22,missing=21
				21:leaf=44.62
				22:leaf=-2.48001
	2:[f13<0.264244] yes=5,no=6,missing=5
		5:[f4<0.0010013] yes=11,no=12,missing=11
			11:leaf=-187.765
			12:[f3<0.000258346] yes=23,no=24,missing=23
				23:leaf=-0.000598168
				24:leaf=-57.1152
		6:[f13<0.264261] yes=13,no=14,missing=13
			13:[f5<-0.920765] yes=25,no=26,missing=25
				25:leaf=-0.000160432
				26:leaf=91.0254
			14:[f13<0.271959] yes=27,no=28,missing=27
				27:leaf=3.58964
				28:leaf=-0.0348858
booster[52]:
0:[f13<0.264228] yes=1,no=2,missing=1
	1:[f5<3.04151] yes=3,no=4,missing=3
		3:[f5<3.028] yes=7,no=8,missing=7
			7:[f5<3.01877] yes=15,no=16,missing=15
				15:leaf=0.0112653
				16:leaf=43.4682
			8:[f1<-0.00878236] yes=17,no=18,missing=17
				17:leaf=-48.602
				18:leaf=31.9996
		4:[f12<8.71158] yes=9,no=10,missing=9
			9:[f3<-0.108123] yes=19,no=20,missing=19
				19:leaf=98.5126
				20:leaf=40.0634
			10:[f12<9.27926] yes=21,no=22,missing=21
				21:leaf=-82.7424
				22:leaf=23.2372
	2:[f13<0.264244] yes=5,no=6,missing=5
		5:[f4<0.0010013] yes=11,no=12,missing=11
			11:leaf=-181.506
			12:[f3<0.000258346] yes=23,no=24,missing=23
				23:leaf=-0.00058322
				24:leaf=-54.9734
		6:[f13<0.264261] yes=13,no=14,missing=13
			13:[f5<-0.920765] yes=25,no=26,missing=25
				25:leaf=-0.000156426
				26:leaf=87.043
			14:[f11<-2.23093] yes=27,no=28,missing=27
				27:leaf=4.40572
				28:leaf=-0.0307779
booster[53]:
0:[f13<0.264228] yes=1,no=2,missing=1
	1:[f5<3.04151] yes=3,no=4,missing=3
		3:[f5<3.028] yes=7,no=8,missing=7
			7:[f5<3.01877] yes=15,no=16,missing=15
				15:leaf=0.0107026
				16:leaf=42.0192
			8:[f1<-0.00878236] yes=17,no=18,missing=17
				17:leaf=-46.6579
				18:leaf=31.1996
		4:[f11<-2.23727] yes=9,no=10,missing=9
			9:[f3<0.00155104] yes=19,no=20,missing=19
				19:leaf=52.6441
				20:leaf=34.0493
			10:[f2<4.90379e-07] yes=21,no=22,missing=21
				21:leaf=-0.420944
				22:leaf=50.9355
	2:[f13<0.264244] yes=5,no=6,missing=5
		5:[f4<0.0010013] yes=11,no=12,missing=11
			11:leaf=-175.456
			12:[f3<0.000258346] yes=23,no=24,missing=23
				23:leaf=-0.000568628
				24:leaf=-52.9119
		6:[f13<0.264261] yes=13,no=14,missing=13
			13:[f5<-0.920765] yes=25,no=26,missing=25
				25:leaf=-0.000152516
				26:leaf=83.2349
			14:[f13<0.271959] yes=27,no=28,missing=27
				27:leaf=3.27727
				28:leaf=-0.0316027
booster[54]:
0:[f13<0.264632] yes=1,no=2,missing=1
	1:[f5<3.24756] yes=3,no=4,missing=3
		3:[f5<3.24126] yes=7,no=8,missing=7
			7:[f5<3.04268] yes=15,no=16,missing=15
				15:leaf=-0.169842
				16:leaf=19.2173
			8:leaf=-104.624
		4:[f13<0.264603] yes=9,no=10,missing=9
			9:[f11<-2.23541] yes=17,no=18,missing=17
				17:leaf=36.8671
				18:leaf=-136.065
			10:[f1<0.0304871] yes=19,no=20,missing=19
				19:leaf=164.226
				20:leaf=34.3189
	2:[f13<0.264771] yes=5,no=6,missing=5
		5:[f5<3.94918] yes=11,no=12,missing=11
			11:[f5<3.54166] yes=21,no=22,missing=21
				21:leaf=-18.7149
				22:leaf=91.1837
			12:[f1<0.0278993] yes=23,no=24,missing=23
				23:leaf=-142.872
				24:leaf=74.7327
		6:[f13<0.265419] yes=13,no=14,missing=13
			13:[f5<4.07262] yes=25,no=26,missing=25
				25:leaf=-2.06718
				26:leaf=81.5299
			14:[f11<-2.23458] yes=27,no=28,missing=27
				27:leaf=-86.1378
				28:leaf=-0.0219197
booster[55]:
0:[f13<0.264228] yes=1,no=2,missing=1
	1:[f5<3.04151] yes=3,no=4,missing=3
		3:[f5<3.028] yes=7,no=8,missing=7
			7:[f5<1.29748] yes=15,no=16,missing=15
				15:leaf=-0.0433802
				16:leaf=26.8766
			8:[f1<-0.00878236] yes=17,no=18,missing=17
				17:leaf=-44.7848
				18:leaf=30.4239
		4:[f5<4.03382] yes=9,no=10,missing=9
			9:[f4<6.04383] yes=19,no=20,missing=19
				19:leaf=25.9678
				20:leaf=-207.038
			10:[f7<0.18021] yes=21,no=22,missing=21
				21:leaf=46.7195
				22:leaf=-57.5672
	2:[f13<0.264244] yes=5,no=6,missing=5
		5:[f4<0.0010013] yes=11,no=12,missing=11
			11:leaf=-170.837
			12:[f3<0.000258346] yes=23,no=24,missing=23
				23:leaf=0.00369163
				24:leaf=-50.1003
		6:[f13<0.264261] yes=13,no=14,missing=13
			13:[f5<-0.920765] yes=25,no=26,missing=25
				25:leaf=0.00409734
				26:leaf=77.9804
			14:[f13<0.270401] yes=27,no=28,missing=27
				27:leaf=3.48308
				28:leaf=-0.0278136
booster[56]:
0:[f13<0.264134] yes=1,no=2,missing=1
	1:[f5<3.04151] yes=3,no=4,missing=3
		3:[f1<0.243301] yes=7,no=8,missing=7
			7:[f5<3.02881] yes=15,no=16,missing=15
				15:leaf=-0.0587099
				16:leaf=-21.0708
			8:[f1<0.250078] yes=17,no=18,missing=17
				17:leaf=98.4405
				18:leaf=0.0193271
		4:[f12<8.71158] yes=9,no=10,missing=9
			9:[f10<8.88414] yes=19,no=20,missing=19
				19:leaf=38.4727
				20:leaf=-2.40943
			10:[f11<-2.2364] yes=21,no=22,missing=21
				21:leaf=15.9178
				22:leaf=-121.405
	2:[f11<-2.23581] yes=5,no=6,missing=5
		5:[f4<0.178378] yes=11,no=12,missing=11
			11:[f4<-1.21451] yes=23,no=24,missing=23
				23:leaf=0.00606592
				24:leaf=-180.346
			12:[f5<3.39335] yes=25,no=26,missing=25
				25:leaf=-4.5534
				26:leaf=37.8674
		6:[f13<0.264228] yes=13,no=14,missing=13
			13:[f5<-0.41284] yes=27,no=28,missing=27
				27:leaf=0.0364782
				28:leaf=97.6926
			14:[f13<0.264244] yes=29,no=30,missing=29
				29:leaf=-98.3293
				30:leaf=-0.0175691
booster[57]:
0:[f13<0.267362] yes=1,no=2,missing=1
	1:[f3<-0.276442] yes=3,no=4,missing=3
		3:[f9<-0.071463] yes=7,no=8,missing=7
			7:[f1<0.020828] yes=15,no=16,missing=15
				15:leaf=-50.9405
				16:leaf=-11.0192
			8:[f10<12.4202] yes=17,no=18,missing=17
				17:leaf=127.77
				18:leaf=-59.4952
		4:[f5<4.25024] yes=9,no=10,missing=9
			9:[f1<0.073573] yes=19,no=20,missing=19
				19:leaf=-3.31768
				20:leaf=20.0466
			10:[f1<0.000521522] yes=21,no=22,missing=21
				21:leaf=22.8495
				22:leaf=219.016
	2:[f11<-2.23257] yes=5,no=6,missing=5
		5:[f5<3.45868] yes=11,no=12,missing=11
			11:[f6<2.72696] yes=23,no=24,missing=23
				23:leaf=-14.4684
				24:leaf=-0.574571
			12:[f2<0.0101848] yes=25,no=26,missing=25
				25:leaf=-37.6291
				26:leaf=-108.713
		6:[f13<0.26743] yes=13,no=14,missing=13
			13:[f1<0.0621292] yes=27,no=28,missing=27
				27:leaf=141.82
				28:leaf=1.26399
			14:[f11<-2.22305] yes=29,no=30,missing=29
				29:leaf=1.69837
				30:leaf=-0.0292994
booster[58]:
0:[f11<-2.23564] yes=1,no=2,missing=1
	1:[f5<3.04268] yes=3,no=4,missing=3
		3:[f5<3.028] yes=7,no=8,missing=7
			7:[f5<3.01877] yes=15,no=16,missing=15
				15:leaf=-0.000218002
				16:leaf=39.8409
			8:[f4<2.39465] yes=17,no=18,missing=17
				17:leaf=37.6779
				18:leaf=-40.9645
		4:[f11<-2.23727] yes=9,no=10,missing=9
			9:[f3<0.00167557] yes=19,no=20,missing=19
				19:leaf=44.457
				20:leaf=26.4969
			10:[f4<0.0607534] yes=21,no=22,missing=21
				21:leaf=-25.1112
				22:leaf=33.6546
	2:[f11<-2.23495] yes=5,no=6,missing=5
		5:[f1<0.0522294] yes=11,no=12,missing=11
			11:[f5<3.09064] yes=23,no=24,missing=23
				23:leaf=1.58693
				24:leaf=-60.9351
			12:[f5<0.108948] yes=25,no=26,missing=25
				25:leaf=-1.89677
				26:leaf=128.038
		6:[f13<0.265153] yes=13,no=14,missing=13
			13:[f5<3.37642] yes=27,no=28,missing=27
				27:leaf=-14.274
				28:leaf=155.06
			14:[f13<0.265419] yes=29,no=30,missing=29
				29:leaf=17.1287
				30:leaf=-0.0188133
booster[59]:
0:[f13<0.264632] yes=1,no=2,missing=1
	1:[f5<3.24756] yes=3,no=4,missing=3
		3:[f5<3.24126] yes=7,no=8,missing=7
			7:[f3<-0.325038] yes=15,no=16,missing=15
				15:leaf=102.902
				16:leaf=1.22521
			8:leaf=-100.067
		4:[f13<0.264603] yes=9,no=10,missing=9
			9:[f11<-2.23541] yes=17,no=18,missing=17
				17:leaf=29.9863
				18:leaf=-129.94
			10:[f1<0.0304871] yes=19,no=20,missing=19
				19:leaf=159.565
				20:leaf=30.2563
	2:[f13<0.264771] yes=5,no=6,missing=5
		5:[f5<3.94918] yes=11,no=12,missing=11
			11:[f5<3.54166] yes=21,no=22,missing=21
				21:leaf=-17.4289
				22:leaf=84.2054
			12:[f7<0.0701085] yes=23,no=24,missing=23
				23:leaf=-139.652
				24:leaf=28.1819
		6:[f13<0.265419] yes=13,no=14,missing=13
			13:[f5<4.07262] yes=25,no=26,missing=25
				25:leaf=-2.69079
				26:leaf=74.0359
			14:[f11<-2.2345] yes=27,no=28,missing=27
				27:leaf=-35.6789
				28:leaf=-0.0169164
booster[60]:
0:[f13<0.264134] yes=1,no=2,missing=1
	1:[f5<3.04151] yes=3,no=4,missing=3
		3:[f1<0.243301] yes=7,no=8,missing=7
			7:[f5<3.02881] yes=15,no=16,missing=15
				15:leaf=-0.105457
				16:leaf=-19.2921
			8:[f1<0.250078] yes=17,no=18,missing=17
				17:leaf=95.4477
				18:leaf=-0.96918
		4:[f12<8.71158] yes=9,no=10,missing=9
			9:[f10<8.88414] yes=19,no=20,missing=19
				19:leaf=33.3913
				20:leaf=-4.70115
			10:[f11<-2.2364] yes=21,no=22,missing=21
				21:leaf=13.5699
				22:leaf=-116.707
	2:[f11<-2.23581] yes=5,no=6,missing=5
		5:[f4<0.178378] yes=11,no=12,missing=11
			11:[f4<-1.21451] yes=23,no=24,missing=23
				23:leaf=0.0582313
				24:leaf=-173.494
			12:[f5<3.39335] yes=25,no=26,missing=25
				25:leaf=-4.0651
				26:leaf=34.205
		6:[f13<0.264228] yes=13,no=14,missing=13
			13:[f3<-0.00260094] yes=27,no=28,missing=27
				27:leaf=34.006
				28:leaf=120.244
			14:[f13<0.264244] yes=29,no=30,missing=29
				29:leaf=-93.8424
				30:leaf=-0.0147945
booster[61]:
0:[f11<-2.23093] yes=1,no=2,missing=1
	1:[f3<-0.284788] yes=3,no=4,missing=3
		3:[f9<0.0147719] yes=7,no=8,missing=7
			7:[f11<-2.23321] yes=15,no=16,missing=15
				15:leaf=67.0788
				16:leaf=-76.8757
			8:[f11<-2.23199] yes=17,no=18,missing=17
				17:leaf=121.035
				18:leaf=213.053
		4:[f5<5.03307] yes=9,no=10,missing=9
			9:[f3<0.239462] yes=19,no=20,missing=19
				19:leaf=-1.00157
				20:leaf=71.9097
			10:[f1<0.00356286] yes=21,no=22,missing=21
				21:leaf=31.6107
				22:leaf=220.548
	2:[f13<0.269337] yes=5,no=6,missing=5
		5:[f5<5.44372] yes=11,no=12,missing=11
			11:[f3<-0.281973] yes=23,no=24,missing=23
				23:leaf=-60.3737
				24:leaf=-10.718
			12:leaf=126.988
		6:[f11<-2.23057] yes=13,no=14,missing=13
			13:[f9<0.112733] yes=25,no=26,missing=25
				25:leaf=1.70185
				26:leaf=205.605
			14:[f14<0.274721] yes=27,no=28,missing=27
				27:leaf=3.76698
				28:leaf=-0.0227729
booster[62]:
0:[f13<0.264134] yes=1,no=2,missing=1
	1:[f5<3.04151] yes=3,no=4,missing=3
		3:[f1<0.243301] yes=7,no=8,missing=7
			7:[f5<3.02881] yes=15,no=16,missing=15
				15:leaf=-0.0603838
				16:leaf=-18.4803
			8:[f1<0.250078] yes=17,no=18,missing=17
				17:leaf=93.0866
				18:leaf=-0.877681
		4:[f12<8.71158] yes=9,no=10,missing=9
			9:[f3<-0.128812] yes=19,no=20,missing=19
				19:leaf=95.418
				20:leaf=27.6806
			10:[f11<-2.2364] yes=21,no=22,missing=21
				21:leaf=12.9551
				22:leaf=-111.662
	2:[f11<-2.23581] yes=5,no=6,missing=5
		5:[f4<0.178378] yes=11,no=12,missing=11
			11:[f4<-1.21451] yes=23,no=24,missing=23
				23:leaf=0.0818147
				24:leaf=-166.514
			12:[f5<3.39335] yes=25,no=26,missing=25
				25:leaf=-3.8348
				26:leaf=33.0982
		6:[f13<0.264228] yes=13,no=14,missing=13
			13:[f5<-0.41284] yes=27,no=28,missing=27
				27:leaf=-1.70819
				28:leaf=87.7057
			14:[f13<0.264244] yes=29,no=30,missing=29
				29:leaf=-89.7777
				30:leaf=-0.0138798
booster[63]:
0:[f13<0.263488] yes=1,no=2,missing=1
	1:[f5<1.29748] yes=3,no=4,missing=3
		3:[f1<0.073573] yes=7,no=8,missing=7
			7:[f3<0.0978937] yes=15,no=16,missing=15
				15:leaf=0.17955
				16:leaf=-1.27252
			8:[f3<0.102147] yes=17,no=18,missing=17
				17:leaf=-0.935435
				18:leaf=-2.60313
		4:[f4<2.91324e-07] yes=9,no=10,missing=9
			9:[f8<-0.00767456] yes=19,no=20,missing=19
				19:leaf=21.562
				20:leaf=50.7216
			10:[f9<3.61776e-05] yes=21,no=22,missing=21
				21:leaf=18.017
				22:leaf=35.7378
	2:[f13<0.273571] yes=5,no=6,missing=5
		5:[f5<5.35338] yes=11,no=12,missing=11
			11:[f9<0.0599354] yes=23,no=24,missing=23
				23:leaf=-2.46411
				24:leaf=34.8892
			12:[f4<4.41333] yes=25,no=26,missing=25
				25:leaf=13.661
				26:leaf=138.123
		6:[f13<0.273856] yes=13,no=14,missing=13
			13:[f3<-0.682028] yes=27,no=28,missing=27
				27:leaf=113.851
				28:leaf=-13.1664
			14:[f13<0.273858] yes=29,no=30,missing=29
				29:leaf=133.014
				30:leaf=-0.0213964
booster[64]:
0:[f13<0.264632] yes=1,no=2,missing=1
	1:[f5<3.24756] yes=3,no=4,missing=3
		3:[f5<3.24126] yes=7,no=8,missing=7
			7:[f3<-0.325038] yes=15,no=16,missing=15
				15:leaf=93.659
				16:leaf=0.950889
			8:leaf=-94.5076
		4:[f13<0.264603] yes=9,no=10,missing=9
			9:[f11<-2.23541] yes=17,no=18,missing=17
				17:leaf=24.8029
				18:leaf=-125.492
			10:[f1<0.0304871] yes=19,no=20,missing=19
				19:leaf=152.949
				20:leaf=29.5872
	2:[f13<0.264771] yes=5,no=6,missing=5
		5:[f5<3.94918] yes=11,no=12,missing=11
			11:[f5<3.54166] yes=21,no=22,missing=21
				21:leaf=-16.629
				22:leaf=78.9021
			12:[f1<0.0278993] yes=23,no=24,missing=23
				23:leaf=-127.686
				24:leaf=63.4842
		6:[f13<0.265419] yes=13,no=14,missing=13
			13:[f5<4.07262] yes=25,no=26,missing=25
				25:leaf=-2.67051
				26:leaf=69.5878
			14:[f13<0.265834] yes=27,no=28,missing=27
				27:leaf=-14.4378
				28:leaf=-0.012187
booster[65]:
0:[f13<0.263488] yes=1,no=2,missing=1
	1:[f5<1.29748] yes=3,no=4,missing=3
		3:[f1<0.073573] yes=7,no=8,missing=7
			7:[f3<0.0978937] yes=15,no=16,missing=15
				15:leaf=0.1231
				16:leaf=-1.25686
			8:[f3<0.102147] yes=17,no=18,missing=17
				17:leaf=-0.936201
				18:leaf=-2.54117
		4:[f11<-2.23874] yes=9,no=10,missing=9
			9:[f5<5.04052] yes=19,no=20,missing=19
				19:leaf=32.7523
				20:leaf=44.5487
			10:[f9<3.52655e-05] yes=21,no=22,missing=21
				21:leaf=11.9482
				22:leaf=32.7543
	2:[f13<0.273571] yes=5,no=6,missing=5
		5:[f5<5.35338] yes=11,no=12,missing=11
			11:[f9<0.0599354] yes=23,no=24,missing=23
				23:leaf=-2.36917
				24:leaf=33.1627
			12:[f9<-0.100238] yes=25,no=26,missing=25
				25:leaf=154.297
				26:leaf=27.3607
		6:[f12<-2.22166] yes=13,no=14,missing=13
			13:[f6<2.57159] yes=27,no=28,missing=27
				27:leaf=-3.52674
				28:leaf=23.682
			14:[f14<0.279274] yes=29,no=30,missing=29
				29:leaf=1.7345
				30:leaf=-0.0270406
booster[66]:
0:[f13<0.265732] yes=1,no=2,missing=1
	1:[f5<4.97679] yes=3,no=4,missing=3
		3:[f3<-0.228722] yes=7,no=8,missing=7
			7:[f5<1.26898] yes=15,no=16,missing=15
				15:leaf=-3.76636
				16:leaf=120.646
			8:[f5<4.97503] yes=17,no=18,missing=17
				17:leaf=1.31597
				18:leaf=-173.346
		4:[f11<-2.23495] yes=9,no=10,missing=9
			9:[f11<-2.23501] yes=19,no=20,missing=19
				19:leaf=33.5821
				20:leaf=-183.582
			10:[f6<5.95243] yes=21,no=22,missing=21
				21:leaf=173.683
				22:leaf=-175.706
	2:[f13<0.265834] yes=5,no=6,missing=5
		5:[f3<-0.0960585] yes=11,no=12,missing=11
			11:[f1<0.15806] yes=23,no=24,missing=23
				23:leaf=127.403
				24:leaf=31.1812
			12:[f2<-0.0643973] yes=25,no=26,missing=25
				25:leaf=99.0155
				26:leaf=-62.0846
		6:[f13<0.266203] yes=13,no=14,missing=13
			13:[f5<5.09963] yes=27,no=28,missing=27
				27:leaf=-2.56125
				28:leaf=251.767
			14:[f13<0.266357] yes=29,no=30,missing=29
				29:leaf=-18.2217
				30:leaf=-0.0130922
booster[67]:
0:[f13<0.263488] yes=1,no=2,missing=1
	1:[f5<1.29748] yes=3,no=4,missing=3
		3:[f1<0.073573] yes=7,no=8,missing=7
			7:[f3<0.0978937] yes=15,no=16,missing=15
				15:leaf=0.0518854
				16:leaf=-1.25974
			8:[f3<0.102147] yes=17,no=18,missing=17
				17:leaf=-0.955038
				18:leaf=-2.49522
		4:[f11<-2.23874] yes=9,no=10,missing=9
			9:[f5<5.19715] yes=19,no=20,missing=19
				19:leaf=31.2778
				20:leaf=42.4571
			10:[f9<3.52655e-05] yes=21,no=22,missing=21
				21:leaf=10.8908
				22:leaf=31.0713
	2:[f11<-2.22269] yes=5,no=6,missing=5
		5:[f5<0.00198099] yes=11,no=12,missing=11
			11:[f9<-0.107137] yes=23,no=24,missing=23
				23:leaf=-43.6541
				24:leaf=-3.97229
			12:[f9<-0.097678] yes=25,no=26,missing=25
				25:leaf=96.8299
				26:leaf=2.57821
		6:[f12<-2.21744] yes=13,no=14,missing=13
			13:[f6<5.60495] yes=27,no=28,missing=27
				27:leaf=-0.421152
				28:leaf=33.4367
			14:[f14<0.279274] yes=29,no=30,missing=29
				29:leaf=1.65899
				30:leaf=-0.027511
booster[68]:
0:[f13<0.268521] yes=1,no=2,missing=1
	1:[f3<-0.290009] yes=3,no=4,missing=3
		3:[f9<-0.0768575] yes=7,no=8,missing=7
			7:[f1<-0.0257803] yes=15,no=16,missing=15
				15:leaf=63.1111
				16:leaf=-58.1972
			8:[f5<3.16771] yes=17,no=18,missing=17
				17:leaf=29.2208
				18:leaf=129.153
		4:[f3<0.0909891] yes=9,no=10,missing=9
			9:[f5<5.59372] yes=19,no=20,missing=19
				19:leaf=-1.63784
				20:leaf=199.314
			10:[f9<0.00493666] yes=21,no=22,missing=21
				21:leaf=99.6426
				22:leaf=-12.0199
	2:[f13<0.268561] yes=5,no=6,missing=5
		5:[f6<4.81176] yes=11,no=12,missing=11
			11:[f9<-0.0233196] yes=23,no=24,missing=23
				23:leaf=-23.7052
				24:leaf=-0.264958
			12:[f1<0.0397229] yes=25,no=26,missing=25
				25:leaf=-60.2922
				26:leaf=-12.9962
		6:[f13<0.26859] yes=13,no=14,missing=13
			13:[f4<4.25412] yes=27,no=28,missing=27
				27:leaf=-21.4624
				28:leaf=105.542
			14:[f11<-2.23126] yes=29,no=30,missing=29
				29:leaf=-11.9635
				30:leaf=-0.01463
booster[69]:
0:[f13<0.264632] yes=1,no=2,missing=1
	1:[f5<3.24756] yes=3,no=4,missing=3
		3:[f5<3.24126] yes=7,no=8,missing=7
			7:[f3<-0.325038] yes=15,no=16,missing=15
				15:leaf=83.869
				16:leaf=0.77626
			8:leaf=-90.9594
		4:[f13<0.264603] yes=9,no=10,missing=9
			9:[f11<-2.23541] yes=17,no=18,missing=17
				17:leaf=21.2179
				18:leaf=-121.305
			10:[f1<0.0304871] yes=19,no=20,missing=19
				19:leaf=146.157
				20:leaf=28.8504
	2:[f11<-2.23518] yes=5,no=6,missing=5
		5:[f5<3.94918] yes=11,no=12,missing=11
			11:[f5<3.49436] yes=21,no=22,missing=21
				21:leaf=-14.0562
				22:leaf=93.9105
			12:[f7<0.0701085] yes=23,no=24,missing=23
				23:leaf=-148.141
				24:leaf=26.3097
		6:[f13<0.264918] yes=13,no=14,missing=13
			13:[f5<4.508] yes=25,no=26,missing=25
				25:leaf=15.4914
				26:leaf=137.903
			14:[f13<0.26502] yes=27,no=28,missing=27
				27:leaf=-44.0718
				28:leaf=-0.00886972
booster[70]:
0:[f13<0.263488] yes=1,no=2,missing=1
	1:[f5<1.29748] yes=3,no=4,missing=3
		3:[f1<0.073573] yes=7,no=8,missing=7
			7:[f3<0.094505] yes=15,no=16,missing=15
				15:leaf=0.0987694
				16:leaf=-0.763859
			8:[f3<0.249485] yes=17,no=18,missing=17
				17:leaf=-0.873547
				18:leaf=-2.54816
		4:[f11<-2.23874] yes=9,no=10,missing=9
			9:[f9<-0.0117061] yes=19,no=20,missing=19
				19:leaf=1.51131
				20:leaf=31.7849
			10:[f9<3.52655e-05] yes=21,no=22,missing=21
				21:leaf=9.4922
				22:leaf=28.8648
	2:[f5<5.64771] yes=5,no=6,missing=5
		5:[f13<0.263492] yes=11,no=12,missing=11
			11:leaf=-71.4478
			12:[f5<5.64755] yes=23,no=24,missing=23
				23:leaf=-0.0132135
				24:leaf=-67.4751
		6:[f11<-2.22675] yes=13,no=14,missing=13
			13:[f9<0.000166602] yes=25,no=26,missing=25
				25:leaf=152.997
				26:leaf=-36.8687
			14:[f12<-0.595336] yes=27,no=28,missing=27
				27:leaf=238.785
				28:leaf=-0.688254
booster[71]:
0:[f13<0.263488] yes=1,no=2,missing=1
	1:[f5<1.29748] yes=3,no=4,missing=3
		3:[f1<0.073573] yes=7,no=8,missing=7
			7:[f3<0.094505] yes=15,no=16,missing=15
				15:leaf=0.0938373
				16:leaf=-0.726534
			8:[f3<0.249485] yes=17,no=18,missing=17
				17:leaf=-0.830214
				18:leaf=-2.48445
		4:[f2<6.6436e-09] yes=9,no=10,missing=9
			9:[f3<0.00421722] yes=19,no=20,missing=19
				19:leaf=31.3293
				20:leaf=13.8124
			10:[f2<3.79698e-07] yes=21,no=22,missing=21
				21:leaf=-34.9893
				22:leaf=20.5081
	2:[f13<0.271959] yes=5,no=6,missing=5
		5:[f3<0.142108] yes=11,no=12,missing=11
			11:[f9<0.0324581] yes=23,no=24,missing=23
				23:leaf=-5.6806
				24:leaf=24.2422
			12:[f5<0.00198099] yes=25,no=26,missing=25
				25:leaf=-26.0819
				26:leaf=111.763
		6:[f11<-2.2278] yes=13,no=14,missing=13
			13:[f9<-0.0822507] yes=27,no=28,missing=27
				27:leaf=-59.3381
				28:leaf=-5.74455
			14:[f13<0.272199] yes=29,no=30,missing=29
				29:leaf=112.866
				30:leaf=-0.0145788
booster[72]:
0:[f13<0.264632] yes=1,no=2,missing=1
	1:[f5<4.03382] yes=3,no=4,missing=3
		3:[f5<4.03257] yes=7,no=8,missing=7
			7:[f5<3.24756] yes=15,no=16,missing=15
				15:leaf=0.524001
				16:leaf=14.8664
			8:leaf=-204.058
		4:[f11<-2.2354] yes=9,no=10,missing=9
			9:[f11<-2.23542] yes=17,no=18,missing=17
				17:leaf=25.1748
				18:leaf=-127.116
			10:leaf=162.575
	2:[f11<-2.23518] yes=5,no=6,missing=5
		5:[f5<3.94918] yes=11,no=12,missing=11
			11:[f5<3.49436] yes=19,no=20,missing=19
				19:leaf=-13.2888
				20:leaf=89.4919
			12:[f1<0.0278993] yes=21,no=22,missing=21
				21:leaf=-135.95
				22:leaf=61.3845
		6:[f13<0.264918] yes=13,no=14,missing=13
			13:[f5<4.508] yes=23,no=24,missing=23
				23:leaf=14.6426
				24:leaf=132.684
			14:[f13<0.26502] yes=25,no=26,missing=25
				25:leaf=-41.7721
				26:leaf=-0.00746403
booster[73]:
0:[f11<-2.23422] yes=1,no=2,missing=1
	1:[f5<4.97679] yes=3,no=4,missing=3
		3:[f3<-0.228722] yes=7,no=8,missing=7
			7:[f5<1.26898] yes=15,no=16,missing=15
				15:leaf=-1.42895
				16:leaf=109.163
			8:[f5<4.97503] yes=17,no=18,missing=17
				17:leaf=0.437101
				18:leaf=-168.182
		4:[f11<-2.23495] yes=9,no=10,missing=9
			9:[f11<-2.23501] yes=19,no=20,missing=19
				19:leaf=27.013
				20:leaf=-175.873
			10:[f6<5.95243] yes=21,no=22,missing=21
				21:leaf=159.851
				22:leaf=-168.487
	2:[f13<0.265834] yes=5,no=6,missing=5
		5:[f5<3.92553] yes=11,no=12,missing=11
			11:[f3<-0.13162] yes=23,no=24,missing=23
				23:leaf=98.1475
				24:leaf=-11.7899
			12:leaf=-77.3957
		6:[f13<0.266203] yes=13,no=14,missing=13
			13:[f5<5.09963] yes=25,no=26,missing=25
				25:leaf=-2.88746
				26:leaf=235.312
			14:[f13<0.266357] yes=27,no=28,missing=27
				27:leaf=-17.3508
				28:leaf=-0.00989293
booster[74]:
0:[f13<0.263488] yes=1,no=2,missing=1
	1:[f5<1.29748] yes=3,no=4,missing=3
		3:[f1<0.073573] yes=7,no=8,missing=7
			7:[f3<0.094505] yes=13,no=14,missing=13
				13:leaf=0.0413972
				14:leaf=-0.737996
			8:[f3<0.249485] yes=15,no=16,missing=15
				15:leaf=-0.836707
				16:leaf=-2.44637
		4:[f11<-2.23871] yes=9,no=10,missing=9
			9:[f9<-0.0117061] yes=17,no=18,missing=17
				17:leaf=1.32999
				18:leaf=27.6313
			10:[f9<3.52655e-05] yes=19,no=20,missing=19
				19:leaf=6.72119
				20:leaf=25.703
	2:[f13<0.263492] yes=5,no=6,missing=5
		5:leaf=-69.5436
		6:[f5<5.64771] yes=11,no=12,missing=11
			11:[f5<5.64755] yes=21,no=22,missing=21
				21:leaf=-0.0113907
				22:leaf=-65.7874
			12:[f11<-2.22675] yes=23,no=24,missing=23
				23:leaf=71.1391
				24:leaf=-0.128371
booster[75]:
0:[f13<0.263488] yes=1,no=2,missing=1
	1:[f5<1.29748] yes=3,no=4,missing=3
		3:[f1<0.073573] yes=7,no=8,missing=7
			7:[f3<0.094505] yes=13,no=14,missing=13
				13:leaf=0.03933
				14:leaf=-0.701935
			8:[f3<0.249485] yes=15,no=16,missing=15
				15:leaf=-0.795201
				16:leaf=-2.38521
		4:[f2<7.38277e-13] yes=9,no=10,missing=9
			9:[f13<0.26342] yes=17,no=18,missing=17
				17:leaf=26.5325
				18:leaf=-76.9891
			10:[f11<-2.23659] yes=19,no=20,missing=19
				19:leaf=7.94174
				20:leaf=96.2218
	2:[f13<0.263492] yes=5,no=6,missing=5
		5:leaf=-67.805
		6:[f5<5.64771] yes=11,no=12,missing=11
			11:[f5<5.64755] yes=21,no=22,missing=21
				21:leaf=-0.0108212
				22:leaf=-64.1427
			12:[f11<-2.22675] yes=23,no=24,missing=23
				23:leaf=67.6649
				24:leaf=-0.121959
booster[76]:
0:[f11<-2.23093] yes=1,no=2,missing=1
	1:[f3<-0.284788] yes=3,no=4,missing=3
		3:[f9<0.0282433] yes=7,no=8,missing=7
			7:[f11<-2.23321] yes=15,no=16,missing=15
				15:leaf=61.4966
				16:leaf=-73.4318
			8:[f11<-2.2323] yes=17,no=18,missing=17
				17:leaf=110.376
				18:leaf=192.314
		4:[f9<-0.0299749] yes=9,no=10,missing=9
			9:[f5<3.05459] yes=19,no=20,missing=19
				19:leaf=-8.90774
				20:leaf=98.7085
			10:[f3<-0.142819] yes=21,no=22,missing=21
				21:leaf=85.2424
				22:leaf=-4.35575
	2:[f13<0.269337] yes=5,no=6,missing=5
		5:[f5<5.44372] yes=11,no=12,missing=11
			11:[f3<-0.281973] yes=23,no=24,missing=23
				23:leaf=-57.4181
				24:leaf=-10.2185
			12:leaf=111.702
		6:[f11<-2.23057] yes=13,no=14,missing=13
			13:[f9<0.112733] yes=25,no=26,missing=25
				25:leaf=0.738807
				26:leaf=192.154
			14:[f13<0.269549] yes=27,no=28,missing=27
				27:leaf=-14.7915
				28:leaf=-0.0109806
booster[77]:
0:[f11<-2.23564] yes=1,no=2,missing=1
	1:[f5<3.6391] yes=3,no=4,missing=3
		3:[f3<0.00592877] yes=7,no=8,missing=7
			7:[f3<3.22442e-06] yes=15,no=16,missing=15
				15:leaf=1.94342
				16:leaf=-10.7215
			8:[f5<3.07058] yes=17,no=18,missing=17
				17:leaf=-0.238898
				18:leaf=43.6761
		4:[f10<9.50001] yes=9,no=10,missing=9
			9:[f13<0.264291] yes=19,no=20,missing=19
				19:leaf=17.0466
				20:leaf=87.4897
			10:[f1<-0.00668197] yes=21,no=22,missing=21
				21:leaf=-37.6665
				22:leaf=-147.844
	2:[f11<-2.23495] yes=5,no=6,missing=5
		5:[f1<0.0522294] yes=11,no=12,missing=11
			11:[f5<3.09064] yes=23,no=24,missing=23
				23:leaf=2.96814
				24:leaf=-58.0963
			12:[f5<0.108948] yes=25,no=26,missing=25
				25:leaf=-0.132614
				26:leaf=114.666
		6:[f13<0.265078] yes=13,no=14,missing=13
			13:[f3<0.095238] yes=27,no=28,missing=27
				27:leaf=170.05
				28:leaf=-1.68466
			14:[f13<0.265188] yes=29,no=30,missing=29
				29:leaf=30.8415
				30:leaf=-0.00833592
booster[78]:
0:[f13<0.263488] yes=1,no=2,missing=1
	1:[f5<1.29748] yes=3,no=4,missing=3
		3:[f1<0.073573] yes=7,no=8,missing=7
			7:[f5<-3.00361] yes=13,no=14,missing=13
				13:leaf=0.249278
				14:leaf=-1.90823
			8:[f3<0.249485] yes=15,no=16,missing=15
				15:leaf=-0.592512
				16:leaf=-2.21071
		4:[f11<-2.23877] yes=9,no=10,missing=9
			9:[f9<-0.0117061] yes=17,no=18,missing=17
				17:leaf=-1.27788
				18:leaf=25.2121
			10:[f2<-1.09083e-11] yes=19,no=20,missing=19
				19:leaf=20.1655
				20:leaf=3.27376
	2:[f13<0.263492] yes=5,no=6,missing=5
		5:leaf=-65.733
		6:[f5<5.64771] yes=11,no=12,missing=11
			11:[f5<5.64755] yes=21,no=22,missing=21
				21:leaf=-0.0101582
				22:leaf=-62.5386
			12:[f11<-2.22675] yes=23,no=24,missing=23
				23:leaf=63.7441
				24:leaf=-0.114904
booster[79]:
0:[f13<0.263488] yes=1,no=2,missing=1
	1:[f5<1.29748] yes=3,no=4,missing=3
		3:[f1<0.073573] yes=7,no=8,missing=7
			7:[f5<-3.00361] yes=13,no=14,missing=13
				13:leaf=0.23683
				14:leaf=-1.82645
			8:[f3<0.249485] yes=15,no=16,missing=15
				15:leaf=-0.56312
				16:leaf=-2.15545
		4:[f11<-2.23877] yes=9,no=10,missing=9
			9:[f9<-0.00706392] yes=17,no=18,missing=17
				17:leaf=6.15357
				18:leaf=24.1887
			10:[f9<3.52655e-05] yes=19,no=20,missing=19
				19:leaf=4.59999
				20:leaf=22.4322
	2:[f13<0.263492] yes=5,no=6,missing=5
		5:leaf=-64.0897
		6:[f5<5.04282] yes=11,no=12,missing=11
			11:[f13<0.271717] yes=21,no=22,missing=21
				21:leaf=-1.94641
				22:leaf=-0.00827505
			12:[f11<-2.22965] yes=23,no=24,missing=23
				23:leaf=43.0959
				24:leaf=-0.154875
booster[80]:
0:[f13<0.262938] yes=1,no=2,missing=1
	1:[f5<1.30558] yes=3,no=4,missing=3
		3:[f1<0.073573] yes=7,no=8,missing=7
			7:[f3<-0.189263] yes=13,no=14,missing=13
				13:leaf=-1.35503
				14:leaf=0.224702
			8:[f3<0.249485] yes=15,no=16,missing=15
				15:leaf=-0.532191
				16:leaf=-2.10156
		4:[f4<0.00848712] yes=9,no=10,missing=9
			9:[f11<-2.23721] yes=17,no=18,missing=17
				17:leaf=24.86
				18:leaf=52.7219
			10:[f4<0.0112774] yes=19,no=20,missing=19
				19:leaf=-129.218
				20:leaf=13.5309
	2:[f13<0.262941] yes=5,no=6,missing=5
		5:leaf=-162.816
		6:[f13<0.276564] yes=11,no=12,missing=11
			11:[f3<-0.128759] yes=21,no=22,missing=21
				21:leaf=20.4851
				22:leaf=-2.55742
			12:[f14<0.274721] yes=23,no=24,missing=23
				23:leaf=3.42012
				24:leaf=-0.0144792
booster[81]:
0:[f13<0.265419] yes=1,no=2,missing=1
	1:[f5<4.85989] yes=3,no=4,missing=3
		3:[f3<-0.228722] yes=7,no=8,missing=7
			7:[f5<1.26898] yes=15,no=16,missing=15
				15:leaf=-2.64309
				16:leaf=102.769
			8:[f11<-2.23465] yes=17,no=18,missing=17
				17:leaf=-0.163412
				18:leaf=67.7636
		4:[f11<-2.23495] yes=9,no=10,missing=9
			9:[f11<-2.23502] yes=19,no=20,missing=19
				19:leaf=20.1427
				20:leaf=-179.096
			10:[f3<4.09316e-05] yes=21,no=22,missing=21
				21:leaf=-133.555
				22:leaf=131.897
	2:[f11<-2.2345] yes=5,no=6,missing=5
		5:[f9<-0.0127866] yes=11,no=12,missing=11
			11:leaf=111.924
			12:[f12<1.66255] yes=23,no=24,missing=23
				23:leaf=-144.815
				24:leaf=6.93804
		6:[f13<0.265548] yes=13,no=14,missing=13
			13:[f5<-0.01996] yes=25,no=26,missing=25
				25:leaf=-0.0474366
				26:leaf=131.504
			14:[f13<0.265834] yes=27,no=28,missing=27
				27:leaf=-19.3393
				28:leaf=-0.00535805
booster[82]:
0:[f13<0.264632] yes=1,no=2,missing=1
	1:[f13<0.264603] yes=3,no=4,missing=3
		3:[f5<4.03382] yes=7,no=8,missing=7
			7:[f5<4.03257] yes=15,no=16,missing=15
				15:leaf=1.55945
				16:leaf=-194.789
			8:[f11<-2.23542] yes=17,no=18,missing=17
				17:leaf=18.1968
				18:leaf=-122.778
		4:[f1<0.00841107] yes=9,no=10,missing=9
			9:leaf=137.561
			10:[f1<0.0344649] yes=19,no=20,missing=19
				19:leaf=-6.16011
				20:leaf=21.6845
	2:[f11<-2.23518] yes=5,no=6,missing=5
		5:[f5<3.94918] yes=11,no=12,missing=11
			11:[f5<3.49436] yes=21,no=22,missing=21
				21:leaf=-11.9128
				22:leaf=80.804
			12:[f9<-0.000524976] yes=23,no=24,missing=23
				23:leaf=-206.47
				24:leaf=-75.9811
		6:[f13<0.264918] yes=13,no=14,missing=13
			13:[f5<4.508] yes=25,no=26,missing=25
				25:leaf=12.7588
				26:leaf=125.694
			14:[f13<0.26502] yes=27,no=28,missing=27
				27:leaf=-38.5277
				28:leaf=-0.00468098
booster[83]:
0:[f13<0.263488] yes=1,no=2,missing=1
	1:[f5<1.29748] yes=3,no=4,missing=3
		3:[f1<0.073573] yes=7,no=8,missing=7
			7:[f5<-3.00361] yes=13,no=14,missing=13
				13:leaf=0.146674
				14:leaf=-1.92207
			8:[f3<0.249485] yes=15,no=16,missing=15
				15:leaf=-0.585018
				16:leaf=-2.08392
		4:[f13<0.263422] yes=9,no=10,missing=9
			9:[f13<0.26342] yes=17,no=18,missing=17
				17:leaf=13.2226
				18:leaf=-81.8329
			10:[f1<-0.0206914] yes=19,no=20,missing=19
				19:leaf=-73.342
				20:leaf=90.1355
	2:[f13<0.263492] yes=5,no=6,missing=5
		5:leaf=-62.4584
		6:[f5<5.64771] yes=11,no=12,missing=11
			11:[f5<5.64755] yes=21,no=22,missing=21
				21:leaf=-0.00855347
				22:leaf=-60.9071
			12:[f11<-2.22675] yes=23,no=24,missing=23
				23:leaf=59.2867
				24:leaf=-0.10108
booster[84]:
0:[f13<0.262767] yes=1,no=2,missing=1
	1:[f5<1.30558] yes=3,no=4,missing=3
		3:[f1<0.073573] yes=7,no=8,missing=7
			7:[f3<0.0940175] yes=13,no=14,missing=13
				13:leaf=0.15612
				14:leaf=-0.602982
			8:[f3<0.241487] yes=15,no=16,missing=15
				15:leaf=-0.5467
				16:leaf=-2.03182
		4:[f9<-0.0115064] yes=9,no=10,missing=9
			9:[f5<4.91805] yes=17,no=18,missing=17
				17:leaf=4.88435
				18:leaf=-17.1933
			10:[f7<0.00759223] yes=19,no=20,missing=19
				19:leaf=20.2319
				20:leaf=4.83161
	2:[f11<-2.23723] yes=5,no=6,missing=5
		5:leaf=-126.383
		6:[f5<4.9768] yes=11,no=12,missing=11
			11:[f5<4.97622] yes=21,no=22,missing=21
				21:leaf=-0.0121045
				22:leaf=-37.9712
			12:[f11<-2.22965] yes=23,no=24,missing=23
				23:leaf=29.8193
				24:leaf=-0.212498
booster[85]:
0:[f13<0.262767] yes=1,no=2,missing=1
	1:[f5<1.30558] yes=3,no=4,missing=3
		3:[f1<0.073573] yes=7,no=8,missing=7
			7:[f3<-0.189263] yes=13,no=14,missing=13
				13:leaf=-1.33354
				14:leaf=0.12985
			8:[f3<0.241487] yes=15,no=16,missing=15
				15:leaf=-0.519618
				16:leaf=-1.98103
		4:[f9<-0.0115064] yes=9,no=10,missing=9
			9:[f5<4.91805] yes=17,no=18,missing=17
				17:leaf=4.65297
				18:leaf=-16.4118
			10:[f7<0.0155485] yes=19,no=20,missing=19
				19:leaf=18.7357
				20:leaf=1.23267
	2:[f11<-2.23723] yes=5,no=6,missing=5
		5:leaf=-123.223
		6:[f3<-0.0838351] yes=11,no=12,missing=11
			11:[f11<-2.23164] yes=21,no=22,missing=21
				21:leaf=33.0986
				22:leaf=0.106364
			12:[f11<-2.2323] yes=23,no=24,missing=23
				23:leaf=-5.60257
				24:leaf=-0.0347274
booster[86]:
0:[f13<0.264632] yes=1,no=2,missing=1
	1:[f13<0.264603] yes=3,no=4,missing=3
		3:[f5<4.03382] yes=7,no=8,missing=7
			7:[f5<4.03257] yes=15,no=16,missing=15
				15:leaf=1.20533
				16:leaf=-188.109
			8:[f11<-2.23542] yes=17,no=18,missing=17
				17:leaf=15.7795
				18:leaf=-119.568
		4:[f1<0.00841107] yes=9,no=10,missing=9
			9:leaf=131.598
			10:[f1<0.0344649] yes=19,no=20,missing=19
				19:leaf=-6.83305
				20:leaf=20.3155
	2:[f11<-2.23518] yes=5,no=6,missing=5
		5:[f5<3.94918] yes=11,no=12,missing=11
			11:[f5<3.49436] yes=21,no=22,missing=21
				21:leaf=-11.2753
				22:leaf=76.0663
			12:[f9<-0.000524976] yes=23,no=24,missing=23
				23:leaf=-198.583
				24:leaf=-72.3718
		6:[f13<0.264918] yes=13,no=14,missing=13
			13:[f5<4.508] yes=25,no=26,missing=25
				25:leaf=11.9437
				26:leaf=119.105
			14:[f13<0.26502] yes=27,no=28,missing=27
				27:leaf=-36.6696
				28:leaf=-0.0035749
booster[87]:
0:[f11<-2.23422] yes=1,no=2,missing=1
	1:[f5<4.97679] yes=3,no=4,missing=3
		3:[f3<-0.228722] yes=7,no=8,missing=7
			7:[f5<1.26898] yes=15,no=16,missing=15
				15:leaf=-4.05279
				16:leaf=93.0293
			8:[f3<0.0633341] yes=17,no=18,missing=17
				17:leaf=-2.94406
				18:leaf=19.0154
		4:[f11<-2.23495] yes=9,no=10,missing=9
			9:[f11<-2.23501] yes=19,no=20,missing=19
				19:leaf=16.8732
				20:leaf=-162.112
			10:[f6<5.95243] yes=21,no=22,missing=21
				21:leaf=143.11
				22:leaf=-160.626
	2:[f13<0.265834] yes=5,no=6,missing=5
		5:[f7<-5.47283e-07] yes=11,no=12,missing=11
			11:[f3<-0.125636] yes=23,no=24,missing=23
				23:leaf=90.5414
				24:leaf=-5.19247
			12:[f2<0.0216994] yes=25,no=26,missing=25
				25:leaf=-75.6609
				26:leaf=-13.7071
		6:[f13<0.266211] yes=13,no=14,missing=13
			13:[f5<5.09963] yes=27,no=28,missing=27
				27:leaf=-2.75625
				28:leaf=217.003
			14:[f11<-2.23375] yes=29,no=30,missing=29
				29:leaf=-43.8222
				30:leaf=-0.0056861
booster[88]:
0:[f13<0.262938] yes=1,no=2,missing=1
	1:[f5<1.30558] yes=3,no=4,missing=3
		3:[f3<0.0631523] yes=7,no=8,missing=7
			7:[f1<0.073573] yes=15,no=16,missing=15
				15:leaf=0.227216
				16:leaf=-0.430446
			8:[f3<0.0940175] yes=17,no=18,missing=17
				17:leaf=-0.80265
				18:leaf=-1.59477
		4:[f10<13.0121] yes=9,no=10,missing=9
			9:[f9<-0.0115064] yes=19,no=20,missing=19
				19:leaf=-3.02126
				20:leaf=15.8921
			10:[f6<2.93647] yes=21,no=22,missing=21
				21:leaf=12.51
				22:leaf=-120.099
	2:[f13<0.262944] yes=5,no=6,missing=5
		5:[f1<-0.00920083] yes=11,no=12,missing=11
			11:leaf=-37.8196
			12:leaf=-157.631
		6:[f5<5.33029] yes=13,no=14,missing=13
			13:[f5<5.30323] yes=23,no=24,missing=23
				23:leaf=-0.00603185
				24:leaf=-9.6306
			14:[f11<-2.22802] yes=25,no=26,missing=25
				25:leaf=62.8262
				26:leaf=-0.33349
booster[89]:
0:[f13<0.263252] yes=1,no=2,missing=1
	1:[f5<1.30558] yes=3,no=4,missing=3
		3:[f3<0.0631523] yes=7,no=8,missing=7
			7:[f3<2.47137e-06] yes=15,no=16,missing=15
				15:leaf=-0.0181107
				16:leaf=0.519916
			8:[f3<0.0940175] yes=17,no=18,missing=17
				17:leaf=-0.736356
				18:leaf=-1.50428
		4:[f13<0.263099] yes=9,no=10,missing=9
			9:[f13<0.262938] yes=19,no=20,missing=19
				19:leaf=12.5044
				20:leaf=-41.0271
			10:[f5<3.22955] yes=21,no=22,missing=21
				21:leaf=75.9487
				22:leaf=11.4539
	2:[f13<0.263349] yes=5,no=6,missing=5
		5:[f5<-0.21528] yes=11,no=12,missing=11
			11:[f3<-0.0819471] yes=23,no=24,missing=23
				23:leaf=-1.72627
				24:leaf=0.30798
			12:[f5<3.3991] yes=25,no=26,missing=25
				25:leaf=-102.3
				26:leaf=-1.35325
		6:[f13<0.263442] yes=13,no=14,missing=13
			13:[f1<-0.0278375] yes=27,no=28,missing=27
				27:leaf=-56.074
				28:leaf=48.5601
			14:[f11<-2.23656] yes=29,no=30,missing=29
				29:leaf=-71.3245
				30:leaf=-0.00464159
booster[90]:
0:[f13<0.263252] yes=1,no=2,missing=1
	1:[f5<1.30558] yes=3,no=4,missing=3
		3:[f3<0.0631523] yes=7,no=8,missing=7
			7:[f3<2.47137e-06] yes=15,no=16,missing=15
				15:leaf=-0.0172067
				16:leaf=0.494039
			8:[f3<0.29423] yes=17,no=18,missing=17
				17:leaf=-1.03842
				18:leaf=-2.96472
		4:[f13<0.263099] yes=9,no=10,missing=9
			9:[f13<0.262938] yes=19,no=20,missing=19
				19:leaf=11.8812
				20:leaf=-39.0837
			10:[f5<3.22955] yes=21,no=22,missing=21
				21:leaf=72.5732
				22:leaf=10.9061
	2:[f13<0.263349] yes=5,no=6,missing=5
		5:[f5<-0.21528] yes=11,no=12,missing=11
			11:[f3<-0.0819471] yes=23,no=24,missing=23
				23:leaf=-1.65434
				24:leaf=0.293681
			12:[f5<3.3991] yes=25,no=26,missing=25
				25:leaf=-98.2078
				26:leaf=-1.29173
		6:[f13<0.263442] yes=13,no=14,missing=13
			13:[f1<-0.0278375] yes=27,no=28,missing=27
				27:leaf=-53.5818
				28:leaf=46.2377
			14:[f11<-2.23656] yes=29,no=30,missing=29
				29:leaf=-69.5414
				30:leaf=-0.00440951
booster[91]:
0:[f13<0.264632] yes=1,no=2,missing=1
	1:[f13<0.264603] yes=3,no=4,missing=3
		3:[f11<-2.23541] yes=7,no=8,missing=7
			7:[f5<4.03382] yes=15,no=16,missing=15
				15:leaf=0.647833
				16:leaf=13.3815
			8:[f1<0.000187225] yes=17,no=18,missing=17
				17:leaf=-109.036
				18:leaf=0.180301
		4:[f1<0.00841107] yes=9,no=10,missing=9
			9:leaf=126.254
			10:[f1<0.0344649] yes=19,no=20,missing=19
				19:leaf=-6.58825
				20:leaf=19.8816
	2:[f11<-2.23518] yes=5,no=6,missing=5
		5:[f5<3.94918] yes=11,no=12,missing=11
			11:[f5<3.49436] yes=21,no=22,missing=21
				21:leaf=-10.7969
				22:leaf=71.3369
			12:[f1<0.0278993] yes=23,no=24,missing=23
				23:leaf=-117.314
				24:leaf=61.1221
		6:[f13<0.264918] yes=13,no=14,missing=13
			13:[f5<4.508] yes=25,no=26,missing=25
				25:leaf=11.0526
				26:leaf=113.038
			14:[f13<0.26502] yes=27,no=28,missing=27
				27:leaf=-34.7721
				28:leaf=-0.00263882
booster[92]:
0:[f11<-2.23309] yes=1,no=2,missing=1
	1:[f3<-0.223247] yes=3,no=4,missing=3
		3:[f9<-0.051473] yes=7,no=8,missing=7
			7:[f11<-2.23496] yes=15,no=16,missing=15
				15:leaf=-1.49661
				16:leaf=-34.2774
			8:[f6<3.63821] yes=17,no=18,missing=17
				17:leaf=107.673
				18:leaf=70.424
		4:[f3<0.0804055] yes=9,no=10,missing=9
			9:[f1<0.0519546] yes=19,no=20,missing=19
				19:leaf=-6.26841
				20:leaf=18.1589
			10:[f5<-0.291211] yes=21,no=22,missing=21
				21:leaf=-5.19796
				22:leaf=82.4002
	2:[f13<0.266962] yes=5,no=6,missing=5
		5:[f5<-0.29155] yes=11,no=12,missing=11
			11:[f2<0.10314] yes=23,no=24,missing=23
				23:leaf=-13.1904
				24:leaf=2.32551
			12:[f8<-0.000725976] yes=25,no=26,missing=25
				25:leaf=-29.1122
				26:leaf=-64.6863
		6:[f11<-2.23285] yes=13,no=14,missing=13
			13:[f3<0.117517] yes=27,no=28,missing=27
				27:leaf=-3.36332
				28:leaf=89.0713
			14:[f11<-2.2323] yes=29,no=30,missing=29
				29:leaf=-9.04619
				30:leaf=-0.00385486
booster[93]:
0:[f13<0.263252] yes=1,no=2,missing=1
	1:[f5<1.30558] yes=3,no=4,missing=3
		3:[f1<0.0504215] yes=7,no=8,missing=7
			7:[f3<0.0631523] yes=15,no=16,missing=15
				15:leaf=0.486105
				16:leaf=-0.772008
			8:[f1<0.072791] yes=17,no=18,missing=17
				17:leaf=-0.698791
				18:leaf=-1.39213
		4:[f2<6.6436e-09] yes=9,no=10,missing=9
			9:[f5<3.24434] yes=19,no=20,missing=19
				19:leaf=32.6545
				20:leaf=10.7527
			10:[f2<2.87968e-07] yes=21,no=22,missing=21
				21:leaf=-42.1316
				22:leaf=10.9264
	2:[f13<0.263349] yes=5,no=6,missing=5
		5:[f5<-0.21528] yes=11,no=12,missing=11
			11:[f3<-0.111498] yes=23,no=24,missing=23
				23:leaf=-1.7753
				24:leaf=0.0481925
			12:[f5<3.3991] yes=25,no=26,missing=25
				25:leaf=-94.0547
				26:leaf=-2.18876
		6:[f13<0.263442] yes=13,no=14,missing=13
			13:[f1<-0.0278375] yes=27,no=28,missing=27
				27:leaf=-51.5258
				28:leaf=43.9973
			14:[f11<-2.23656] yes=29,no=30,missing=29
				29:leaf=-67.6623
				30:leaf=-0.00413963
booster[94]:
0:[f13<0.262767] yes=1,no=2,missing=1
	1:[f5<1.30558] yes=3,no=4,missing=3
		3:[f1<0.0504215] yes=7,no=8,missing=7
			7:[f3<0.0631523] yes=13,no=14,missing=13
				13:leaf=0.46629
				14:leaf=-0.800681
			8:[f1<0.073573] yes=15,no=16,missing=15
				15:leaf=-0.726184
				16:leaf=-1.28268
		4:[f9<-0.0118653] yes=9,no=10,missing=9
			9:[f5<4.35351] yes=17,no=18,missing=17
				17:leaf=8.05797
				18:leaf=-14.9428
			10:[f7<0.00759223] yes=19,no=20,missing=19
				19:leaf=15.257
				20:leaf=0.801968
	2:[f11<-2.23723] yes=5,no=6,missing=5
		5:leaf=-117.839
		6:[f12<-2.22166] yes=11,no=12,missing=11
			11:[f6<2.17229] yes=21,no=22,missing=21
				21:leaf=-3.58348
				22:leaf=21.2597
			12:[f3<-0.0838351] yes=23,no=24,missing=23
				23:leaf=0.151061
				24:leaf=-0.043929
booster[95]:
0:[f13<0.263252] yes=1,no=2,missing=1
	1:[f5<1.30558] yes=3,no=4,missing=3
		3:[f1<0.0504215] yes=7,no=8,missing=7
			7:[f3<0.0631523] yes=15,no=16,missing=15
				15:leaf=0.440173
				16:leaf=-0.69867
			8:[f1<0.072791] yes=17,no=18,missing=17
				17:leaf=-0.632158
				18:leaf=-1.26708
		4:[f13<0.263099] yes=9,no=10,missing=9
			9:[f13<0.262938] yes=19,no=20,missing=19
				19:leaf=10.1132
				20:leaf=-37.3113
			10:[f5<3.22955] yes=21,no=22,missing=21
				21:leaf=68.631
				22:leaf=9.84117
	2:[f13<0.263349] yes=5,no=6,missing=5
		5:[f5<-0.21528] yes=11,no=12,missing=11
			11:[f3<-0.111498] yes=23,no=24,missing=23
				23:leaf=-1.71033
				24:leaf=0.0473435
			12:[f5<3.3991] yes=25,no=26,missing=25
				25:leaf=-90.2907
				26:leaf=-2.08817
		6:[f13<0.263442] yes=13,no=14,missing=13
			13:[f1<-0.0278375] yes=27,no=28,missing=27
				27:leaf=-49.2339
				28:leaf=41.8943
			14:[f11<-2.23656] yes=29,no=30,missing=29
				29:leaf=-65.9697
				30:leaf=-0.00375319
booster[96]:
0:[f13<0.262767] yes=1,no=2,missing=1
	1:[f5<1.30558] yes=3,no=4,missing=3
		3:[f1<0.0504215] yes=7,no=8,missing=7
			7:[f3<0.0631523] yes=13,no=14,missing=13
				13:leaf=0.421039
				14:leaf=-0.726885
			8:[f1<0.073573] yes=15,no=16,missing=15
				15:leaf=-0.659128
				16:leaf=-1.15636
		4:[f9<-0.0118653] yes=9,no=10,missing=9
			9:[f5<4.35351] yes=17,no=18,missing=17
				17:leaf=7.24026
				18:leaf=-14.7141
			10:[f7<0.0155485] yes=19,no=20,missing=19
				19:leaf=13.5467
				20:leaf=-2.96816
	2:[f11<-2.23723] yes=5,no=6,missing=5
		5:leaf=-115.146
		6:[f5<5.05195] yes=11,no=12,missing=11
			11:[f13<0.271717] yes=21,no=22,missing=21
				21:leaf=-1.77423
				22:leaf=-0.00347623
			12:[f11<-2.22965] yes=23,no=24,missing=23
				23:leaf=37.6477
				24:leaf=-0.12294
booster[97]:
0:[f13<0.265419] yes=1,no=2,missing=1
	1:[f13<0.265404] yes=3,no=4,missing=3
		3:[f1<0.0519546] yes=7,no=8,missing=7
			7:[f5<4.85989] yes=15,no=16,missing=15
				15:leaf=-2.41597
				16:leaf=15.9358
			8:[f5<0.108948] yes=17,no=18,missing=17
				17:leaf=-1.2312
				18:leaf=74.7287
		4:[f1<0.0593914] yes=9,no=10,missing=9
			9:leaf=154.071
			10:leaf=-5.29473
	2:[f11<-2.2345] yes=5,no=6,missing=5
		5:[f9<-0.0127866] yes=11,no=12,missing=11
			11:leaf=101.464
			12:[f12<1.66255] yes=19,no=20,missing=19
				19:leaf=-137.03
				20:leaf=4.07018
		6:[f13<0.265548] yes=13,no=14,missing=13
			13:[f5<-0.01996] yes=21,no=22,missing=21
				21:leaf=0.0808999
				22:leaf=118.205
			14:[f13<0.265834] yes=23,no=24,missing=23
				23:leaf=-18.7644
				24:leaf=-0.00185403
booster[98]:
0:[f13<0.263252] yes=1,no=2,missing=1
	1:[f5<1.30558] yes=3,no=4,missing=3
		3:[f1<0.0522563] yes=7,no=8,missing=7
			7:[f3<0.0631523] yes=15,no=16,missing=15
				15:leaf=0.520939
				16:leaf=-0.503443
			8:[f1<0.072791] yes=17,no=18,missing=17
				17:leaf=-0.524003
				18:leaf=-1.08254
		4:[f13<0.263099] yes=9,no=10,missing=9
			9:[f13<0.262938] yes=19,no=20,missing=19
				19:leaf=8.91017
				20:leaf=-35.6934
			10:[f5<3.22955] yes=21,no=22,missing=21
				21:leaf=65.767
				22:leaf=9.15794
	2:[f13<0.263349] yes=5,no=6,missing=5
		5:[f5<-0.21528] yes=11,no=12,missing=11
			11:[f13<0.263301] yes=23,no=24,missing=23
				23:leaf=0.534743
				24:leaf=-0.946426
			12:[f5<3.3991] yes=25,no=26,missing=25
				25:leaf=-86.5115
				26:leaf=-3.10347
		6:[f13<0.26335] yes=13,no=14,missing=13
			13:[f1<0.000468652] yes=27,no=28,missing=27
				27:leaf=-4.524
				28:leaf=81.6888
			14:[f14<0.274721] yes=29,no=30,missing=29
				29:leaf=3.25651
				30:leaf=-0.004919
booster[99]:
0:[f13<0.263252] yes=1,no=2,missing=1
	1:[f5<1.30558] yes=3,no=4,missing=3
		3:[f1<0.0504215] yes=7,no=8,missing=7
			7:[f3<0.0631523] yes=15,no=16,missing=15
				15:leaf=0.49943
				16:leaf=-0.47862
			8:[f1<0.072791] yes=17,no=18,missing=17
				17:leaf=-0.477641
				18:leaf=-1.02885
		4:[f13<0.263099] yes=9,no=10,missing=9
			9:[f13<0.262938] yes=19,no=20,missing=19
				19:leaf=8.46612
				20:leaf=-34.0026
			10:[f5<3.22955] yes=21,no=22,missing=21
				21:leaf=62.844
				22:leaf=8.71995
	2:[f13<0.263349] yes=5,no=6,missing=5
		5:[f5<-0.21528] yes=11,no=12,missing=11
			11:[f3<-0.111498] yes=23,no=24,missing=23
				23:leaf=-1.4483
				24:leaf=0.220662
			12:[f5<3.3991] yes=25,no=26,missing=25
				25:leaf=-83.051
				26:leaf=-2.9624
		6:[f13<0.263442] yes=13,no=14,missing=13
			13:[f1<-0.0278375] yes=27,no=28,missing=27
				27:leaf=-46.9612
				28:leaf=39.4152
			14:[f11<-2.23656] yes=29,no=30,missing=29
				29:leaf=-64.2156
				30:leaf=-0.00323109
booster[100]:
0:[f11<-2.22269] yes=1,no=2,missing=1
	1:[f1<0.129804] yes=3,no=4,missing=3
		3:[f9<-0.032437] yes=7,no=8,missing=7
			7:[f5<1.25082] yes=15,no=16,missing=15
				15:leaf=-19.634
				16:leaf=45.5547
			8:[f3<-0.142819] yes=17,no=18,missing=17
				17:leaf=35.9222
				18:leaf=-5.36198
		4:[f5<2.16937] yes=9,no=10,missing=9
			9:[f9<-0.119039] yes=19,no=20,missing=19
				19:leaf=-42.7483
				20:leaf=-6.32958
			10:[f9<-0.137601] yes=21,no=22,missing=21
				21:leaf=171.162
				22:leaf=44.0918
	2:[f12<-2.21744] yes=5,no=6,missing=5
		5:[f6<5.60495] yes=11,no=12,missing=11
			11:[f6<1.90752] yes=23,no=24,missing=23
				23:leaf=-2.63913
				24:leaf=6.89161
			12:[f1<0.000823693] yes=25,no=26,missing=25
				25:leaf=21.5999
				26:leaf=39.7474
		6:[f14<0.279274] yes=13,no=14,missing=13
			13:[f4<4.43817] yes=27,no=28,missing=27
				27:leaf=-1.07678
				28:leaf=37.0137
			14:[f3<-0.201078] yes=29,no=30,missing=29
				29:leaf=0.0475685
				30:leaf=-0.0221523
booster[101]:
0:[f13<0.263252] yes=1,no=2,missing=1
	1:[f5<1.30558] yes=3,no=4,missing=3
		3:[f1<0.0504215] yes=7,no=8,missing=7
			7:[f3<0.0940175] yes=15,no=16,missing=15
				15:leaf=0.757078
				16:leaf=-0.487069
			8:[f1<0.0510357] yes=17,no=18,missing=17
				17:leaf=-2.58046
				18:leaf=-0.469329
		4:[f13<0.263099] yes=9,no=10,missing=9
			9:[f11<-2.23691] yes=19,no=20,missing=19
				19:leaf=6.68594
				20:leaf=-118.035
			10:[f5<3.22955] yes=21,no=22,missing=21
				21:leaf=60.2892
				22:leaf=8.33799
	2:[f13<0.263349] yes=5,no=6,missing=5
		5:[f5<-0.21528] yes=11,no=12,missing=11
			11:[f1<0.0406158] yes=23,no=24,missing=23
				23:leaf=0.83014
				24:leaf=-0.575284
			12:[f5<3.3991] yes=25,no=26,missing=25
				25:leaf=-79.5145
				26:leaf=-3.0469
		6:[f13<0.26335] yes=13,no=14,missing=13
			13:[f1<0.000468652] yes=27,no=28,missing=27
				27:leaf=-5.26223
				28:leaf=78.7953
			14:[f15<0.27838] yes=29,no=30,missing=29
				29:leaf=2.49867
				30:leaf=-0.00538646
booster[102]:
0:[f11<-2.23563] yes=1,no=2,missing=1
	1:[f5<3.6391] yes=3,no=4,missing=3
		3:[f3<0.186792] yes=7,no=8,missing=7
			7:[f10<12.8813] yes=15,no=16,missing=15
				15:leaf=0.671978
				16:leaf=-20.9595
			8:[f3<0.216381] yes=17,no=18,missing=17
				17:leaf=97.5727
				18:leaf=-1.7485
		4:[f13<0.264291] yes=9,no=10,missing=9
			9:[f10<8.88414] yes=19,no=20,missing=19
				19:leaf=8.0705
				20:leaf=-113.872
			10:[f3<0.00798406] yes=21,no=22,missing=21
				21:leaf=97.9366
				22:leaf=-30.1945
	2:[f13<0.264387] yes=5,no=6,missing=5
		5:[f5<3.97007] yes=11,no=12,missing=11
			11:[f1<-0.0284042] yes=23,no=24,missing=23
				23:leaf=-33.5009
				24:leaf=-1.89251
			12:leaf=-158.316
		6:[f11<-2.23495] yes=13,no=14,missing=13
			13:[f1<0.0522294] yes=25,no=26,missing=25
				25:leaf=-19.7232
				26:leaf=53.0727
			14:[f13<0.265078] yes=27,no=28,missing=27
				27:leaf=127.471
				28:leaf=-0.00234291
booster[103]:
0:[f13<0.262733] yes=1,no=2,missing=1
	1:[f5<1.30558] yes=3,no=4,missing=3
		3:[f1<0.0504215] yes=7,no=8,missing=7
			7:[f3<0.0940175] yes=15,no=16,missing=15
				15:leaf=0.690226
				16:leaf=-0.498564
			8:[f9<-0.031504] yes=17,no=18,missing=17
				17:leaf=0.271513
				18:leaf=-0.578738
		4:[f9<-0.00862325] yes=9,no=10,missing=9
			9:[f5<4.91805] yes=19,no=20,missing=19
				19:leaf=1.32785
				20:leaf=-21.1869
			10:[f7<0.0174953] yes=21,no=22,missing=21
				21:leaf=11.6122
				22:leaf=-6.49443
	2:[f11<-2.23699] yes=5,no=6,missing=5
		5:[f13<0.263003] yes=11,no=12,missing=11
			11:[f10<12.6938] yes=23,no=24,missing=23
				23:leaf=-2.02668
				24:leaf=-112.15
			12:leaf=-123.408
		6:[f13<0.263252] yes=13,no=14,missing=13
			13:[f1<-0.0219448] yes=25,no=26,missing=25
				25:leaf=32.4609
				26:leaf=4.25075
			14:[f13<0.263349] yes=27,no=28,missing=27
				27:leaf=-12.4812
				28:leaf=-0.00282247
booster[104]:
0:[f13<0.265419] yes=1,no=2,missing=1
	1:[f13<0.265404] yes=3,no=4,missing=3
		3:[f3<-0.228722] yes=7,no=8,missing=7
			7:[f9<-0.0558953] yes=15,no=16,missing=15
				15:leaf=-12.8793
				16:leaf=82.7869
			8:[f5<4.85989] yes=17,no=18,missing=17
				17:leaf=-0.579531
				18:leaf=15.0191
		4:[f1<0.0593914] yes=9,no=10,missing=9
			9:leaf=147.859
			10:leaf=-5.00366
	2:[f11<-2.2345] yes=5,no=6,missing=5
		5:[f9<-0.0127866] yes=11,no=12,missing=11
			11:leaf=96.588
			12:[f9<0.0135436] yes=19,no=20,missing=19
				19:leaf=-103.641
				20:leaf=41.269
		6:[f13<0.265548] yes=13,no=14,missing=13
			13:[f5<-0.01996] yes=21,no=22,missing=21
				21:leaf=0.401111
				22:leaf=112.3
			14:[f13<0.265834] yes=23,no=24,missing=23
				23:leaf=-17.7194
				24:leaf=-0.00150965
booster[105]:
0:[f13<0.271959] yes=1,no=2,missing=1
	1:[f3<0.142108] yes=3,no=4,missing=3
		3:[f9<0.0599354] yes=7,no=8,missing=7
			7:[f5<5.64688] yes=15,no=16,missing=15
				15:leaf=-2.75557
				16:leaf=167.182
			8:[f3<-0.0168544] yes=17,no=18,missing=17
				17:leaf=98.7995
				18:leaf=-25.3429
		4:[f5<0.00198099] yes=9,no=10,missing=9
			9:[f11<-2.2334] yes=19,no=20,missing=19
				19:leaf=-1.79772
				20:leaf=-29.9024
			10:[f12<2.0161] yes=21,no=22,missing=21
				21:leaf=135.519
				22:leaf=18.2182
	2:[f11<-2.2278] yes=5,no=6,missing=5
		5:[f9<-0.0822507] yes=11,no=12,missing=11
			11:[f5<4.19679] yes=23,no=24,missing=23
				23:leaf=-34.5308
				24:leaf=-85.8269
			12:[f3<0.134704] yes=25,no=26,missing=25
				25:leaf=-4.20355
				26:leaf=-21.014
		6:[f13<0.272199] yes=13,no=14,missing=13
			13:leaf=108.391
			14:[f11<-2.22755] yes=27,no=28,missing=27
				27:leaf=8.00795
				28:leaf=-0.00553787
booster[106]:
0:[f11<-2.23586] yes=1,no=2,missing=1
	1:[f13<0.263933] yes=3,no=4,missing=3
		3:[f11<-2.23609] yes=7,no=8,missing=7
			7:[f5<5.74769] yes=15,no=16,missing=15
				15:leaf=1.89026
				16:leaf=-77.3951
			8:[f4<5.53298] yes=17,no=18,missing=17
				17:leaf=16.0653
				18:leaf=-169.447
		4:[f5<3.09272] yes=9,no=10,missing=9
			9:[f5<-0.436795] yes=19,no=20,missing=19
				19:leaf=1.02998
				20:leaf=-49.3572
			10:[f4<0.000670327] yes=21,no=22,missing=21
				21:leaf=-63.1072
				22:leaf=45.055
	2:[f11<-2.23581] yes=5,no=6,missing=5
		5:[f4<0.178378] yes=11,no=12,missing=11
			11:[f1<-0.000128074] yes=23,no=24,missing=23
				23:leaf=-44.6679
